%YAML:1.0
---
opencv_ml_svm:
   format: 3
   svmType: C_SVC
   kernel:
      type: POLY
      degree: 3.4300000000000002e+00
      gamma: 1.0000000000000001e-05
      coef0: 1.9600000000000001e+01
   C: 1.0000000000000001e-01
   term_criteria: { epsilon:1.1920928955078125e-07, iterations:1000 }
   var_count: 100
   class_count: 7
   class_labels: !!opencv-matrix
      rows: 7
      cols: 1
      dt: i
      data: [ -3, -2, -1, 1, 2, 3, 4 ]
   sv_total: 73
   support_vectors:
      - [ 255., 1., 0., 1., 0., 2., 0., 1., 0., 0., 3., 0., 2., 0., 0.,
          2., 0., 1., 0., 2., 0., 0., 4., 1., 0., 1., 1., 0., 1., 0., 0.,
          1., 0., 255., 4., 0., 0., 0., 1., 1., 2., 1., 0., 0., 0., 3.,
          0., 0., 1., 250., 0., 1., 1., 0., 255., 0., 254., 255., 255.,
          255., 2., 0., 0., 4., 0., 0., 1., 0., 0., 0., 0., 0., 0., 0.,
          3., 0., 0., 3., 0., 1., 0., 0., 0., 0., 0., 0., 0., 0., 0., 0.,
          0., 0., 0., 0., 0., 0., 0., 0., 0., 0. ]
      - [ 0., 0., 3., 0., 2., 0., 0., 0., 1., 0., 0., 1., 0., 255., 0.,
          0., 3., 1., 1., 0., 3., 0., 0., 255., 5., 0., 0., 0., 0., 4.,
          2., 0., 1., 255., 0., 0., 0., 2., 0., 1., 0., 4., 3., 0., 2.,
          2., 1., 0., 0., 255., 2., 0., 0., 2., 254., 0., 0., 2., 255.,
          253., 1., 0., 2., 0., 0., 255., 254., 255., 254., 0., 1., 0.,
          1., 0., 2., 0., 0., 0., 2., 0., 0., 0., 0., 0., 0., 0., 0., 0.,
          0., 0., 0., 0., 0., 0., 0., 0., 0., 0., 0., 0. ]
      - [ 255., 2., 0., 1., 1., 0., 0., 0., 0., 2., 1., 0., 0., 255., 0.,
          3., 0., 3., 0., 0., 0., 1., 1., 255., 0., 0., 0., 0., 0., 2.,
          0., 2., 0., 253., 3., 0., 2., 0., 1., 1., 2., 0., 0., 1., 0.,
          0., 2., 0., 1., 0., 1., 0., 2., 0., 255., 255., 1., 0., 255.,
          252., 0., 0., 0., 2., 0., 0., 255., 254., 255., 3., 0., 0., 1.,
          0., 1., 1., 0., 1., 0., 2., 0., 0., 0., 0., 0., 0., 0., 0., 0.,
          0., 0., 0., 0., 0., 0., 0., 0., 0., 0., 0. ]
      - [ 254., 3., 253., 0., 0., 3., 1., 0., 0., 2., 1., 253., 0., 0.,
          2., 0., 0., 2., 0., 0., 0., 3., 0., 0., 0., 6., 0., 2., 0., 1.,
          0., 0., 1., 3., 0., 0., 3., 0., 2., 0., 1., 0., 0., 0., 3., 2.,
          0., 255., 255., 254., 0., 0., 1., 1., 255., 253., 255., 0., 1.,
          253., 0., 0., 0., 0., 0., 255., 0., 0., 0., 0., 0., 0., 0., 0.,
          1., 0., 0., 0., 0., 0., 0., 0., 0., 0., 0., 0., 0., 0., 0., 0.,
          0., 0., 0., 0., 0., 0., 0., 0., 0., 0. ]
      - [ 255., 254., 0., 0., 2., 1., 0., 0., 0., 2., 1., 0., 0., 5., 0.,
          0., 3., 1., 0., 0., 0., 0., 2., 0., 0., 4., 1., 0., 0., 1., 0.,
          2., 0., 0., 1., 0., 2., 2., 2., 0., 0., 2., 0., 2., 1., 2., 0.,
          254., 255., 254., 0., 0., 3., 0., 254., 0., 255., 1., 1., 253.,
          2., 0., 0., 0., 0., 2., 0., 0., 0., 0., 0., 0., 0., 4., 0., 1.,
          0., 1., 0., 0., 0., 0., 0., 0., 0., 0., 0., 0., 0., 0., 0., 0.,
          0., 0., 0., 0., 0., 0., 0., 0. ]
      - [ 255., 0., 254., 255., 1., 0., 0., 0., 0., 0., 0., 1., 255., 0.,
          0., 0., 4., 0., 0., 2., 3., 0., 255., 0., 2., 0., 0., 1., 1.,
          0., 0., 1., 0., 0., 4., 0., 0., 3., 1., 1., 3., 0., 0., 1., 0.,
          0., 1., 0., 1., 250., 0., 3., 0., 1., 254., 255., 255., 255.,
          255., 255., 0., 0., 1., 0., 0., 0., 0., 0., 0., 0., 0., 2., 1.,
          0., 0., 2., 0., 1., 0., 1., 0., 0., 0., 0., 0., 0., 0., 0., 0.,
          0., 0., 0., 0., 0., 0., 0., 0., 0., 0., 0. ]
      - [ 255., 0., 0., 0., 0., 0., 3., 0., 0., 0., 0., 1., 1., 254., 4.,
          0., 0., 1., 0., 0., 0., 1., 0., 255., 0., 0., 5., 0., 0., 0.,
          1., 0., 0., 255., 0., 0., 0., 0., 0., 0., 0., 0., 0., 0., 2.,
          0., 0., 0., 0., 0., 0., 0., 0., 2., 254., 0., 1., 255., 255.,
          255., 3., 0., 0., 0., 1., 0., 255., 254., 0., 0., 0., 0., 2.,
          3., 0., 1., 0., 0., 0., 0., 0., 0., 0., 0., 0., 0., 0., 0., 0.,
          0., 0., 0., 0., 0., 0., 0., 0., 0., 0., 0. ]
      - [ 253., 2., 0., 1., 0., 0., 0., 0., 0., 0., 1., 255., 0., 0., 0.,
          0., 2., 1., 0., 0., 1., 0., 0., 7., 1., 1., 0., 0., 0., 0., 0.,
          2., 0., 0., 0., 0., 2., 0., 0., 0., 0., 2., 0., 3., 0., 0., 0.,
          255., 255., 255., 1., 0., 1., 0., 254., 255., 255., 1., 0., 0.,
          1., 1., 0., 0., 3., 0., 0., 0., 0., 0., 0., 1., 0., 0., 1., 0.,
          0., 2., 0., 0., 0., 0., 0., 0., 0., 0., 0., 0., 0., 0., 0., 0.,
          0., 0., 0., 0., 0., 0., 0., 0. ]
      - [ 255., 0., 3., 252., 1., 0., 1., 1., 0., 0., 0., 0., 0., 1., 3.,
          2., 0., 0., 0., 2., 2., 0., 255., 0., 0., 0., 2., 1., 1., 0.,
          0., 0., 0., 1., 0., 0., 1., 0., 1., 1., 1., 1., 0., 3., 0., 0.,
          1., 0., 1., 250., 0., 1., 2., 0., 255., 255., 0., 255., 255.,
          255., 0., 0., 0., 0., 0., 0., 255., 255., 0., 0., 1., 0., 1.,
          1., 0., 2., 1., 0., 0., 1., 0., 0., 0., 0., 0., 0., 0., 0., 0.,
          0., 0., 0., 0., 0., 0., 0., 0., 0., 0., 0. ]
      - [ 253., 1., 0., 254., 0., 2., 0., 0., 0., 0., 1., 1., 0., 5., 0.,
          0., 0., 2., 0., 2., 1., 0., 0., 252., 2., 2., 0., 0., 1., 0.,
          1., 0., 0., 255., 0., 0., 3., 1., 1., 1., 0., 0., 1., 0., 2.,
          2., 0., 1., 1., 250., 3., 0., 0., 0., 253., 0., 255., 255.,
          255., 255., 0., 0., 0., 4., 0., 255., 1., 0., 0., 0., 1., 0.,
          1., 0., 1., 0., 0., 0., 0., 1., 0., 0., 0., 0., 0., 0., 0., 0.,
          0., 0., 0., 0., 0., 0., 0., 0., 0., 0., 0., 0. ]
      - [ 255., 0., 2., 2., 0., 0., 1., 0., 0., 0., 0., 1., 249., 0., 0.,
          1., 1., 3., 0., 0., 0., 1., 2., 2., 0., 0., 2., 0., 0., 0., 0.,
          4., 0., 254., 2., 0., 0., 1., 0., 0., 0., 0., 0., 0., 1., 2.,
          0., 2., 255., 255., 0., 0., 0., 3., 252., 255., 255., 253., 0.,
          0., 0., 0., 4., 0., 1., 0., 1., 1., 0., 0., 1., 0., 0., 0., 1.,
          0., 0., 1., 0., 0., 0., 0., 0., 0., 0., 0., 0., 0., 0., 0., 0.,
          0., 0., 0., 0., 0., 0., 0., 0., 0. ]
      - [ 255., 0., 1., 0., 0., 1., 0., 2., 0., 0., 0., 2., 0., 0., 2.,
          0., 3., 0., 0., 0., 4., 0., 0., 2., 0., 1., 2., 0., 0., 0., 0.,
          1., 2., 0., 0., 1., 0., 3., 0., 0., 0., 0., 0., 0., 4., 0., 0.,
          0., 0., 0., 2., 0., 2., 0., 252., 255., 3., 0., 0., 0., 0., 0.,
          255., 255., 255., 0., 0., 2., 0., 0., 1., 254., 255., 1., 0.,
          2., 0., 0., 0., 0., 0., 255., 0., 0., 0., 0., 3., 0., 0., 0.,
          253., 255., 0., 2., 1., 0., 0., 1., 0., 0. ]
      - [ 0., 4., 254., 0., 3., 1., 0., 1., 0., 0., 2., 0., 2., 1., 0.,
          0., 1., 0., 0., 0., 1., 0., 0., 0., 0., 4., 0., 0., 0., 0., 1.,
          0., 2., 0., 0., 0., 0., 0., 0., 0., 1., 3., 0., 0., 1., 0., 0.,
          1., 0., 0., 0., 0., 3., 0., 253., 3., 0., 0., 0., 0., 3., 0.,
          255., 254., 255., 250., 2., 0., 0., 0., 0., 1., 253., 254., 0.,
          0., 1., 0., 0., 0., 0., 0., 255., 0., 0., 0., 1., 0., 0., 0.,
          253., 255., 0., 3., 1., 0., 0., 0., 0., 0. ]
      - [ 1., 0., 1., 0., 0., 2., 0., 1., 0., 0., 1., 1., 0., 3., 1., 0.,
          4., 0., 0., 0., 0., 3., 0., 1., 0., 3., 0., 2., 0., 0., 1., 0.,
          3., 0., 0., 0., 2., 0., 0., 0., 0., 3., 0., 0., 0., 2., 0., 1.,
          0., 0., 0., 0., 2., 5., 255., 0., 0., 1., 0., 0., 3., 0., 254.,
          251., 254., 255., 5., 0., 0., 0., 0., 255., 254., 2., 1., 0.,
          0., 0., 0., 0., 0., 255., 0., 0., 0., 0., 3., 0., 0., 0., 253.,
          255., 0., 2., 1., 0., 0., 1., 0., 0. ]
      - [ 0., 0., 2., 0., 0., 1., 0., 1., 0., 0., 0., 0., 0., 0., 0., 0.,
          2., 0., 0., 0., 0., 3., 0., 4., 0., 0., 0., 0., 0., 0., 0., 0.,
          0., 252., 2., 0., 2., 1., 0., 0., 0., 4., 2., 0., 1., 0., 1.,
          0., 0., 0., 0., 0., 0., 2., 255., 0., 2., 1., 0., 0., 0., 0.,
          255., 252., 255., 255., 0., 1., 0., 0., 255., 254., 255., 1.,
          0., 0., 3., 0., 0., 0., 255., 0., 0., 0., 0., 0., 0., 0., 0.,
          0., 255., 0., 0., 0., 0., 0., 0., 0., 0., 0. ]
      - [ 255., 0., 1., 2., 0., 3., 0., 1., 0., 0., 0., 1., 0., 0., 3.,
          0., 0., 0., 0., 0., 0., 0., 0., 3., 0., 0., 0., 4., 0., 0., 0.,
          3., 1., 253., 1., 0., 2., 0., 0., 0., 1., 0., 0., 0., 0., 1.,
          2., 2., 0., 0., 1., 1., 255., 255., 255., 1., 0., 0., 0., 0.,
          0., 254., 252., 6., 0., 254., 4., 0., 0., 0., 254., 255., 0.,
          0., 1., 2., 0., 1., 0., 0., 255., 0., 0., 0., 0., 0., 0., 0.,
          0., 0., 255., 0., 0., 0., 0., 0., 0., 0., 0., 0. ]
      - [ 1., 0., 0., 2., 0., 0., 2., 0., 0., 0., 0., 3., 0., 1., 0., 0.,
          0., 2., 0., 0., 0., 0., 3., 0., 1., 1., 0., 0., 0., 0., 2., 0.,
          0., 255., 0., 2., 0., 4., 0., 0., 0., 1., 0., 2., 3., 0., 1.,
          0., 0., 0., 1., 0., 2., 0., 254., 0., 0., 0., 0., 0., 0., 4.,
          255., 251., 255., 253., 0., 2., 0., 0., 0., 255., 254., 3., 0.,
          1., 0., 0., 0., 0., 0., 255., 0., 0., 0., 0., 3., 0., 0., 0.,
          253., 255., 0., 2., 1., 0., 0., 1., 0., 0. ]
      - [ 0., 3., 0., 0., 3., 0., 0., 3., 0., 0., 0., 0., 5., 1., 0., 1.,
          0., 0., 0., 0., 0., 0., 0., 0., 0., 2., 1., 1., 0., 0., 2., 1.,
          0., 2., 0., 0., 0., 0., 0., 0., 0., 0., 4., 0., 0., 2., 0., 1.,
          0., 0., 2., 0., 0., 0., 255., 0., 2., 0., 0., 0., 0., 0., 255.,
          255., 252., 4., 2., 0., 0., 0., 0., 255., 255., 0., 0., 0., 0.,
          1., 0., 0., 0., 255., 0., 0., 0., 0., 3., 0., 0., 0., 253.,
          255., 0., 2., 1., 0., 0., 1., 0., 0. ]
      - [ 255., 0., 2., 0., 0., 4., 0., 2., 0., 0., 0., 4., 0., 0., 3.,
          0., 1., 0., 0., 0., 2., 0., 0., 7., 0., 2., 2., 0., 0., 0., 0.,
          2., 3., 0., 1., 0., 0., 0., 0., 0., 1., 3., 0., 0., 0., 0., 1.,
          0., 0., 0., 0., 0., 2., 3., 255., 254., 0., 1., 0., 0., 2., 0.,
          255., 254., 255., 0., 1., 0., 0., 0., 0., 2., 255., 0., 0., 3.,
          0., 0., 0., 0., 0., 250., 255., 0., 2., 0., 0., 0., 0., 0.,
          255., 255., 0., 0., 0., 4., 0., 1., 0., 0. ]
      - [ 252., 3., 0., 0., 0., 1., 0., 0., 0., 0., 2., 0., 0., 3., 0.,
          0., 3., 0., 0., 0., 0., 1., 0., 0., 3., 0., 0., 4., 0., 0., 2.,
          0., 0., 1., 0., 0., 0., 0., 0., 0., 0., 1., 2., 2., 0., 2., 2.,
          0., 0., 0., 1., 2., 0., 254., 253., 3., 0., 1., 0., 0., 2., 0.,
          0., 255., 4., 0., 0., 0., 0., 0., 0., 0., 254., 4., 0., 0., 3.,
          0., 0., 0., 0., 0., 255., 2., 0., 1., 0., 0., 0., 0., 255.,
          255., 255., 0., 5., 1., 0., 2., 0., 0. ]
      - [ 255., 1., 0., 0., 2., 0., 0., 1., 0., 0., 0., 2., 1., 2., 0.,
          0., 2., 0., 0., 0., 2., 0., 0., 0., 1., 1., 1., 2., 0., 0., 2.,
          0., 2., 0., 1., 0., 0., 0., 0., 0., 0., 0., 0., 1., 2., 1., 4.,
          1., 0., 0., 2., 0., 1., 0., 255., 0., 0., 3., 0., 0., 0., 1.,
          2., 255., 254., 3., 0., 1., 0., 0., 1., 0., 252., 255., 1., 0.,
          2., 0., 0., 0., 0., 0., 255., 2., 0., 1., 0., 0., 0., 0., 255.,
          255., 255., 0., 5., 1., 0., 2., 0., 0. ]
      - [ 253., 2., 0., 0., 2., 1., 0., 0., 0., 0., 5., 0., 1., 1., 0.,
          0., 3., 0., 0., 0., 0., 3., 1., 3., 0., 0., 2., 0., 0., 0., 1.,
          0., 0., 0., 0., 4., 0., 1., 0., 0., 0., 2., 2., 0., 0., 0., 0.,
          0., 0., 0., 0., 2., 0., 0., 255., 0., 0., 2., 0., 0., 1., 0.,
          255., 255., 255., 255., 0., 0., 0., 0., 0., 2., 254., 1., 0.,
          1., 0., 2., 0., 0., 0., 250., 255., 0., 2., 0., 0., 0., 0., 0.,
          255., 255., 0., 0., 0., 4., 0., 1., 0., 0. ]
      - [ 255., 1., 0., 2., 2., 0., 0., 1., 0., 0., 0., 0., 1., 1., 0.,
          2., 6., 0., 0., 0., 1., 1., 0., 2., 0., 1., 0., 2., 0., 0., 2.,
          0., 1., 0., 0., 3., 2., 0., 0., 0., 0., 2., 0., 3., 3., 0., 0.,
          0., 0., 0., 3., 0., 254., 254., 252., 0., 3., 0., 0., 0., 253.,
          255., 0., 4., 0., 2., 0., 0., 0., 0., 255., 2., 0., 0., 3., 0.,
          0., 2., 0., 0., 255., 0., 0., 0., 0., 0., 0., 0., 0., 0., 255.,
          0., 0., 0., 0., 0., 0., 0., 0., 0. ]
      - [ 254., 1., 0., 2., 0., 0., 1., 0., 0., 0., 0., 0., 3., 0., 0.,
          1., 2., 0., 0., 0., 3., 0., 0., 0., 4., 0., 0., 0., 0., 0., 0.,
          0., 5., 0., 0., 3., 0., 1., 0., 0., 0., 3., 0., 3., 0., 2., 0.,
          0., 0., 0., 2., 0., 1., 252., 255., 254., 0., 4., 0., 0., 0.,
          253., 0., 3., 0., 2., 0., 0., 0., 0., 0., 255., 255., 0., 0.,
          0., 1., 1., 0., 0., 0., 255., 0., 0., 0., 0., 3., 0., 0., 0.,
          253., 255., 0., 2., 1., 0., 0., 1., 0., 0. ]
      - [ 254., 2., 0., 0., 0., 0., 0., 2., 0., 0., 0., 1., 0., 0., 1.,
          4., 0., 0., 0., 0., 0., 0., 0., 3., 0., 1., 0., 1., 0., 0., 2.,
          3., 0., 0., 4., 0., 0., 0., 0., 0., 0., 0., 2., 2., 0., 0., 1.,
          0., 0., 0., 0., 2., 0., 0., 255., 2., 1., 0., 0., 0., 1., 0.,
          2., 0., 1., 255., 0., 2., 0., 0., 1., 0., 0., 1., 0., 255., 3.,
          0., 0., 0., 0., 0., 0., 0., 2., 255., 2., 0., 0., 0., 0., 3.,
          0., 0., 0., 0., 252., 0., 0., 0. ]
      - [ 255., 0., 0., 2., 1., 0., 0., 0., 0., 0., 0., 3., 0., 0., 0.,
          0., 0., 1., 0., 0., 1., 0., 3., 0., 0., 3., 3., 0., 0., 0., 0.,
          2., 0., 2., 1., 0., 0., 2., 0., 0., 0., 2., 2., 0., 2., 1., 0.,
          1., 0., 0., 2., 1., 0., 0., 252., 255., 0., 0., 0., 0., 0., 0.,
          4., 1., 2., 254., 2., 1., 0., 0., 1., 3., 0., 0., 2., 255., 0.,
          0., 0., 0., 0., 0., 0., 0., 2., 255., 2., 0., 0., 0., 0., 3.,
          0., 0., 0., 0., 252., 0., 0., 0. ]
      - [ 1., 0., 1., 0., 0., 0., 0., 2., 0., 0., 1., 1., 1., 0., 3., 0.,
          0., 0., 0., 0., 0., 0., 1., 0., 0., 1., 2., 3., 0., 0., 0., 1.,
          0., 255., 0., 0., 0., 0., 0., 0., 3., 0., 1., 0., 1., 1., 3.,
          0., 0., 0., 0., 0., 0., 1., 255., 0., 2., 0., 0., 0., 0., 0.,
          2., 0., 0., 255., 0., 0., 0., 0., 1., 0., 0., 0., 0., 254., 1.,
          0., 0., 0., 0., 0., 0., 0., 2., 255., 2., 0., 0., 0., 0., 3.,
          0., 0., 0., 0., 252., 0., 0., 0. ]
      - [ 255., 2., 254., 0., 4., 0., 0., 2., 0., 0., 0., 0., 255., 0.,
          0., 0., 0., 0., 0., 0., 1., 0., 4., 0., 0., 2., 2., 1., 0., 0.,
          0., 0., 0., 255., 0., 0., 0., 0., 0., 0., 0., 0., 0., 0., 1.,
          3., 0., 2., 0., 0., 0., 3., 1., 0., 2., 252., 0., 2., 0., 0.,
          0., 0., 0., 2., 0., 254., 8., 0., 0., 0., 0., 0., 1., 0., 2.,
          255., 0., 1., 0., 0., 0., 0., 0., 0., 2., 255., 2., 0., 0., 0.,
          0., 3., 0., 0., 0., 0., 252., 0., 0., 0. ]
      - [ 0., 4., 0., 0., 1., 0., 0., 0., 0., 0., 3., 0., 1., 0., 3., 0.,
          0., 1., 0., 0., 0., 1., 0., 0., 254., 0., 4., 0., 0., 0., 0.,
          3., 0., 2., 255., 0., 0., 0., 0., 0., 1., 0., 3., 0., 0., 4.,
          0., 0., 0., 0., 0., 0., 0., 1., 255., 0., 1., 1., 0., 0., 1.,
          0., 3., 0., 0., 254., 1., 0., 0., 0., 0., 0., 0., 0., 1., 255.,
          0., 1., 0., 0., 2., 0., 0., 0., 1., 254., 1., 1., 0., 0., 0.,
          2., 1., 0., 0., 255., 252., 0., 0., 0. ]
      - [ 255., 0., 3., 0., 0., 0., 2., 0., 0., 0., 2., 0., 0., 1., 1.,
          0., 0., 3., 0., 0., 0., 0., 3., 0., 0., 3., 0., 0., 0., 0., 1.,
          0., 1., 1., 0., 0., 0., 1., 0., 0., 3., 0., 0., 2., 255., 0.,
          1., 0., 0., 0., 0., 3., 0., 0., 255., 4., 0., 2., 0., 0., 2.,
          0., 0., 1., 253., 255., 0., 0., 0., 0., 0., 4., 0., 0., 2.,
          252., 2., 0., 0., 0., 0., 0., 0., 0., 2., 255., 2., 0., 0., 0.,
          0., 3., 0., 0., 0., 0., 252., 0., 0., 0. ]
      - [ 0., 2., 0., 2., 0., 0., 1., 0., 0., 0., 2., 0., 0., 2., 0., 0.,
          2., 0., 0., 0., 0., 1., 0., 0., 1., 0., 1., 0., 0., 0., 0., 0.,
          2., 0., 0., 5., 0., 0., 0., 0., 0., 3., 1., 0., 2., 0., 0., 1.,
          0., 0., 1., 0., 0., 0., 255., 0., 0., 2., 0., 0., 1., 0., 5.,
          2., 0., 255., 2., 0., 0., 0., 0., 1., 0., 0., 2., 255., 0., 1.,
          0., 0., 2., 0., 0., 0., 1., 0., 0., 2., 0., 0., 0., 2., 2., 0.,
          0., 3., 251., 0., 0., 0. ]
      - [ 254., 2., 0., 0., 0., 0., 0., 2., 0., 0., 0., 1., 0., 0., 1.,
          4., 0., 0., 0., 0., 0., 0., 0., 3., 0., 1., 0., 1., 0., 0., 2.,
          3., 0., 0., 4., 0., 0., 0., 0., 0., 0., 0., 2., 2., 0., 0., 1.,
          0., 0., 0., 0., 2., 0., 0., 255., 2., 1., 0., 0., 0., 1., 0.,
          2., 0., 1., 255., 0., 2., 0., 0., 1., 0., 0., 1., 0., 255., 3.,
          0., 0., 0., 0., 1., 0., 0., 0., 0., 255., 0., 0., 0., 0., 1.,
          0., 0., 0., 0., 255., 0., 0., 0. ]
      - [ 1., 0., 4., 0., 0., 0., 2., 0., 0., 0., 0., 0., 0., 3., 3., 0.,
          0., 1., 0., 0., 2., 0., 2., 0., 0., 1., 1., 0., 0., 0., 0., 0.,
          1., 2., 0., 2., 0., 3., 0., 0., 0., 3., 0., 0., 1., 0., 1., 0.,
          0., 0., 0., 1., 1., 1., 255., 0., 0., 0., 0., 0., 1., 1., 0.,
          0., 0., 255., 3., 0., 0., 0., 0., 0., 3., 0., 0., 2., 0., 2.,
          0., 0., 0., 2., 1., 0., 0., 0., 0., 0., 0., 0., 1., 0., 0., 3.,
          0., 255., 255., 1., 0., 0. ]
      - [ 0., 0., 2., 0., 0., 1., 0., 0., 0., 0., 3., 0., 1., 4., 1., 0.,
          1., 2., 0., 0., 0., 1., 0., 0., 4., 0., 1., 0., 0., 0., 2., 1.,
          2., 0., 1., 0., 0., 3., 0., 0., 0., 0., 3., 0., 0., 1., 0., 2.,
          0., 0., 3., 0., 2., 254., 255., 0., 3., 0., 0., 0., 0., 1., 0.,
          0., 253., 2., 0., 1., 0., 0., 1., 0., 0., 1., 254., 255., 0.,
          1., 0., 0., 0., 0., 0., 0., 0., 255., 0., 0., 0., 0., 0., 0.,
          0., 0., 0., 255., 0., 0., 0., 0. ]
      - [ 255., 255., 1., 1., 0., 1., 0., 2., 0., 0., 0., 1., 0., 1., 6.,
          0., 3., 0., 0., 0., 1., 0., 0., 2., 0., 1., 0., 4., 0., 0., 0.,
          2., 2., 254., 0., 3., 0., 0., 0., 0., 0., 0., 1., 0., 1., 0.,
          0., 3., 0., 0., 3., 0., 0., 1., 1., 255., 0., 0., 0., 0., 0.,
          0., 3., 1., 0., 254., 4., 0., 0., 0., 0., 1., 0., 0., 2., 255.,
          0., 1., 0., 0., 0., 2., 0., 0., 1., 0., 255., 0., 0., 0., 0.,
          3., 1., 0., 0., 255., 252., 255., 0., 0. ]
      - [ 254., 255., 0., 0., 255., 254., 0., 2., 0., 0., 1., 0., 0., 0.,
          0., 0., 1., 0., 0., 0., 0., 0., 0., 0., 255., 2., 0., 1., 0.,
          0., 0., 0., 1., 2., 252., 0., 0., 0., 0., 0., 0., 1., 0., 0.,
          255., 0., 0., 1., 0., 0., 0., 3., 0., 1., 254., 1., 0., 2., 0.,
          0., 0., 0., 0., 0., 0., 0., 2., 0., 0., 0., 1., 0., 1., 1., 1.,
          0., 0., 0., 0., 0., 0., 0., 0., 0., 0., 0., 0., 0., 0., 0., 0.,
          0., 0., 0., 0., 0., 0., 0., 0., 0. ]
      - [ 255., 0., 2., 255., 254., 255., 0., 0., 0., 0., 0., 3., 250.,
          0., 255., 0., 0., 0., 0., 0., 3., 0., 255., 2., 253., 0., 1.,
          0., 0., 0., 0., 0., 0., 2., 253., 3., 0., 0., 0., 0., 0., 0.,
          2., 1., 255., 0., 0., 2., 0., 0., 0., 1., 0., 0., 255., 255.,
          253., 1., 0., 0., 0., 1., 0., 1., 0., 4., 2., 0., 0., 0., 0.,
          2., 0., 0., 2., 0., 0., 1., 0., 0., 0., 0., 0., 0., 0., 0., 0.,
          0., 0., 0., 0., 0., 0., 0., 0., 0., 0., 0., 0., 0. ]
      - [ 255., 0., 1., 0., 255., 253., 0., 1., 0., 0., 0., 3., 0., 1.,
          0., 0., 2., 0., 0., 0., 1., 0., 0., 0., 255., 0., 0., 1., 0.,
          0., 1., 3., 0., 0., 255., 0., 1., 0., 0., 0., 0., 0., 3., 4.,
          253., 2., 3., 0., 0., 0., 3., 0., 1., 0., 255., 253., 0., 0.,
          0., 0., 0., 1., 0., 0., 0., 253., 2., 2., 0., 0., 0., 1., 0.,
          0., 0., 1., 0., 0., 0., 0., 0., 0., 0., 0., 0., 0., 0., 0., 0.,
          0., 0., 0., 0., 0., 0., 0., 0., 0., 0., 0. ]
      - [ 255., 0., 0., 0., 255., 254., 0., 0., 0., 0., 0., 4., 0., 0.,
          255., 0., 1., 3., 0., 0., 0., 0., 0., 0., 255., 0., 0., 0., 0.,
          0., 3., 0., 2., 254., 255., 0., 3., 0., 0., 0., 0., 4., 1., 0.,
          255., 0., 0., 0., 0., 0., 0., 0., 0., 2., 253., 2., 2., 3., 0.,
          0., 1., 1., 0., 0., 0., 255., 0., 0., 0., 0., 0., 0., 0., 1.,
          0., 0., 1., 0., 0., 0., 0., 0., 0., 0., 0., 0., 0., 0., 0., 0.,
          0., 0., 0., 0., 0., 0., 0., 0., 0., 0. ]
      - [ 253., 2., 254., 0., 255., 254., 0., 1., 0., 0., 1., 252., 0.,
          1., 252., 3., 0., 0., 0., 0., 1., 0., 1., 2., 254., 0., 0., 4.,
          0., 0., 0., 1., 0., 0., 255., 1., 1., 0., 0., 0., 0., 0., 0.,
          2., 253., 0., 0., 0., 0., 0., 0., 0., 0., 0., 255., 254., 255.,
          3., 0., 0., 0., 2., 0., 3., 0., 2., 1., 0., 0., 0., 1., 0., 0.,
          2., 0., 0., 1., 0., 0., 0., 0., 0., 0., 0., 0., 0., 0., 0., 0.,
          0., 0., 0., 0., 0., 0., 0., 0., 0., 0., 0. ]
      - [ 255., 0., 0., 0., 253., 255., 0., 0., 0., 0., 0., 0., 3., 251.,
          255., 0., 0., 1., 0., 0., 0., 0., 0., 255., 254., 0., 1., 0.,
          0., 0., 0., 0., 1., 251., 254., 3., 0., 0., 0., 0., 0., 2., 2.,
          1., 253., 0., 0., 3., 0., 0., 0., 1., 0., 0., 255., 0., 0., 0.,
          0., 0., 0., 1., 0., 2., 0., 0., 0., 4., 0., 0., 0., 0., 0., 0.,
          0., 1., 0., 0., 0., 0., 0., 0., 0., 0., 0., 0., 0., 0., 0., 0.,
          0., 0., 0., 0., 0., 0., 0., 0., 0., 0. ]
      - [ 255., 0., 0., 0., 255., 255., 0., 1., 0., 0., 0., 1., 0., 4.,
          253., 0., 3., 0., 0., 0., 1., 0., 2., 0., 253., 0., 0., 1., 0.,
          0., 0., 1., 0., 4., 255., 0., 4., 0., 0., 0., 1., 1., 0., 0.,
          255., 2., 0., 3., 0., 0., 0., 2., 2., 0., 254., 1., 1., 0., 0.,
          0., 0., 0., 0., 3., 1., 0., 1., 0., 0., 0., 0., 2., 1., 0., 0.,
          3., 0., 0., 0., 0., 0., 0., 0., 0., 0., 0., 0., 0., 0., 0., 0.,
          0., 0., 0., 0., 0., 0., 0., 0., 0. ]
      - [ 255., 0., 1., 0., 255., 253., 0., 0., 0., 0., 0., 255., 0., 0.,
          1., 1., 1., 0., 0., 0., 0., 0., 3., 1., 254., 1., 0., 2., 0.,
          0., 5., 0., 0., 1., 254., 0., 1., 0., 0., 0., 0., 0., 7., 0.,
          255., 2., 1., 0., 0., 0., 0., 0., 1., 0., 255., 255., 0., 0.,
          0., 0., 0., 2., 1., 0., 0., 2., 1., 0., 0., 0., 0., 1., 0., 1.,
          1., 0., 0., 1., 0., 0., 0., 0., 0., 0., 0., 0., 0., 0., 0., 0.,
          0., 0., 0., 0., 0., 0., 0., 0., 0., 0. ]
      - [ 2., 0., 2., 1., 254., 255., 0., 0., 0., 0., 1., 1., 0., 3., 0.,
          0., 0., 4., 0., 0., 0., 0., 2., 0., 255., 2., 2., 0., 0., 0.,
          0., 3., 1., 0., 253., 0., 1., 1., 0., 0., 2., 0., 0., 255.,
          255., 0., 3., 0., 0., 0., 0., 1., 0., 0., 254., 3., 0., 0., 0.,
          0., 1., 0., 1., 0., 254., 255., 0., 2., 0., 0., 0., 0., 0., 1.,
          0., 255., 2., 0., 0., 0., 0., 0., 0., 0., 0., 0., 0., 0., 0.,
          0., 0., 0., 0., 0., 0., 0., 0., 0., 0., 0. ]
      - [ 0., 1., 0., 2., 253., 255., 1., 0., 0., 0., 0., 0., 0., 2.,
          255., 0., 0., 0., 0., 0., 5., 0., 0., 0., 255., 0., 0., 0., 0.,
          0., 0., 0., 3., 0., 254., 2., 1., 1., 0., 0., 1., 1., 0., 0.,
          255., 0., 0., 1., 0., 0., 0., 0., 0., 0., 255., 3., 0., 0., 0.,
          0., 1., 0., 4., 0., 0., 0., 5., 0., 0., 0., 0., 1., 0., 0., 0.,
          1., 0., 1., 0., 0., 0., 0., 0., 0., 0., 0., 0., 0., 0., 0., 0.,
          0., 0., 0., 0., 0., 0., 0., 0., 0. ]
      - [ 0., 1., 0., 1., 254., 255., 1., 1., 0., 0., 1., 0., 3., 0.,
          252., 0., 0., 0., 0., 0., 0., 0., 3., 0., 255., 2., 0., 0., 0.,
          0., 3., 2., 0., 255., 255., 0., 0., 3., 0., 0., 0., 0., 1., 0.,
          253., 1., 0., 0., 0., 0., 0., 0., 2., 1., 255., 0., 1., 0., 0.,
          0., 3., 0., 0., 3., 0., 255., 2., 0., 0., 0., 0., 0., 0., 0.,
          0., 3., 0., 2., 0., 0., 0., 0., 0., 0., 0., 0., 0., 0., 0., 0.,
          0., 0., 0., 0., 0., 0., 0., 0., 0., 0. ]
      - [ 255., 0., 1., 1., 254., 255., 2., 0., 0., 0., 0., 0., 0., 0.,
          255., 1., 0., 0., 0., 0., 1., 1., 0., 0., 255., 0., 1., 4., 0.,
          0., 0., 2., 0., 255., 255., 0., 1., 0., 0., 0., 3., 0., 2., 0.,
          255., 0., 1., 1., 0., 0., 1., 0., 0., 2., 253., 255., 0., 1.,
          0., 0., 0., 3., 2., 0., 2., 0., 0., 0., 0., 0., 1., 0., 1., 0.,
          0., 0., 0., 0., 0., 0., 0., 0., 0., 0., 0., 0., 0., 0., 0., 0.,
          0., 0., 0., 0., 0., 0., 0., 0., 0., 0. ]
      - [ 1., 0., 1., 0., 255., 254., 0., 1., 0., 0., 0., 0., 0., 1., 1.,
          2., 0., 0., 0., 0., 0., 3., 2., 0., 254., 0., 0., 5., 0., 0.,
          0., 1., 0., 0., 255., 0., 0., 0., 0., 0., 0., 0., 1., 0., 255.,
          0., 2., 0., 0., 0., 0., 1., 0., 2., 255., 0., 3., 0., 0., 0.,
          3., 0., 4., 0., 255., 254., 1., 0., 0., 0., 0., 0., 0., 0., 0.,
          0., 0., 1., 0., 0., 0., 0., 0., 0., 0., 0., 0., 0., 0., 0., 0.,
          0., 0., 0., 0., 0., 0., 0., 0., 0. ]
      - [ 0., 1., 0., 1., 255., 251., 3., 0., 0., 0., 1., 0., 0., 1., 1.,
          3., 0., 1., 0., 0., 0., 3., 0., 2., 255., 0., 0., 1., 0., 0.,
          0., 0., 0., 0., 255., 0., 3., 0., 0., 0., 3., 0., 0., 4., 254.,
          0., 0., 1., 0., 0., 0., 1., 0., 0., 255., 2., 2., 0., 0., 0.,
          0., 1., 4., 0., 0., 255., 0., 0., 0., 0., 1., 0., 0., 0., 0.,
          0., 0., 1., 0., 0., 0., 0., 0., 0., 0., 0., 0., 0., 0., 0., 0.,
          0., 0., 0., 0., 0., 0., 0., 0., 0. ]
      - [ 0., 4., 0., 0., 255., 255., 1., 0., 0., 0., 1., 0., 0., 3., 2.,
          0., 0., 0., 0., 0., 1., 0., 0., 0., 0., 0., 4., 0., 0., 0., 0.,
          0., 3., 0., 4., 0., 0., 1., 0., 0., 0., 255., 0., 255., 0., 1.,
          0., 1., 0., 0., 0., 1., 3., 0., 255., 0., 1., 1., 0., 0., 4.,
          0., 2., 0., 0., 255., 0., 0., 0., 0., 0., 1., 0., 1., 0., 0.,
          0., 2., 0., 0., 0., 0., 0., 0., 0., 0., 0., 0., 0., 0., 0., 0.,
          0., 0., 0., 0., 0., 0., 0., 0. ]
      - [ 255., 0., 0., 1., 0., 255., 255., 0., 0., 0., 0., 2., 2., 0.,
          0., 254., 0., 2., 0., 0., 0., 0., 0., 0., 0., 255., 1., 0., 0.,
          0., 4., 0., 1., 3., 252., 0., 0., 2., 0., 0., 0., 5., 0., 1.,
          255., 0., 2., 0., 0., 0., 0., 0., 1., 0., 255., 0., 0., 0., 0.,
          0., 1., 2., 0., 0., 0., 255., 0., 2., 0., 0., 0., 0., 1., 0.,
          3., 0., 2., 0., 0., 0., 0., 0., 0., 0., 0., 0., 0., 0., 0., 0.,
          0., 0., 0., 0., 0., 0., 0., 0., 0., 0. ]
      - [ 255., 253., 0., 4., 1., 0., 254., 2., 0., 0., 0., 4., 0., 0.,
          0., 255., 255., 0., 0., 0., 0., 0., 0., 2., 2., 255., 252., 3.,
          0., 0., 0., 0., 0., 0., 2., 251., 255., 0., 0., 0., 0., 3., 0.,
          1., 1., 253., 1., 2., 0., 0., 3., 0., 1., 0., 0., 2., 1., 0.,
          0., 0., 0., 1., 0., 1., 2., 253., 0., 0., 0., 0., 0., 1., 0.,
          0., 2., 0., 0., 0., 0., 0., 0., 0., 0., 0., 0., 0., 0., 0., 0.,
          0., 0., 0., 0., 0., 0., 0., 0., 0., 0., 0. ]
      - [ 255., 255., 0., 0., 0., 0., 0., 0., 0., 255., 2., 253., 4., 0.,
          0., 0., 1., 0., 254., 255., 0., 0., 0., 2., 0., 0., 1., 254.,
          255., 0., 4., 0., 0., 0., 0., 1., 3., 255., 0., 0., 0., 0., 5.,
          0., 1., 0., 253., 0., 3., 0., 0., 1., 0., 0., 255., 255., 0.,
          1., 1., 1., 2., 0., 0., 3., 255., 0., 1., 1., 0., 0., 0., 0.,
          3., 0., 0., 1., 1., 0., 0., 0., 0., 0., 0., 0., 0., 0., 0., 0.,
          0., 0., 0., 0., 0., 0., 0., 0., 0., 0., 0., 0. ]
      - [ 255., 253., 2., 0., 1., 0., 1., 0., 0., 255., 0., 3., 0., 0.,
          0., 3., 2., 0., 0., 255., 0., 1., 0., 2., 0., 0., 0., 1., 255.,
          255., 0., 1., 0., 0., 1., 3., 2., 255., 2., 0., 1., 0., 0., 1.,
          0., 251., 254., 1., 0., 4., 0., 0., 0., 3., 255., 2., 1., 0.,
          0., 0., 1., 1., 0., 0., 2., 3., 0., 3., 1., 2., 0., 0., 0., 3.,
          0., 0., 1., 1., 0., 1., 0., 0., 0., 0., 0., 0., 0., 0., 0., 0.,
          0., 0., 0., 0., 0., 0., 0., 0., 0., 0. ]
      - [ 255., 2., 0., 0., 0., 1., 0., 1., 0., 255., 0., 0., 3., 0., 3.,
          0., 3., 0., 254., 255., 3., 0., 0., 4., 0., 0., 0., 255., 255.,
          0., 0., 3., 0., 2., 0., 1., 0., 254., 0., 0., 0., 2., 1., 0.,
          0., 254., 255., 0., 3., 0., 1., 1., 0., 0., 255., 0., 0., 0.,
          1., 1., 1., 0., 1., 1., 254., 0., 0., 1., 0., 0., 0., 2., 0.,
          2., 0., 2., 0., 0., 0., 0., 0., 0., 0., 0., 0., 0., 0., 0., 0.,
          0., 0., 0., 0., 0., 0., 0., 0., 0., 0., 0. ]
      - [ 255., 255., 0., 0., 1., 2., 0., 0., 0., 255., 0., 1., 0., 0.,
          3., 0., 0., 2., 0., 255., 2., 0., 3., 2., 0., 0., 1., 0., 255.,
          255., 0., 4., 0., 0., 0., 2., 0., 255., 2., 0., 0., 2., 0., 2.,
          0., 255., 255., 0., 0., 4., 3., 0., 1., 2., 255., 0., 2., 0.,
          0., 0., 0., 0., 0., 0., 1., 253., 2., 0., 1., 2., 1., 0., 1.,
          0., 0., 1., 0., 1., 0., 1., 0., 0., 0., 0., 0., 0., 0., 0., 0.,
          0., 0., 0., 0., 0., 0., 0., 0., 0., 0., 0. ]
      - [ 255., 255., 1., 0., 2., 2., 0., 1., 0., 255., 0., 0., 0., 1.,
          0., 0., 1., 1., 254., 255., 2., 1., 0., 0., 0., 2., 3., 0.,
          255., 0., 0., 0., 0., 4., 1., 0., 0., 255., 0., 0., 1., 4., 0.,
          1., 0., 0., 255., 0., 3., 0., 0., 0., 0., 0., 255., 2., 0., 2.,
          1., 1., 1., 3., 0., 2., 2., 252., 2., 0., 0., 0., 0., 0., 3.,
          0., 0., 2., 0., 1., 0., 0., 0., 0., 0., 0., 0., 0., 0., 0., 0.,
          0., 0., 0., 0., 0., 0., 0., 0., 0., 0., 0. ]
      - [ 254., 255., 0., 0., 0., 0., 2., 0., 255., 255., 0., 0., 1., 0.,
          2., 0., 0., 2., 255., 0., 0., 1., 0., 1., 0., 0., 2., 0., 255.,
          0., 4., 0., 0., 255., 0., 0., 3., 253., 1., 0., 0., 0., 3., 0.,
          4., 255., 253., 2., 0., 0., 1., 1., 0., 0., 255., 0., 1., 0.,
          0., 1., 0., 0., 5., 0., 0., 255., 0., 4., 0., 1., 1., 0., 0.,
          1., 0., 1., 2., 0., 2., 0., 0., 0., 0., 0., 0., 0., 0., 0., 0.,
          0., 0., 0., 0., 0., 0., 0., 0., 0., 0., 0. ]
      - [ 253., 255., 0., 0., 3., 0., 0., 1., 255., 255., 1., 0., 2., 0.,
          0., 1., 2., 255., 255., 0., 1., 0., 2., 1., 2., 0., 0., 255.,
          255., 0., 0., 0., 0., 0., 0., 0., 254., 1., 1., 0., 0., 2., 3.,
          0., 1., 254., 255., 0., 0., 0., 0., 0., 0., 0., 255., 0., 0.,
          4., 0., 1., 1., 0., 3., 1., 0., 255., 0., 0., 0., 1., 1., 0.,
          0., 0., 0., 0., 0., 1., 2., 0., 0., 0., 0., 0., 0., 0., 0., 0.,
          0., 0., 0., 0., 0., 0., 0., 0., 0., 0., 0., 0. ]
      - [ 255., 252., 1., 1., 0., 0., 0., 0., 254., 255., 0., 2., 1., 0.,
          0., 0., 3., 253., 255., 3., 0., 0., 0., 4., 1., 0., 0., 254.,
          0., 0., 1., 0., 0., 0., 2., 0., 1., 255., 1., 0., 0., 1., 0.,
          1., 0., 255., 251., 0., 1., 1., 0., 1., 1., 3., 253., 0., 6.,
          0., 0., 2., 0., 0., 0., 0., 1., 2., 0., 1., 0., 0., 0., 0., 0.,
          0., 0., 2., 0., 1., 0., 2., 0., 0., 0., 0., 0., 0., 0., 0., 0.,
          0., 0., 0., 0., 0., 0., 0., 0., 0., 0., 0. ]
      - [ 0., 3., 0., 3., 1., 0., 0., 0., 2., 0., 3., 0., 4., 255., 0.,
          0., 0., 2., 2., 0., 0., 2., 0., 0., 0., 2., 2., 0., 0., 0., 0.,
          1., 0., 255., 1., 2., 0., 0., 0., 2., 3., 0., 0., 0., 0., 2.,
          0., 2., 0., 0., 0., 1., 2., 3., 255., 0., 0., 0., 1., 0., 2.,
          0., 1., 0., 251., 255., 255., 0., 0., 0., 1., 0., 1., 0., 2.,
          0., 0., 255., 1., 255., 0., 0., 0., 0., 0., 0., 0., 0., 255.,
          255., 0., 0., 0., 0., 0., 0., 0., 0., 0., 0. ]
      - [ 0., 1., 0., 0., 1., 0., 1., 0., 1., 0., 0., 2., 0., 255., 0.,
          0., 1., 0., 1., 0., 2., 0., 1., 0., 0., 2., 1., 1., 2., 0., 0.,
          0., 1., 255., 0., 0., 0., 1., 0., 0., 2., 2., 0., 3., 0., 0.,
          3., 0., 0., 1., 0., 0., 1., 0., 251., 4., 0., 2., 0., 2., 1.,
          0., 1., 0., 3., 254., 255., 2., 1., 253., 0., 2., 0., 0., 1.,
          0., 2., 254., 255., 253., 0., 0., 0., 0., 0., 0., 0., 0., 0.,
          0., 0., 0., 0., 0., 0., 0., 0., 0., 0., 0. ]
      - [ 254., 1., 0., 1., 0., 0., 0., 0., 2., 0., 3., 0., 3., 0., 0.,
          0., 0., 0., 2., 0., 0., 0., 0., 0., 2., 0., 1., 1., 0., 0., 4.,
          0., 0., 2., 0., 1., 0., 0., 0., 2., 0., 0., 0., 2., 0., 1., 0.,
          1., 0., 0., 1., 4., 1., 0., 255., 0., 3., 0., 1., 0., 0., 0.,
          0., 1., 0., 255., 0., 3., 0., 0., 0., 0., 2., 2., 0., 0., 255.,
          0., 1., 255., 1., 0., 0., 2., 0., 0., 1., 255., 0., 255., 0.,
          3., 1., 0., 0., 0., 1., 1., 0., 255. ]
      - [ 0., 1., 1., 0., 1., 2., 0., 2., 2., 0., 2., 0., 1., 2., 0., 0.,
          0., 0., 2., 0., 0., 0., 0., 0., 0., 1., 0., 1., 0., 0., 0., 1.,
          1., 0., 0., 2., 1., 0., 0., 2., 0., 5., 0., 2., 1., 0., 0., 0.,
          0., 0., 5., 0., 1., 1., 255., 1., 0., 0., 1., 0., 0., 3., 3.,
          0., 0., 255., 0., 2., 0., 0., 0., 1., 0., 3., 0., 1., 255., 0.,
          1., 255., 1., 0., 0., 2., 0., 0., 1., 255., 1., 255., 0., 3.,
          1., 0., 0., 0., 1., 1., 0., 0. ]
      - [ 255., 0., 1., 0., 0., 1., 0., 0., 2., 0., 0., 1., 1., 254., 0.,
          5., 0., 1., 2., 0., 2., 0., 0., 255., 3., 0., 5., 0., 0., 0.,
          0., 4., 0., 254., 0., 0., 0., 0., 0., 2., 0., 0., 2., 0., 0.,
          3., 2., 0., 0., 0., 2., 0., 0., 1., 255., 0., 0., 0., 1., 0.,
          1., 1., 2., 0., 0., 0., 255., 3., 0., 0., 0., 2., 0., 0., 2.,
          0., 254., 0., 1., 255., 0., 0., 0., 0., 0., 0., 0., 0., 255.,
          255., 0., 0., 0., 0., 0., 0., 0., 0., 0., 0. ]
      - [ 0., 0., 0., 4., 0., 0., 1., 0., 2., 0., 0., 0., 0., 253., 1.,
          2., 0., 1., 2., 0., 1., 0., 5., 0., 0., 0., 1., 1., 0., 0., 2.,
          1., 0., 4., 0., 2., 0., 0., 0., 2., 0., 0., 0., 0., 1., 1., 0.,
          3., 0., 0., 0., 3., 2., 0., 255., 2., 0., 2., 1., 0., 0., 1.,
          0., 1., 0., 255., 255., 0., 0., 0., 3., 0., 0., 3., 0., 0., 1.,
          255., 1., 255., 0., 0., 0., 0., 0., 0., 0., 0., 255., 255., 0.,
          0., 0., 0., 0., 0., 0., 0., 0., 0. ]
      - [ 255., 0., 0., 0., 1., 0., 2., 0., 0., 1., 0., 0., 2., 255., 1.,
          0., 1., 0., 0., 2., 0., 0., 0., 0., 0., 5., 0., 1., 0., 0., 1.,
          2., 0., 255., 0., 0., 0., 0., 0., 4., 1., 0., 0., 0., 2., 0.,
          4., 0., 2., 0., 0., 0., 1., 0., 252., 3., 0., 5., 2., 1., 0.,
          1., 0., 0., 1., 1., 1., 0., 0., 255., 0., 1., 0., 1., 0., 0.,
          1., 0., 0., 255., 0., 0., 0., 0., 0., 0., 0., 0., 255., 255.,
          0., 0., 0., 0., 0., 0., 0., 0., 0., 0. ]
      - [ 0., 1., 0., 1., 255., 0., 3., 0., 0., 0., 3., 0., 4., 2., 0.,
          1., 0., 0., 0., 0., 0., 0., 0., 0., 255., 0., 0., 5., 0., 0.,
          0., 4., 0., 0., 255., 0., 1., 0., 0., 0., 255., 252., 1., 0.,
          253., 1., 0., 0., 0., 0., 254., 0., 0., 0., 255., 0., 1., 0.,
          0., 0., 255., 1., 0., 1., 0., 255., 1., 0., 0., 0., 0., 255.,
          255., 0., 3., 251., 3., 0., 0., 0., 0., 0., 0., 254., 0., 255.,
          0., 2., 0., 0., 1., 0., 3., 255., 255., 253., 255., 0., 0., 0. ]
      - [ 255., 0., 0., 4., 252., 0., 2., 0., 0., 0., 0., 5., 0., 0., 1.,
          0., 1., 0., 0., 0., 0., 0., 0., 1., 253., 0., 1., 1., 0., 0.,
          0., 0., 1., 2., 255., 3., 0., 0., 0., 0., 255., 255., 0., 0.,
          255., 0., 1., 2., 0., 0., 255., 0., 0., 2., 253., 1., 1., 0.,
          0., 0., 254., 255., 1., 3., 0., 254., 0., 2., 0., 0., 1., 0.,
          255., 0., 255., 255., 0., 0., 0., 0., 0., 0., 1., 253., 254.,
          255., 1., 0., 0., 0., 0., 0., 0., 255., 255., 1., 0., 0., 0.,
          0. ]
      - [ 255., 0., 1., 0., 255., 0., 1., 0., 0., 0., 0., 2., 0., 0., 3.,
          0., 2., 0., 0., 0., 0., 0., 3., 0., 255., 0., 0., 0., 0., 0.,
          0., 4., 0., 1., 255., 0., 1., 3., 0., 0., 255., 253., 0., 4.,
          255., 0., 1., 0., 0., 0., 2., 0., 1., 0., 255., 1., 5., 0., 0.,
          0., 253., 255., 2., 1., 0., 255., 0., 1., 0., 0., 2., 0., 255.,
          2., 0., 255., 2., 0., 0., 0., 0., 0., 1., 255., 0., 255., 0.,
          0., 0., 0., 2., 0., 0., 255., 255., 254., 0., 1., 0., 0. ]
      - [ 0., 0., 0., 0., 255., 1., 1., 0., 0., 0., 1., 0., 2., 2., 0.,
          0., 0., 2., 0., 0., 0., 2., 0., 0., 255., 0., 4., 0., 0., 0.,
          0., 0., 1., 2., 253., 2., 0., 0., 0., 0., 255., 250., 1., 0.,
          254., 1., 0., 0., 0., 0., 255., 2., 0., 0., 254., 2., 0., 0.,
          0., 0., 255., 0., 0., 2., 0., 253., 3., 0., 0., 0., 1., 0.,
          255., 0., 3., 254., 0., 2., 0., 0., 0., 0., 1., 255., 0., 255.,
          0., 0., 0., 0., 2., 0., 0., 255., 255., 254., 0., 1., 0., 0. ]
      - [ 0., 0., 0., 1., 254., 0., 0., 1., 0., 0., 0., 2., 0., 4., 0.,
          1., 3., 0., 0., 0., 1., 2., 0., 0., 255., 0., 0., 3., 0., 0.,
          0., 0., 0., 4., 253., 1., 2., 0., 0., 0., 255., 252., 0., 254.,
          255., 0., 1., 0., 0., 0., 254., 0., 1., 1., 254., 0., 0., 3.,
          0., 0., 255., 255., 0., 0., 2., 255., 0., 0., 0., 0., 0., 0.,
          255., 0., 1., 252., 1., 1., 0., 0., 0., 2., 0., 1., 1., 252.,
          1., 0., 0., 0., 0., 1., 1., 255., 255., 255., 0., 0., 0., 0. ]
      - [ 254., 2., 0., 2., 0., 0., 4., 0., 0., 0., 2., 0., 0., 2., 0.,
          4., 0., 1., 0., 0., 0., 0., 3., 0., 0., 0., 0., 0., 0., 0., 2.,
          0., 0., 5., 255., 3., 0., 0., 0., 0., 251., 255., 0., 0., 253.,
          1., 0., 2., 0., 0., 255., 0., 1., 2., 254., 1., 0., 0., 0., 0.,
          255., 251., 1., 0., 0., 254., 0., 3., 0., 0., 0., 0., 255., 0.,
          3., 255., 0., 0., 0., 0., 0., 0., 1., 255., 0., 255., 0., 0.,
          0., 0., 2., 0., 0., 255., 255., 254., 0., 1., 0., 0. ]
   decision_functions:
      -
         sv_count: 13
         rho: 1.0605758728738107e-01
         alpha: [ 1.9693216151210652e-05, 5.3145269685966171e-06,
             4.5215787161201977e-05, 1.6712906777971492e-05,
             4.8161343017195597e-06, -1.9629163008054820e-07,
             -1.5887460082828200e-06, -4.6136488356284977e-07,
             -1.0061442639508794e-05, -4.3453669187562919e-05,
             -8.3295219838083035e-06, -1.6292947267790432e-05,
             -1.1368587760103641e-05 ]
         index: [ 61, 62, 63, 66, 65, 44, 45, 47, 48, 49, 50, 51, 40 ]
      -
         sv_count: 13
         rho: -1.3875424662629252e-01
         alpha: [ 6.9909329361081105e-07, 1.2892698211280318e-05,
             6.7909112841123745e-06, 2.9023199956597219e-05,
             1.8907746945580417e-05, -8.0174636685634453e-06,
             -6.9927470732990873e-06, -8.3329052208382869e-07,
             -1.1080256680813278e-05, -1.0771306733380814e-05,
             -1.8426465673353424e-06, -2.3574388657245427e-05,
             -5.2015497884599125e-06 ]
         index: [ 60, 61, 62, 63, 66, 12, 14, 15, 16, 19, 20, 22, 23 ]
      -
         sv_count: 10
         rho: -3.1044231115752600e-02
         alpha: [ 2.3952728529885613e-05, 7.7913124339346796e-06,
             2.1578504891396706e-05, 1.7647916378937128e-05,
             1.5320533453344451e-05, -1.2558751047578415e-05,
             -1.9478143383662757e-05, -2.5474737482658465e-05,
             -9.2381545924832598e-06, -1.9541209181115668e-05 ]
         index: [ 61, 62, 64, 63, 66, 10, 7, 6, 4, 1 ]
      -
         sv_count: 10
         rho: 3.6753570913305394e-01
         alpha: [ 2.5655969699649341e-05, 6.6793659132151497e-05,
             1.3856058007320766e-05, 8.0630331548905699e-06,
             -9.4091159258267561e-06, -3.4738176064195191e-06,
             -8.6370593441896479e-06, -3.8174626668052531e-05,
             -3.1660146328872128e-06, -5.1508085816636514e-05 ]
         index: [ 61, 63, 66, 65, 33, 27, 26, 30, 31, 32 ]
      -
         sv_count: 11
         rho: -4.1053154395486419e-01
         alpha: [ 8.1109219927286041e-06, 1.1571665061969190e-05,
             1.3888299780803371e-05, 1.3374428648435317e-05,
             6.2578801719495962e-07, -1.0899527257479107e-05,
             -3.0874532843196614e-06, -1.8233824863297688e-05,
             -2.9857718308071978e-06, -9.3878803291010998e-06,
             -2.9766459361266803e-06 ]
         index: [ 61, 62, 63, 66, 65, 53, 54, 56, 57, 59, 58 ]
      -
         sv_count: 9
         rho: -7.5396393509097592e-01
         alpha: [ 4.3783650699914492e-06, 2.2726810156853074e-06,
             1.0373454420231941e-05, 3.1057983287181699e-06,
             1.4132218796941464e-06, -3.7661790472355272e-06,
             -1.0398402207629201e-05, -7.3175672220085152e-06,
             -6.1372237447773778e-08 ]
         index: [ 61, 62, 63, 66, 65, 71, 72, 70, 67 ]
      -
         sv_count: 16
         rho: -2.4314018646633603e-01
         alpha: [ 4.5985943112054289e-07, 6.2933943467169636e-06,
             3.0631201093373472e-05, 5.9409703725070255e-06,
             1.3945071772300433e-05, 6.7341118109822506e-06,
             8.2749644348894286e-06, 9.7124842491661609e-07,
             6.9632045783102116e-07, -8.7848984102011757e-06,
             -1.2595911817030552e-05, -5.9915376753941817e-06,
             -9.6666210291844464e-06, -3.5989049390587106e-06,
             -2.6653757974845358e-05, -6.6555102989233345e-06 ]
         index: [ 46, 47, 49, 50, 51, 42, 41, 40, 35, 12, 13, 14, 19, 20,
             22, 23 ]
      -
         sv_count: 16
         rho: -1.6723618932590270e-01
         alpha: [ 2.9859902265716435e-05, 2.8319516178252670e-06,
             1.7560214446082011e-05, 1.1524388341743787e-05,
             1.1343565508614904e-05, 7.2395899353874986e-06,
             5.1239806572156749e-06, -2.7651242808750104e-06,
             -7.2400168993085442e-06, -1.8073455043538414e-06,
             -3.0103785092198344e-05, -1.4205035910397457e-05,
             -3.8804704090514700e-06, -1.2359357911329934e-05,
             -1.9331038859467420e-06, -1.1189352879124246e-05 ]
         index: [ 49, 50, 51, 42, 40, 39, 36, 0, 10, 9, 7, 6, 5, 4, 2, 1 ]
      -
         sv_count: 14
         rho: 2.1698006894886049e-01
         alpha: [ 1.2250373523974090e-05, 1.4991189382668308e-05,
             3.8774371133534082e-06, 5.8036103273411651e-05,
             1.4078758892642620e-05, 2.2616294696418308e-05,
             2.2941368703332002e-06, 9.9173228600865708e-07,
             -1.0716446927221125e-05, -2.6141378352966041e-06,
             -1.3224757683011075e-05, -3.8675465423489718e-05,
             -6.9797294666497939e-06, -5.6925488703141920e-05 ]
         index: [ 44, 47, 48, 49, 50, 51, 43, 42, 33, 27, 29, 30, 31, 32 ]
      -
         sv_count: 7
         rho: -5.6863395412008588e-01
         alpha: [ 1.8661062211343752e-05, 1.7655389030942371e-05,
             2.1525189503409307e-05, -1.8152082457899638e-05,
             -1.9489742554865435e-05, -1.1545217645719598e-05,
             -8.6545980872107575e-06 ]
         index: [ 49, 51, 35, 53, 56, 59, 58 ]
      -
         sv_count: 14
         rho: -9.5261559404041052e-01
         alpha: [ 7.3189867637771943e-06, 5.8958448362546443e-06,
             1.4043633471919148e-06, 9.4001107440949990e-06,
             7.1042285955740541e-07, 9.2646390324284633e-07,
             2.1785926951740641e-06, 4.7769059174570320e-07,
             -9.2834439449419829e-06, -3.6566661130750957e-06,
             -1.0315472806915551e-05, -3.8466684066613759e-06,
             -1.2059168450852469e-06, -4.3076243595205161e-09 ]
         index: [ 48, 49, 51, 43, 41, 38, 37, 35, 71, 72, 70, 69, 68, 67 ]
      -
         sv_count: 17
         rho: 7.0528431610573442e-02
         alpha: [ 3.7081429938434480e-07, 1.7243952473179805e-08,
             7.4666881033786065e-06, 2.7039751877457724e-06,
             5.3159817601428236e-06, 6.2433888080105018e-06,
             9.7807799935170316e-06, 2.3271227332100418e-05,
             1.2423862839483455e-05, -8.3982407598512847e-06,
             -6.7934501400374577e-06, -2.5504646982891042e-06,
             -2.1368582008572456e-05, -1.0224021286017232e-05,
             -1.0072428488270369e-05, -6.1064203666041887e-06,
             -2.0803545285940300e-06 ]
         index: [ 11, 12, 14, 16, 18, 19, 20, 22, 23, 0, 10, 8, 7, 6, 4,
             2, 1 ]
      -
         sv_count: 13
         rho: 4.5734305772412231e-01
         alpha: [ 1.2937553981017813e-05, 1.5826559828262632e-05,
             7.7355820732795359e-06, 1.4090952014330362e-05,
             4.9658483922477480e-07, 3.2253524395917461e-05,
             6.9575208443003770e-06, -2.4685092116477500e-05,
             -4.2625038085957222e-06, -1.2722436636487118e-06,
             -1.0002179163123827e-05, -1.7740251482830687e-05,
             -3.2336007741656508e-05 ]
         index: [ 12, 13, 14, 19, 20, 22, 23, 33, 27, 29, 30, 31, 32 ]
      -
         sv_count: 14
         rho: -3.0601743441003276e-01
         alpha: [ 1.5268020135105588e-06, 2.5147961418319142e-06,
             2.8641088190537440e-06, 2.9318120422060597e-06,
             4.5616821521332878e-06, 7.0917673152346795e-06,
             1.6994240319843143e-06, 1.6955075333819474e-05,
             4.7574248230971084e-06, -1.1750766965356463e-05,
             -7.4380898384262877e-06, -1.3613879780208779e-05,
             -1.0966124923592231e-05, -1.1340311652873830e-06 ]
         index: [ 12, 13, 14, 17, 19, 20, 21, 22, 23, 53, 54, 56, 59, 58 ]
      -
         sv_count: 14
         rho: -7.6173320015210055e-01
         alpha: [ 3.1483722161841020e-06, 2.6236162847305447e-06,
             1.4333537590463208e-06, 9.8627185613102600e-07,
             7.3964110994851631e-07, 5.4600750272410014e-07,
             9.2291911638571295e-06, 4.0239332023995180e-06,
             -4.6100415094409065e-06, -1.2350152241959699e-05,
             -2.0108189055418493e-06, -1.6029504621899247e-06,
             -5.4071530127342688e-07, -1.6157086746154543e-06 ]
         index: [ 12, 13, 14, 19, 20, 21, 22, 23, 71, 72, 70, 69, 68, 67 ]
      -
         sv_count: 17
         rho: 3.7813833867935853e-01
         alpha: [ 4.6761326267736295e-06, 1.3807612737448482e-05,
             7.8952216350608572e-07, 1.0691760609455173e-06,
             2.4143061643149297e-05, 1.0207121319423407e-05,
             2.7735012063180636e-06, 1.1777418111942852e-05,
             2.5962186729154887e-06, 1.8719460325722146e-05,
             -1.3205405546229797e-05, -1.4708690476875066e-05,
             -7.2995659317993693e-06, -3.2867828103629559e-07,
             -1.7208276429413412e-05, -3.7606592752974036e-05,
             -2.0201544981698574e-07 ]
         index: [ 0, 10, 9, 8, 7, 6, 5, 4, 3, 1, 33, 27, 25, 30, 31, 32,
             34 ]
      -
         sv_count: 14
         rho: -3.5820530828049829e-01
         alpha: [ 1.4144030220993512e-06, 4.0442709223561822e-06,
             1.9629869909446261e-06, 7.8515554480707439e-06,
             8.5069353109633257e-06, 2.1487986669677801e-05,
             3.5822692799080397e-06, 9.4139133400600568e-07,
             -3.7575637470714071e-06, -1.6330078553154244e-05,
             -1.3888728550569838e-05, -4.9199784584544744e-07,
             -1.4839895553770410e-05, -4.8353472761473859e-07 ]
         index: [ 0, 10, 8, 7, 6, 4, 2, 1, 52, 53, 56, 57, 59, 58 ]
      -
         sv_count: 13
         rho: -6.9655641934169843e-01
         alpha: [ 1.3463295573892268e-06, 1.5035242582601444e-06,
             1.1856297270878247e-06, 4.5162953744041387e-07,
             6.1223258093606774e-06, 2.1834201561727028e-06,
             3.6791779683526096e-06, 4.0502187104696926e-06,
             -2.9925373322040028e-06, -1.0726760033384017e-05,
             -5.8761505086772886e-06, -6.8141550205179433e-07,
             -2.4539234821619139e-07 ]
         index: [ 0, 10, 9, 8, 7, 6, 4, 1, 71, 72, 70, 69, 68 ]
      -
         sv_count: 11
         rho: -6.4381684169650599e-01
         alpha: [ 6.2888960804614655e-06, 1.1418937682045560e-05,
             1.2565553250337300e-05, 2.1744115191344989e-05,
             3.6783530997109876e-06, -1.0492022537216504e-05,
             -3.3387075834340557e-06, -1.7214048180371746e-06,
             -2.4132235858724609e-05, -1.0938725747001798e-05,
             -5.0727587594861579e-06 ]
         index: [ 33, 24, 31, 32, 34, 53, 54, 55, 56, 59, 58 ]
      -
         sv_count: 8
         rho: -9.8202491498299616e-01
         alpha: [ 1.4561419415673036e-06, 2.0817010753928317e-05,
             8.5949616791598668e-06, -5.7275201929361241e-06,
             -1.0950246327754804e-05, -4.0006278577026274e-06,
             -2.4697302051009465e-06, -7.7199897911609825e-06 ]
         index: [ 33, 28, 29, 71, 72, 70, 69, 67 ]
      -
         sv_count: 12
         rho: -4.7227643537823066e-01
         alpha: [ 2.3382552305123212e-06, 8.7330914774176645e-07,
             1.5673889391273756e-06, 8.1383465635747628e-06,
             3.5213610205721584e-06, 1.7295950602085611e-06,
             -2.3926673982570479e-06, -9.7279613495719329e-06,
             -4.6133515444361035e-06, -1.0816876643899038e-06,
             -3.2149511263200550e-07, -3.1092892449955202e-08 ]
         index: [ 53, 54, 55, 56, 59, 58, 71, 72, 70, 69, 68, 67 ]
