%YAML:1.0
---
opencv_ml_svm:
   format: 3
   svmType: C_SVC
   kernel:
      type: CHI2
      gamma: 2.7000000000000002e+00
   C: 80.
   term_criteria: { iterations:100000 }
   var_count: 100
   class_count: 4
   class_labels: !!opencv-matrix
      rows: 4
      cols: 1
      dt: i
      data: [ -2, -1, 1, 2 ]
   sv_total: 80
   support_vectors:
      - [ 2., 4.55856403e-41, -1.05872140e+21, 4.55856403e-41,
          7.07490853e+34, 3.08607961e-41, 7.07490853e+34, 3.08607961e-41,
          9.11180313e-41, 0., 0., 0., 0., 0., 0., 0., 0., 0., 0., 0., 0.,
          0., 0., 0., 0., 0., 0., 0., 0., 0., 0., 0., 0., 0., 0., 0., 0.,
          0., 0., 0., 6.01825485e-36, 3.76158192e-37, 0., 0., 0., 0., 0.,
          0., 2.35095269e-38, 1.83670992e-40, 0., 0., 0., 0., 0., 0.,
          2.35098814e-38, 1.40129846e-45, 0., 0., 7.06724717e+34,
          3.08607961e-41, 60152228., 1.63377142e+10, 2.35098856e-38,
          3.58732407e-43, 0., 0., 0., 0., 6.86636248e-44, 0.,
          7.07715861e+34, 3.08607961e-41, 1.06701872e-40, 0.,
          -1.05858629e+21, 4.55856403e-41, -1.05858629e+21,
          4.55856403e-41, 0., 0., 0., 0., 7.06746109e+34, 3.08607961e-41,
          0., 0., 1.10702579e-43, 0., 0., 0., 0., 0., 0., 0., 0., 0., 0.,
          0. ]
      - [ 0., 0., 1.40129846e-45, 0., 1.40129846e-45, 2.80259693e-45,
          1.06522505e-40, 0., 7.11279544e+34, 3.08607961e-41,
          -1.05858629e+21, 4.55856403e-41, 0., 0., 0., 0.,
          1.85120910e+28, 1.15789504e+27, 6.86636248e-44, 0.,
          7.07521752e+34, 3.08607961e-41, -1.05858629e+21,
          4.55856403e-41, 6.94472131e+34, 3.08607961e-41, 2.92871379e-43,
          0., 1.34524653e-43, 0., 1.34524653e-43, 0., 7.07507491e+34,
          3.08607961e-41, 0., 0., 1.10702579e-43, 0., 0., 0., 0., 0., 0.,
          0., 0., 0., 0., 0., 0., 0., 2.80259693e-45, 0., 1.40129846e-45,
          1.12103877e-44, 1.06253456e-40, 0., 7.11279544e+34,
          3.08607961e-41, -1.05858629e+21, 4.55856403e-41, 0., 0., 0.,
          0., 1.00717637e-11, 1.62054162e-10, 6.06762235e-43, 0.,
          7.07505114e+34, 3.08607961e-41, -1.05858629e+21,
          4.55856403e-41, 1.87279897e+31, 2.14445177e+20, 2.83173291e+32,
          5.91787808e-02, 1.00893489e-42, 0., 5.39499909e-43, 0.,
          7.07715861e+34, 3.08607961e-41, 7.07505114e+34, 3.08607961e-41,
          1.40129846e-45, 0., 0., 0., 2.52233724e-44, 4.48415509e-44, 0.,
          0., 0., 0., 0., 0., 0., 0., 0., 0. ]
      - [ 0., 0., 0., 0., 0., 0., 1.40129846e-45, 5.60519386e-45, 0., 0.,
          0., 0., 0., 0., 0., 0., 0., 0., 0., 0., 0., 0., 0., 0., 0., 0.,
          0., 0., 0., 0., 0., 0., 0., 0., 0., 0., 3.36311631e-43, 0.,
          6.72623263e-44, 0., 7.07540767e+34, 3.08607961e-41,
          2.80259693e-44, 0., 4.20389539e-44, 0., 6.98088055e+34,
          3.08607961e-41, 4.03573958e-43, 0., 6.72623263e-44, 0.,
          7.07505114e+34, 3.08607961e-41, 1.60011151e+10, 4.36077518e+27,
          4.54481789e+30, 3.08509870e-41, 6.97825018e+34, 3.08607961e-41,
          1.68155816e-44, 1.12103877e-44, 6.86636248e-44, 0.,
          7.07589889e+34, 3.08607961e-41, 7.07574043e+34, 3.08607961e-41,
          1.83193728e+25, 3.63721029e-41, 7.07562951e+34, 3.08607961e-41,
          6.72623263e-43, 0., 1.34524653e-43, 0., 7.07516999e+34,
          3.08607961e-41, 0., 0., 2.10194770e-44, 0., 0., 0., 0., 0., 0.,
          0., 0., 0., 0., 0., 0., 0., 1.40129846e-45, 0., 1.40129846e-45,
          1.82168800e-44, 1.05446308e-40, 0. ]
      - [ 0., 3.08607961e-41, -1.05858629e+21, 4.55856403e-41, 0., 0.,
          0., 0., 6.72623263e-44, 0., 1.34524653e-43, 0., 7.07545521e+34,
          3.08607961e-41, 0., 0., 1.10702579e-43, 0., 0., 0., 0., 0., 0.,
          0., 0., 0., 0., 0., 0., 0., 1.05266942e-40, 0.,
          -1.05872140e+21, 4.55856403e-41, -1.05872140e+21,
          4.55856403e-41, 7.07556613e+34, 3.08607961e-41, 7.07556613e+34,
          3.08607961e-41, 0., 0., 0., 0., 1.12103877e-44, 1.82168800e-44,
          6.86636248e-44, 0., 7.07566912e+34, 3.08607961e-41,
          -1.05858629e+21, 4.55856403e-41, 7.24431922e+22,
          3.08509870e-41, 6.98059533e+34, 3.08607961e-41, 1.34524653e-43,
          0., 1.34524653e-43, 0., 7.07552651e+34, 3.08607961e-41, 0., 0.,
          2.10194770e-44, 0., 0., 0., 0., 0., 0., 0., 0., 0., 0., 0., 0.,
          0., 4.20389539e-45, 0., 4.20389539e-45, 1.82168800e-44,
          1.04975472e-40, 0., 7.11279544e+34, 3.08607961e-41,
          -1.05858629e+21, 4.55856403e-41, 0., 0., 0., 0.,
          6.72623263e-44, 0., 1.34524653e-43, 0., 7.07562159e+34,
          3.08607961e-41, 0., 0. ]
      - [ 0., 0., 0., 0., 0., 0., 0., 0., 0., 0., 0., 0., 0., 0.,
          5.60519386e-45, 0., 4.20389539e-45, 1.82168800e-44,
          1.04773685e-40, 0., 7.11279544e+34, 3.08607961e-41,
          -1.05858629e+21, 4.55856403e-41, 0., 0., 0., 0.,
          6.72623263e-44, 0., 1.12103877e-43, 0., 7.06503670e+34,
          3.08607961e-41, 0., 0., 1.40129846e-45, 0., 0., 0.,
          4.20389539e-45, 5.60519386e-45, 0., 0., 0., 0., 0., 0.,
          1.79366203e-43, 0., 1.34524653e-43, 0., 7.07569289e+34,
          3.08607961e-41, 0., 0., 2.10194770e-44, 0., 0., 0., 0., 0., 0.,
          0., 0., 0., 0., 0., 0., 0., 8.40779079e-45, 0., 4.20389539e-45,
          1.82168800e-44, 1.04459794e-40, 0., 7.11279544e+34,
          3.08607961e-41, -1.05858629e+21, 4.55856403e-41, 0., 0., 0.,
          0., 0., 0., 0., 0., 0., 0., 0., 0., 0., 0., 2.52233724e-44, 0.,
          4.20389539e-45, 1.82168800e-44, 1.04325269e-40, 0. ]
      - [ 0., 3.08607961e-41, -1.05858629e+21, 4.55856403e-41, 0., 0.,
          0., 0., 6.72623263e-44, 0., 1.34524653e-43, 0., 7.07585135e+34,
          3.08607961e-41, 0., 0., 1.10702579e-43, 0., 0., 0., 0., 0., 0.,
          0., 0., 0., 0., 0., 0., 0., 1.26116862e-44, 0., 1.40129846e-45,
          1.82168800e-44, 1.04123482e-40, 0., 7.11279544e+34,
          3.08607961e-41, -1.05858629e+21, 4.55856403e-41, 0., 0., 0.,
          0., 0., 0., 6.86636248e-44, 0., 7.07606526e+34, 3.08607961e-41,
          -1.05858629e+21, 4.55856403e-41, 6.72623263e-44, 0., 0., 0.,
          1.34524653e-43, 0., 1.34524653e-43, 0., 7.07592265e+34,
          3.08607961e-41, 0., 0., 1.10702579e-43, 0., 0., 0., 0., 0., 0.,
          0., 0., 0., 0., 0., 0., 0., 1.40129846e-44, 0., 1.40129846e-45,
          1.82168800e-44, 1.03854433e-40, 0., 7.11279544e+34,
          3.08607961e-41, -1.05858629e+21, 4.55856403e-41, 0., 0., 0.,
          0., 0., 0., 6.86636248e-44, 0., 7.07623164e+34, 3.08607961e-41,
          -1.05858629e+21, 4.55856403e-41 ]
      - [ 1., 0., 0., 3.60133705e-43, 1.34524653e-43, 0., 1.34524653e-43,
          0., 7.07680209e+34, 3.08607961e-41, 0., 0., 1.10702579e-43, 0.,
          0., 0., 0., 0., 0., 0., 0., 0., 0., 0., 0., 0., 2.24207754e-44,
          0., 1.40129846e-45, 7.00649232e-45, 6.86636248e-44, 0.,
          7.04027790e+34, 3.08607961e-41, 7.07673078e+34, 3.08607961e-41,
          1.84974173e+31, 3.08509870e-41, 7.07669117e+34, 3.08607961e-41,
          3.36311631e-43, 0., 1.34524653e-43, 0., 7.07601773e+34,
          3.08607961e-41, 0., 0., 2.10194770e-44, 0., 0., 0., 0., 0., 0.,
          0., 0., 0., 0., 0., 0., 0., 1.54142831e-44, 0., 1.40129846e-45,
          1.82168800e-44, 1.03383597e-40, 0., 7.11279544e+34,
          3.08607961e-41, -1.05858629e+21, 4.55856403e-41, 0., 0., 0.,
          0., 6.72623263e-44, 0., 1.34524653e-43, 0., 7.07618411e+34,
          3.08607961e-41, 0., 0., 2.10194770e-44, 0., 0., 0., 0., 0., 0.,
          0., 0., 0., 0., 0., 0., 0., 1.68155816e-44, 0. ]
      - [ 0., 1.82168800e-44, 1.03181810e-40, 0., 7.07606526e+34,
          3.08607961e-41, -1.05858629e+21, 4.55856403e-41, 0., 0., 0.,
          0., 6.72623263e-44, 0., 1.34524653e-43, 0., 7.07625541e+34,
          3.08607961e-41, 0., 0., 2.10194770e-44, 0., 0., 0., 0., 0., 0.,
          0., 0., 0., 0., 0., 0., 0., 1.82168800e-44, 0., 1.40129846e-45,
          1.82168800e-44, 1.02980023e-40, 0., 7.07606526e+34,
          3.08607961e-41, -1.05858629e+21, 4.55856403e-41, 0., 0., 0.,
          0., 6.72623263e-44, 0., 1.34524653e-43, 0., 7.07632672e+34,
          3.08607961e-41, 0., 0., 2.10194770e-44, 0., 0., 0., 0., 0., 0.,
          0., 0., 0., 0., 0., 0., 0., 1.96181785e-44, 0., 1.40129846e-45,
          1.82168800e-44, 1.02778236e-40, 0., 7.07606526e+34,
          3.08607961e-41, -1.05858629e+21, 4.55856403e-41, 0., 0., 0.,
          0., 6.72623263e-44, 0., 1.34524653e-43, 0., 7.07639802e+34,
          3.08607961e-41, 0., 0., 1.10702579e-43, 0., 0., 0., 0., 0., 0.,
          0. ]
      - [ 0., 0., 0., 0., 0., 0., 7.00649232e-45, 0., 1.40129846e-45,
          1.82168800e-44, 1.02576449e-40, 0., 7.07606526e+34,
          3.08607961e-41, -1.05858629e+21, 4.55856403e-41, 0., 0., 0.,
          0., 7.02811638e+34, 3.08607961e-41, 6.86636248e-44, 0.,
          7.07661194e+34, 3.08607961e-41, -1.05858629e+21,
          4.55856403e-41, 6.86636248e-44, 0., 0., 0., 1.34524653e-43, 0.,
          1.34524653e-43, 0., 7.07646933e+34, 3.08607961e-41, 0., 0.,
          4.34402524e-44, 0., 0., 0., 0., 0., 0., 0., 0., 0., 0., 0., 0.,
          0., 9.80908925e-45, 0., 1.40129846e-45, 1.54142831e-44,
          1.02307400e-40, 0., 7.07606526e+34, 3.08607961e-41,
          -1.05858629e+21, 4.55856403e-41, 0., 0., 0., 0.,
          6.99547438e+34, 3.08607961e-41, 1.35925951e-43, 0.,
          7.07673078e+34, 3.08607961e-41, -1.05858629e+21,
          4.55856403e-41, 4.20389539e-44, 0., 7.01219944e+34,
          3.08607961e-41, 6.72623263e-44, 0., 6.72623263e-44, 0.,
          7.07661194e+34, 3.08607961e-41, 2.71985190e+23, 1.49741503e+25,
          4.54420104e+30, 2.79445261e+20, 7.21330248e+22, 1.59748025e-43,
          2.01786979e-43, 0., 1.34524653e-43, 0., 7.07656440e+34,
          3.08607961e-41, 0., 0. ]
      - [ 1., 0., 0., 0., 0., 0., 0., 0., 0., 0., 0., 0., 0., 0.,
          1.12103877e-44, 0., 1.40129846e-45, 1.54142831e-44,
          1.01971088e-40, 0., 7.07606526e+34, 3.08607961e-41,
          -1.05858629e+21, 4.55856403e-41, 0., 0., 0., 0.,
          7.07429848e+34, 3.08607961e-41, 1.35925951e-43, 0.,
          7.07684962e+34, 3.08607961e-41, -1.05858629e+21,
          4.55856403e-41, 4.20389539e-44, 0., 6.98050025e+34,
          3.08607961e-41, 6.72623263e-44, 0., 6.72623263e-44, 0.,
          7.07673078e+34, 3.08607961e-41, 2.71985190e+23, 1.49741503e+25,
          4.54420104e+30, 2.79445261e+20, 7.21330248e+22, 1.59748025e-43,
          2.01786979e-43, 0., 1.34524653e-43, 0., 7.07668324e+34,
          3.08607961e-41, 0., 0., 1.33123354e-43, 0., 0., 0., 0., 0., 0.,
          0., 0., 0., 0., 0., 0., 0., 2.10194770e-44, 0., 1.40129846e-45,
          1.96181785e-44, 1.01634776e-40, 0., 7.11279544e+34,
          3.08607961e-41, 7.07606526e+34, 3.08607961e-41, 0., 0., 0., 0.,
          1.81807706e+31, 2.54658516e-09, 6.86636248e-44, 0.,
          7.07692885e+34, 3.08607961e-41, -1.05858629e+21,
          4.55856403e-41, 5.74532370e-44, 0., 1.12275069e+21,
          1.16315229e+33 ]
      - [ 2., 0., 8.96831017e-44, 0., 7.07738837e+34, 3.08607961e-41,
          2.71985190e+23, 6.04056645e+28, 1.15797016e+27, 7.22507952e+28,
          4.46280709e+30, 7.27084014e+31, 2.79114966e+03, 1.80587615e+28,
          50594196., 7.89410706e+02, 8.51989466e-43, 0., 5.17079133e-43,
          0., 7.07616034e+34, 3.08607961e-41, 7.07673078e+34,
          3.08607961e-41, 1.23919106e+01, 7.74156445e-39, 6.72105351e-04,
          6.34389485e-10, 1.12275069e+21, 1.00717637e-11, 4.49816807e-43,
          0., 7.07715861e+34, 3.08607961e-41, 7.07616034e+34,
          3.08607961e-41, 7.07553444e+34, 3.08607961e-41, 7.07562951e+34,
          3.08607961e-41, 7.07570082e+34, 3.08607961e-41, 7.07581173e+34,
          3.08607961e-41, 7.07585927e+34, 3.08607961e-41, 7.07593058e+34,
          3.08607961e-41, 7.07602565e+34, 3.08607961e-41, 7.07619203e+34,
          3.08607961e-41, 7.07626333e+34, 3.08607961e-41, 7.07633464e+34,
          3.08607961e-41, 7.07640595e+34, 3.08607961e-41, 7.07647725e+34,
          3.08607961e-41, 7.07657232e+34, 3.08607961e-41, 7.07669117e+34,
          3.08607961e-41, 7.07681001e+34, 3.08607961e-41, 7.07612072e+34,
          3.08607961e-41, 7.07711900e+34, 3.08607961e-41, 7.01153393e+34,
          3.08607961e-41, 6.99491186e+34, 3.08607961e-41, 1.82168800e-44,
          1.40129846e-45, 0., 0., 0., 0., 0., 0., 0., 0., 0., 0., 0., 0.,
          6.98734557e+34, 3.08607961e-41, 6.99315299e+34, 3.08607961e-41,
          1.40129846e-44, 2.38220739e-44, 7.03037438e+34, 3.08607961e-41,
          3.81153182e-43, 0., 6.72623263e-44, 0. ]
      - [ 1., 3.08607961e-41, 1.40129846e-45, 0., 6.86636248e-44,
          1.12103877e-44, 6.96829912e+34, 3.08607961e-41, 7.39885589e-43,
          0., 1.34524653e-43, 0., 7.07611280e+34, 3.08607961e-41, 0., 0.,
          1.10702579e-43, 0., 0., 0., 0., 0., 0., 0., 0., 0., 0., 0., 0.,
          0., 2.38220739e-44, 0., 1.40129846e-45, 1.12103877e-44,
          1.00760366e-40, 0., 7.11279544e+34, 3.08607961e-41,
          -1.05858629e+21, 4.55856403e-41, 0., 0., 0., 0.,
          6.98710788e+34, 3.08607961e-41, 6.86636248e-44, 0.,
          7.07744383e+34, 3.08607961e-41, -1.05858629e+21,
          4.55856403e-41, 1.87279897e+31, 1.41531145e-43, 6.99538723e+34,
          3.08607961e-41, 1.34524653e-43, 0., 6.72623263e-44, 0.,
          7.07725369e+34, 3.08607961e-41, 7.07577212e+34, 3.08607961e-41,
          3.57331108e-43, 0., 0., 0., 2.01786979e-43, 0., 6.72623263e-44,
          0., 7.07538390e+34, 3.08607961e-41, 8.40779079e-45, 0.,
          1.74864123e+25, 3.63861159e-41, 0., 0., 0., 0., 6.86636248e-44,
          0., 7.07550274e+34, 3.08607961e-41, 7.07742007e+34,
          3.08607961e-41, 7.07734084e+34, 3.08607961e-41, 7.07739630e+34,
          3.08607961e-41, 3.36311631e-43, 0., 8.96831017e-44, 0.,
          7.06488617e+34, 3.08607961e-41, 0., 0. ]
      - [ 0., 0., 0., 0., 0., 0., 0., 6.73756384e-10, 8.27245161e-10,
          4.48977808e+21, 8.53390765e-43, 0., 7.07684962e+34,
          3.08607961e-41, -1.05858629e+21, 4.55856403e-41,
          1.23919106e+01, 7.74156445e-39, 2.13000585e+11, 8.93207947e+02,
          6.72623263e-44, 0., 8.96831017e-44, 0., 7.07727746e+34,
          3.08607961e-41, 0., 0., 4.20389539e-45, 0., 0., 0., 0., 0.,
          1.40129846e-45, 3.29346381e+09, 6.32090737e+28, 7.21376095e+22,
          6.96445337e-43, 0., 7.07684962e+34, 3.08607961e-41,
          -1.05858629e+21, 4.55856403e-41, 1.26883154e+04,
          9.66895940e-44, 3.77804079e-41, 0., 6.72623263e-44, 0.,
          8.96831017e-44, 0., 7.07733292e+34, 3.08607961e-41, 0., 0.,
          4.20389539e-45, 0., 0., 0., 0., 0., 2.80259693e-45,
          4.54474536e+30, 1.81807706e+31, 1.40129846e-44, 5.39499909e-43,
          0., 7.07550274e+34, 3.08607961e-41, 7.07730915e+34,
          3.08607961e-41, 823480512., 1.09301280e-43, 0., 0., 0., 0.,
          4.72237582e-43, 0., 7.07765775e+34, 3.08607961e-41,
          7.07616034e+34, 3.08607961e-41, 1.40129846e-45, 0., 0., 0.,
          2.80259693e-45, 5.60519386e-45, 0., 0., 0., 0., 0., 0., 0., 0.,
          0., 0. ]
      - [ 0., 0., 0., 0., 0., 0., 0., 0., 0., 0., 0., 0., 0., 0., 0., 0.,
          0., 0., 0., 0., 0., 0., 0., 0., 0., 0., 0., 0., 0., 0., 0., 0.,
          0., 0., 0., 0., 3.36311631e-43, 0., 6.72623263e-44, 0.,
          7.07718238e+34, 3.08607961e-41, 1.82168800e-44, 0.,
          2.96420205e+29, 2.79445261e+20, 7.21330248e+22, 1.59748025e-43,
          0., 0., 6.86636248e-44, 0., 7.07893332e+34, 3.08607961e-41,
          7.07775282e+34, 3.08607961e-41, 7.07771321e+34, 3.08607961e-41,
          0., 0., 1.27798420e-42, 0., 1.34524653e-43, 0., 7.07711108e+34,
          3.08607961e-41, 0., 0., 1.10702579e-43, 0., 0., 0., 0., 0., 0.,
          0., 0., 0., 0., 0., 0., 0., 1.40129846e-45, 0., 1.40129846e-45,
          7.00649232e-45, 9.93478572e-41, 0., 7.11279544e+34,
          3.08607961e-41, -1.05858629e+21, 4.55856403e-41, 0., 0., 0.,
          0., 0., 0., 6.86636248e-44, 0. ]
      - [ 0., 3.08607961e-41, -1.05858629e+21, 4.55856403e-41,
          7.00649232e-44, 0., 0., 0., 1.34524653e-43, 0., 1.34524653e-43,
          0., 7.07761021e+34, 3.08607961e-41, 0., 0., 2.10194770e-44, 0.,
          0., 0., 0., 0., 0., 0., 0., 0., 0., 0., 0., 0., 2.80259693e-45,
          0., 4.20389539e-45, 1.82168800e-44, 9.90788079e-41, 0.,
          7.11279544e+34, 3.08607961e-41, -1.05858629e+21,
          4.55856403e-41, 0., 0., 0., 0., 0., 0., 4.72237582e-43, 0.,
          7.07893332e+34, 3.08607961e-41, 7.07758645e+34, 3.08607961e-41,
          1.40129846e-45, 0., 0., 0., 1.40129846e-44, 2.24207754e-44, 0.,
          0., 0., 0., 0., 0., 0., 0., 0., 0., 0., 0., 0., 0., 0., 0.,
          1.40129846e-45, 5.60519386e-45, 0., 0., 0., 0., 0., 0., 0., 0.,
          0., 0., 0., 0., 0., 0., 0., 0., 0., 0., 0., 0., 0., 0., 0., 0. ]
      - [ 0., 0., 0., 0., 3.36311631e-43, 0., 6.72623263e-44, 0.,
          7.07758645e+34, 3.08607961e-41, 1.82168800e-44, 0.,
          2.81750893e+20, 2.79445261e+20, 7.21330248e+22, 1.59748025e-43,
          0., 0., 6.86636248e-44, 0., 7.07841042e+34, 3.08607961e-41,
          7.07822819e+34, 3.08607961e-41, 1.08991178e+27, 1.41531145e-43,
          7.07809351e+34, 3.08607961e-41, 5.38098610e-43, 0.,
          1.34524653e-43, 0., 7.07770529e+34, 3.08607961e-41, 0., 0.,
          2.10194770e-44, 0., 0., 0., 0., 0., 0., 0., 0., 0., 0., 0., 0.,
          0., 1.40129846e-45, 0., 1.40129846e-45, 1.26116862e-44,
          9.84061847e-41, 0., 7.11279544e+34, 3.08607961e-41,
          -1.05858629e+21, 4.55856403e-41, 0., 0., 0., 0.,
          6.72623263e-44, 0., 1.34524653e-43, 0., 7.07794297e+34,
          3.08607961e-41, 0., 0., 2.10194770e-44, 0., 0., 0., 0., 0., 0.,
          0., 0., 0., 0., 0., 0., 0., 5.60519386e-45, 0., 1.40129846e-45,
          1.82168800e-44, 9.82043977e-41, 0., 7.11279544e+34,
          3.08607961e-41, -1.05858629e+21, 4.55856403e-41, 0., 0., 0.,
          0. ]
      - [ 1., 0., 1.34524653e-43, 0., 7.07801428e+34, 3.08607961e-41, 0.,
          0., 1.10702579e-43, 0., 0., 0., 0., 0., 0., 0., 0., 0., 0., 0.,
          0., 0., 9.80908925e-45, 0., 1.40129846e-45, 1.82168800e-44,
          9.80026107e-41, 0., 7.11279544e+34, 3.08607961e-41,
          -1.05858629e+21, 4.55856403e-41, 0., 0., 0., 0.,
          7.03621104e+22, 1.63867541e+19, 6.86636248e-44, 0.,
          7.07822819e+34, 3.08607961e-41, -1.05858629e+21,
          4.55856403e-41, 6.96551218e+22, 6.41640630e-10, 6.77348844e-10,
          1.30770662e+22, 1.34524653e-43, 0., 1.34524653e-43, 0.,
          7.07808558e+34, 3.08607961e-41, 0., 0., 1.33123354e-43, 0., 0.,
          0., 0., 0., 0., 0., 0., 0., 0., 0., 0., 0., 1.12103877e-44, 0.,
          1.40129846e-45, 1.96181785e-44, 9.77335614e-41, 0.,
          7.11279544e+34, 3.08607961e-41, -1.05858629e+21,
          4.55856403e-41, 0., 0., 0., 0., 1.49230646e-19, 7.58800860e+31,
          2.03188277e-43, 0., 7.07791920e+34, 3.08607961e-41,
          -1.05858629e+21, 4.55856403e-41, 4.20389539e-44, 0.,
          8.04004211e+02, 3.32110837e+12, 6.72623263e-44, 0.,
          6.72623263e-44, 0. ]
      - [ 0., 3.08607961e-41, 2.71985190e+23, 2.26181557e+20,
          2.40246563e+20, 7.00624003e+22, 5.51145379e-11, 4.66602978e-10,
          6.41636966e-10, 1.64430282e+19, 6.86636248e-44, 0.,
          7.07791920e+34, 3.08607961e-41, -1.05858629e+21,
          4.55856403e-41, 3.42833105e+03, 6.08564305e-39, 0., 0.,
          2.69049305e-43, 0., 1.12103877e-43, 0., 7.07576420e+34,
          3.08607961e-41, 0., 0., 1.40129846e-45, 0., 0., 0.,
          2.80259693e-45, 5.60519386e-45, 0., 0., 0., 0., 0., 0.,
          3.81153182e-43, 0., 1.34524653e-43, 0., 7.07818066e+34,
          3.08607961e-41, 0., 0., 1.10702579e-43, 0., 0., 0., 0., 0., 0.,
          0., 0., 0., 0., 0., 0., 0., 2.80259693e-45, 0., 1.40129846e-45,
          2.80259693e-45, 9.72178836e-41, 0., 7.11279544e+34,
          3.08607961e-41, -1.05858629e+21, 4.55856403e-41, 0., 0., 0.,
          0., 6.72623263e-44, 0., 1.34524653e-43, 0., 7.07836288e+34,
          3.08607961e-41, 0., 0., 2.10194770e-44, 0., 0., 0., 0., 0., 0.,
          0., 0., 0., 0., 0., 0., 0., 4.20389539e-45, 0. ]
      - [ 0., 1.26116862e-44, 9.70160966e-41, 0., 7.11279544e+34,
          3.08607961e-41, -1.05858629e+21, 4.55856403e-41, 0., 0., 0.,
          0., 6.72623263e-44, 0., 1.34524653e-43, 0., 7.07843419e+34,
          3.08607961e-41, 0., 0., 1.10702579e-43, 0., 0., 0., 0., 0., 0.,
          0., 0., 0., 0., 0., 0., 0., 7.00649232e-45, 0., 1.40129846e-45,
          1.82168800e-44, 9.68143096e-41, 0., 7.11279544e+34,
          3.08607961e-41, -1.05858629e+21, 4.55856403e-41, 0., 0., 0.,
          0., 0., 0., 6.86636248e-44, 0., 7.07864810e+34, 3.08607961e-41,
          -1.05858629e+21, 4.55856403e-41, 6.72623263e-44, 0., 0., 0.,
          1.34524653e-43, 0., 1.34524653e-43, 0., 7.07850549e+34,
          3.08607961e-41, 0., 0., 1.10702579e-43, 0., 0., 0., 0., 0., 0.,
          0., 0., 0., 0., 0., 0., 0., 8.40779079e-45, 0., 1.40129846e-45,
          1.12103877e-44, 9.65452603e-41, 0., 7.11279544e+34,
          3.08607961e-41, -1.05858629e+21, 4.55856403e-41, 0., 0., 0.,
          0., 0., 0., 2.70450604e-43, 0. ]
      - [ 0., 3.08607961e-41, -1.05858629e+21, 4.55856403e-41,
          1.87279897e+31, 1.41531145e-43, 0., 0., 0., 0., 2.03188277e-43,
          0., 7.07744383e+34, 3.08607961e-41, 7.07777659e+34,
          3.08607961e-41, 7.07802220e+34, 3.08607961e-41, 7.07809351e+34,
          3.08607961e-41, 7.07818858e+34, 3.08607961e-41, 7.07837080e+34,
          3.08607961e-41, 7.07844211e+34, 3.08607961e-41, 7.07851341e+34,
          3.08607961e-41, 7.07860849e+34, 3.08607961e-41, 7.07877487e+34,
          3.08607961e-41, 7.07889371e+34, 3.08607961e-41, 0., 0., 0., 0.,
          3.39016137e-41, 0., 0., 0., 0., 0., 3.36311631e-43, 0.,
          1.34524653e-43, 0., 7.07860057e+34, 3.08607961e-41, 0., 0.,
          1.10702579e-43, 0., 0., 0., 0., 0., 0., 0., 0., 0., 0., 0., 0.,
          0., 1.26116862e-44, 0., 1.40129846e-45, 1.12103877e-44,
          9.60744240e-41, 0., 7.11279544e+34, 3.08607961e-41,
          -1.05858629e+21, 4.55856403e-41, 0., 0., 0., 0.,
          6.72623263e-44, 0., 6.72623263e-44, 0., 7.07867187e+34,
          3.08607961e-41, 6.74221425e+22, 7.03684174e+28, 1.05092172e-38,
          0., 0., 0., 0., 0., 6.86636248e-44, 0., 7.07893332e+34,
          3.08607961e-41, -1.05858629e+21, 4.55856403e-41 ]
      - [ 1., 1.41531145e-43, 0., 0., 2.01786979e-43, 0., 1.34524653e-43,
          0., 7.07876694e+34, 3.08607961e-41, 0., 0., 1.10702579e-43, 0.,
          0., 0., 0., 0., 0., 0., 0., 0., 0., 0., 0., 0., 1.40129846e-44,
          0., 1.40129846e-45, 1.82168800e-44, 9.57381124e-41, 0.,
          7.11279544e+34, 3.08607961e-41, -1.05858629e+21,
          4.55856403e-41, 0., 0., 0., 0., 6.32090029e+28, 7.21376095e+22,
          6.86636248e-44, 0., 7.07916309e+34, 3.08607961e-41,
          -1.05858629e+21, 4.55856403e-41, 1.41233456e+19,
          3.14095630e+03, 9.15856425e+11, 6.20908849e+22, 1.34524653e-43,
          0., 6.72623263e-44, 0., 7.07902840e+34, 3.08607961e-41,
          7.07833119e+34, 3.08607961e-41, 7.27278963e+22, 6.33680898e-39,
          234112144., 51712316., 2.01786979e-43, 0., 6.72623263e-44, 0.,
          7.07789544e+34, 3.08607961e-41, 2.80259693e-45, 0.,
          1.37716892e+11, 4.98669483e-02, 1.74867156e+25, 4.29539469e+24,
          5.28333702e+01, 4.23023986e+21, 6.86636248e-44, 0.,
          7.07799051e+34, 3.08607961e-41, 7.07913932e+34, 3.08607961e-41,
          7.07911555e+34, 3.08607961e-41, 1.93274689e+02, 7.22218596e-04,
          3.36311631e-43, 0., 8.96831017e-44, 0., 7.07689716e+34,
          3.08607961e-41, 0., 0., 4.20389539e-45, 0., 0., 0. ]
      - [ 0., 0., 0., 2.05089917e+03, 3.49523149e+09, 1.51516122e+19,
          7.63707663e-43, 0., 7.08199945e+34, 3.08607961e-41,
          -1.05858629e+21, 4.55856403e-41, 3.42833105e+03,
          6.08564305e-39, 0., 0., 6.72623263e-44, 0., 8.96831017e-44, 0.,
          7.07905217e+34, 3.08607961e-41, 0., 0., 4.20389539e-45, 0., 0.,
          0., 0., 0., 1.40129846e-45, 0., 0., 0., 6.06762235e-43, 0.,
          7.07799051e+34, 3.08607961e-41, 7.07893332e+34, 3.08607961e-41,
          4.90754852e+01, 0., 0., 0., 0., 0., 5.39499909e-43, 0.,
          7.07940077e+34, 3.08607961e-41, 7.07881448e+34, 3.08607961e-41,
          1.40129846e-45, 0., 0., 0., 4.20389539e-45, 5.60519386e-45, 0.,
          0., 0., 0., 0., 0., 0., 0., 0., 0., 0., 0., 0., 0., 0., 0., 0.,
          0., 0., 0., 0., 0., 0., 0., 0., 0., 0., 0., 0., 0., 0., 0., 0.,
          0., 0., 0., 0., 0., 0., 0., 0., 0. ]
      - [ 1., 0., 0., 0., 3.36311631e-43, 0., 6.72623263e-44, 0.,
          7.07930570e+34, 3.08607961e-41, 4.20389539e-44, 0.,
          4.20389539e-44, 0., 3.52782720e+09, 1.22732668e+01,
          4.03573958e-43, 0., 6.72623263e-44, 0., 7.07895709e+34,
          3.08607961e-41, 2.68016282e+32, 7.15554247e+22, 7.22495768e+28,
          4.46280709e+30, 7.27084014e+31, 1.08798717e-19, 6.77185154e+22,
          5.20326395e+28, 6.86636248e-44, 0., 7.07985237e+34,
          3.08607961e-41, 7.07956715e+34, 3.08607961e-41, 7.07945623e+34,
          3.08607961e-41, 7.07952754e+34, 3.08607961e-41, 1.18830110e-42,
          0., 1.34524653e-43, 0., 7.07888579e+34, 3.08607961e-41, 0., 0.,
          1.10702579e-43, 0., 0., 0., 0., 0., 0., 0., 0., 0., 0., 0., 0.,
          0., 1.40129846e-45, 0., 1.40129846e-45, 2.80259693e-45,
          9.44152866e-41, 0., 7.11279544e+34, 3.08607961e-41,
          -1.05858629e+21, 4.55856403e-41, 0., 0., 0., 0., 0., 0.,
          6.86636248e-44, 0., 7.07949584e+34, 3.08607961e-41,
          -1.05858629e+21, 4.55856403e-41, 4.70017926e-39, 0., 0., 0.,
          1.34524653e-43, 0., 1.34524653e-43, 0., 7.07935323e+34,
          3.08607961e-41, 0., 0., 2.10194770e-44, 0., 0., 0. ]
      - [ 0., 0., 0., 0., 0., 0., 0., 0., 0., 0., 2.80259693e-45, 0.,
          1.40129846e-45, 7.00649232e-45, 9.41462373e-41, 0.,
          7.11279544e+34, 3.08607961e-41, -1.05858629e+21,
          4.55856403e-41, 0., 0., 0., 0., 6.72623263e-44, 0.,
          1.34524653e-43, 0., 7.07944831e+34, 3.08607961e-41, 0., 0.,
          1.10702579e-43, 0., 0., 0., 0., 0., 0., 0., 0., 0., 0., 0., 0.,
          0., 4.20389539e-45, 0., 1.40129846e-45, 2.80259693e-45,
          9.39444503e-41, 0., 7.11279544e+34, 3.08607961e-41,
          -1.05858629e+21, 4.55856403e-41, 0., 0., 0., 0., 0., 0.,
          6.06762235e-43, 0., 7.07932946e+34, 3.08607961e-41,
          -1.05858629e+21, 4.55856403e-41, 6.86636248e-44, 0., 0., 0.,
          0., 0., 5.39499909e-43, 0., 7.07985237e+34, 3.08607961e-41,
          7.07932946e+34, 3.08607961e-41, 1.40129846e-45, 0., 0., 0.,
          8.40779079e-45, 1.12103877e-44, 0., 0., 0., 0., 0., 0., 0., 0.,
          0., 0., 0., 0., 0., 0. ]
      - [ 0., 0., 0., 0., 0., 0., 0., 0., 0., 0., 0., 0., 0., 0., 0., 0.,
          0., 0., 0., 0., 0., 0., 0., 0., 0., 0., 0., 0., 0., 0., 0., 0.,
          3.36311631e-43, 0., 6.72623263e-44, 0., 7.07975730e+34,
          3.08607961e-41, 2.66246708e-44, 0., 4.20389539e-44, 0., 0., 0.,
          4.03573958e-43, 0., 6.72623263e-44, 0., 7.07932946e+34,
          3.08607961e-41, 2.40332149e+20, 7.00624003e+22, 1.05056411e-38,
          0., 0., 0., 0., 0., 6.86636248e-44, 0., 7.08027228e+34,
          3.08607961e-41, 7.08011382e+34, 3.08607961e-41, 7.00623823e+22,
          3.03036293e+35, 1.74064642e+25, 3.63833133e-41, 6.72623263e-43,
          0., 1.34524653e-43, 0., 7.07951961e+34, 3.08607961e-41, 0., 0.,
          2.10194770e-44, 0., 0., 0., 0., 0., 0., 0., 0., 0., 0., 0., 0.,
          0., 1.40129846e-45, 0., 1.40129846e-45, 1.26116862e-44,
          9.31373024e-41, 0., 7.11279544e+34, 3.08607961e-41,
          -1.05858629e+21, 4.55856403e-41 ]
      - [ 0., 0., 0., 0., 6.72623263e-44, 0., 6.72623263e-44, 0.,
          7.07973353e+34, 3.08607961e-41, 4.23254851e+21, 7.86747736e+34,
          0., 0., 0., 0., 1.34524653e-43, 0., 1.34524653e-43, 0.,
          7.07980483e+34, 3.08607961e-41, 0., 0., 2.10194770e-44, 0., 0.,
          0., 0., 0., 0., 0., 0., 0., 0., 0., 0., 0., 2.80259693e-45, 0.,
          1.40129846e-45, 1.26116862e-44, 9.28682531e-41, 0.,
          7.11279544e+34, 3.08607961e-41, -1.05858629e+21,
          4.55856403e-41, 0., 0., 0., 0., 6.72623263e-44, 0.,
          6.72623263e-44, 0., 7.07985237e+34, 3.08607961e-41,
          1.65319765e+19, 2.70883231e+23, 4.31950252e-41, 0., 0., 0.,
          1.34524653e-43, 0., 1.34524653e-43, 0., 7.07989991e+34,
          3.08607961e-41, 0., 0., 2.10194770e-44, 0., 0., 0., 0., 0., 0.,
          0., 0., 0., 0., 0., 0., 0., 4.20389539e-45, 0., 1.40129846e-45,
          1.26116862e-44, 9.25992038e-41, 0., 7.11279544e+34,
          3.08607961e-41, -1.05858629e+21, 4.55856403e-41, 0., 0., 0.,
          0. ]
      - [ 0., 0., 1.34524653e-43, 0., 7.07999498e+34, 3.08607961e-41, 0.,
          0., 2.10194770e-44, 0., 0., 0., 0., 0., 0., 0., 0., 0., 0., 0.,
          0., 0., 5.60519386e-45, 0., 1.40129846e-45, 1.26116862e-44,
          9.23974168e-41, 0., 7.11279544e+34, 3.08607961e-41,
          -1.05858629e+21, 4.55856403e-41, 0., 0., 0., 0.,
          6.72623263e-44, 0., 1.12103877e-43, 0., 7.07832327e+34,
          3.08607961e-41, 7.07981276e+34, 3.08607961e-41, 7.07990783e+34,
          3.08607961e-41, 7.08000290e+34, 3.08607961e-41, 7.08007421e+34,
          3.08607961e-41, 7.08018513e+34, 3.08607961e-41, 7.08023267e+34,
          3.08607961e-41, 0., 0., 1.79366203e-43, 0., 1.34524653e-43, 0.,
          7.08006629e+34, 3.08607961e-41, 0., 0., 2.10194770e-44, 0., 0.,
          0., 0., 0., 0., 0., 0., 0., 0., 0., 0., 0., 7.00649232e-45, 0.,
          1.40129846e-45, 1.26116862e-44, 9.20835260e-41, 0.,
          7.11279544e+34, 3.08607961e-41, -1.05858629e+21,
          4.55856403e-41, 0., 0., 0., 0., 0., 0., 0., 0., 0., 0., 0., 0. ]
      - [ 1., 0., 8.40779079e-45, 0., 1.40129846e-45, 1.82168800e-44,
          9.19490013e-41, 0., 7.11279544e+34, 3.08607961e-41,
          -1.05858629e+21, 4.55856403e-41, 0., 0., 0., 0., 0., 0.,
          5.39499909e-43, 0., 7.08053373e+34, 3.08607961e-41,
          -1.05858629e+21, 4.55856403e-41, 1.40129846e-45, 0., 0., 0.,
          2.80259693e-45, 5.60519386e-45, 0., 0., 0., 0., 0., 0., 0., 0.,
          0., 0., 0., 0., 0., 0., 0., 0., 0., 0., 0., 0., 0., 0., 0., 0.,
          0., 0., 0., 0., 0., 0., 0., 0., 0., 0., 0., 0., 0., 0., 0., 0.,
          0., 0., 0., 0., 0., 0., 3.36311631e-43, 0., 6.72623263e-44, 0.,
          7.08043866e+34, 3.08607961e-41, 2.24207754e-44, 0.,
          4.20389539e-44, 0., 0., 0., 4.03573958e-43, 0., 6.72623263e-44,
          0., 7.08027228e+34, 3.08607961e-41, 4.36077518e+27,
          4.54481789e+30, 0., 0., 0., 0. ]
      - [ 2., 0., 6.86636248e-44, 0., 7.08091403e+34, 3.08607961e-41,
          7.08062881e+34, 3.08607961e-41, 7.08058919e+34, 3.08607961e-41,
          0., 0., 6.05360937e-43, 0., 1.34524653e-43, 0., 7.08022474e+34,
          3.08607961e-41, 0., 0., 1.10702579e-43, 0., 0., 0., 0., 0., 0.,
          0., 0., 0., 0., 0., 0., 0., 1.40129846e-45, 0., 1.40129846e-45,
          2.80259693e-45, 9.12091157e-41, 0., 7.11279544e+34,
          3.08607961e-41, -1.05858629e+21, 4.55856403e-41, 0., 0., 0.,
          0., 0., 0., 6.86636248e-44, 0., 7.08062881e+34, 3.08607961e-41,
          -1.05858629e+21, 4.55856403e-41, 4.88385025e-39, 0., 0., 0.,
          1.34524653e-43, 0., 1.34524653e-43, 0., 7.08048620e+34,
          3.08607961e-41, 0., 0., 1.10702579e-43, 0., 0., 0., 0., 0., 0.,
          0., 0., 0., 0., 0., 0., 0., 2.80259693e-45, 0., 1.40129846e-45,
          1.12103877e-44, 9.09400664e-41, 0., 7.11279544e+34,
          3.08607961e-41, -1.05858629e+21, 4.55856403e-41, 0., 0., 0.,
          0., 0., 0., 6.06762235e-43, 0. ]
      - [ 0., 3.08607961e-41, -1.05858629e+21, 4.55856403e-41,
          7.24431922e+22, 0., 0., 0., 0., 0., 5.39499909e-43, 0.,
          7.08091403e+34, 3.08607961e-41, 7.08046243e+34, 3.08607961e-41,
          1.40129846e-45, 0., 0., 0., 8.40779079e-45, 1.12103877e-44, 0.,
          0., 0., 0., 0., 0., 0., 0., 0., 0., 0., 0., 0., 0., 0., 0., 0.,
          0., 0., 0., 0., 0., 0., 0., 0., 0., 0., 0., 0., 0., 0., 0., 0.,
          0., 0., 0., 0., 0., 0., 0., 0., 0., 0., 0., 0., 0.,
          3.36311631e-43, 0., 6.72623263e-44, 0., 7.08081895e+34,
          3.08607961e-41, 2.52233724e-44, 0., 4.20389539e-44, 0., 0., 0.,
          4.03573958e-43, 0., 6.72623263e-44, 0., 7.08046243e+34,
          3.08607961e-41, 4.46280316e+30, 7.27084014e+31, 4.10370255e-41,
          0., 0., 0., 0., 0., 6.86636248e-44, 0., 7.08138147e+34,
          3.08607961e-41, 7.08122302e+34, 3.08607961e-41 ]
      - [ 0., 4.17586942e-41, 7.08111210e+34, 3.08607961e-41,
          6.72623263e-43, 0., 1.34524653e-43, 0., 7.08058127e+34,
          3.08607961e-41, 0., 0., 4.34402524e-44, 0., 0., 0., 0., 0., 0.,
          0., 0., 0., 0., 0., 0., 0., 1.40129846e-45, 0., 4.20389539e-45,
          1.54142831e-44, 9.01329185e-41, 0., 7.11279544e+34,
          3.08607961e-41, -1.05858629e+21, 4.55856403e-41, 0., 0., 0.,
          0., 0., 0., 1.35925951e-43, 0., 7.08103287e+34, 3.08607961e-41,
          -1.05858629e+21, 4.55856403e-41, 4.20389539e-44, 0., 0., 0.,
          6.72623263e-44, 0., 6.72623263e-44, 0., 7.08091403e+34,
          3.08607961e-41, 2.71985190e+23, 1.49741503e+25, 4.54420104e+30,
          2.79445261e+20, 7.21330248e+22, 1.59748025e-43, 2.01786979e-43,
          0., 1.34524653e-43, 0., 7.08086649e+34, 3.08607961e-41, 0., 0.,
          4.34402524e-44, 0., 0., 0., 0., 0., 0., 0., 0., 0., 0., 0., 0.,
          0., 8.40779079e-45, 0., 4.20389539e-45, 1.54142831e-44,
          8.97966069e-41, 0., 7.11279544e+34, 3.08607961e-41,
          -1.05858629e+21, 4.55856403e-41, 0., 0., 0., 0. ]
      - [ 1., 0., 1.35925951e-43, 0., 7.08115171e+34, 3.08607961e-41,
          -1.05858629e+21, 4.55856403e-41, 4.20389539e-44, 0., 0., 0.,
          6.72623263e-44, 0., 6.72623263e-44, 0., 7.08103287e+34,
          3.08607961e-41, 2.71985190e+23, 9.39002804e+26, 3.99294043e+24,
          9.31569907e-39, 0., 0., 2.01786979e-43, 0., 1.34524653e-43, 0.,
          7.08098533e+34, 3.08607961e-41, 0., 0., 2.10194770e-44, 0., 0.,
          0., 0., 0., 0., 0., 0., 0., 0., 0., 0., 0., 2.80259693e-45, 0.,
          4.20389539e-45, 1.82168800e-44, 8.94602953e-41, 0.,
          7.11279544e+34, 3.08607961e-41, -1.05858629e+21,
          4.55856403e-41, 0., 0., 0., 0., 6.72623263e-44, 0.,
          1.34524653e-43, 0., 7.08110418e+34, 3.08607961e-41, 0., 0.,
          2.10194770e-44, 0., 0., 0., 0., 0., 0., 0., 0., 0., 0., 0., 0.,
          0., 4.20389539e-45, 0., 4.20389539e-45, 1.82168800e-44,
          8.92585083e-41, 0., 7.11279544e+34, 3.08607961e-41,
          -1.05858629e+21, 4.55856403e-41, 0., 0., 0., 0.,
          6.72623263e-44, 0., 1.12103877e-43, 0. ]
      - [ 0., 3.08607961e-41, 7.08087441e+34, 3.08607961e-41,
          7.08099326e+34, 3.08607961e-41, 7.08111210e+34, 3.08607961e-41,
          7.08118340e+34, 3.08607961e-41, 7.08129432e+34, 3.08607961e-41,
          7.08134186e+34, 3.08607961e-41, 2.67493864e-41, 0.,
          1.79366203e-43, 0., 1.34524653e-43, 0., 7.08117548e+34,
          3.08607961e-41, 0., 0., 2.10194770e-44, 0., 0., 0., 0., 0., 0.,
          0., 0., 0., 0., 0., 0., 0., 5.60519386e-45, 0., 4.20389539e-45,
          1.82168800e-44, 8.89446174e-41, 0., 7.11279544e+34,
          3.08607961e-41, -1.05858629e+21, 4.55856403e-41, 0., 0., 0.,
          0., 0., 0., 0., 0., 0., 0., 0., 0., 0., 0., 7.00649232e-45, 0.,
          4.20389539e-45, 1.82168800e-44, 8.88100928e-41, 0.,
          7.11279544e+34, 3.08607961e-41, -1.05858629e+21,
          4.55856403e-41, 0., 0., 0., 0., 0., 0., 5.39499909e-43, 0.,
          7.08199945e+34, 3.08607961e-41, -1.05858629e+21,
          4.55856403e-41, 1.40129846e-45, 0., 0., 0., 4.20389539e-45,
          5.60519386e-45, 0., 0., 0., 0., 0., 0., 0., 0., 0., 0. ]
      - [ 1., 0., 0., 0., 0., 0., 1.40129846e-45, 5.60519386e-45, 0., 0.,
          0., 0., 0., 0., 0., 0., 0., 0., 0., 0., 0., 0., 0., 0., 0., 0.,
          0., 0., 0., 0., 0., 0., 0., 0., 0., 0., 3.36311631e-43, 0.,
          6.72623263e-44, 0., 7.08154785e+34, 3.08607961e-41,
          2.24207754e-44, 0., 4.20389539e-44, 0., 0., 0., 4.03573958e-43,
          0., 6.72623263e-44, 0., 7.08138147e+34, 3.08607961e-41,
          4.36077518e+27, 4.54481789e+30, 0., 0., 0., 0., 0., 0.,
          6.86636248e-44, 0., 7.08245105e+34, 3.08607961e-41,
          7.08179346e+34, 3.08607961e-41, 7.08175385e+34, 3.08607961e-41,
          7.08182515e+34, 3.08607961e-41, 6.05360937e-43, 0.,
          1.34524653e-43, 0., 7.08133394e+34, 3.08607961e-41, 0., 0.,
          1.33123354e-43, 0., 0., 0., 0., 0., 0., 0., 0., 0., 0., 0., 0.,
          0., 1.40129846e-45, 0., 1.40129846e-45, 1.96181785e-44,
          8.80702072e-41, 0. ]
      - [ 0., 3.08607961e-41, -1.05858629e+21, 4.55856403e-41, 0., 0.,
          0., 0., 0., 0., 6.86636248e-44, 0., 7.08172216e+34,
          3.08607961e-41, -1.05858629e+21, 4.55856403e-41,
          5.60519386e-44, 0., 0., 0., 1.34524653e-43, 0., 8.96831017e-44,
          0., 7.08215791e+34, 3.08607961e-41, 2.71985190e+23,
          9.53509914e+26, 1.84971308e+31, 4.46280437e+30, 7.27084014e+31,
          2.79114966e+03, 1.86971540e+25, 2.56744166e+29, 0., 0., 0., 0.,
          6.86636248e-44, 0., 7.08179346e+34, 3.08607961e-41,
          7.08186477e+34, 3.08607961e-41, 7.10194177e-39, 0., 0., 0.,
          2.91470081e-43, 0., 1.34524653e-43, 0., 7.08159539e+34,
          3.08607961e-41, 0., 0., 2.10194770e-44, 0., 0., 0., 0., 0., 0.,
          0., 0., 0., 0., 0., 0., 0., 2.80259693e-45, 0., 4.20389539e-45,
          2.80259693e-45, 8.76442125e-41, 0., 7.11279544e+34,
          3.08607961e-41, -1.05858629e+21, 4.55856403e-41, 0., 0., 0.,
          0., 6.72623263e-44, 0., 1.34524653e-43, 0., 7.08174592e+34,
          3.08607961e-41, 0., 0., 1.10702579e-43, 0., 0., 0., 0., 0., 0.,
          0. ]
      - [ 0., 0., 0., 0., 0., 0., 4.20389539e-45, 0., 1.40129846e-45,
          1.12103877e-44, 8.74424255e-41, 0., 7.11279544e+34,
          3.08607961e-41, -1.05858629e+21, 4.55856403e-41, 0., 0., 0.,
          0., 6.72623263e-44, 0., 6.72623263e-44, 0., 7.08179346e+34,
          3.08607961e-41, 1.64605005e+19, 1.66350439e+22, 0., 0., 0., 0.,
          0., 0., 6.86636248e-44, 0., 7.08157162e+34, 3.08607961e-41,
          -1.05858629e+21, 4.55856403e-41, 7.24431922e+22, 0., 0., 0.,
          2.01786979e-43, 0., 6.72623263e-44, 0., 7.08202322e+34,
          3.08607961e-41, 7.08196776e+34, 3.08607961e-41, 0., 0., 0., 0.,
          2.69049305e-43, 0., 1.12103877e-43, 0., 7.08124679e+34,
          3.08607961e-41, 0., 0., 1.40129846e-45, 0., 0., 0.,
          4.20389539e-45, 5.60519386e-45, 0., 0., 0., 0., 0., 0., 0., 0.,
          1.14486085e-42, 0., 7.08164293e+34, 3.08607961e-41,
          7.07893332e+34, 3.08607961e-41, 4.95748594e+33, 3.84954598e+09,
          1.56945428e-43, 0., 0., 0., 6.86636248e-44, 0., 7.08186477e+34,
          3.08607961e-41, 7.08218960e+34, 3.08607961e-41, 7.08211037e+34,
          3.08607961e-41, 7.08216583e+34, 3.08607961e-41 ]
      - [ 0., 0., 8.96831017e-44, 0., 7.07910763e+34, 3.08607961e-41, 0.,
          0., 4.20389539e-45, 0., 0., 0., 0., 0., 0., 0., 0., 0.,
          9.20653091e-43, 0., 7.08164293e+34, 3.08607961e-41,
          -1.05858629e+21, 4.55856403e-41, 8.29286133e+02, 0., 0., 0.,
          6.72623263e-44, 0., 8.96831017e-44, 0., 7.08204699e+34,
          3.08607961e-41, 0., 0., 4.20389539e-45, 0., 0., 0., 0., 0.,
          1.40129846e-45, 0., 0., 0., 7.63707663e-43, 0., 7.08164293e+34,
          3.08607961e-41, -1.05858629e+21, 4.55856403e-41,
          7.10194177e-39, 0., 0., 0., 6.72623263e-44, 0., 8.96831017e-44,
          0., 7.08210245e+34, 3.08607961e-41, 0., 0., 4.20389539e-45, 0.,
          0., 0., 0., 0., 2.80259693e-45, 0., 0., 0., 6.06762235e-43, 0.,
          7.08186477e+34, 3.08607961e-41, 7.08207868e+34, 3.08607961e-41,
          8.10494917e-39, 0., 0., 0., 0., 0., 5.39499909e-43, 0.,
          7.10860427e+34, 3.08607961e-41, 7.10217887e+34, 3.08607961e-41,
          1.40129846e-45, 0., 0., 0., 6.02558340e-44, 8.96831017e-44, 0.,
          0. ]
      - [ 0., 0., 0., 0., 0., 0., 0., 0., 0., 0., 0., 0., 0., 0.,
          2.80259693e-45, 5.60519386e-45, 0., 0., 0., 0., 0., 0., 0., 0.,
          0., 0., 0., 0., 0., 0., 0., 0., 0., 0., 0., 0., 0., 0., 0., 0.,
          0., 0., 0., 0., 3.36311631e-43, 0., 6.72623263e-44, 0.,
          7.08235598e+34, 3.08607961e-41, 2.24207754e-44, 0.,
          4.20389539e-44, 0., 7.04028583e+34, 3.08607961e-41,
          4.03573958e-43, 0., 6.72623263e-44, 0., 7.10203626e+34,
          3.08607961e-41, 4.36077518e+27, 4.54481789e+30, 7.08451891e+34,
          3.08607961e-41, 7.08480413e+34, 3.08607961e-41, 7.08535873e+34,
          3.08607961e-41, 6.86636248e-44, 0., 7.10377135e+34,
          3.08607961e-41, 7.10361290e+34, 3.08607961e-41, 1.09997883e+27,
          9.31142230e-39, 7.10350198e+34, 3.08607961e-41, 1.52461273e-42,
          0., 1.34524653e-43, 0., 7.10227394e+34, 3.08607961e-41, 0., 0.,
          2.10194770e-44, 0., 0., 0., 0., 0., 0., 0., 0., 0., 0., 0. ]
      - [ 1., 0., 2.80259693e-45, 0., 4.20389539e-45, 1.26116862e-44,
          2.03188277e-43, 0., 7.08256990e+34, 3.08607961e-41,
          7.08179346e+34, 3.08607961e-41, 7.74645719e+31, 3.92573765e-41,
          7.10045962e+34, 3.08607961e-41, 6.72623263e-44, 0.,
          6.72623263e-44, 0., 7.08157162e+34, 3.08607961e-41,
          1.68155816e-44, 0., 1.43141816e+10, 4.36077518e+27,
          4.54481789e+30, 0., 0., 0., 6.86636248e-44, 0., 7.08283135e+34,
          3.08607961e-41, 7.08256990e+34, 3.08607961e-41, 0., 0., 0., 0.,
          1.86092436e-42, 0., 1.34524653e-43, 0., 7.08181723e+34,
          3.08607961e-41, 0., 0., 1.10702579e-43, 0., 0., 0., 0., 0., 0.,
          0., 0., 0., 0., 0., 0., 0., 1.40129846e-45, 0., 1.40129846e-45,
          2.80259693e-45, 8.54469765e-41, 0., 7.11279544e+34,
          3.08607961e-41, -1.05858629e+21, 4.55856403e-41, 0., 0., 0.,
          0., 0., 0., 5.39499909e-43, 0., 7.08249859e+34, 3.08607961e-41,
          -1.05858629e+21, 4.55856403e-41, 6.86636248e-44, 0., 0., 0.,
          0., 0., 4.72237582e-43, 0., 7.08283135e+34, 3.08607961e-41,
          7.08249859e+34, 3.08607961e-41, 1.40129846e-45, 0., 0., 0. ]
      - [ 0., 1.12103877e-44, 0., 0., 0., 0., 0., 0., 0., 0., 0., 0., 0.,
          0., 0., 0., 0., 0., 0., 0., 0., 0., 0., 0., 0., 0., 0., 0., 0.,
          0., 0., 0., 0., 0., 0., 0., 0., 0., 0., 0., 0., 0., 0., 0., 0.,
          0., 0., 0., 3.36311631e-43, 0., 6.72623263e-44, 0.,
          7.08249859e+34, 3.08607961e-41, 1.96181785e-44, 0.,
          6.68294058e+22, 4.46280406e+30, 7.27084014e+31, 4.10370255e-41,
          0., 0., 6.86636248e-44, 0., 7.08322749e+34, 3.08607961e-41,
          7.08306903e+34, 3.08607961e-41, 1.78589510e+31, 1.12865260e+27,
          1.05056299e-38, 3.08607961e-41, 6.05360937e-43, 0.,
          1.34524653e-43, 0., 7.08252236e+34, 3.08607961e-41, 0., 0.,
          2.10194770e-44, 0., 0., 0., 0., 0., 0., 0., 0., 0., 0., 0., 0.,
          0., 1.40129846e-45, 0., 1.40129846e-45, 1.82168800e-44,
          8.47070909e-41, 0. ]
      - [ 2., 3.08607961e-41, -1.05858629e+21, 4.55856403e-41, 0., 0.,
          0., 0., 6.72623263e-44, 0., 1.34524653e-43, 0., 7.08278381e+34,
          3.08607961e-41, 0., 0., 2.10194770e-44, 0., 0., 0., 0., 0., 0.,
          0., 0., 0., 0., 0., 0., 0., 2.80259693e-45, 0., 1.40129846e-45,
          1.82168800e-44, 8.45053039e-41, 0., 7.08186477e+34,
          3.08607961e-41, -1.05858629e+21, 4.55856403e-41, 0., 0., 0.,
          0., 6.72623263e-44, 0., 1.34524653e-43, 0., 7.08285512e+34,
          3.08607961e-41, 0., 0., 1.10702579e-43, 0., 0., 0., 0., 0., 0.,
          0., 0., 0., 0., 0., 0., 0., 4.20389539e-45, 0., 1.40129846e-45,
          1.12103877e-44, 8.43035169e-41, 0., 7.08186477e+34,
          3.08607961e-41, -1.05858629e+21, 4.55856403e-41, 0., 0., 0.,
          0., 0., 0., 6.86636248e-44, 0., 7.08306903e+34, 3.08607961e-41,
          -1.05858629e+21, 4.55856403e-41, 7.24431922e+22, 0., 0., 0.,
          1.34524653e-43, 0., 1.34524653e-43, 0., 7.08292642e+34,
          3.08607961e-41, 0., 0. ]
      - [ 0., 0., 0., 0., 0., 0., 0., 0., 0., 0., 0., 0., 0., 0.,
          5.60519386e-45, 0., 1.40129846e-45, 1.54142831e-44,
          8.40344676e-41, 0., 7.08186477e+34, 3.08607961e-41,
          -1.05858629e+21, 4.55856403e-41, 0., 0., 0., 0., 0., 0.,
          1.35925951e-43, 0., 7.08276004e+34, 3.08607961e-41,
          -1.05858629e+21, 4.55856403e-41, 4.20389539e-44, 0., 0., 0.,
          6.72623263e-44, 0., 6.72623263e-44, 0., 7.08306903e+34,
          3.08607961e-41, 2.71985190e+23, 1.49741503e+25, 4.54420104e+30,
          2.79445261e+20, 7.21330248e+22, 1.59748025e-43, 2.01786979e-43,
          0., 1.12103877e-43, 0., 7.08195984e+34, 3.08607961e-41,
          7.08279174e+34, 3.08607961e-41, 7.08286304e+34, 3.08607961e-41,
          7.08293435e+34, 3.08607961e-41, 7.08302942e+34, 3.08607961e-41,
          7.08318788e+34, 3.08607961e-41, 0., 0., 0., 0., 3.13890856e-43,
          0., 1.34524653e-43, 0., 7.08302150e+34, 3.08607961e-41, 0., 0.,
          4.34402524e-44, 0., 0., 0., 0., 0., 0., 0., 0., 0., 0., 0., 0.,
          0., 7.00649232e-45, 0., 1.40129846e-45, 1.54142831e-44,
          8.35860521e-41, 0. ]
      - [ 0., 3.08607961e-41, -1.05858629e+21, 4.55856403e-41, 0., 0.,
          0., 0., 6.72623263e-44, 0., 6.72623263e-44, 0., 7.08276004e+34,
          3.08607961e-41, 2.71985190e+23, 1.49741503e+25, 4.54420104e+30,
          2.79445261e+20, 7.21330248e+22, 1.59748025e-43, 0., 0.,
          4.72237582e-43, 0., 7.08348894e+34, 3.08607961e-41,
          -1.05858629e+21, 4.55856403e-41, 1.40129846e-45, 0., 0., 0.,
          4.20389539e-45, 5.60519386e-45, 0., 0., 0., 0., 0., 0., 0., 0.,
          0., 0., 0., 0., 0., 0., 0., 0., 0., 0., 0., 0., 0., 0., 0., 0.,
          0., 0., 0., 0., 0., 0., 0., 0., 0., 0., 0., 0., 0., 0., 0., 0.,
          0., 0., 0., 0., 0., 0., 3.36311631e-43, 0., 6.72623263e-44, 0.,
          7.08322749e+34, 3.08607961e-41, 1.68155816e-44, 0.,
          1.61376553e+10, 4.36077518e+27, 4.54481789e+30, 0., 0., 0.,
          6.86636248e-44, 0., 7.08396431e+34, 3.08607961e-41,
          7.08367909e+34, 3.08607961e-41 ]
      - [ 1., 3.08607961e-41, 7.08363948e+34, 3.08607961e-41,
          6.05360937e-43, 0., 1.34524653e-43, 0., 7.08317995e+34,
          3.08607961e-41, 0., 0., 1.10702579e-43, 0., 0., 0., 0., 0., 0.,
          0., 0., 0., 0., 0., 0., 0., 1.40129846e-45, 0., 1.40129846e-45,
          2.80259693e-45, 8.28461665e-41, 0., 7.08186477e+34,
          3.08607961e-41, -1.05858629e+21, 4.55856403e-41, 0., 0., 0.,
          0., 0., 0., 6.86636248e-44, 0., 7.08358402e+34, 3.08607961e-41,
          -1.05858629e+21, 4.55856403e-41, 1.76409464e-41, 0., 0., 0.,
          1.34524653e-43, 0., 1.34524653e-43, 0., 7.08344141e+34,
          3.08607961e-41, 0., 0., 1.10702579e-43, 0., 0., 0., 0., 0., 0.,
          0., 0., 0., 0., 0., 0., 0., 2.80259693e-45, 0., 1.40129846e-45,
          2.80259693e-45, 8.25771172e-41, 0., 7.08186477e+34,
          3.08607961e-41, -1.05858629e+21, 4.55856403e-41, 0., 0., 0.,
          0., 0., 0., 6.86636248e-44, 0., 7.08367909e+34, 3.08607961e-41,
          -1.05858629e+21, 4.55856403e-41, 6.86636248e-44, 0., 0., 0. ]
      - [ 1., 0., 1.34524653e-43, 0., 7.08353648e+34, 3.08607961e-41, 0.,
          0., 1.10702579e-43, 0., 0., 0., 0., 0., 0., 0., 0., 0., 0., 0.,
          0., 0., 4.20389539e-45, 0., 1.40129846e-45, 2.80259693e-45,
          8.23080679e-41, 0., 7.08186477e+34, 3.08607961e-41,
          -1.05858629e+21, 4.55856403e-41, 0., 0., 0., 0., 0., 0.,
          6.06762235e-43, 0., 7.08341764e+34, 3.08607961e-41,
          -1.05858629e+21, 4.55856403e-41, 6.72623263e-44, 0., 0., 0.,
          0., 0., 5.39499909e-43, 0., 7.08396431e+34, 3.08607961e-41,
          7.08341764e+34, 3.08607961e-41, 1.40129846e-45, 0., 0., 0.,
          2.80259693e-45, 5.60519386e-45, 0., 0., 0., 0., 0., 0., 0., 0.,
          0., 0., 0., 0., 0., 0., 0., 0., 0., 0., 0., 0., 0., 0., 0., 0.,
          0., 0., 0., 0., 0., 0., 0., 0., 0., 0., 0., 0., 0., 0. ]
      - [ 1., 0., 0., 0., 0., 0., 0., 0., 3.36311631e-43, 0.,
          6.72623263e-44, 0., 7.08386924e+34, 3.08607961e-41,
          2.24207754e-44, 0., 4.20389539e-44, 0., 0., 0., 4.03573958e-43,
          0., 6.72623263e-44, 0., 7.08341764e+34, 3.08607961e-41,
          4.36077518e+27, 4.54481789e+30, 0., 0., 0., 0., 0., 0.,
          6.86636248e-44, 0., 7.08434461e+34, 3.08607961e-41,
          7.08405939e+34, 3.08607961e-41, 7.08401977e+34, 3.08607961e-41,
          0., 0., 6.72623263e-43, 0., 1.34524653e-43, 0., 7.08363155e+34,
          3.08607961e-41, 0., 0., 1.10702579e-43, 0., 0., 0., 0., 0., 0.,
          0., 0., 0., 0., 0., 0., 0., 1.40129846e-45, 0., 1.40129846e-45,
          7.00649232e-45, 8.15009200e-41, 0., 7.08186477e+34,
          3.08607961e-41, -1.05858629e+21, 4.55856403e-41, 0., 0., 0.,
          0., 0., 0., 6.86636248e-44, 0., 7.08405939e+34, 3.08607961e-41,
          -1.05858629e+21, 4.55856403e-41, 6.86636248e-44, 0., 0., 0.,
          1.34524653e-43, 0., 1.34524653e-43, 0., 7.08391678e+34,
          3.08607961e-41, 0., 0. ]
      - [ 0., 0., 0., 0., 0., 0., 0., 0., 0., 0., 0., 0., 0., 0.,
          2.80259693e-45, 0., 1.40129846e-45, 7.00649232e-45,
          8.12318707e-41, 0., 7.08186477e+34, 3.08607961e-41,
          -1.05858629e+21, 4.55856403e-41, 0., 0., 0., 0., 0., 0.,
          6.06762235e-43, 0., 7.08389301e+34, 3.08607961e-41,
          -1.05858629e+21, 4.55856403e-41, 1.76409464e-41, 0., 0., 0.,
          0., 0., 5.39499909e-43, 0., 7.08434461e+34, 3.08607961e-41,
          7.08389301e+34, 3.08607961e-41, 1.40129846e-45, 0., 0., 0.,
          4.20389539e-45, 5.60519386e-45, 0., 0., 0., 0., 0., 0., 0., 0.,
          0., 0., 0., 0., 0., 0., 0., 0., 0., 0., 0., 0., 0., 0., 0., 0.,
          0., 0., 0., 0., 0., 0., 0., 0., 0., 0., 0., 0., 0., 0., 0., 0.,
          0., 0., 0., 0., 0., 0. ]
      - [ 0., 0., 6.72623263e-44, 0., 7.08424953e+34, 3.08607961e-41,
          2.38220739e-44, 0., 4.20389539e-44, 0., 0., 0., 4.03573958e-43,
          0., 6.72623263e-44, 0., 7.08389301e+34, 3.08607961e-41,
          2.79445261e+20, 7.21330248e+22, 1.59748025e-43, 0., 0., 0., 0.,
          0., 6.86636248e-44, 0., 7.08477244e+34, 3.08607961e-41,
          7.08448722e+34, 3.08607961e-41, 7.08437630e+34, 3.08607961e-41,
          7.08444760e+34, 3.08607961e-41, 6.72623263e-43, 0.,
          1.34524653e-43, 0., 7.08401185e+34, 3.08607961e-41, 0., 0.,
          2.10194770e-44, 0., 0., 0., 0., 0., 0., 0., 0., 0., 0., 0., 0.,
          0., 1.40129846e-45, 0., 1.40129846e-45, 1.26116862e-44,
          8.04247228e-41, 0., 7.08186477e+34, 3.08607961e-41,
          -1.05858629e+21, 4.55856403e-41, 0., 0., 0., 0.,
          6.72623263e-44, 0., 1.34524653e-43, 0., 7.08429707e+34,
          3.08607961e-41, 0., 0., 2.10194770e-44, 0., 0., 0., 0., 0., 0.,
          0., 0., 0., 0., 0., 0., 0., 2.80259693e-45, 0., 1.40129846e-45,
          1.82168800e-44, 8.02229358e-41, 0. ]
      - [ 0., 3.08607961e-41, -1.05858629e+21, 4.55856403e-41, 0., 0.,
          0., 0., 6.72623263e-44, 0., 1.34524653e-43, 0., 7.08436838e+34,
          3.08607961e-41, 0., 0., 1.10702579e-43, 0., 0., 0., 0., 0., 0.,
          0., 0., 0., 0., 0., 0., 0., 4.20389539e-45, 0., 1.40129846e-45,
          1.12103877e-44, 8.00211488e-41, 0., 7.08186477e+34,
          3.08607961e-41, -1.05858629e+21, 4.55856403e-41, 0., 0., 0.,
          0., 0., 0., 6.06762235e-43, 0., 7.08427330e+34, 3.08607961e-41,
          -1.05858629e+21, 4.55856403e-41, 1.87279897e+31,
          1.41531145e-43, 0., 0., 0., 0., 5.39499909e-43, 0.,
          7.08477244e+34, 3.08607961e-41, 7.08427330e+34, 3.08607961e-41,
          1.40129846e-45, 0., 0., 0., 1.40129846e-45, 5.60519386e-45, 0.,
          0., 0., 0., 0., 0., 0., 0., 0., 0., 0., 0., 0., 0., 0., 0., 0.,
          0., 0., 0., 0., 0., 0., 0., 0., 0., 0., 0., 0., 0. ]
      - [ 1., 0., 0., 0., 0., 0., 0., 0., 0., 0., 0., 0., 0., 0., 0., 0.,
          3.36311631e-43, 0., 6.72623263e-44, 0., 7.08467737e+34,
          3.08607961e-41, 2.66246708e-44, 0., 4.20389539e-44, 0., 0., 0.,
          4.03573958e-43, 0., 6.72623263e-44, 0., 7.08427330e+34,
          3.08607961e-41, 2.40332149e+20, 7.00624003e+22, 1.05056411e-38,
          0., 0., 0., 0., 0., 6.86636248e-44, 0., 7.08519235e+34,
          3.08607961e-41, 7.08477244e+34, 3.08607961e-41, 0., 0., 0., 0.,
          6.72623263e-43, 0., 1.34524653e-43, 0., 7.08443968e+34,
          3.08607961e-41, 0., 0., 2.10194770e-44, 0., 0., 0., 0., 0., 0.,
          0., 0., 0., 0., 0., 0., 0., 1.40129846e-45, 0., 1.40129846e-45,
          1.26116862e-44, 7.92140009e-41, 0., 7.08186477e+34,
          3.08607961e-41, -1.05858629e+21, 4.55856403e-41, 0., 0., 0.,
          0., 0., 0., 5.39499909e-43, 0., 7.08519235e+34, 3.08607961e-41,
          7.08470113e+34, 3.08607961e-41, 1.40129846e-45, 0., 0., 0. ]
      - [ 0., 5.60519386e-45, 0., 0., 0., 0., 0., 0., 0., 0., 0., 0., 0.,
          0., 0., 0., 0., 0., 1.40129846e-45, 5.60519386e-45, 0., 0., 0.,
          0., 0., 0., 0., 0., 0., 0., 0., 0., 0., 0., 0., 0., 0., 0., 0.,
          0., 0., 0., 0., 0., 0., 0., 0., 0., 3.36311631e-43, 0.,
          6.72623263e-44, 0., 7.08493882e+34, 3.08607961e-41,
          2.52233724e-44, 0., 4.20389539e-44, 0., 0., 0., 4.03573958e-43,
          0., 6.72623263e-44, 0., 7.08470113e+34, 3.08607961e-41,
          4.46280860e+30, 7.27084014e+31, 4.10370255e-41, 0., 0., 0., 0.,
          0., 6.86636248e-44, 0., 7.08558849e+34, 3.08607961e-41,
          7.08503389e+34, 3.08607961e-41, 0., 0., 0., 0., 6.05360937e-43,
          0., 1.34524653e-43, 0., 7.08472490e+34, 3.08607961e-41, 0., 0.,
          1.33123354e-43, 0., 0., 0., 0., 0., 0., 0. ]
      - [ 0., 0., 0., 0., 0., 0., 1.40129846e-45, 0., 1.40129846e-45,
          1.96181785e-44, 7.84741153e-41, 0., 7.08186477e+34,
          3.08607961e-41, -1.05858629e+21, 4.55856403e-41, 0., 0., 0.,
          0., 0., 0., 2.03188277e-43, 0., 7.08496259e+34, 3.08607961e-41,
          -1.05858629e+21, 4.55856403e-41, 5.18480432e-44, 0., 0., 0.,
          6.72623263e-44, 0., 6.72623263e-44, 0., 7.08503389e+34,
          3.08607961e-41, 2.71985190e+23, 1.51252660e+25, 60136888.,
          1.63377142e+10, 4.36077518e+27, 4.54481789e+30, 4.73993157e+30,
          1.52741533e-43, 6.86636248e-44, 0., 7.08496259e+34,
          3.08607961e-41, -1.05858629e+21, 4.55856403e-41,
          1.76843866e-41, 0., 0., 0., 2.69049305e-43, 0., 6.72623263e-44,
          0., 7.08521612e+34, 3.08607961e-41, 7.08516066e+34,
          3.08607961e-41, 0., 0., 0., 0., 3.36311631e-43, 0.,
          1.12103877e-43, 0., 7.08314034e+34, 3.08607961e-41, 0., 0.,
          1.40129846e-45, 0., 0., 0., 2.80259693e-45, 5.60519386e-45, 0.,
          0., 0., 0., 0., 0., 0., 0., 9.87915417e-43, 0., 7.09130084e+34,
          3.08607961e-41, 7.08164293e+34, 3.08607961e-41, 4.68937072e+27,
          0., 0., 0. ]
      - [ 1., 0., 6.86636248e-44, 0., 7.08503389e+34, 3.08607961e-41,
          7.08532704e+34, 3.08607961e-41, 7.08530327e+34, 3.08607961e-41,
          0., 0., 1.34524653e-43, 0., 8.96831017e-44, 0., 7.08169046e+34,
          3.08607961e-41, 0., 0., 4.20389539e-45, 0., 0., 0., 0., 0.,
          1.40129846e-45, 0., 0., 0., 7.63707663e-43, 0., 7.08939144e+34,
          3.08607961e-41, -1.05858629e+21, 4.55856403e-41,
          1.76843866e-41, 0., 0., 0., 6.72623263e-44, 0., 8.96831017e-44,
          0., 7.08523989e+34, 3.08607961e-41, 0., 0., 4.20389539e-45, 0.,
          0., 0., 0., 0., 2.80259693e-45, 0., 0., 0., 6.06762235e-43, 0.,
          7.08503389e+34, 3.08607961e-41, 7.08519235e+34, 3.08607961e-41,
          1.80431190e-41, 0., 0., 0., 0., 0., 5.39499909e-43, 0.,
          7.08558849e+34, 3.08607961e-41, 7.08496259e+34, 3.08607961e-41,
          1.40129846e-45, 0., 0., 0., 1.68155816e-44, 2.24207754e-44, 0.,
          0., 0., 0., 0., 0., 0., 0., 0., 0., 0., 0., 0., 0., 0., 0., 0.,
          0. ]
      - [ 0., 0., 0., 0., 0., 0., 0., 0., 0., 0., 0., 0., 0., 0., 0., 0.,
          0., 0., 0., 0., 0., 0., 0., 0., 0., 0., 0., 0., 3.36311631e-43,
          0., 6.72623263e-44, 0., 7.08549342e+34, 3.08607961e-41,
          2.52233724e-44, 0., 4.20389539e-44, 0., 0., 0., 4.03573958e-43,
          0., 6.72623263e-44, 0., 7.08496259e+34, 3.08607961e-41,
          4.46280316e+30, 7.27084014e+31, 4.10370255e-41, 0., 0., 0., 0.,
          0., 6.86636248e-44, 0., 7.08598463e+34, 3.08607961e-41,
          7.08584994e+34, 3.08607961e-41, 1.78267756e+19, 1.10218201e+24,
          4.16859373e+34, 3.08607961e-41, 1.43492963e-42, 0.,
          1.34524653e-43, 0., 7.08498636e+34, 3.08607961e-41, 0., 0.,
          2.10194770e-44, 0., 0., 0., 0., 0., 0., 0., 0., 0., 0., 0., 0.,
          0., 1.40129846e-45, 0., 1.40129846e-45, 1.26116862e-44,
          7.69046610e-41, 0., 7.08186477e+34, 3.08607961e-41,
          -1.05858629e+21, 4.55856403e-41, 0., 0., 0., 0. ]
      - [ 0., 0., 1.34524653e-43, 0., 7.08554095e+34, 3.08607961e-41, 0.,
          0., 1.10702579e-43, 0., 0., 0., 0., 0., 0., 0., 0., 0., 0., 0.,
          0., 0., 5.60519386e-45, 0., 1.40129846e-45, 1.82168800e-44,
          7.67028740e-41, 0., 7.08186477e+34, 3.08607961e-41,
          -1.05858629e+21, 4.55856403e-41, 0., 0., 0., 0., 0., 0.,
          6.86636248e-44, 0., 7.08575487e+34, 3.08607961e-41,
          -1.05858629e+21, 4.55856403e-41, 6.86636248e-44, 0., 0., 0.,
          1.34524653e-43, 0., 1.34524653e-43, 0., 7.08561226e+34,
          3.08607961e-41, 0., 0., 1.10702579e-43, 0., 0., 0., 0., 0., 0.,
          0., 0., 0., 0., 0., 0., 0., 9.80908925e-45, 0., 1.40129846e-45,
          1.82168800e-44, 7.64338247e-41, 0., 7.08186477e+34,
          3.08607961e-41, -1.05858629e+21, 4.55856403e-41, 0., 0., 0.,
          0., 0., 0., 6.86636248e-44, 0., 7.08584994e+34, 3.08607961e-41,
          -1.05858629e+21, 4.55856403e-41, 6.72623263e-44, 0., 0., 0.,
          1.34524653e-43, 0., 1.34524653e-43, 0. ]
      - [ 1., 3.08607961e-41, 0., 0., 1.10702579e-43, 0., 0., 0., 0., 0.,
          0., 0., 0., 0., 0., 0., 0., 0., 1.12103877e-44, 0.,
          1.40129846e-45, 1.12103877e-44, 7.61647754e-41, 0.,
          7.08186477e+34, 3.08607961e-41, -1.05858629e+21,
          4.55856403e-41, 0., 0., 0., 0., 0., 0., 6.86636248e-44, 0.,
          7.08551718e+34, 3.08607961e-41, -1.05858629e+21,
          4.55856403e-41, 1.87279897e+31, 1.41531145e-43, 0., 0.,
          1.34524653e-43, 0., 1.12103877e-43, 0., 7.08515273e+34,
          3.08607961e-41, 7.08718098e+34, 3.08607961e-41, 7.08725228e+34,
          3.08607961e-41, 7.08734735e+34, 3.08607961e-41, 7.08746620e+34,
          3.08607961e-41, 7.08758504e+34, 3.08607961e-41, 7.08765634e+34,
          3.08607961e-41, 7.08611140e+34, 3.08607961e-41, 2.46628530e-43,
          0., 1.34524653e-43, 0., 7.08580241e+34, 3.08607961e-41, 0., 0.,
          1.10702579e-43, 0., 0., 0., 0., 0., 0., 0., 0., 0., 0., 0., 0.,
          0., 1.26116862e-44, 0., 1.40129846e-45, 1.82168800e-44,
          7.57836222e-41, 0., 7.08186477e+34, 3.08607961e-41,
          -1.05858629e+21, 4.55856403e-41, 0., 0., 0., 0. ]
      - [ 0., 0., 1.34524653e-43, 0., 7.08593709e+34, 3.08607961e-41, 0.,
          0., 1.10702579e-43, 0., 0., 0., 0., 0., 0., 0., 0., 0., 0., 0.,
          0., 0., 1.40129846e-44, 0., 1.40129846e-45, 1.82168800e-44,
          7.55818353e-41, 0., 7.08186477e+34, 3.08607961e-41,
          -1.05858629e+21, 4.55856403e-41, 0., 0., 0., 0., 0., 0.,
          6.86636248e-44, 0., 7.08615101e+34, 3.08607961e-41,
          -1.05858629e+21, 4.55856403e-41, 6.72623263e-44, 0., 0., 0.,
          1.34524653e-43, 0., 1.34524653e-43, 0., 7.08600840e+34,
          3.08607961e-41, 0., 0., 1.10702579e-43, 0., 0., 0., 0., 0., 0.,
          0., 0., 0., 0., 0., 0., 0., 1.54142831e-44, 0., 1.40129846e-45,
          1.12103877e-44, 7.53127860e-41, 0., 7.08186477e+34,
          3.08607961e-41, -1.05858629e+21, 4.55856403e-41, 0., 0., 0.,
          0., 0., 0., 6.86636248e-44, 0., 7.08624608e+34, 3.08607961e-41,
          -1.05858629e+21, 4.55856403e-41, 7.24431922e+22, 0., 0., 0.,
          1.34524653e-43, 0., 1.34524653e-43, 0. ]
      - [ 0., 3.08607961e-41, 0., 0., 1.10702579e-43, 0., 0., 0., 0., 0.,
          0., 0., 0., 0., 0., 0., 0., 0., 2.80259693e-45, 0.,
          1.40129846e-45, 2.80259693e-45, 7.50437367e-41, 0.,
          7.08186477e+34, 3.08607961e-41, -1.05858629e+21,
          4.55856403e-41, 0., 0., 0., 0., 0., 0., 2.70450604e-43, 0.,
          7.08641246e+34, 3.08607961e-41, -1.05858629e+21,
          4.55856403e-41, 6.86636248e-44, 0., 0., 0., 0., 0.,
          2.03188277e-43, 0., 7.08479621e+34, 3.08607961e-41,
          7.08535081e+34, 3.08607961e-41, 7.08562018e+34, 3.08607961e-41,
          7.08571525e+34, 3.08607961e-41, 7.08581033e+34, 3.08607961e-41,
          7.08594502e+34, 3.08607961e-41, 7.08601632e+34, 3.08607961e-41,
          7.08611140e+34, 3.08607961e-41, 7.08620647e+34, 3.08607961e-41,
          7.08637285e+34, 3.08607961e-41, 7.08644415e+34, 3.08607961e-41,
          7.08653923e+34, 3.08607961e-41, 7.08663430e+34, 3.08607961e-41,
          0., 0., 0., 0., 0., 0., 3.36311631e-43, 0., 1.34524653e-43, 0.,
          7.08619855e+34, 3.08607961e-41, 0., 0., 2.10194770e-44, 0., 0.,
          0., 0., 0., 0., 0., 0., 0., 0., 0. ]
      - [ 1., 0., 4.20389539e-45, 0., 1.40129846e-45, 1.26116862e-44,
          7.45729004e-41, 0., 7.08186477e+34, 3.08607961e-41,
          -1.05858629e+21, 4.55856403e-41, 0., 0., 0., 0.,
          6.72623263e-44, 0., 1.34524653e-43, 0., 7.08636493e+34,
          3.08607961e-41, 0., 0., 1.10702579e-43, 0., 0., 0., 0., 0., 0.,
          0., 0., 0., 0., 0., 0., 0., 7.00649232e-45, 0., 1.40129846e-45,
          1.82168800e-44, 7.43711134e-41, 0., 7.08186477e+34,
          3.08607961e-41, -1.05858629e+21, 4.55856403e-41, 0., 0., 0.,
          0., 0., 0., 6.86636248e-44, 0., 7.08657884e+34, 3.08607961e-41,
          -1.05858629e+21, 4.55856403e-41, 6.72623263e-44, 0., 0., 0.,
          1.34524653e-43, 0., 1.34524653e-43, 0., 7.08643623e+34,
          3.08607961e-41, 0., 0., 1.10702579e-43, 0., 0., 0., 0., 0., 0.,
          0., 0., 0., 0., 0., 0., 0., 8.40779079e-45, 0., 1.40129846e-45,
          1.12103877e-44, 7.41020641e-41, 0., 7.08186477e+34,
          3.08607961e-41, -1.05858629e+21, 4.55856403e-41, 0., 0., 0.,
          0. ]
      - [ 0., 0., 6.86636248e-44, 0., 7.08667392e+34, 3.08607961e-41,
          -1.05858629e+21, 4.55856403e-41, 1.87279897e+31,
          1.41531145e-43, 0., 0., 1.34524653e-43, 0., 1.34524653e-43, 0.,
          7.08653130e+34, 3.08607961e-41, 0., 0., 1.10702579e-43, 0., 0.,
          0., 0., 0., 0., 0., 0., 0., 0., 0., 0., 0., 1.68155816e-44, 0.,
          1.40129846e-45, 1.26116862e-44, 7.38330148e-41, 0.,
          7.08186477e+34, 3.08607961e-41, -1.05858629e+21,
          4.55856403e-41, 0., 0., 0., 0., 0., 0., 6.06762235e-43, 0.,
          7.08695914e+34, 3.08607961e-41, -1.05858629e+21,
          4.55856403e-41, 0., 0., 0., 0., 0., 0., 5.39499909e-43, 0.,
          7.08695914e+34, 3.08607961e-41, -1.05858629e+21,
          4.55856403e-41, 1.40129846e-45, 0., 0., 0., 1.40129846e-45,
          5.60519386e-45, 0., 0., 0., 0., 0., 0., 0., 0., 0., 0., 0., 0.,
          0., 0., 0., 0., 0., 0., 0., 0., 0., 0., 0., 0., 0., 0. ]
      - [ 0., 0., 0., 0., 0., 0., 0., 0., 0., 0., 0., 0., 0., 0., 0., 0.,
          0., 0., 0., 0., 3.36311631e-43, 0., 6.72623263e-44, 0.,
          7.08686406e+34, 3.08607961e-41, 2.94272678e-44, 0.,
          4.20389539e-44, 0., 0., 0., 4.03573958e-43, 0., 6.72623263e-44,
          0., 7.08669768e+34, 3.08607961e-41, 1.92868882e+31,
          2.79445261e+20, 7.21330248e+22, 1.59748025e-43, 0., 0., 0., 0.,
          6.86636248e-44, 0., 7.08722059e+34, 3.08607961e-41,
          7.08695914e+34, 3.08607961e-41, 0., 0., 0., 0., 6.72623263e-43,
          0., 1.34524653e-43, 0., 7.08662638e+34, 3.08607961e-41, 0., 0.,
          2.10194770e-44, 0., 0., 0., 0., 0., 0., 0., 0., 0., 0., 0., 0.,
          0., 1.40129846e-45, 0., 1.40129846e-45, 1.26116862e-44,
          7.30258669e-41, 0., 7.08186477e+34, 3.08607961e-41,
          -1.05858629e+21, 4.55856403e-41, 0., 0., 0., 0., 0., 0.,
          5.39499909e-43, 0., 7.08722059e+34, 3.08607961e-41,
          7.08688783e+34, 3.08607961e-41 ]
      - [ 1., 0., 0., 0., 8.40779079e-45, 1.12103877e-44, 0., 0., 0., 0.,
          0., 0., 0., 0., 0., 0., 0., 0., 0., 0., 0., 0., 0., 0., 0., 0.,
          0., 0., 0., 0., 0., 0., 0., 0., 0., 0., 0., 0., 0., 0., 0., 0.,
          0., 0., 0., 0., 0., 0., 0., 0., 0., 0., 3.36311631e-43, 0.,
          6.72623263e-44, 0., 7.08712552e+34, 3.08607961e-41,
          2.94272678e-44, 0., 4.20389539e-44, 0., 0., 0., 4.03573958e-43,
          0., 6.72623263e-44, 0., 7.08688783e+34, 3.08607961e-41,
          7.20844941e+31, 2.79445261e+20, 7.21330248e+22, 1.59748025e-43,
          0., 0., 0., 0., 6.86636248e-44, 0., 7.08762465e+34,
          3.08607961e-41, 7.08750581e+34, 3.08607961e-41, 1.84974173e+31,
          3.08509870e-41, 7.08734735e+34, 3.08607961e-41, 6.05360937e-43,
          0., 1.34524653e-43, 0., 7.08691160e+34, 3.08607961e-41, 0., 0.,
          2.10194770e-44, 0., 0., 0. ]
      - [ 1., 0., 0., 0., 0., 0., 0., 0., 0., 0., 1.40129846e-45, 0.,
          1.40129846e-45, 1.82168800e-44, 7.22859813e-41, 0.,
          7.08186477e+34, 3.08607961e-41, -1.05858629e+21,
          4.55856403e-41, 0., 0., 0., 0., 6.72623263e-44, 0.,
          1.34524653e-43, 0., 7.08717305e+34, 3.08607961e-41, 0., 0.,
          1.10702579e-43, 0., 0., 0., 0., 0., 0., 0., 0., 0., 0., 0., 0.,
          0., 2.80259693e-45, 0., 1.40129846e-45, 1.12103877e-44,
          7.20841943e-41, 0., 7.08186477e+34, 3.08607961e-41,
          -1.05858629e+21, 4.55856403e-41, 0., 0., 0., 0., 0., 0.,
          6.86636248e-44, 0., 7.08738697e+34, 3.08607961e-41,
          -1.05858629e+21, 4.55856403e-41, 7.24431922e+22, 0., 0., 0.,
          1.34524653e-43, 0., 1.34524653e-43, 0., 7.08724436e+34,
          3.08607961e-41, 0., 0., 4.34402524e-44, 0., 0., 0., 0., 0., 0.,
          0., 0., 0., 0., 0., 0., 0., 4.20389539e-45, 0., 1.40129846e-45,
          1.54142831e-44, 7.18151450e-41, 0. ]
      - [ 0., 3.08607961e-41, -1.05858629e+21, 4.55856403e-41, 0., 0.,
          0., 0., 0., 0., 1.35925951e-43, 0., 7.08750581e+34,
          3.08607961e-41, -1.05858629e+21, 4.55856403e-41,
          4.20389539e-44, 0., 0., 0., 6.72623263e-44, 0., 6.72623263e-44,
          0., 7.08738697e+34, 3.08607961e-41, 2.71985190e+23,
          1.49741503e+25, 4.54420104e+30, 2.79445261e+20, 7.21330248e+22,
          1.59748025e-43, 2.01786979e-43, 0., 1.34524653e-43, 0.,
          7.08733943e+34, 3.08607961e-41, 0., 0., 4.34402524e-44, 0., 0.,
          0., 0., 0., 0., 0., 0., 0., 0., 0., 0., 0., 5.60519386e-45, 0.,
          1.40129846e-45, 1.54142831e-44, 7.14788334e-41, 0.,
          7.08186477e+34, 3.08607961e-41, -1.05858629e+21,
          4.55856403e-41, 0., 0., 0., 0., 0., 0., 1.35925951e-43, 0.,
          7.08714928e+34, 3.08607961e-41, -1.05858629e+21,
          4.55856403e-41, 4.20389539e-44, 0., 0., 0., 6.72623263e-44, 0.,
          6.72623263e-44, 0., 7.08750581e+34, 3.08607961e-41,
          2.71985190e+23, 1.49741503e+25, 4.54420104e+30, 2.79445261e+20,
          7.21330248e+22, 1.59748025e-43, 2.01786979e-43, 0.,
          1.34524653e-43, 0., 7.08745827e+34, 3.08607961e-41, 0., 0. ]
      - [ 0., 0., 0., 0., 0., 0., 0., 0., 0., 0., 0., 0., 0., 0.,
          7.00649232e-45, 0., 1.40129846e-45, 7.00649232e-45,
          7.11425217e-41, 0., 7.08186477e+34, 3.08607961e-41,
          -1.05858629e+21, 4.55856403e-41, 0., 0., 0., 0.,
          6.72623263e-44, 0., 1.34524653e-43, 0., 7.08757712e+34,
          3.08607961e-41, 0., 0., 1.10702579e-43, 0., 0., 0., 0., 0., 0.,
          0., 0., 0., 0., 0., 0., 0., 8.40779079e-45, 0., 1.40129846e-45,
          1.12103877e-44, 7.09407348e-41, 0., 7.08186477e+34,
          3.08607961e-41, -1.05858629e+21, 4.55856403e-41, 0., 0., 0.,
          0., 0., 0., 5.39499909e-43, 0., 7.08795741e+34, 3.08607961e-41,
          -1.05858629e+21, 4.55856403e-41, 1.87279897e+31,
          1.41531145e-43, 0., 0., 0., 0., 4.72237582e-43, 0.,
          7.08795741e+34, 3.08607961e-41, -1.05858629e+21,
          4.55856403e-41, 1.40129846e-45, 0., 0., 0., 1.40129846e-45,
          5.60519386e-45, 0., 0., 0., 0., 0., 0., 0., 0., 0., 0. ]
      - [ 0., 0., 0., 0., 0., 0., 0., 0., 0., 0., 0., 0., 0., 0., 0., 0.,
          0., 0., 0., 0., 0., 0., 0., 0., 0., 0., 0., 0., 0., 0., 0., 0.,
          0., 0., 0., 0., 3.36311631e-43, 0., 6.72623263e-44, 0.,
          7.08771973e+34, 3.08607961e-41, 1.96181785e-44, 0.,
          3.04782250e+32, 4.46280890e+30, 7.27084014e+31, 4.10370255e-41,
          0., 0., 6.86636248e-44, 0., 7.08824263e+34, 3.08607961e-41,
          7.08795741e+34, 3.08607961e-41, 0., 0., 0., 0., 6.05360937e-43,
          0., 1.34524653e-43, 0., 7.08764842e+34, 3.08607961e-41, 0., 0.,
          4.34402524e-44, 0., 0., 0., 0., 0., 0., 0., 0., 0., 0., 0., 0.,
          0., 1.40129846e-45, 0., 4.20389539e-45, 1.54142831e-44,
          7.02008492e-41, 0., 7.08186477e+34, 3.08607961e-41,
          -1.05858629e+21, 4.55856403e-41, 0., 0., 0., 0., 0., 0.,
          6.06762235e-43, 0. ]
      - [ 0., 3.08607961e-41, -1.05858629e+21, 4.55856403e-41,
          4.20389539e-44, 0., 0., 0., 6.72623263e-44, 0., 6.72623263e-44,
          0., 7.08795741e+34, 3.08607961e-41, 2.71985190e+23,
          9.39002804e+26, 3.99294043e+24, 9.31569907e-39, 0., 0., 0., 0.,
          4.72237582e-43, 0., 7.08824263e+34, 3.08607961e-41,
          7.08788611e+34, 3.08607961e-41, 1.40129846e-45, 0., 0., 0.,
          4.20389539e-45, 5.60519386e-45, 0., 0., 0., 0., 0., 0., 0., 0.,
          0., 0., 0., 0., 0., 0., 0., 0., 0., 0., 0., 0., 0., 0., 0., 0.,
          0., 0., 0., 0., 0., 0., 0., 0., 0., 0., 0., 0., 0., 0., 0., 0.,
          0., 0., 0., 0., 0., 0., 3.36311631e-43, 0., 6.72623263e-44, 0.,
          7.08788611e+34, 3.08607961e-41, 1.68155816e-44, 0.,
          1.55313234e+10, 4.36077518e+27, 4.54481789e+30, 0., 0., 0.,
          6.86636248e-44, 0., 7.08939144e+34, 3.08607961e-41,
          7.08843278e+34, 3.08607961e-41 ]
      - [ 0., 3.08607961e-41, 7.08839317e+34, 3.08607961e-41,
          6.72623263e-43, 0., 1.34524653e-43, 0., 7.08790987e+34,
          3.08607961e-41, 0., 0., 1.10702579e-43, 0., 0., 0., 0., 0., 0.,
          0., 0., 0., 0., 0., 0., 0., 1.40129846e-45, 0., 1.40129846e-45,
          2.80259693e-45, 6.93937013e-41, 0., 7.08186477e+34,
          3.08607961e-41, -1.05858629e+21, 4.55856403e-41, 0., 0., 0.,
          0., 0., 0., 6.86636248e-44, 0., 7.08833771e+34, 3.08607961e-41,
          -1.05858629e+21, 4.55856403e-41, 1.76409464e-41, 0., 0., 0.,
          1.34524653e-43, 0., 1.34524653e-43, 0., 7.08819510e+34,
          3.08607961e-41, 0., 0., 1.10702579e-43, 0., 0., 0., 0., 0., 0.,
          0., 0., 0., 0., 0., 0., 0., 2.80259693e-45, 0., 1.40129846e-45,
          2.80259693e-45, 6.91246519e-41, 0., 7.08186477e+34,
          3.08607961e-41, -1.05858629e+21, 4.55856403e-41, 0., 0., 0.,
          0., 0., 0., 6.86636248e-44, 0., 7.08843278e+34, 3.08607961e-41,
          -1.05858629e+21, 4.55856403e-41, 6.86636248e-44, 0., 0., 0. ]
      - [ 0., 0., 1.34524653e-43, 0., 7.08829017e+34, 3.08607961e-41, 0.,
          0., 1.10702579e-43, 0., 0., 0., 0., 0., 0., 0., 0., 0., 0., 0.,
          0., 0., 4.20389539e-45, 0., 1.40129846e-45, 2.80259693e-45,
          6.88556026e-41, 0., 7.08186477e+34, 3.08607961e-41,
          -1.05858629e+21, 4.55856403e-41, 0., 0., 0., 0., 0., 0.,
          5.39499909e-43, 0., 7.08817133e+34, 3.08607961e-41,
          -1.05858629e+21, 4.55856403e-41, 6.72623263e-44, 0., 0., 0.,
          0., 0., 4.72237582e-43, 0., 7.08939144e+34, 3.08607961e-41,
          7.08817133e+34, 3.08607961e-41, 1.40129846e-45, 0., 0., 0.,
          8.40779079e-45, 1.12103877e-44, 0., 0., 0., 0., 0., 0., 0., 0.,
          0., 0., 0., 0., 0., 0., 0., 0., 2.80259693e-45, 5.60519386e-45,
          0., 0., 0., 0., 0., 0., 0., 0., 0., 0., 0., 0., 0., 0., 0., 0.,
          0., 0., 0., 0. ]
      - [ 0., 0., 0., 0., 0., 0., 0., 0., 3.36311631e-43, 0.,
          6.72623263e-44, 0., 7.08817133e+34, 3.08607961e-41,
          1.68155816e-44, 0., 1.38459996e+10, 4.36077518e+27,
          4.54481789e+30, 0., 0., 0., 6.86636248e-44, 0., 7.08916168e+34,
          3.08607961e-41, 7.08897946e+34, 3.08607961e-41, 7.07455745e+34,
          3.08607961e-41, 7.08884477e+34, 3.08607961e-41, 6.05360937e-43,
          0., 1.34524653e-43, 0., 7.08838524e+34, 3.08607961e-41, 0., 0.,
          1.10702579e-43, 0., 0., 0., 0., 0., 0., 0., 0., 0., 0., 0., 0.,
          0., 1.40129846e-45, 0., 1.40129846e-45, 1.82168800e-44,
          6.81157171e-41, 0., 7.08186477e+34, 3.08607961e-41,
          -1.05858629e+21, 4.55856403e-41, 0., 0., 0., 0., 0., 0.,
          6.86636248e-44, 0., 7.08878931e+34, 3.08607961e-41,
          -1.05858629e+21, 4.55856403e-41, 7.42688186e-44, 0., 0., 0.,
          1.34524653e-43, 0., 1.34524653e-43, 0., 7.08864670e+34,
          3.08607961e-41, 0., 0., 1.10702579e-43, 0., 0., 0., 0., 0., 0.,
          0., 0., 0., 0., 0. ]
      - [ 0., 0., 2.80259693e-45, 0., 1.40129846e-45, 2.80259693e-45,
          6.78466677e-41, 0., 7.08186477e+34, 3.08607961e-41,
          -1.05858629e+21, 4.55856403e-41, 0., 0., 0., 0., 0., 0.,
          6.86636248e-44, 0., 7.08888438e+34, 3.08607961e-41,
          -1.05858629e+21, 4.55856403e-41, 6.86636248e-44, 0., 0., 0.,
          1.34524653e-43, 0., 1.34524653e-43, 0., 7.08874177e+34,
          3.08607961e-41, 0., 0., 1.10702579e-43, 0., 0., 0., 0., 0., 0.,
          0., 0., 0., 0., 0., 0., 0., 4.20389539e-45, 0., 1.40129846e-45,
          2.80259693e-45, 6.75776184e-41, 0., 7.08186477e+34,
          3.08607961e-41, -1.05858629e+21, 4.55856403e-41, 0., 0., 0.,
          0., 0., 0., 6.86636248e-44, 0., 7.08897946e+34, 3.08607961e-41,
          -1.05858629e+21, 4.55856403e-41, 6.82400241e-07, 0., 0., 0.,
          1.34524653e-43, 0., 1.34524653e-43, 0., 7.08883684e+34,
          3.08607961e-41, 0., 0., 1.33123354e-43, 0., 0., 0., 0., 0., 0.,
          0., 0., 0., 0., 0., 0., 0., 5.60519386e-45, 0. ]
      - [ 2., 1.96181785e-44, 6.73085691e-41, 0., 7.08186477e+34,
          3.08607961e-41, -1.05858629e+21, 4.55856403e-41, 0., 0., 0.,
          0., 0., 0., 2.03188277e-43, 0., 7.08862293e+34, 3.08607961e-41,
          -1.05858629e+21, 4.55856403e-41, 5.18480432e-44, 0., 0., 0.,
          6.72623263e-44, 0., 6.72623263e-44, 0., 7.08897946e+34,
          3.08607961e-41, 2.71985190e+23, 2.19237925e+11, 4.46279742e+30,
          7.27084014e+31, 731683136., 2.54956782e+11, 7.22350036e+28,
          1.54142831e-43, 6.86636248e-44, 0., 7.08862293e+34,
          3.08607961e-41, -1.05858629e+21, 4.55856403e-41,
          3.52762291e+09, 2.23325485e+02, 865096192., 7.64970653e-39,
          2.69049305e-43, 0., 1.12103877e-43, 0., 7.08954990e+34,
          3.08607961e-41, 7.08865462e+34, 3.08607961e-41, 7.08874969e+34,
          3.08607961e-41, 7.08884477e+34, 3.08607961e-41, 7.08893984e+34,
          3.08607961e-41, 7.08912207e+34, 3.08607961e-41, 7.08919337e+34,
          3.08607961e-41, 0., 0., 3.81153182e-43, 0., 1.34524653e-43, 0.,
          7.08893192e+34, 3.08607961e-41, 0., 0., 1.10702579e-43, 0., 0.,
          0., 0., 0., 0., 0., 0., 0., 0., 0., 0., 0., 7.00649232e-45, 0.,
          1.40129846e-45, 2.80259693e-45, 6.67928913e-41, 0.,
          7.08186477e+34, 3.08607961e-41, -1.05858629e+21,
          4.55856403e-41 ]
      - [ 1., 0., 0., 0., 6.72623263e-44, 0., 1.34524653e-43, 0.,
          7.08911414e+34, 3.08607961e-41, 0., 0., 1.33123354e-43, 0., 0.,
          0., 0., 0., 0., 0., 0., 0., 0., 0., 0., 0., 8.40779079e-45, 0.,
          1.40129846e-45, 1.96181785e-44, 6.65911043e-41, 0.,
          7.08186477e+34, 3.08607961e-41, -1.05858629e+21,
          4.55856403e-41, 0., 0., 0., 0., 0., 0., 2.03188277e-43, 0.,
          7.08980343e+34, 3.08607961e-41, -1.05858629e+21,
          4.55856403e-41, 4.62428493e-44, 0., 0., 0., 6.72623263e-44, 0.,
          6.72623263e-44, 0., 7.08923299e+34, 3.08607961e-41,
          2.71985190e+23, 2.19237925e+11, 4.46279742e+30, 7.27084014e+31,
          2.79114966e+03, 1.80587615e+28, 1.41531145e-43, 0.,
          6.86636248e-44, 0., 7.08980343e+34, 3.08607961e-41,
          -1.05858629e+21, 4.55856403e-41, 1.23919106e+01,
          7.74156445e-39, 0., 0., 2.69049305e-43, 0., 6.72623263e-44, 0.,
          7.08961328e+34, 3.08607961e-41, 7.08935975e+34, 3.08607961e-41,
          7.08955782e+34, 3.08607961e-41, 0., 0., 3.36311631e-43, 0.,
          1.12103877e-43, 0., 7.08589748e+34, 3.08607961e-41, 0., 0.,
          1.40129846e-45, 0., 0., 0. ]
      - [ 2., 5.60519386e-45, 0., 0., 0., 0., 0., 0., 0., 0.,
          1.70538023e-42, 0., 7.08897946e+34, 3.08607961e-41,
          -1.05858629e+21, 4.55856403e-41, 0., 0., 0., 0., 0., 0.,
          6.86636248e-44, 0., 7.08958951e+34, 3.08607961e-41,
          7.08952613e+34, 3.08607961e-41, 7.08950236e+34, 3.08607961e-41,
          0., 0., 1.34524653e-43, 0., 8.96831017e-44, 0., 7.08529535e+34,
          3.08607961e-41, 0., 0., 4.20389539e-45, 0., 0., 0., 0., 0., 0.,
          0., 0., 0., 2.25609053e-43, 0., 7.08958951e+34, 3.08607961e-41,
          -1.05858629e+21, 4.55856403e-41, 3.52762291e+09,
          2.23325485e+02, 865096192., 7.64970653e-39, 6.72623263e-44, 0.,
          8.96831017e-44, 0., 7.08943898e+34, 3.08607961e-41, 0., 0.,
          4.20389539e-45, 0., 0., 0., 0., 0., 1.40129846e-45, 0., 0., 0.,
          6.86636248e-44, 0., 7.08923299e+34, 3.08607961e-41,
          7.08939144e+34, 3.08607961e-41, 2.17381359e+05, 2.23305801e+02,
          865096192., 2.73603525e-41, 4.48415509e-43, 0., 1.12103877e-43,
          0., 7.08935183e+34, 3.08607961e-41, 0., 0., 1.40129846e-45, 0.,
          0., 0. ]
      - [ 0., 5.60519386e-45, 0., 0., 0., 0., 0., 0., 0., 0.,
          1.14486085e-42, 0., 7.09130084e+34, 3.08607961e-41,
          7.08519235e+34, 3.08607961e-41, 1.74864123e+25, 3.63861159e-41,
          0., 0., 0., 0., 6.86636248e-44, 0., 7.08923299e+34,
          3.08607961e-41, 7.08977966e+34, 3.08607961e-41, 7.08970043e+34,
          3.08607961e-41, 7.08975589e+34, 3.08607961e-41, 1.34524653e-43,
          0., 8.96831017e-44, 0., 7.08949444e+34, 3.08607961e-41, 0., 0.,
          4.20389539e-45, 0., 0., 0., 0., 0., 0., 0., 0., 0.,
          9.20653091e-43, 0., 7.09251303e+34, 3.08607961e-41,
          -1.05858629e+21, 4.55856403e-41, 1.23919106e+01,
          7.74156445e-39, 0., 0., 6.72623263e-44, 0., 8.96831017e-44, 0.,
          7.08963705e+34, 3.08607961e-41, 0., 0., 4.20389539e-45, 0., 0.,
          0., 0., 0., 1.40129846e-45, 0., 0., 0., 7.63707663e-43, 0.,
          7.09251303e+34, 3.08607961e-41, -1.05858629e+21,
          4.55856403e-41, 1.26883154e+04, 9.66895940e-44, 0., 0.,
          6.72623263e-44, 0., 8.96831017e-44, 0., 7.08969251e+34,
          3.08607961e-41, 0., 0., 4.20389539e-45, 0., 0., 0. ]
      - [ 0., 0., 2.80259693e-45, 0., 0., 0., 6.06762235e-43, 0.,
          7.08923299e+34, 3.08607961e-41, 7.08966874e+34, 3.08607961e-41,
          823480512., 1.09301280e-43, 0., 0., 0., 0., 5.39499909e-43, 0.,
          7.09004111e+34, 3.08607961e-41, 7.08916168e+34, 3.08607961e-41,
          1.40129846e-45, 0., 0., 0., 5.60519386e-45, 5.60519386e-45, 0.,
          0., 0., 0., 0., 0., 0., 0., 0., 0., 0., 0., 0., 0., 0., 0., 0.,
          0., 0., 0., 0., 0., 0., 0., 0., 0., 0., 0., 0., 0., 0., 0., 0.,
          0., 0., 0., 0., 0., 0., 0., 0., 0., 0., 0., 0., 0.,
          3.36311631e-43, 0., 6.72623263e-44, 0., 7.08994604e+34,
          3.08607961e-41, 2.66246708e-44, 0., 4.20389539e-44, 0., 0., 0.,
          4.03573958e-43, 0., 6.72623263e-44, 0., 7.08930429e+34,
          3.08607961e-41, 2.40246563e+20, 7.00624003e+22, 1.05056411e-38,
          0., 0., 0. ]
      - [ 0., 0., 6.86636248e-44, 0., 7.09049271e+34, 3.08607961e-41,
          7.09025503e+34, 3.08607961e-41, 7.09007280e+34, 3.08607961e-41,
          7.09014411e+34, 3.08607961e-41, 2.15239444e-42, 0.,
          1.34524653e-43, 0., 7.08918545e+34, 3.08607961e-41, 0., 0.,
          2.10194770e-44, 0., 0., 0., 0., 0., 0., 0., 0., 0., 0., 0., 0.,
          0., 1.40129846e-45, 0., 1.40129846e-45, 1.82168800e-44,
          6.43041852e-41, 0., 7.08186477e+34, 3.08607961e-41,
          -1.05858629e+21, 4.55856403e-41, 0., 0., 0., 0.,
          6.72623263e-44, 0., 1.34524653e-43, 0., 7.08999358e+34,
          3.08607961e-41, 0., 0., 2.10194770e-44, 0., 0., 0., 0., 0., 0.,
          0., 0., 0., 0., 0., 0., 0., 2.80259693e-45, 0., 1.40129846e-45,
          1.82168800e-44, 6.41023983e-41, 0., 7.08186477e+34,
          3.08607961e-41, -1.05858629e+21, 4.55856403e-41, 0., 0., 0.,
          0., 6.72623263e-44, 0., 1.34524653e-43, 0., 7.09006488e+34,
          3.08607961e-41, 0., 0., 2.10194770e-44, 0., 0., 0., 0., 0., 0.,
          0. ]
      - [ 0., 0., 0., 0., 0., 0., 4.20389539e-45, 0., 1.40129846e-45,
          1.82168800e-44, 6.39006113e-41, 0., 7.08186477e+34,
          3.08607961e-41, -1.05858629e+21, 4.55856403e-41, 0., 0., 0.,
          0., 6.72623263e-44, 0., 1.34524653e-43, 0., 7.09013619e+34,
          3.08607961e-41, 0., 0., 2.10194770e-44, 0., 0., 0., 0., 0., 0.,
          0., 0., 0., 0., 0., 0., 0., 5.60519386e-45, 0., 1.40129846e-45,
          1.82168800e-44, 6.36988243e-41, 0., 7.08186477e+34,
          3.08607961e-41, -1.05858629e+21, 4.55856403e-41, 0., 0., 0.,
          0., 0., 0., 4.72237582e-43, 0., 7.09049271e+34, 3.08607961e-41,
          7.08996981e+34, 3.08607961e-41, 1.40129846e-45, 0., 0., 0.,
          4.20389539e-45, 5.60519386e-45, 0., 0., 0., 0., 0., 0., 0., 0.,
          0., 0., 0., 0., 0., 0., 0., 0., 0., 0., 0., 0., 0., 0., 0., 0.,
          0., 0., 0., 0., 0., 0. ]
      - [ 0., 0., 0., 0., 0., 0., 0., 0., 0., 0., 0., 0., 0., 0., 0., 0.,
          3.36311631e-43, 0., 6.72623263e-44, 0., 7.08996981e+34,
          3.08607961e-41, 1.68155816e-44, 0., 1.38470492e+10,
          4.36077518e+27, 4.54481789e+30, 0., 0., 0., 6.86636248e-44, 0.,
          7.09099185e+34, 3.08607961e-41, 7.09070663e+34, 3.08607961e-41,
          7.09057194e+34, 3.08607961e-41, 7.09066701e+34, 3.08607961e-41,
          5.38098610e-43, 0., 1.34524653e-43, 0., 7.09020749e+34,
          3.08607961e-41, 0., 0., 1.10702579e-43, 0., 0., 0., 0., 0., 0.,
          0., 0., 0., 0., 0., 0., 0., 1.40129846e-45, 0., 1.40129846e-45,
          1.12103877e-44, 6.30262010e-41, 0., 7.08186477e+34,
          3.08607961e-41, -1.05858629e+21, 4.55856403e-41, 0., 0., 0.,
          0., 6.72623263e-44, 0., 6.72623263e-44, 0., 7.09039764e+34,
          3.08607961e-41, 2.84048309e+20, 1.74404007e+28, 3.63707016e-41,
          0., 0., 0., 0., 0., 6.86636248e-44, 0., 7.09061156e+34,
          3.08607961e-41, -1.05858629e+21, 4.55856403e-41,
          7.24431922e+22, 0., 0., 0. ]
      - [ 1., 0., 1.34524653e-43, 0., 7.09044518e+34, 3.08607961e-41, 0.,
          0., 1.10702579e-43, 0., 0., 0., 0., 0., 0., 0., 0., 0., 0., 0.,
          0., 0., 2.80259693e-45, 0., 1.40129846e-45, 1.12103877e-44,
          6.26898894e-41, 0., 7.08186477e+34, 3.08607961e-41,
          -1.05858629e+21, 4.55856403e-41, 0., 0., 0., 0., 0., 0.,
          6.86636248e-44, 0., 7.09070663e+34, 3.08607961e-41,
          -1.05858629e+21, 4.55856403e-41, 1.87279897e+31,
          1.41531145e-43, 0., 0., 1.34524653e-43, 0., 1.34524653e-43, 0.,
          7.09056402e+34, 3.08607961e-41, 0., 0., 1.10702579e-43, 0., 0.,
          0., 0., 0., 0., 0., 0., 0., 0., 0., 0., 0., 4.20389539e-45, 0.,
          1.40129846e-45, 2.80259693e-45, 6.24208401e-41, 0.,
          7.08186477e+34, 3.08607961e-41, -1.05858629e+21,
          4.55856403e-41, 0., 0., 0., 0., 0., 0., 6.06762235e-43, 0.,
          7.09042141e+34, 3.08607961e-41, -1.05858629e+21,
          4.55856403e-41, 6.30808350e-10, 7.98740125e-44, 0., 0., 0., 0.,
          5.39499909e-43, 0. ]
   decision_functions:
      -
         sv_count: 40
         rho: 0.
         alpha: [ 1., 1., 1., 1., 1., 1., 1., 1., 1., 1., 1., 1., 1., 1.,
             1., 1., 1., 1., 1., 1., -1., -1., -1., -1., -1., -1., -1.,
             -1., -1., -1., -1., -1., -1., -1., -1., -1., -1., -1., -1.,
             -1. ]
         index: [ 79, 60, 61, 62, 63, 64, 65, 66, 67, 68, 69, 71, 72, 73,
             74, 75, 76, 77, 78, 70, 31, 26, 32, 33, 34, 35, 36, 37, 38,
             39, 30, 29, 28, 27, 25, 24, 23, 22, 21, 20 ]
      -
         sv_count: 40
         rho: 0.
         alpha: [ 1., 1., 1., 1., 1., 1., 1., 1., 1., 1., 1., 1., 1., 1.,
             1., 1., 1., 1., 1., 1., -1., -1., -1., -1., -1., -1., -1.,
             -1., -1., -1., -1., -1., -1., -1., -1., -1., -1., -1., -1.,
             -1. ]
         index: [ 79, 60, 61, 62, 63, 64, 65, 66, 67, 68, 69, 71, 72, 73,
             74, 75, 76, 77, 78, 70, 1, 10, 19, 18, 17, 16, 15, 14, 13,
             12, 11, 9, 8, 7, 6, 5, 4, 3, 2, 0 ]
      -
         sv_count: 40
         rho: 0.
         alpha: [ 1., 1., 1., 1., 1., 1., 1., 1., 1., 1., 1., 1., 1., 1.,
             1., 1., 1., 1., 1., 1., -1., -1., -1., -1., -1., -1., -1.,
             -1., -1., -1., -1., -1., -1., -1., -1., -1., -1., -1., -1.,
             -1. ]
         index: [ 79, 60, 61, 62, 63, 64, 65, 66, 67, 68, 69, 71, 72, 73,
             74, 75, 76, 77, 78, 70, 40, 51, 42, 43, 44, 45, 46, 47, 48,
             49, 50, 41, 52, 53, 54, 55, 56, 57, 58, 59 ]
      -
         sv_count: 40
         rho: 0.
         alpha: [ 1., 1., 1., 1., 1., 1., 1., 1., 1., 1., 1., 1., 1., 1.,
             1., 1., 1., 1., 1., 1., -1., -1., -1., -1., -1., -1., -1.,
             -1., -1., -1., -1., -1., -1., -1., -1., -1., -1., -1., -1.,
             -1. ]
         index: [ 31, 26, 32, 33, 34, 35, 36, 37, 38, 39, 30, 29, 28, 27,
             25, 24, 23, 22, 21, 20, 1, 10, 19, 18, 17, 16, 15, 14, 13,
             12, 11, 9, 8, 7, 6, 5, 4, 3, 2, 0 ]
      -
         sv_count: 40
         rho: 0.
         alpha: [ 1., 1., 1., 1., 1., 1., 1., 1., 1., 1., 1., 1., 1., 1.,
             1., 1., 1., 1., 1., 1., -1., -1., -1., -1., -1., -1., -1.,
             -1., -1., -1., -1., -1., -1., -1., -1., -1., -1., -1., -1.,
             -1. ]
         index: [ 31, 26, 32, 33, 34, 35, 36, 37, 38, 39, 30, 29, 28, 27,
             25, 24, 23, 22, 21, 20, 40, 51, 42, 43, 44, 45, 46, 47, 48,
             49, 50, 41, 52, 53, 54, 55, 56, 57, 58, 59 ]
      -
         sv_count: 40
         rho: 0.
         alpha: [ 1., 1., 1., 1., 1., 1., 1., 1., 1., 1., 1., 1., 1., 1.,
             1., 1., 1., 1., 1., 1., -1., -1., -1., -1., -1., -1., -1.,
             -1., -1., -1., -1., -1., -1., -1., -1., -1., -1., -1., -1.,
             -1. ]
         index: [ 1, 10, 19, 18, 17, 16, 15, 14, 13, 12, 11, 9, 8, 7, 6,
             5, 4, 3, 2, 0, 40, 51, 42, 43, 44, 45, 46, 47, 48, 49, 50,
             41, 52, 53, 54, 55, 56, 57, 58, 59 ]
