%YAML:1.0
---
opencv_ml_svm:
   format: 3
   svmType: C_SVC
   kernel:
      type: POLY
      degree: 3.
      gamma: 5.0000000000000000e-01
      coef0: 0.
   C: 1.
   term_criteria: { iterations:10000000 }
   var_count: 100
   class_count: 4
   class_labels: !!opencv-matrix
      rows: 4
      cols: 1
      dt: i
      data: [ -2, -1, 1, 2 ]
   sv_total: 63
   support_vectors:
      - [ 2., 4.55674235e-41, 3.70027771e+01, 4.55674235e-41,
          1.13419644e-23, 3.09000324e-41, 1.13419644e-23, 3.09000324e-41,
          0., 0., 5.39499909e-43, 0., 1.13423809e-23, 3.09000324e-41,
          1.13299232e-23, 3.09000324e-41, 1.40129846e-45, 0., 0., 0.,
          2.80259693e-45, 5.60519386e-45, 0., 0., 0., 0., 0., 0., 0., 0.,
          0., 0., 0., 0., 0., 0., 0., 0., 0., 0., 0., 0., 0., 0., 0., 0.,
          0., 0., 0., 0., 0., 0., 0., 0., 0., 0., 0., 0., 0., 0., 0., 0.,
          0., 0., 0., 0., 0., 0., 3.36311631e-43, 0., 6.72623263e-44, 0.,
          1.13422295e-23, 3.09000324e-41, 3.36311631e-44, 0.,
          4.20389539e-44, 0., 0., 0., 4.03573958e-43, 0., 6.72623263e-44,
          0., 1.13299232e-23, 3.09000324e-41, 60152228., 1.63377142e+10,
          4.36077518e+27, 4.54481789e+30, 0., 0., 0., 0., 6.86636248e-44,
          0., 1.13456247e-23, 3.09000324e-41, 1.13425324e-23,
          3.09000324e-41 ]
      - [ 0., 3.09000324e-41, 3.69961853e+01, 4.55674235e-41,
          6.05360937e-43, 0., 1.34524653e-43, 0., 1.13302640e-23,
          3.09000324e-41, 0., 0., 1.10702579e-43, 0., 0., 0., 0., 0., 0.,
          0., 0., 0., 0., 0., 0., 0., 1.40129846e-45, 0., 1.40129846e-45,
          2.80259693e-45, 1.06522505e-40, 0., 1.14023975e-23,
          3.09000324e-41, 3.69954529e+01, 4.55674235e-41, 0., 0., 0., 0.,
          1.13399828e-23, 3.09000324e-41, 6.86636248e-44, 0.,
          1.13425324e-23, 3.09000324e-41, 3.69954529e+01, 4.55674235e-41,
          6.86636248e-44, 0., 8.96831017e-44, 0., 1.34524653e-43, 0.,
          1.34524653e-43, 0., 1.13423052e-23, 3.09000324e-41, 0., 0.,
          1.10702579e-43, 0., 0., 0., 0., 0., 0., 0., 0., 0., 0., 0., 0.,
          0., 2.80259693e-45, 0., 1.40129846e-45, 1.12103877e-44,
          1.06253456e-40, 0., 1.14023975e-23, 3.09000324e-41,
          3.69954529e+01, 4.55674235e-41, 0., 0., 0., 0., 0., 0.,
          6.06762235e-43, 0., 1.13422673e-23, 3.09000324e-41,
          3.69954529e+01, 4.55674235e-41, 1.87279897e+31, 1.41531145e-43,
          3.69954529e+01, 4.55674235e-41 ]
      - [ 0., 0., 5.39499909e-43, 0., 1.13456247e-23, 3.09000324e-41,
          1.13422673e-23, 3.09000324e-41, 1.40129846e-45, 0., 0., 0.,
          2.52233724e-44, 4.48415509e-44, 0., 0., 0., 0., 0., 0., 0., 0.,
          0., 0., 0., 0., 0., 0., 0., 0., 1.40129846e-45, 5.60519386e-45,
          0., 0., 0., 0., 0., 0., 0., 0., 0., 0., 0., 0., 0., 0., 0., 0.,
          0., 0., 0., 0., 0., 0., 0., 0., 0., 0., 0., 0., 3.36311631e-43,
          0., 6.72623263e-44, 0., 1.13428353e-23, 3.09000324e-41,
          2.80259693e-44, 0., 4.20389539e-44, 0., 1.12199497e-23,
          3.09000324e-41, 4.03573958e-43, 0., 6.72623263e-44, 0.,
          1.13422673e-23, 3.09000324e-41, 1.60011151e+10, 4.36077518e+27,
          4.54481789e+30, 3.08509870e-41, 1.12202526e-23, 3.09000324e-41,
          5.46506401e-44, 3.64337601e-44, 6.86636248e-44, 0.,
          1.13436179e-23, 3.09000324e-41, 1.13433654e-23, 3.09000324e-41,
          1.83193728e+25, 3.63721029e-41, 1.13431887e-23, 3.09000324e-41,
          6.72623263e-43, 0., 1.34524653e-43, 0. ]
      - [ 0., 3.09000324e-41, 0., 0., 2.10194770e-44, 0., 0., 0., 0., 0.,
          0., 0., 0., 0., 0., 0., 0., 0., 1.40129846e-45, 0.,
          1.40129846e-45, 1.82168800e-44, 1.05446308e-40, 0.,
          1.14023975e-23, 3.09000324e-41, 3.69954529e+01, 4.55674235e-41,
          0., 0., 0., 0., 6.72623263e-44, 0., 1.34524653e-43, 0.,
          1.13429110e-23, 3.09000324e-41, 0., 0., 1.10702579e-43, 0., 0.,
          0., 0., 0., 0., 0., 0., 0., 0., 0., 0., 0., 2.80259693e-45, 0.,
          1.40129846e-45, 1.12103877e-44, 1.05244521e-40, 0.,
          1.14023975e-23, 3.09000324e-41, 3.69954529e+01, 4.55674235e-41,
          0., 0., 0., 0., 0., 0., 6.86636248e-44, 0., 1.13432518e-23,
          3.09000324e-41, 3.69954529e+01, 4.55674235e-41, 7.24431922e+22,
          0., 0., 0., 1.34524653e-43, 0., 1.34524653e-43, 0.,
          1.13430246e-23, 3.09000324e-41, 0., 0., 2.10194770e-44, 0., 0.,
          0., 0., 0., 0., 0., 0., 0., 0., 0. ]
      - [ 0., 0., 4.20389539e-45, 0., 4.20389539e-45, 1.82168800e-44,
          1.04975472e-40, 0., 1.14023975e-23, 3.09000324e-41,
          3.69954529e+01, 4.55674235e-41, 0., 0., 0., 0., 6.72623263e-44,
          0., 1.34524653e-43, 0., 1.13431761e-23, 3.09000324e-41, 0., 0.,
          2.10194770e-44, 0., 0., 0., 0., 0., 0., 0., 0., 0., 0., 0., 0.,
          0., 5.60519386e-45, 0., 4.20389539e-45, 1.82168800e-44,
          1.04773685e-40, 0., 1.14023975e-23, 3.09000324e-41,
          3.69954529e+01, 4.55674235e-41, 0., 0., 0., 0., 6.72623263e-44,
          0., 1.12103877e-43, 0., 1.13264018e-23, 3.09000324e-41, 0., 0.,
          1.40129846e-45, 0., 0., 0., 4.20389539e-45, 5.60519386e-45, 0.,
          0., 0., 0., 0., 0., 1.79366203e-43, 0., 1.34524653e-43, 0.,
          1.13432897e-23, 3.09000324e-41, 0., 0., 2.10194770e-44, 0., 0.,
          0., 0., 0., 0., 0., 0., 0., 0., 0., 0., 0., 8.40779079e-45, 0.,
          4.20389539e-45, 1.82168800e-44, 1.04459794e-40, 0. ]
      - [ 0., 3.09000324e-41, 3.69954529e+01, 4.55674235e-41, 0., 0., 0.,
          0., 0., 0., 0., 0., 0., 0., 0., 0., 0., 0., 2.52233724e-44, 0.,
          4.20389539e-45, 1.82168800e-44, 1.04325269e-40, 0.,
          1.14023975e-23, 3.09000324e-41, 3.69954529e+01, 4.55674235e-41,
          0., 0., 0., 0., 6.72623263e-44, 0., 1.34524653e-43, 0.,
          1.13435421e-23, 3.09000324e-41, 0., 0., 1.10702579e-43, 0., 0.,
          0., 0., 0., 0., 0., 0., 0., 0., 0., 0., 0., 1.26116862e-44, 0.,
          1.40129846e-45, 1.82168800e-44, 1.04123482e-40, 0.,
          1.14023975e-23, 3.09000324e-41, 3.69954529e+01, 4.55674235e-41,
          0., 0., 0., 0., 1.55661879e+28, 1.66404193e-41, 6.86636248e-44,
          0., 1.13438829e-23, 3.09000324e-41, 3.69954529e+01,
          4.55674235e-41, 1.12864905e+24, 1.75385398e+19, 4.39561203e+21,
          6.44597294e-44, 1.34524653e-43, 0., 1.34524653e-43, 0.,
          1.13436557e-23, 3.09000324e-41, 0., 0., 1.10702579e-43, 0., 0.,
          0., 0., 0., 0., 0., 0., 0., 0., 0. ]
      - [ 1., 0., 1.40129846e-44, 0., 1.40129846e-45, 1.82168800e-44,
          1.03854433e-40, 0., 1.14023975e-23, 3.09000324e-41,
          3.69954529e+01, 4.55674235e-41, 0., 0., 0., 0., 6.40969056e-10,
          1.60242403e-10, 6.86636248e-44, 0., 1.13441480e-23,
          3.09000324e-41, 3.69954529e+01, 4.55674235e-41, 4.95918405e-39,
          4.55674235e-41, 4.14349943e-41, 0., 1.34524653e-43, 0.,
          1.34524653e-43, 0., 1.13450568e-23, 3.09000324e-41, 0., 0.,
          1.10702579e-43, 0., 0., 0., 0., 0., 0., 0., 0., 0., 0., 0., 0.,
          0., 2.24207754e-44, 0., 1.40129846e-45, 7.00649232e-45,
          6.86636248e-44, 0., 1.12918686e-23, 3.09000324e-41,
          1.13449432e-23, 3.09000324e-41, 1.84974173e+31, 3.08509870e-41,
          1.13448800e-23, 3.09000324e-41, 3.36311631e-43, 0.,
          1.34524653e-43, 0., 1.13438072e-23, 3.09000324e-41, 0., 0.,
          2.10194770e-44, 0., 0., 0., 0., 0., 0., 0., 0., 0., 0., 0., 0.,
          0., 1.54142831e-44, 0., 1.40129846e-45, 1.82168800e-44,
          1.03383597e-40, 0., 1.14023975e-23, 3.09000324e-41,
          3.69954529e+01, 4.55674235e-41, 0., 0., 0., 0. ]
      - [ 0., 0., 1.34524653e-43, 0., 1.13440723e-23, 3.09000324e-41, 0.,
          0., 2.10194770e-44, 0., 0., 0., 0., 0., 0., 0., 0., 0., 0., 0.,
          0., 0., 1.68155816e-44, 0., 1.40129846e-45, 1.82168800e-44,
          1.03181810e-40, 0., 1.13438829e-23, 3.09000324e-41,
          3.69954529e+01, 4.55674235e-41, 0., 0., 0., 0., 6.72623263e-44,
          0., 1.34524653e-43, 0., 1.13441858e-23, 3.09000324e-41, 0., 0.,
          2.10194770e-44, 0., 0., 0., 0., 0., 0., 0., 0., 0., 0., 0., 0.,
          0., 1.82168800e-44, 0., 1.40129846e-45, 1.82168800e-44,
          1.02980023e-40, 0., 1.13438829e-23, 3.09000324e-41,
          3.69954529e+01, 4.55674235e-41, 0., 0., 0., 0., 6.72623263e-44,
          0., 1.34524653e-43, 0., 1.13442994e-23, 3.09000324e-41, 0., 0.,
          2.10194770e-44, 0., 0., 0., 0., 0., 0., 0., 0., 0., 0., 0., 0.,
          0., 1.96181785e-44, 0., 1.40129846e-45, 1.82168800e-44,
          1.02778236e-40, 0. ]
      - [ 0., 3.09000324e-41, 3.69954529e+01, 4.55674235e-41, 0., 0., 0.,
          0., 6.72623263e-44, 0., 1.34524653e-43, 0., 1.13444130e-23,
          3.09000324e-41, 0., 0., 1.10702579e-43, 0., 0., 0., 0., 0., 0.,
          0., 0., 0., 0., 0., 0., 0., 7.00649232e-45, 0., 1.40129846e-45,
          1.82168800e-44, 1.02576449e-40, 0., 1.13438829e-23,
          3.09000324e-41, 3.69954529e+01, 4.55674235e-41, 0., 0., 0., 0.,
          0., 0., 6.86636248e-44, 0., 1.13447538e-23, 3.09000324e-41,
          3.69954529e+01, 4.55674235e-41, 1.12186757e-23, 3.09000324e-41,
          1.82168800e-44, 1.96181785e-44, 1.34524653e-43, 0.,
          1.34524653e-43, 0., 1.13445266e-23, 3.09000324e-41, 0., 0.,
          4.34402524e-44, 0., 0., 0., 0., 0., 0., 0., 0., 0., 0., 0., 0.,
          0., 9.80908925e-45, 0., 1.40129846e-45, 1.54142831e-44,
          1.02307400e-40, 0., 1.13438829e-23, 3.09000324e-41,
          3.69954529e+01, 4.55674235e-41, 0., 0., 0., 0., 0., 0.,
          1.35925951e-43, 0., 1.13449432e-23, 3.09000324e-41,
          3.69954529e+01, 4.55674235e-41 ]
      - [ 1., 0., 0., 0., 0., 0., 0., 0., 1.12070881e-23, 3.09000324e-41,
          2.70450604e-43, 0., 1.13424440e-23, 3.09000324e-41,
          3.69954529e+01, 4.55674235e-41, 1.81740152e+31, 1.58416155e-10,
          3.98314090e-11, 6.73481169e+22, 3.81153182e-43, 0.,
          6.72623263e-44, 0., 1.13440344e-23, 3.09000324e-41,
          1.40129846e-45, 0., 2.54659605e-09, 2.54938048e-09,
          1.01393143e-08, 2.52027710e-09, 7.39885589e-43, 0.,
          1.34524653e-43, 0., 1.13439587e-23, 3.09000324e-41, 0., 0.,
          1.10702579e-43, 0., 0., 0., 0., 0., 0., 0., 0., 0., 0., 0., 0.,
          0., 2.38220739e-44, 0., 1.40129846e-45, 1.12103877e-44,
          1.00760366e-40, 0., 1.14023975e-23, 3.09000324e-41,
          3.69954529e+01, 4.55674235e-41, 0., 0., 0., 0., 6.34389485e-10,
          1.12275069e+21, 6.86636248e-44, 0., 1.13460791e-23,
          3.09000324e-41, 3.69954529e+01, 4.55674235e-41, 1.87279897e+31,
          1.41531145e-43, 3.83409273e-41, 0., 1.34524653e-43, 0.,
          6.72623263e-44, 0., 1.13457762e-23, 3.09000324e-41,
          1.13434159e-23, 3.09000324e-41, 1.12275069e+21, 1.00717637e-11,
          1.00717637e-11, 1.62054162e-10, 2.01786979e-43, 0.,
          6.72623263e-44, 0., 1.13427975e-23, 3.09000324e-41,
          8.40779079e-45, 0. ]
      - [ 0., 1.40129846e-45, 4.72237582e-43, 0., 1.13464199e-23,
          3.09000324e-41, 1.13440344e-23, 3.09000324e-41, 1.40129846e-45,
          0., 0., 0., 2.80259693e-45, 5.60519386e-45, 0., 0., 0., 0., 0.,
          0., 0., 0., 0., 0., 0., 0., 0., 0., 0., 0., 0., 0., 0., 0., 0.,
          0., 0., 0., 0., 0., 0., 0., 0., 0., 0., 0., 0., 0., 0., 0., 0.,
          0., 0., 0., 0., 0., 0., 0., 0., 0., 3.36311631e-43, 0.,
          6.72623263e-44, 0., 1.13456626e-23, 3.09000324e-41,
          1.82168800e-44, 0., 2.96420205e+29, 2.79445261e+20,
          7.21330248e+22, 1.29866362e+22, 1.33124802e+25, 1.33880231e+25,
          6.86636248e-44, 0., 1.13484520e-23, 3.09000324e-41,
          1.13465714e-23, 3.09000324e-41, 1.13465083e-23, 3.09000324e-41,
          2.13000585e+11, 8.93207947e+02, 1.27798420e-42, 0.,
          1.34524653e-43, 0., 1.13455490e-23, 3.09000324e-41, 0., 0.,
          1.10702579e-43, 0., 0., 0., 0., 0., 0., 0. ]
      - [ 0., 0., 0., 0., 0., 0., 1.40129846e-45, 0., 1.40129846e-45,
          7.00649232e-45, 9.93478572e-41, 0., 1.14023975e-23,
          3.09000324e-41, 3.69954529e+01, 4.55674235e-41, 0., 0., 0., 0.,
          0., 0., 6.86636248e-44, 0., 1.13465714e-23, 3.09000324e-41,
          3.69954529e+01, 4.55674235e-41, 7.00649232e-44, 0.,
          3.69284184e-41, 0., 1.34524653e-43, 0., 1.34524653e-43, 0.,
          1.13463442e-23, 3.09000324e-41, 0., 0., 2.10194770e-44, 0., 0.,
          0., 0., 0., 0., 0., 0., 0., 0., 0., 0., 0., 2.80259693e-45, 0.,
          4.20389539e-45, 1.82168800e-44, 9.90788079e-41, 0.,
          1.14023975e-23, 3.09000324e-41, 3.69954529e+01, 4.55674235e-41,
          0., 0., 0., 0., 0., 0., 4.72237582e-43, 0., 1.13484520e-23,
          3.09000324e-41, 1.13463063e-23, 3.09000324e-41, 1.40129846e-45,
          0., 0., 0., 1.40129846e-44, 2.24207754e-44, 0., 0., 0., 0., 0.,
          0., 0., 0., 0., 0., 0., 0., 0., 0., 0., 0., 1.40129846e-45,
          5.60519386e-45 ]
      - [ 0., 0., 0., 0., 0., 0., 0., 0., 0., 0., 0., 0., 0., 0., 0., 0.,
          0., 0., 0., 0., 0., 0., 0., 0., 0., 0., 0., 0., 3.36311631e-43,
          0., 6.72623263e-44, 0., 1.13463063e-23, 3.09000324e-41,
          1.82168800e-44, 0., 2.81750893e+20, 2.79445261e+20,
          7.21330248e+22, 1.59748025e-43, 0., 0., 6.86636248e-44, 0.,
          1.13476190e-23, 3.09000324e-41, 1.13473287e-23, 3.09000324e-41,
          1.08991178e+27, 1.41531145e-43, 1.13471141e-23, 3.09000324e-41,
          5.38098610e-43, 0., 1.34524653e-43, 0., 1.13464956e-23,
          3.09000324e-41, 0., 0., 2.10194770e-44, 0., 0., 0., 0., 0., 0.,
          0., 0., 0., 0., 0., 0., 0., 1.40129846e-45, 0., 1.40129846e-45,
          1.26116862e-44, 9.84061847e-41, 0., 1.14023975e-23,
          3.09000324e-41, 3.69954529e+01, 4.55674235e-41, 0., 0., 0., 0.,
          6.72623263e-44, 0., 1.34524653e-43, 0., 1.13468743e-23,
          3.09000324e-41, 0., 0., 2.10194770e-44, 0., 0., 0. ]
      - [ 1., 0., 0., 0., 0., 0., 0., 0., 0., 0., 5.60519386e-45, 0.,
          1.40129846e-45, 1.82168800e-44, 9.82043977e-41, 0.,
          1.14023975e-23, 3.09000324e-41, 3.69954529e+01, 4.55674235e-41,
          0., 0., 0., 0., 6.72623263e-44, 0., 1.34524653e-43, 0.,
          1.13469879e-23, 3.09000324e-41, 0., 0., 1.10702579e-43, 0., 0.,
          0., 0., 0., 0., 0., 0., 0., 0., 0., 0., 0., 9.80908925e-45, 0.,
          1.40129846e-45, 1.82168800e-44, 9.80026107e-41, 0.,
          1.14023975e-23, 3.09000324e-41, 3.69954529e+01, 4.55674235e-41,
          0., 0., 0., 0., 5.42393930e+13, 3.37767859e+09, 6.86636248e-44,
          0., 1.13473287e-23, 3.09000324e-41, 3.69954529e+01,
          4.55674235e-41, 1.67174146e+19, 1.74867156e+25, 4.29539469e+24,
          4.19744275e-08, 1.34524653e-43, 0., 1.34524653e-43, 0.,
          1.13471015e-23, 3.09000324e-41, 0., 0., 1.33123354e-43, 0., 0.,
          0., 0., 0., 0., 0., 0., 0., 0., 0., 0., 0., 1.12103877e-44, 0.,
          1.40129846e-45, 1.96181785e-44, 9.77335614e-41, 0. ]
      - [ 0., 3.09000324e-41, 3.69954529e+01, 4.55674235e-41, 0., 0., 0.,
          0., 4.80238135e+30, 1.75951483e+22, 2.03188277e-43, 0.,
          1.13468364e-23, 3.09000324e-41, 3.69954529e+01, 4.55674235e-41,
          4.20389539e-44, 0., 3.29346381e+09, 6.32090737e+28,
          6.72623263e-44, 0., 6.72623263e-44, 0., 1.13473287e-23,
          3.09000324e-41, 2.71985190e+23, 2.26181557e+20, 2.40246563e+20,
          7.00624003e+22, 5.51145379e-11, 2.37716271e-41, 0., 0.,
          6.86636248e-44, 0., 1.13468364e-23, 3.09000324e-41,
          3.69954529e+01, 4.55674235e-41, 3.42833105e+03, 6.08564305e-39,
          0., 0., 2.69049305e-43, 0., 1.12103877e-43, 0., 1.13434033e-23,
          3.09000324e-41, 0., 0., 1.40129846e-45, 0., 0., 0.,
          2.80259693e-45, 5.60519386e-45, 0., 0., 0., 0., 0., 0.,
          3.81153182e-43, 0., 1.34524653e-43, 0., 1.13472529e-23,
          3.09000324e-41, 0., 0., 1.10702579e-43, 0., 0., 0., 0., 0., 0.,
          0., 0., 0., 0., 0., 0., 0., 2.80259693e-45, 0., 1.40129846e-45,
          2.80259693e-45, 9.72178836e-41, 0., 1.14023975e-23,
          3.09000324e-41, 3.69954529e+01, 4.55674235e-41, 0., 0., 0., 0. ]
      - [ 0., 0., 1.34524653e-43, 0., 1.13475432e-23, 3.09000324e-41, 0.,
          0., 2.10194770e-44, 0., 0., 0., 0., 0., 0., 0., 0., 0., 0., 0.,
          0., 0., 4.20389539e-45, 0., 1.40129846e-45, 1.26116862e-44,
          9.70160966e-41, 0., 1.14023975e-23, 3.09000324e-41,
          3.69954529e+01, 4.55674235e-41, 0., 0., 0., 0., 6.72623263e-44,
          0., 1.34524653e-43, 0., 1.13476568e-23, 3.09000324e-41, 0., 0.,
          1.10702579e-43, 0., 0., 0., 0., 0., 0., 0., 0., 0., 0., 0., 0.,
          0., 7.00649232e-45, 0., 1.40129846e-45, 1.82168800e-44,
          9.68143096e-41, 0., 1.14023975e-23, 3.09000324e-41,
          3.69954529e+01, 4.55674235e-41, 0., 0., 0., 0., 0., 0.,
          6.86636248e-44, 0., 1.13479976e-23, 3.09000324e-41,
          3.69954529e+01, 4.55674235e-41, 4.16768557e-08, 6.89981846e-07,
          4.31986518e-05, 525392., 1.34524653e-43, 0., 1.34524653e-43,
          0., 1.13477704e-23, 3.09000324e-41, 0., 0., 1.10702579e-43, 0.,
          0., 0., 0., 0., 0., 0. ]
      - [ 0., 0., 0., 0., 0., 0., 8.40779079e-45, 0., 1.40129846e-45,
          1.12103877e-44, 9.65452603e-41, 0., 1.14023975e-23,
          3.09000324e-41, 3.69954529e+01, 4.55674235e-41, 0., 0., 0., 0.,
          1.01286072e-11, 1.65692141e-10, 2.70450604e-43, 0.,
          1.13482627e-23, 3.09000324e-41, 3.69954529e+01, 4.55674235e-41,
          1.87279897e+31, 1.21250963e+01, 8.12911886e+11, 1.11913305e+27,
          3.64430623e+12, 525392., 2.03188277e-43, 0., 1.13460791e-23,
          3.09000324e-41, 1.13466092e-23, 3.09000324e-41, 1.13470005e-23,
          3.09000324e-41, 1.13471141e-23, 3.09000324e-41, 1.13472656e-23,
          3.09000324e-41, 1.13475559e-23, 3.09000324e-41, 1.13476695e-23,
          3.09000324e-41, 1.13477831e-23, 3.09000324e-41, 1.13479345e-23,
          3.09000324e-41, 1.13481996e-23, 3.09000324e-41, 1.13483889e-23,
          3.09000324e-41, 5.91787808e-02, 1.05974836e-38, 0., 0.,
          3.39464553e-41, 0., 0., 0., 0., 0., 3.36311631e-43, 0.,
          1.34524653e-43, 0., 1.13479219e-23, 3.09000324e-41, 0., 0.,
          1.10702579e-43, 0., 0., 0., 0., 0., 0., 0., 0., 0., 0., 0., 0.,
          0., 1.26116862e-44, 0., 1.40129846e-45, 1.12103877e-44,
          9.60744240e-41, 0., 1.14023975e-23, 3.09000324e-41,
          3.69954529e+01, 4.55674235e-41 ]
      - [ 1., 0., 0., 0., 6.72623263e-44, 0., 6.72623263e-44, 0.,
          1.13480355e-23, 3.09000324e-41, 6.74221425e+22, 7.03684174e+28,
          1.05092172e-38, 0., 0., 0., 0., 0., 6.86636248e-44, 0.,
          1.13484520e-23, 3.09000324e-41, 3.69954529e+01, 4.55674235e-41,
          1.87279897e+31, 1.41531145e-43, 0., 0., 2.01786979e-43, 0.,
          1.34524653e-43, 0., 1.13481870e-23, 3.09000324e-41, 0., 0.,
          1.10702579e-43, 0., 0., 0., 0., 0., 0., 0., 0., 0., 0., 0., 0.,
          0., 1.40129846e-44, 0., 1.40129846e-45, 1.82168800e-44,
          9.57381124e-41, 0., 1.14023975e-23, 3.09000324e-41,
          3.69954529e+01, 4.55674235e-41, 0., 0., 0., 0., 1.71810666e+19,
          4.29538546e+24, 6.86636248e-44, 0., 1.13488180e-23,
          3.09000324e-41, 3.69954529e+01, 4.55674235e-41, 3.56801270e+03,
          3.17530470e+09, 6.41651211e+13, 7.22495296e+28, 1.34524653e-43,
          0., 6.72623263e-44, 0., 1.13486035e-23, 3.09000324e-41,
          1.13474928e-23, 3.09000324e-41, 6.13710939e+13, 3.29346381e+09,
          8.05489380e+02, 2.62214361e-09, 2.01786979e-43, 0.,
          6.72623263e-44, 0., 1.13467986e-23, 3.09000324e-41,
          2.80259693e-45, 0., 2.05214160e+03, 1.41438361e+19,
          3.14095630e+03, 827839232. ]
      - [ 0., 1.44564769e-08, 6.86636248e-44, 0., 1.13469500e-23,
          3.09000324e-41, 1.13487802e-23, 3.09000324e-41, 1.13487423e-23,
          3.09000324e-41, 6.40998199e-10, 6.33671650e-39, 3.36311631e-43,
          0., 8.96831017e-44, 0., 1.13452082e-23, 3.09000324e-41, 0., 0.,
          4.20389539e-45, 0., 0., 0., 0., 0., 0., 2.23259079e+02,
          4.54427509e+30, 1.80841667e-07, 7.63707663e-43, 0.,
          1.13533366e-23, 3.09000324e-41, 3.69954529e+01, 4.55674235e-41,
          3.42833105e+03, 6.08564305e-39, 2.11880739e+11, 3.12407959e+03,
          6.72623263e-44, 0., 8.96831017e-44, 0., 1.13486413e-23,
          3.09000324e-41, 0., 0., 4.20389539e-45, 0., 0., 0., 0., 0.,
          1.40129846e-45, 1.07555451e+10, 2.89576187e+32, 2.06214098e-19,
          6.06762235e-43, 0., 1.13469500e-23, 3.09000324e-41,
          1.13484520e-23, 3.09000324e-41, 4.90754852e+01, 3.45884432e-12,
          4.39559430e+21, 6.33671369e-39, 234112144., 51712316.,
          5.39499909e-43, 0., 1.13491967e-23, 3.09000324e-41,
          1.13482627e-23, 3.09000324e-41, 1.40129846e-45, 0., 0., 0.,
          4.20389539e-45, 5.60519386e-45, 0., 0., 0., 0., 0., 0., 0., 0.,
          0., 0., 0., 0., 0., 0., 0., 0., 0., 0. ]
      - [ 1., 0., 0., 0., 0., 0., 0., 0., 0., 0., 0., 0., 0., 0., 0., 0.,
          0., 0., 0., 0., 0., 0., 0., 0., 0., 0., 0., 0., 3.36311631e-43,
          0., 6.72623263e-44, 0., 1.13490452e-23, 3.09000324e-41,
          4.20389539e-44, 0., 4.20389539e-44, 0., 0., 0., 4.03573958e-43,
          0., 6.72623263e-44, 0., 1.13484899e-23, 3.09000324e-41,
          2.68016282e+32, 7.15554247e+22, 7.22495768e+28, 4.46280709e+30,
          7.27084014e+31, 4.10370255e-41, 0., 0., 6.86636248e-44, 0.,
          1.13499161e-23, 3.09000324e-41, 1.13494618e-23, 3.09000324e-41,
          1.13492850e-23, 3.09000324e-41, 1.13493986e-23, 3.09000324e-41,
          1.18830110e-42, 0., 1.34524653e-43, 0., 1.13483763e-23,
          3.09000324e-41, 0., 0., 1.10702579e-43, 0., 0., 0., 0., 0., 0.,
          0., 0., 0., 0., 0., 0., 0., 1.40129846e-45, 0., 1.40129846e-45,
          2.80259693e-45, 9.44152866e-41, 0., 1.14023975e-23,
          3.09000324e-41, 3.69954529e+01, 4.55674235e-41, 0., 0., 0., 0. ]
      - [ 0., 3.09000324e-41, 1.13490831e-23, 3.09000324e-41,
          1.40129846e-45, 0., 0., 0., 8.40779079e-45, 1.12103877e-44, 0.,
          0., 0., 0., 0., 0., 0., 0., 0., 0., 0., 0., 0., 0., 0., 0., 0.,
          0., 0., 0., 0., 0., 0., 0., 0., 0., 0., 0., 0., 0., 0., 0., 0.,
          0., 0., 0., 0., 0., 0., 0., 0., 0., 0., 0., 0., 0.,
          3.36311631e-43, 0., 6.72623263e-44, 0., 1.13497647e-23,
          3.09000324e-41, 2.66246708e-44, 0., 4.20389539e-44, 0., 0., 0.,
          4.03573958e-43, 0., 6.72623263e-44, 0., 1.13490831e-23,
          3.09000324e-41, 2.40332149e+20, 7.00624003e+22, 1.05056411e-38,
          0., 0., 0., 0., 0., 6.86636248e-44, 0., 1.13505851e-23,
          3.09000324e-41, 1.13503327e-23, 3.09000324e-41, 7.00623823e+22,
          3.03036293e+35, 1.74064642e+25, 3.63833133e-41, 6.72623263e-43,
          0., 1.34524653e-43, 0., 1.13493860e-23, 3.09000324e-41, 0., 0. ]
      - [ 0., 0., 0., 0., 0., 0., 0., 0., 0., 0., 0., 0., 0., 0.,
          1.40129846e-45, 0., 1.40129846e-45, 1.26116862e-44,
          9.31373024e-41, 0., 1.14023975e-23, 3.09000324e-41,
          3.69954529e+01, 4.55674235e-41, 0., 0., 0., 0., 6.72623263e-44,
          0., 6.72623263e-44, 0., 1.13497268e-23, 3.09000324e-41,
          4.23254851e+21, 7.86747736e+34, 0., 0., 0., 0., 1.34524653e-43,
          0., 1.34524653e-43, 0., 1.13498404e-23, 3.09000324e-41, 0., 0.,
          2.10194770e-44, 0., 0., 0., 0., 0., 0., 0., 0., 0., 0., 0., 0.,
          0., 2.80259693e-45, 0., 1.40129846e-45, 1.26116862e-44,
          9.28682531e-41, 0., 1.14023975e-23, 3.09000324e-41,
          3.69954529e+01, 4.55674235e-41, 0., 0., 0., 0., 6.72623263e-44,
          0., 6.72623263e-44, 0., 1.13499161e-23, 3.09000324e-41,
          1.65319765e+19, 2.70883231e+23, 4.31950252e-41, 0., 0., 0.,
          1.34524653e-43, 0., 1.34524653e-43, 0., 1.13499919e-23,
          3.09000324e-41, 0., 0., 2.10194770e-44, 0., 0., 0. ]
      - [ 0., 0., 0., 0., 0., 0., 0., 0., 0., 0., 4.20389539e-45, 0.,
          1.40129846e-45, 1.26116862e-44, 9.25992038e-41, 0.,
          1.14023975e-23, 3.09000324e-41, 3.69954529e+01, 4.55674235e-41,
          0., 0., 0., 0., 6.72623263e-44, 0., 1.34524653e-43, 0.,
          1.13501433e-23, 3.09000324e-41, 0., 0., 2.10194770e-44, 0., 0.,
          0., 0., 0., 0., 0., 0., 0., 0., 0., 0., 0., 5.60519386e-45, 0.,
          1.40129846e-45, 1.26116862e-44, 9.23974168e-41, 0.,
          1.14023975e-23, 3.09000324e-41, 3.69954529e+01, 4.55674235e-41,
          0., 0., 0., 0., 6.72623263e-44, 0., 1.12103877e-43, 0.,
          1.13474801e-23, 3.09000324e-41, 1.13498530e-23, 3.09000324e-41,
          1.13500045e-23, 3.09000324e-41, 1.13501559e-23, 3.09000324e-41,
          1.13502695e-23, 3.09000324e-41, 1.13504462e-23, 3.09000324e-41,
          1.13505220e-23, 3.09000324e-41, 0., 0., 1.79366203e-43, 0.,
          1.34524653e-43, 0., 1.13502569e-23, 3.09000324e-41, 0., 0.,
          2.10194770e-44, 0., 0., 0., 0., 0., 0., 0., 0., 0., 0., 0. ]
      - [ 2., 0., 6.72623263e-44, 0., 1.13508501e-23, 3.09000324e-41,
          2.24207754e-44, 0., 4.20389539e-44, 0., 0., 0., 4.03573958e-43,
          0., 6.72623263e-44, 0., 1.13505851e-23, 3.09000324e-41,
          4.36077518e+27, 4.54481789e+30, 0., 0., 0., 0., 0., 0.,
          6.86636248e-44, 0., 1.13516075e-23, 3.09000324e-41,
          1.13511531e-23, 3.09000324e-41, 1.13510900e-23, 3.09000324e-41,
          0., 0., 6.05360937e-43, 0., 1.34524653e-43, 0., 1.13505094e-23,
          3.09000324e-41, 0., 0., 1.10702579e-43, 0., 0., 0., 0., 0., 0.,
          0., 0., 0., 0., 0., 0., 0., 1.40129846e-45, 0., 1.40129846e-45,
          2.80259693e-45, 9.12091157e-41, 0., 1.14023975e-23,
          3.09000324e-41, 3.69954529e+01, 4.55674235e-41, 0., 0., 0., 0.,
          0., 0., 6.86636248e-44, 0., 1.13511531e-23, 3.09000324e-41,
          3.69954529e+01, 4.55674235e-41, 4.88385025e-39, 0., 0., 0.,
          1.34524653e-43, 0., 1.34524653e-43, 0., 1.13509259e-23,
          3.09000324e-41, 0., 0., 1.10702579e-43, 0., 0., 0., 0., 0., 0.,
          0. ]
      - [ 0., 0., 0., 0., 0., 0., 2.80259693e-45, 0., 1.40129846e-45,
          1.12103877e-44, 9.09400664e-41, 0., 1.14023975e-23,
          3.09000324e-41, 3.69954529e+01, 4.55674235e-41, 0., 0., 0., 0.,
          0., 0., 6.06762235e-43, 0., 1.13508880e-23, 3.09000324e-41,
          3.69954529e+01, 4.55674235e-41, 7.24431922e+22, 0., 0., 0., 0.,
          0., 5.39499909e-43, 0., 1.13516075e-23, 3.09000324e-41,
          1.13508880e-23, 3.09000324e-41, 1.40129846e-45, 0., 0., 0.,
          8.40779079e-45, 1.12103877e-44, 0., 0., 0., 0., 0., 0., 0., 0.,
          0., 0., 0., 0., 0., 0., 0., 0., 0., 0., 0., 0., 0., 0., 0., 0.,
          0., 0., 0., 0., 0., 0., 0., 0., 0., 0., 0., 0., 0., 0., 0., 0.,
          0., 0., 0., 0., 0., 0., 3.36311631e-43, 0., 6.72623263e-44, 0.,
          1.13514560e-23, 3.09000324e-41, 2.52233724e-44, 0. ]
      - [ 0., 0., 0., 0., 4.03573958e-43, 0., 6.72623263e-44, 0.,
          1.13508880e-23, 3.09000324e-41, 4.46280316e+30, 7.27084014e+31,
          4.10370255e-41, 0., 0., 0., 0., 0., 6.86636248e-44, 0.,
          1.13523521e-23, 3.09000324e-41, 1.13520997e-23, 3.09000324e-41,
          1.10218201e+24, 4.17586942e-41, 1.13519230e-23, 3.09000324e-41,
          6.72623263e-43, 0., 1.34524653e-43, 0., 1.13510773e-23,
          3.09000324e-41, 0., 0., 4.34402524e-44, 0., 0., 0., 0., 0., 0.,
          0., 0., 0., 0., 0., 0., 0., 1.40129846e-45, 0., 4.20389539e-45,
          1.54142831e-44, 9.01329185e-41, 0., 1.14023975e-23,
          3.09000324e-41, 3.69954529e+01, 4.55674235e-41, 0., 0., 0., 0.,
          0., 0., 1.35925951e-43, 0., 1.13517968e-23, 3.09000324e-41,
          3.69954529e+01, 4.55674235e-41, 4.20389539e-44, 0., 0., 0.,
          6.72623263e-44, 0., 6.72623263e-44, 0., 1.13516075e-23,
          3.09000324e-41, 2.71985190e+23, 1.49741503e+25, 4.54420104e+30,
          2.79445261e+20, 7.21330248e+22, 1.59748025e-43, 2.01786979e-43,
          0., 1.34524653e-43, 0., 1.13515317e-23, 3.09000324e-41, 0., 0.,
          4.34402524e-44, 0., 0., 0. ]
      - [ 1., 0., 0., 0., 0., 0., 0., 0., 0., 0., 8.40779079e-45, 0.,
          4.20389539e-45, 1.54142831e-44, 8.97966069e-41, 0.,
          1.14023975e-23, 3.09000324e-41, 3.69954529e+01, 4.55674235e-41,
          0., 0., 0., 0., 0., 0., 1.35925951e-43, 0., 1.13519861e-23,
          3.09000324e-41, 3.69954529e+01, 4.55674235e-41, 4.20389539e-44,
          0., 0., 0., 6.72623263e-44, 0., 6.72623263e-44, 0.,
          1.13517968e-23, 3.09000324e-41, 2.71985190e+23, 9.39002804e+26,
          3.99294043e+24, 9.31569907e-39, 0., 0., 2.01786979e-43, 0.,
          1.34524653e-43, 0., 1.13517210e-23, 3.09000324e-41, 0., 0.,
          2.10194770e-44, 0., 0., 0., 0., 0., 0., 0., 0., 0., 0., 0., 0.,
          0., 2.80259693e-45, 0., 4.20389539e-45, 1.82168800e-44,
          8.94602953e-41, 0., 1.14023975e-23, 3.09000324e-41,
          3.69954529e+01, 4.55674235e-41, 0., 0., 0., 0., 6.72623263e-44,
          0., 1.34524653e-43, 0., 1.13519104e-23, 3.09000324e-41, 0., 0.,
          2.10194770e-44, 0., 0., 0., 0., 0., 0., 0. ]
      - [ 0., 0., 0., 0., 0., 0., 4.20389539e-45, 0., 4.20389539e-45,
          1.82168800e-44, 8.92585083e-41, 0., 1.14023975e-23,
          3.09000324e-41, 3.69954529e+01, 4.55674235e-41, 0., 0., 0., 0.,
          6.72623263e-44, 0., 1.12103877e-43, 0., 1.13503705e-23,
          3.09000324e-41, 1.13515443e-23, 3.09000324e-41, 1.13517337e-23,
          3.09000324e-41, 1.13519230e-23, 3.09000324e-41, 1.13520366e-23,
          3.09000324e-41, 1.13522133e-23, 3.09000324e-41, 1.13522890e-23,
          3.09000324e-41, 0., 0., 1.79366203e-43, 0., 1.34524653e-43, 0.,
          1.13520240e-23, 3.09000324e-41, 0., 0., 2.10194770e-44, 0., 0.,
          0., 0., 0., 0., 0., 0., 0., 0., 0., 0., 0., 5.60519386e-45, 0.,
          4.20389539e-45, 1.82168800e-44, 8.89446174e-41, 0.,
          1.14023975e-23, 3.09000324e-41, 3.69954529e+01, 4.55674235e-41,
          0., 0., 0., 0., 0., 0., 0., 0., 0., 0., 0., 0., 0., 0.,
          7.00649232e-45, 0., 4.20389539e-45, 1.82168800e-44,
          8.88100928e-41, 0., 1.14023975e-23, 3.09000324e-41,
          3.69954529e+01, 4.55674235e-41, 0., 0., 0., 0. ]
      - [ 1., 0., 5.39499909e-43, 0., 1.13533366e-23, 3.09000324e-41,
          3.69954529e+01, 4.55674235e-41, 1.40129846e-45, 0., 0., 0.,
          4.20389539e-45, 5.60519386e-45, 0., 0., 0., 0., 0., 0., 0., 0.,
          0., 0., 0., 0., 0., 0., 0., 0., 1.40129846e-45, 5.60519386e-45,
          0., 0., 0., 0., 0., 0., 0., 0., 0., 0., 0., 0., 0., 0., 0., 0.,
          0., 0., 0., 0., 0., 0., 0., 0., 0., 0., 0., 0., 3.36311631e-43,
          0., 6.72623263e-44, 0., 1.13526172e-23, 3.09000324e-41,
          2.24207754e-44, 0., 4.20389539e-44, 0., 0., 0., 4.03573958e-43,
          0., 6.72623263e-44, 0., 1.13523521e-23, 3.09000324e-41,
          4.36077518e+27, 4.54481789e+30, 0., 0., 0., 0., 0., 0.,
          6.86636248e-44, 0., 1.13540561e-23, 3.09000324e-41,
          1.13530085e-23, 3.09000324e-41, 1.13529454e-23, 3.09000324e-41,
          1.13530590e-23, 3.09000324e-41, 6.05360937e-43, 0.,
          1.34524653e-43, 0. ]
      - [ 0., 3.09000324e-41, 0., 0., 1.33123354e-43, 0., 0., 0., 0., 0.,
          0., 0., 0., 0., 0., 0., 0., 0., 1.40129846e-45, 0.,
          1.40129846e-45, 1.96181785e-44, 8.80702072e-41, 0.,
          1.14023975e-23, 3.09000324e-41, 3.69954529e+01, 4.55674235e-41,
          0., 0., 0., 0., 0., 0., 6.86636248e-44, 0., 1.13528949e-23,
          3.09000324e-41, 3.69954529e+01, 4.55674235e-41, 5.60519386e-44,
          0., 0., 0., 1.34524653e-43, 0., 8.96831017e-44, 0.,
          1.13535891e-23, 3.09000324e-41, 2.71985190e+23, 9.53509914e+26,
          1.84971308e+31, 4.46280437e+30, 7.27084014e+31, 2.79114966e+03,
          1.86971540e+25, 2.56744166e+29, 0., 0., 0., 0., 6.86636248e-44,
          0., 1.13530085e-23, 3.09000324e-41, 1.13531221e-23,
          3.09000324e-41, 7.10194177e-39, 0., 0., 0., 2.91470081e-43, 0.,
          1.34524653e-43, 0., 1.13526929e-23, 3.09000324e-41, 0., 0.,
          2.10194770e-44, 0., 0., 0., 0., 0., 0., 0., 0., 0., 0., 0., 0.,
          0., 2.80259693e-45, 0., 4.20389539e-45, 2.80259693e-45,
          8.76442125e-41, 0. ]
      - [ 0., 3.09000324e-41, 1.13534629e-23, 3.09000324e-41,
          8.10494917e-39, 0., 0., 0., 0., 0., 5.39499909e-43, 0.,
          1.13957206e-23, 3.09000324e-41, 1.13854843e-23, 3.09000324e-41,
          1.40129846e-45, 0., 0., 0., 6.02558340e-44, 8.96831017e-44, 0.,
          0., 0., 0., 0., 0., 0., 0., 0., 0., 0., 0., 0., 0., 0., 0.,
          2.80259693e-45, 5.60519386e-45, 0., 0., 0., 0., 0., 0., 0., 0.,
          0., 0., 0., 0., 0., 0., 0., 0., 0., 0., 0., 0., 0., 0., 0., 0.,
          0., 0., 0., 0., 3.36311631e-43, 0., 6.72623263e-44, 0.,
          1.13539046e-23, 3.09000324e-41, 2.24207754e-44, 0.,
          4.20389539e-44, 0., 1.12870345e-23, 3.09000324e-41,
          4.03573958e-43, 0., 6.72623263e-44, 0., 1.13852571e-23,
          3.09000324e-41, 4.36077518e+27, 4.54481789e+30, 1.13573756e-23,
          3.09000324e-41, 1.13578047e-23, 3.09000324e-41, 1.13586883e-23,
          3.09000324e-41, 6.86636248e-44, 0., 1.13880213e-23,
          3.09000324e-41, 1.13877688e-23, 3.09000324e-41 ]
      - [ 1., 9.31142230e-39, 1.13875921e-23, 3.09000324e-41,
          1.52461273e-42, 0., 1.34524653e-43, 0., 1.13856358e-23,
          3.09000324e-41, 0., 0., 2.10194770e-44, 0., 0., 0., 0., 0., 0.,
          0., 0., 0., 0., 0., 0., 0., 2.80259693e-45, 0., 4.20389539e-45,
          1.26116862e-44, 2.03188277e-43, 0., 1.13542454e-23,
          3.09000324e-41, 1.13530085e-23, 3.09000324e-41, 7.74645719e+31,
          3.92573765e-41, 1.13827454e-23, 3.09000324e-41, 6.72623263e-44,
          0., 6.72623263e-44, 0., 1.13526551e-23, 3.09000324e-41,
          1.68155816e-44, 0., 1.43141816e+10, 4.36077518e+27,
          4.54481789e+30, 0., 0., 0., 6.86636248e-44, 0., 1.13546619e-23,
          3.09000324e-41, 1.13542454e-23, 3.09000324e-41, 0., 0., 0., 0.,
          1.86092436e-42, 0., 1.34524653e-43, 0., 1.13530463e-23,
          3.09000324e-41, 0., 0., 1.10702579e-43, 0., 0., 0., 0., 0., 0.,
          0., 0., 0., 0., 0., 0., 0., 1.40129846e-45, 0., 1.40129846e-45,
          2.80259693e-45, 8.54469765e-41, 0., 1.14023975e-23,
          3.09000324e-41, 3.69954529e+01, 4.55674235e-41, 0., 0., 0., 0. ]
      - [ 0., 0., 5.39499909e-43, 0., 1.13541318e-23, 3.09000324e-41,
          3.69954529e+01, 4.55674235e-41, 6.86636248e-44, 0., 0., 0., 0.,
          0., 4.72237582e-43, 0., 1.13546619e-23, 3.09000324e-41,
          1.13541318e-23, 3.09000324e-41, 1.40129846e-45, 0., 0., 0.,
          7.00649232e-45, 1.12103877e-44, 0., 0., 0., 0., 0., 0., 0., 0.,
          0., 0., 0., 0., 0., 0., 0., 0., 0., 0., 0., 0., 0., 0., 0., 0.,
          0., 0., 0., 0., 0., 0., 0., 0., 0., 0., 0., 0., 0., 0., 0., 0.,
          0., 0., 0., 0., 0., 0., 3.36311631e-43, 0., 6.72623263e-44, 0.,
          1.13541318e-23, 3.09000324e-41, 1.96181785e-44, 0.,
          6.68294058e+22, 4.46280406e+30, 7.27084014e+31, 4.10370255e-41,
          0., 0., 6.86636248e-44, 0., 1.13552930e-23, 3.09000324e-41,
          1.13550406e-23, 3.09000324e-41, 1.78589510e+31, 1.12865260e+27,
          1.05056299e-38, 3.09000324e-41, 6.05360937e-43, 0.,
          1.34524653e-43, 0. ]
      - [ 2., 3.09000324e-41, 0., 0., 2.10194770e-44, 0., 0., 0., 0., 0.,
          0., 0., 0., 0., 0., 0., 0., 0., 1.40129846e-45, 0.,
          1.40129846e-45, 1.82168800e-44, 8.47070909e-41, 0.,
          1.13531221e-23, 3.09000324e-41, 3.69954529e+01, 4.55674235e-41,
          0., 0., 0., 0., 6.72623263e-44, 0., 1.34524653e-43, 0.,
          1.13545862e-23, 3.09000324e-41, 0., 0., 2.10194770e-44, 0., 0.,
          0., 0., 0., 0., 0., 0., 0., 0., 0., 0., 0., 2.80259693e-45, 0.,
          1.40129846e-45, 1.82168800e-44, 8.45053039e-41, 0.,
          1.13531221e-23, 3.09000324e-41, 3.69954529e+01, 4.55674235e-41,
          0., 0., 0., 0., 6.72623263e-44, 0., 1.34524653e-43, 0.,
          1.13546998e-23, 3.09000324e-41, 0., 0., 1.10702579e-43, 0., 0.,
          0., 0., 0., 0., 0., 0., 0., 0., 0., 0., 0., 4.20389539e-45, 0.,
          1.40129846e-45, 1.12103877e-44, 8.43035169e-41, 0.,
          1.13531221e-23, 3.09000324e-41, 3.69954529e+01, 4.55674235e-41 ]
      - [ 0., 0., 0., 0., 0., 0., 6.86636248e-44, 0., 1.13550406e-23,
          3.09000324e-41, 3.69954529e+01, 4.55674235e-41, 7.24431922e+22,
          0., 0., 0., 1.34524653e-43, 0., 1.34524653e-43, 0.,
          1.13548134e-23, 3.09000324e-41, 0., 0., 4.34402524e-44, 0., 0.,
          0., 0., 0., 0., 0., 0., 0., 0., 0., 0., 0., 5.60519386e-45, 0.,
          1.40129846e-45, 1.54142831e-44, 8.40344676e-41, 0.,
          1.13531221e-23, 3.09000324e-41, 3.69954529e+01, 4.55674235e-41,
          0., 0., 0., 0., 0., 0., 1.35925951e-43, 0., 1.13545483e-23,
          3.09000324e-41, 3.69954529e+01, 4.55674235e-41, 4.20389539e-44,
          0., 0., 0., 6.72623263e-44, 0., 6.72623263e-44, 0.,
          1.13550406e-23, 3.09000324e-41, 2.71985190e+23, 1.49741503e+25,
          4.54420104e+30, 2.79445261e+20, 7.21330248e+22, 1.59748025e-43,
          2.01786979e-43, 0., 1.12103877e-43, 0., 1.13532735e-23,
          3.09000324e-41, 1.13545988e-23, 3.09000324e-41, 1.13547124e-23,
          3.09000324e-41, 1.13548260e-23, 3.09000324e-41, 1.13549775e-23,
          3.09000324e-41, 1.13552299e-23, 3.09000324e-41, 0., 0., 0., 0.,
          3.13890856e-43, 0., 1.34524653e-43, 0. ]
      - [ 0., 3.09000324e-41, 0., 0., 4.34402524e-44, 0., 0., 0., 0., 0.,
          0., 0., 0., 0., 0., 0., 0., 0., 7.00649232e-45, 0.,
          1.40129846e-45, 1.54142831e-44, 8.35860521e-41, 0.,
          1.13531221e-23, 3.09000324e-41, 3.69954529e+01, 4.55674235e-41,
          0., 0., 0., 0., 6.72623263e-44, 0., 6.72623263e-44, 0.,
          1.13545483e-23, 3.09000324e-41, 2.71985190e+23, 1.49741503e+25,
          4.54420104e+30, 2.79445261e+20, 7.21330248e+22, 1.59748025e-43,
          0., 0., 4.72237582e-43, 0., 1.13557095e-23, 3.09000324e-41,
          3.69954529e+01, 4.55674235e-41, 1.40129846e-45, 0., 0., 0.,
          4.20389539e-45, 5.60519386e-45, 0., 0., 0., 0., 0., 0., 0., 0.,
          0., 0., 0., 0., 0., 0., 0., 0., 0., 0., 0., 0., 0., 0., 0., 0.,
          0., 0., 0., 0., 0., 0., 0., 0., 0., 0., 0., 0., 0., 0., 0., 0.,
          0., 0. ]
      - [ 1., 0., 0., 0., 3.36311631e-43, 0., 6.72623263e-44, 0.,
          1.13552930e-23, 3.09000324e-41, 1.68155816e-44, 0.,
          1.61376553e+10, 4.36077518e+27, 4.54481789e+30, 0., 0., 0.,
          6.86636248e-44, 0., 1.13564668e-23, 3.09000324e-41,
          1.13560125e-23, 3.09000324e-41, 1.13557979e-23, 3.09000324e-41,
          1.13559493e-23, 3.09000324e-41, 6.05360937e-43, 0.,
          1.34524653e-43, 0., 1.13552173e-23, 3.09000324e-41, 0., 0.,
          1.10702579e-43, 0., 0., 0., 0., 0., 0., 0., 0., 0., 0., 0., 0.,
          0., 1.40129846e-45, 0., 1.40129846e-45, 2.80259693e-45,
          8.28461665e-41, 0., 1.13531221e-23, 3.09000324e-41,
          3.69954529e+01, 4.55674235e-41, 0., 0., 0., 0., 0., 0.,
          6.86636248e-44, 0., 1.13558610e-23, 3.09000324e-41,
          3.69954529e+01, 4.55674235e-41, 1.76409464e-41, 0., 0., 0.,
          1.34524653e-43, 0., 1.34524653e-43, 0., 1.13556338e-23,
          3.09000324e-41, 0., 0., 1.10702579e-43, 0., 0., 0., 0., 0., 0.,
          0., 0., 0., 0., 0., 0., 0., 2.80259693e-45, 0. ]
      - [ 1., 2.80259693e-45, 8.25771172e-41, 0., 1.13531221e-23,
          3.09000324e-41, 3.69954529e+01, 4.55674235e-41, 0., 0., 0., 0.,
          0., 0., 6.86636248e-44, 0., 1.13560125e-23, 3.09000324e-41,
          3.69954529e+01, 4.55674235e-41, 6.86636248e-44, 0., 0., 0.,
          1.34524653e-43, 0., 1.34524653e-43, 0., 1.13557853e-23,
          3.09000324e-41, 0., 0., 1.10702579e-43, 0., 0., 0., 0., 0., 0.,
          0., 0., 0., 0., 0., 0., 0., 4.20389539e-45, 0., 1.40129846e-45,
          2.80259693e-45, 8.23080679e-41, 0., 1.13531221e-23,
          3.09000324e-41, 3.69954529e+01, 4.55674235e-41, 0., 0., 0., 0.,
          0., 0., 6.06762235e-43, 0., 1.13555959e-23, 3.09000324e-41,
          3.69954529e+01, 4.55674235e-41, 6.72623263e-44, 0., 0., 0., 0.,
          0., 5.39499909e-43, 0., 1.13564668e-23, 3.09000324e-41,
          1.13555959e-23, 3.09000324e-41, 1.40129846e-45, 0., 0., 0.,
          2.80259693e-45, 5.60519386e-45, 0., 0., 0., 0., 0., 0., 0., 0.,
          0., 0., 0., 0., 0., 0. ]
      - [ 0., 0., 0., 0., 0., 0., 6.86636248e-44, 0., 1.13566183e-23,
          3.09000324e-41, 3.69954529e+01, 4.55674235e-41, 6.86636248e-44,
          0., 0., 0., 1.34524653e-43, 0., 1.34524653e-43, 0.,
          1.13563911e-23, 3.09000324e-41, 0., 0., 1.10702579e-43, 0., 0.,
          0., 0., 0., 0., 0., 0., 0., 0., 0., 0., 0., 2.80259693e-45, 0.,
          1.40129846e-45, 7.00649232e-45, 8.12318707e-41, 0.,
          1.13531221e-23, 3.09000324e-41, 3.69954529e+01, 4.55674235e-41,
          0., 0., 0., 0., 0., 0., 6.06762235e-43, 0., 1.13563532e-23,
          3.09000324e-41, 3.69954529e+01, 4.55674235e-41, 1.76409464e-41,
          0., 0., 0., 0., 0., 5.39499909e-43, 0., 1.13570727e-23,
          3.09000324e-41, 1.13563532e-23, 3.09000324e-41, 1.40129846e-45,
          0., 0., 0., 4.20389539e-45, 5.60519386e-45, 0., 0., 0., 0., 0.,
          0., 0., 0., 0., 0., 0., 0., 0., 0., 0., 0., 0., 0., 0., 0., 0.,
          0. ]
      - [ 0., 0., 0., 0., 0., 0., 0., 0., 0., 0., 0., 0., 0., 0., 0., 0.,
          0., 0., 0., 0., 0., 0., 0., 0., 3.36311631e-43, 0.,
          6.72623263e-44, 0., 1.13569212e-23, 3.09000324e-41,
          2.38220739e-44, 0., 4.20389539e-44, 0., 0., 0., 4.03573958e-43,
          0., 6.72623263e-44, 0., 1.13563532e-23, 3.09000324e-41,
          2.79445261e+20, 7.21330248e+22, 1.59748025e-43, 0., 0., 0., 0.,
          0., 6.86636248e-44, 0., 1.13577543e-23, 3.09000324e-41,
          1.13572999e-23, 3.09000324e-41, 1.13571232e-23, 3.09000324e-41,
          1.13572368e-23, 3.09000324e-41, 6.72623263e-43, 0.,
          1.34524653e-43, 0., 1.13565426e-23, 3.09000324e-41, 0., 0.,
          2.10194770e-44, 0., 0., 0., 0., 0., 0., 0., 0., 0., 0., 0., 0.,
          0., 1.40129846e-45, 0., 1.40129846e-45, 1.26116862e-44,
          8.04247228e-41, 0., 1.13531221e-23, 3.09000324e-41,
          3.69954529e+01, 4.55674235e-41, 0., 0., 0., 0., 6.72623263e-44,
          0., 1.34524653e-43, 0. ]
      - [ 0., 3.09000324e-41, 0., 0., 2.10194770e-44, 0., 0., 0., 0., 0.,
          0., 0., 0., 0., 0., 0., 0., 0., 2.80259693e-45, 0.,
          1.40129846e-45, 1.82168800e-44, 8.02229358e-41, 0.,
          1.13531221e-23, 3.09000324e-41, 3.69954529e+01, 4.55674235e-41,
          0., 0., 0., 0., 6.72623263e-44, 0., 1.34524653e-43, 0.,
          1.13571105e-23, 3.09000324e-41, 0., 0., 1.10702579e-43, 0., 0.,
          0., 0., 0., 0., 0., 0., 0., 0., 0., 0., 0., 4.20389539e-45, 0.,
          1.40129846e-45, 1.12103877e-44, 8.00211488e-41, 0.,
          1.13531221e-23, 3.09000324e-41, 3.69954529e+01, 4.55674235e-41,
          0., 0., 0., 0., 0., 0., 6.06762235e-43, 0., 1.13569591e-23,
          3.09000324e-41, 3.69954529e+01, 4.55674235e-41, 1.87279897e+31,
          1.41531145e-43, 0., 0., 0., 0., 5.39499909e-43, 0.,
          1.13577543e-23, 3.09000324e-41, 1.13569591e-23, 3.09000324e-41,
          1.40129846e-45, 0., 0., 0., 1.40129846e-45, 5.60519386e-45, 0.,
          0., 0., 0., 0., 0. ]
      - [ 0., 0., 0., 0., 1.68155816e-44, 2.24207754e-44, 0., 0., 0., 0.,
          0., 0., 0., 0., 0., 0., 0., 0., 0., 0., 0., 0., 0., 0., 0., 0.,
          0., 0., 0., 0., 0., 0., 0., 0., 0., 0., 0., 0., 0., 0., 0., 0.,
          0., 0., 0., 0., 0., 0., 0., 0., 0., 0., 3.36311631e-43, 0.,
          6.72623263e-44, 0., 1.13589028e-23, 3.09000324e-41,
          2.52233724e-44, 0., 4.20389539e-44, 0., 0., 0., 4.03573958e-43,
          0., 6.72623263e-44, 0., 1.13580572e-23, 3.09000324e-41,
          4.46280316e+30, 7.27084014e+31, 4.10370255e-41, 0., 0., 0., 0.,
          0., 6.86636248e-44, 0., 1.13596854e-23, 3.09000324e-41,
          1.13594708e-23, 3.09000324e-41, 1.78267756e+19, 1.10218201e+24,
          6.64095296e-24, 3.09000324e-41, 1.43492963e-42, 0.,
          1.34524653e-43, 0., 1.13580950e-23, 3.09000324e-41, 0., 0.,
          2.10194770e-44, 0., 0., 0. ]
      - [ 0., 0., 0., 0., 0., 0., 0., 0., 0., 0., 1.40129846e-45, 0.,
          1.40129846e-45, 1.26116862e-44, 7.69046610e-41, 0.,
          1.13531221e-23, 3.09000324e-41, 3.69954529e+01, 4.55674235e-41,
          0., 0., 0., 0., 6.72623263e-44, 0., 1.34524653e-43, 0.,
          1.13589786e-23, 3.09000324e-41, 0., 0., 1.10702579e-43, 0., 0.,
          0., 0., 0., 0., 0., 0., 0., 0., 0., 0., 0., 5.60519386e-45, 0.,
          1.40129846e-45, 1.82168800e-44, 7.67028740e-41, 0.,
          1.13531221e-23, 3.09000324e-41, 3.69954529e+01, 4.55674235e-41,
          0., 0., 0., 0., 0., 0., 6.86636248e-44, 0., 1.13593194e-23,
          3.09000324e-41, 3.69954529e+01, 4.55674235e-41, 6.86636248e-44,
          0., 0., 0., 1.34524653e-43, 0., 1.34524653e-43, 0.,
          1.13590922e-23, 3.09000324e-41, 0., 0., 1.10702579e-43, 0., 0.,
          0., 0., 0., 0., 0., 0., 0., 0., 0., 0., 0., 9.80908925e-45, 0.,
          1.40129846e-45, 1.82168800e-44, 7.64338247e-41, 0. ]
      - [ 1., 3.09000324e-41, 3.69954529e+01, 4.55674235e-41, 0., 0., 0.,
          0., 0., 0., 6.86636248e-44, 0., 1.13594708e-23, 3.09000324e-41,
          3.69954529e+01, 4.55674235e-41, 6.72623263e-44, 0., 0., 0.,
          1.34524653e-43, 0., 1.34524653e-43, 0., 1.13592436e-23,
          3.09000324e-41, 0., 0., 1.10702579e-43, 0., 0., 0., 0., 0., 0.,
          0., 0., 0., 0., 0., 0., 0., 1.12103877e-44, 0., 1.40129846e-45,
          1.12103877e-44, 7.61647754e-41, 0., 1.13531221e-23,
          3.09000324e-41, 3.69954529e+01, 4.55674235e-41, 0., 0., 0., 0.,
          0., 0., 6.86636248e-44, 0., 1.13589407e-23, 3.09000324e-41,
          3.69954529e+01, 4.55674235e-41, 1.87279897e+31, 1.41531145e-43,
          0., 0., 1.34524653e-43, 0., 1.12103877e-43, 0., 1.13583601e-23,
          3.09000324e-41, 1.13615913e-23, 3.09000324e-41, 1.13617049e-23,
          3.09000324e-41, 1.13618563e-23, 3.09000324e-41, 1.13620457e-23,
          3.09000324e-41, 1.13622350e-23, 3.09000324e-41, 1.13623486e-23,
          3.09000324e-41, 1.13598873e-23, 3.09000324e-41, 2.46628530e-43,
          0., 1.34524653e-43, 0., 1.13593951e-23, 3.09000324e-41, 0., 0.,
          1.10702579e-43, 0., 0., 0. ]
      - [ 0., 0., 0., 0., 0., 0., 0., 0., 0., 0., 1.26116862e-44, 0.,
          1.40129846e-45, 1.82168800e-44, 7.57836222e-41, 0.,
          1.13531221e-23, 3.09000324e-41, 3.69954529e+01, 4.55674235e-41,
          0., 0., 0., 0., 6.72623263e-44, 0., 1.34524653e-43, 0.,
          1.13596097e-23, 3.09000324e-41, 0., 0., 1.10702579e-43, 0., 0.,
          0., 0., 0., 0., 0., 0., 0., 0., 0., 0., 0., 1.40129846e-44, 0.,
          1.40129846e-45, 1.82168800e-44, 7.55818353e-41, 0.,
          1.13531221e-23, 3.09000324e-41, 3.69954529e+01, 4.55674235e-41,
          0., 0., 0., 0., 0., 0., 6.86636248e-44, 0., 1.13599504e-23,
          3.09000324e-41, 3.69954529e+01, 4.55674235e-41, 6.72623263e-44,
          0., 0., 0., 1.34524653e-43, 0., 1.34524653e-43, 0.,
          1.13597233e-23, 3.09000324e-41, 0., 0., 1.10702579e-43, 0., 0.,
          0., 0., 0., 0., 0., 0., 0., 0., 0., 0., 0., 1.54142831e-44, 0.,
          1.40129846e-45, 1.12103877e-44, 7.53127860e-41, 0. ]
      - [ 0., 3.09000324e-41, 3.69954529e+01, 4.55674235e-41, 0., 0., 0.,
          0., 0., 0., 6.86636248e-44, 0., 1.13601019e-23, 3.09000324e-41,
          3.69954529e+01, 4.55674235e-41, 7.24431922e+22, 0., 0., 0.,
          1.34524653e-43, 0., 1.34524653e-43, 0., 1.13598747e-23,
          3.09000324e-41, 0., 0., 1.10702579e-43, 0., 0., 0., 0., 0., 0.,
          0., 0., 0., 0., 0., 0., 0., 2.80259693e-45, 0., 1.40129846e-45,
          2.80259693e-45, 7.50437367e-41, 0., 1.13531221e-23,
          3.09000324e-41, 3.69954529e+01, 4.55674235e-41, 0., 0., 0., 0.,
          0., 0., 2.70450604e-43, 0., 1.13603670e-23, 3.09000324e-41,
          3.69954529e+01, 4.55674235e-41, 6.86636248e-44, 0., 0., 0., 0.,
          0., 2.03188277e-43, 0., 1.13577921e-23, 3.09000324e-41,
          1.13586756e-23, 3.09000324e-41, 1.13591048e-23, 3.09000324e-41,
          1.13592562e-23, 3.09000324e-41, 1.13594077e-23, 3.09000324e-41,
          1.13596223e-23, 3.09000324e-41, 1.13597359e-23, 3.09000324e-41,
          1.13598873e-23, 3.09000324e-41, 1.13600388e-23, 3.09000324e-41,
          1.13603039e-23, 3.09000324e-41, 1.13604175e-23, 3.09000324e-41,
          1.13605689e-23, 3.09000324e-41, 1.13607204e-23, 3.09000324e-41,
          0., 0. ]
      - [ 1., 0., 0., 0., 3.36311631e-43, 0., 1.34524653e-43, 0.,
          1.13600262e-23, 3.09000324e-41, 0., 0., 2.10194770e-44, 0., 0.,
          0., 0., 0., 0., 0., 0., 0., 0., 0., 0., 0., 4.20389539e-45, 0.,
          1.40129846e-45, 1.26116862e-44, 7.45729004e-41, 0.,
          1.13531221e-23, 3.09000324e-41, 3.69954529e+01, 4.55674235e-41,
          0., 0., 0., 0., 6.72623263e-44, 0., 1.34524653e-43, 0.,
          1.13602912e-23, 3.09000324e-41, 0., 0., 1.10702579e-43, 0., 0.,
          0., 0., 0., 0., 0., 0., 0., 0., 0., 0., 0., 7.00649232e-45, 0.,
          1.40129846e-45, 1.82168800e-44, 7.43711134e-41, 0.,
          1.13531221e-23, 3.09000324e-41, 3.69954529e+01, 4.55674235e-41,
          0., 0., 0., 0., 0., 0., 6.86636248e-44, 0., 1.13606320e-23,
          3.09000324e-41, 3.69954529e+01, 4.55674235e-41, 6.72623263e-44,
          0., 0., 0., 1.34524653e-43, 0., 1.34524653e-43, 0.,
          1.13604048e-23, 3.09000324e-41, 0., 0., 1.10702579e-43, 0., 0.,
          0. ]
      - [ 0., 0., 0., 0., 0., 0., 0., 0., 0., 0., 8.40779079e-45, 0.,
          1.40129846e-45, 1.12103877e-44, 7.41020641e-41, 0.,
          1.13531221e-23, 3.09000324e-41, 3.69954529e+01, 4.55674235e-41,
          0., 0., 0., 0., 0., 0., 6.86636248e-44, 0., 1.13607835e-23,
          3.09000324e-41, 3.69954529e+01, 4.55674235e-41, 1.87279897e+31,
          1.41531145e-43, 0., 0., 1.34524653e-43, 0., 1.34524653e-43, 0.,
          1.13605563e-23, 3.09000324e-41, 0., 0., 1.10702579e-43, 0., 0.,
          0., 0., 0., 0., 0., 0., 0., 0., 0., 0., 0., 1.68155816e-44, 0.,
          1.40129846e-45, 1.26116862e-44, 7.38330148e-41, 0.,
          1.13531221e-23, 3.09000324e-41, 3.69954529e+01, 4.55674235e-41,
          0., 0., 0., 0., 0., 0., 6.06762235e-43, 0., 1.13612379e-23,
          3.09000324e-41, 3.69954529e+01, 4.55674235e-41, 0., 0., 0., 0.,
          0., 0., 5.39499909e-43, 0., 1.13612379e-23, 3.09000324e-41,
          3.69954529e+01, 4.55674235e-41, 1.40129846e-45, 0., 0., 0.,
          1.40129846e-45, 5.60519386e-45, 0., 0. ]
      - [ 0., 0., 0., 0., 0., 0., 0., 0., 0., 0., 0., 0., 0., 0., 0., 0.,
          0., 0., 0., 0., 0., 0., 0., 0., 0., 0., 0., 0., 0., 0., 0., 0.,
          0., 0., 0., 0., 0., 0., 0., 0., 0., 0., 0., 0., 3.36311631e-43,
          0., 6.72623263e-44, 0., 1.13610864e-23, 3.09000324e-41,
          2.94272678e-44, 0., 4.20389539e-44, 0., 0., 0., 4.03573958e-43,
          0., 6.72623263e-44, 0., 1.13608213e-23, 3.09000324e-41,
          1.92868882e+31, 2.79445261e+20, 7.21330248e+22, 1.59748025e-43,
          0., 0., 0., 0., 6.86636248e-44, 0., 1.13616544e-23,
          3.09000324e-41, 1.13612379e-23, 3.09000324e-41, 0., 0., 0., 0.,
          6.72623263e-43, 0., 1.34524653e-43, 0., 1.13607078e-23,
          3.09000324e-41, 0., 0., 2.10194770e-44, 0., 0., 0., 0., 0., 0.,
          0., 0., 0., 0., 0. ]
      - [ 1., 0., 1.40129846e-45, 0., 1.40129846e-45, 1.26116862e-44,
          7.30258669e-41, 0., 1.13531221e-23, 3.09000324e-41,
          3.69954529e+01, 4.55674235e-41, 0., 0., 0., 0., 0., 0.,
          5.39499909e-43, 0., 1.13616544e-23, 3.09000324e-41,
          1.13611243e-23, 3.09000324e-41, 1.40129846e-45, 0., 0., 0.,
          8.40779079e-45, 1.12103877e-44, 0., 0., 0., 0., 0., 0., 0., 0.,
          0., 0., 0., 0., 0., 0., 0., 0., 0., 0., 0., 0., 0., 0., 0., 0.,
          0., 0., 0., 0., 0., 0., 0., 0., 0., 0., 0., 0., 0., 0., 0., 0.,
          0., 0., 0., 0., 0., 0., 3.36311631e-43, 0., 6.72623263e-44, 0.,
          1.13615029e-23, 3.09000324e-41, 2.94272678e-44, 0.,
          4.20389539e-44, 0., 0., 0., 4.03573958e-43, 0., 6.72623263e-44,
          0., 1.13611243e-23, 3.09000324e-41, 7.20844941e+31,
          2.79445261e+20, 7.21330248e+22, 1.59748025e-43, 0., 0. ]
      - [ 1., 0., 6.86636248e-44, 0., 1.13622981e-23, 3.09000324e-41,
          1.13621088e-23, 3.09000324e-41, 1.84974173e+31, 3.08509870e-41,
          1.13618563e-23, 3.09000324e-41, 6.05360937e-43, 0.,
          1.34524653e-43, 0., 1.13611621e-23, 3.09000324e-41, 0., 0.,
          2.10194770e-44, 0., 0., 0., 0., 0., 0., 0., 0., 0., 0., 0., 0.,
          0., 1.40129846e-45, 0., 1.40129846e-45, 1.82168800e-44,
          7.22859813e-41, 0., 1.13531221e-23, 3.09000324e-41,
          3.69954529e+01, 4.55674235e-41, 0., 0., 0., 0., 6.72623263e-44,
          0., 1.34524653e-43, 0., 1.13615787e-23, 3.09000324e-41, 0., 0.,
          1.10702579e-43, 0., 0., 0., 0., 0., 0., 0., 0., 0., 0., 0., 0.,
          0., 2.80259693e-45, 0., 1.40129846e-45, 1.12103877e-44,
          7.20841943e-41, 0., 1.13531221e-23, 3.09000324e-41,
          3.69954529e+01, 4.55674235e-41, 0., 0., 0., 0., 0., 0.,
          6.86636248e-44, 0., 1.13619194e-23, 3.09000324e-41,
          3.69954529e+01, 4.55674235e-41, 7.24431922e+22, 0., 0., 0.,
          1.34524653e-43, 0., 1.34524653e-43, 0. ]
      - [ 0., 3.09000324e-41, 0., 0., 4.34402524e-44, 0., 0., 0., 0., 0.,
          0., 0., 0., 0., 0., 0., 0., 0., 4.20389539e-45, 0.,
          1.40129846e-45, 1.54142831e-44, 7.18151450e-41, 0.,
          1.13531221e-23, 3.09000324e-41, 3.69954529e+01, 4.55674235e-41,
          0., 0., 0., 0., 0., 0., 1.35925951e-43, 0., 1.13621088e-23,
          3.09000324e-41, 3.69954529e+01, 4.55674235e-41, 4.20389539e-44,
          0., 0., 0., 6.72623263e-44, 0., 6.72623263e-44, 0.,
          1.13619194e-23, 3.09000324e-41, 2.71985190e+23, 1.49741503e+25,
          4.54420104e+30, 2.79445261e+20, 7.21330248e+22, 1.59748025e-43,
          2.01786979e-43, 0., 1.34524653e-43, 0., 1.13618437e-23,
          3.09000324e-41, 0., 0., 4.34402524e-44, 0., 0., 0., 0., 0., 0.,
          0., 0., 0., 0., 0., 0., 0., 5.60519386e-45, 0., 1.40129846e-45,
          1.54142831e-44, 7.14788334e-41, 0., 1.13531221e-23,
          3.09000324e-41, 3.69954529e+01, 4.55674235e-41, 0., 0., 0., 0.,
          0., 0., 1.35925951e-43, 0., 1.13615408e-23, 3.09000324e-41,
          3.69954529e+01, 4.55674235e-41 ]
      - [ 0., 0., 0., 0., 6.72623263e-44, 0., 6.72623263e-44, 0.,
          1.13621088e-23, 3.09000324e-41, 2.71985190e+23, 1.49741503e+25,
          4.54420104e+30, 2.79445261e+20, 7.21330248e+22, 1.59748025e-43,
          2.01786979e-43, 0., 1.34524653e-43, 0., 1.13620330e-23,
          3.09000324e-41, 0., 0., 1.10702579e-43, 0., 0., 0., 0., 0., 0.,
          0., 0., 0., 0., 0., 0., 0., 7.00649232e-45, 0., 1.40129846e-45,
          7.00649232e-45, 7.11425217e-41, 0., 1.13531221e-23,
          3.09000324e-41, 3.69954529e+01, 4.55674235e-41, 0., 0., 0., 0.,
          6.72623263e-44, 0., 1.34524653e-43, 0., 1.13622224e-23,
          3.09000324e-41, 0., 0., 1.10702579e-43, 0., 0., 0., 0., 0., 0.,
          0., 0., 0., 0., 0., 0., 0., 8.40779079e-45, 0., 1.40129846e-45,
          1.12103877e-44, 7.09407348e-41, 0., 1.13531221e-23,
          3.09000324e-41, 3.69954529e+01, 4.55674235e-41, 0., 0., 0., 0.,
          0., 0., 5.39499909e-43, 0., 1.13628282e-23, 3.09000324e-41,
          3.69954529e+01, 4.55674235e-41, 1.87279897e+31, 1.41531145e-43,
          0., 0. ]
      - [ 0., 0., 4.72237582e-43, 0., 1.13628282e-23, 3.09000324e-41,
          3.69954529e+01, 4.55674235e-41, 1.40129846e-45, 0., 0., 0.,
          1.40129846e-45, 5.60519386e-45, 0., 0., 0., 0., 0., 0., 0., 0.,
          0., 0., 0., 0., 0., 0., 0., 0., 0., 0., 0., 0., 0., 0., 0., 0.,
          0., 0., 0., 0., 0., 0., 0., 0., 0., 0., 0., 0., 0., 0., 0., 0.,
          0., 0., 0., 0., 0., 0., 3.36311631e-43, 0., 6.72623263e-44, 0.,
          1.13624496e-23, 3.09000324e-41, 1.96181785e-44, 0.,
          3.04782250e+32, 4.46280890e+30, 7.27084014e+31, 4.10370255e-41,
          0., 0., 6.86636248e-44, 0., 1.13632826e-23, 3.09000324e-41,
          1.13628282e-23, 3.09000324e-41, 0., 0., 0., 0., 6.05360937e-43,
          0., 1.34524653e-43, 0., 1.13623360e-23, 3.09000324e-41, 0., 0.,
          4.34402524e-44, 0., 0., 0., 0., 0., 0., 0. ]
      - [ 0., 0., 0., 0., 3.36311631e-43, 0., 6.72623263e-44, 0.,
          1.13627146e-23, 3.09000324e-41, 1.68155816e-44, 0.,
          1.55313234e+10, 4.36077518e+27, 4.54481789e+30, 0., 0., 0.,
          6.86636248e-44, 0., 1.13651128e-23, 3.09000324e-41,
          1.13635855e-23, 3.09000324e-41, 1.13633709e-23, 3.09000324e-41,
          1.13635224e-23, 3.09000324e-41, 6.72623263e-43, 0.,
          1.34524653e-43, 0., 1.13627525e-23, 3.09000324e-41, 0., 0.,
          1.10702579e-43, 0., 0., 0., 0., 0., 0., 0., 0., 0., 0., 0., 0.,
          0., 1.40129846e-45, 0., 1.40129846e-45, 2.80259693e-45,
          6.93937013e-41, 0., 1.13531221e-23, 3.09000324e-41,
          3.69954529e+01, 4.55674235e-41, 0., 0., 0., 0., 0., 0.,
          6.86636248e-44, 0., 1.13634341e-23, 3.09000324e-41,
          3.69954529e+01, 4.55674235e-41, 1.76409464e-41, 0., 0., 0.,
          1.34524653e-43, 0., 1.34524653e-43, 0., 1.13632069e-23,
          3.09000324e-41, 0., 0., 1.10702579e-43, 0., 0., 0., 0., 0., 0.,
          0., 0., 0., 0., 0., 0., 0., 2.80259693e-45, 0. ]
      - [ 0., 0., 0., 0., 1.34524653e-43, 0., 1.34524653e-43, 0.,
          1.13639263e-23, 3.09000324e-41, 0., 0., 1.10702579e-43, 0., 0.,
          0., 0., 0., 0., 0., 0., 0., 0., 0., 0., 0., 2.80259693e-45, 0.,
          1.40129846e-45, 2.80259693e-45, 6.78466677e-41, 0.,
          1.13531221e-23, 3.09000324e-41, 3.69954529e+01, 4.55674235e-41,
          0., 0., 0., 0., 0., 0., 6.86636248e-44, 0., 1.13643050e-23,
          3.09000324e-41, 3.69954529e+01, 4.55674235e-41, 6.86636248e-44,
          0., 0., 0., 1.34524653e-43, 0., 1.34524653e-43, 0.,
          1.13640778e-23, 3.09000324e-41, 0., 0., 1.10702579e-43, 0., 0.,
          0., 0., 0., 0., 0., 0., 0., 0., 0., 0., 0., 4.20389539e-45, 0.,
          1.40129846e-45, 2.80259693e-45, 6.75776184e-41, 0.,
          1.13531221e-23, 3.09000324e-41, 3.69954529e+01, 4.55674235e-41,
          0., 0., 0., 0., 0., 0., 6.86636248e-44, 0., 1.13644564e-23,
          3.09000324e-41, 3.69954529e+01, 4.55674235e-41, 6.82400241e-07,
          0., 0., 0. ]
      - [ 2., 0., 1.34524653e-43, 0., 1.13642292e-23, 3.09000324e-41, 0.,
          0., 1.33123354e-43, 0., 0., 0., 0., 0., 0., 0., 0., 0., 0., 0.,
          0., 0., 5.60519386e-45, 0., 1.40129846e-45, 1.96181785e-44,
          6.73085691e-41, 0., 1.13531221e-23, 3.09000324e-41,
          3.69954529e+01, 4.55674235e-41, 0., 0., 0., 0., 0., 0.,
          2.03188277e-43, 0., 1.13638884e-23, 3.09000324e-41,
          3.69954529e+01, 4.55674235e-41, 5.18480432e-44, 0., 0., 0.,
          6.72623263e-44, 0., 6.72623263e-44, 0., 1.13644564e-23,
          3.09000324e-41, 2.71985190e+23, 2.19237925e+11, 4.46279742e+30,
          7.27084014e+31, 731683136., 2.54956782e+11, 7.22350036e+28,
          1.54142831e-43, 6.86636248e-44, 0., 1.13638884e-23,
          3.09000324e-41, 3.69954529e+01, 4.55674235e-41, 3.52762291e+09,
          2.23325485e+02, 865096192., 7.64970653e-39, 2.69049305e-43, 0.,
          1.12103877e-43, 0., 1.13653652e-23, 3.09000324e-41,
          1.13639389e-23, 3.09000324e-41, 1.13640904e-23, 3.09000324e-41,
          1.13642418e-23, 3.09000324e-41, 1.13643933e-23, 3.09000324e-41,
          1.13646836e-23, 3.09000324e-41, 1.13647972e-23, 3.09000324e-41,
          0., 0., 3.81153182e-43, 0., 1.34524653e-43, 0., 1.13643807e-23,
          3.09000324e-41, 0., 0. ]
      - [ 2., 0., 6.72623263e-44, 0., 1.13654662e-23, 3.09000324e-41,
          1.13650623e-23, 3.09000324e-41, 1.13653778e-23, 3.09000324e-41,
          0., 0., 3.36311631e-43, 0., 1.12103877e-43, 0., 1.13595465e-23,
          3.09000324e-41, 0., 0., 1.40129846e-45, 0., 0., 0.,
          2.80259693e-45, 5.60519386e-45, 0., 0., 0., 0., 0., 0., 0., 0.,
          1.70538023e-42, 0., 1.13644564e-23, 3.09000324e-41,
          3.69954529e+01, 4.55674235e-41, 0., 0., 0., 0., 0., 0.,
          6.86636248e-44, 0., 1.13654283e-23, 3.09000324e-41,
          1.13653273e-23, 3.09000324e-41, 1.13652895e-23, 3.09000324e-41,
          0., 0., 1.34524653e-43, 0., 8.96831017e-44, 0., 1.13585873e-23,
          3.09000324e-41, 0., 0., 4.20389539e-45, 0., 0., 0., 0., 0., 0.,
          0., 0., 0., 2.25609053e-43, 0., 1.13654283e-23, 3.09000324e-41,
          3.69954529e+01, 4.55674235e-41, 3.52762291e+09, 2.23325485e+02,
          865096192., 7.64970653e-39, 6.72623263e-44, 0., 8.96831017e-44,
          0., 1.13651885e-23, 3.09000324e-41, 0., 0., 4.20389539e-45, 0.,
          0., 0., 0., 0., 1.40129846e-45, 0. ]
      - [ 0., 0., 6.86636248e-44, 0., 1.13648603e-23, 3.09000324e-41,
          1.13651128e-23, 3.09000324e-41, 2.17381359e+05, 2.23305801e+02,
          865096192., 2.73603525e-41, 4.48415509e-43, 0., 1.12103877e-43,
          0., 1.13650496e-23, 3.09000324e-41, 0., 0., 1.40129846e-45, 0.,
          0., 0., 4.20389539e-45, 5.60519386e-45, 0., 0., 0., 0., 0., 0.,
          0., 0., 1.14486085e-42, 0., 1.13681546e-23, 3.09000324e-41,
          1.13584232e-23, 3.09000324e-41, 1.74864123e+25, 3.63861159e-41,
          0., 0., 0., 0., 6.86636248e-44, 0., 1.13648603e-23,
          3.09000324e-41, 1.13657312e-23, 3.09000324e-41, 1.13656050e-23,
          3.09000324e-41, 1.13656934e-23, 3.09000324e-41, 1.34524653e-43,
          0., 8.96831017e-44, 0., 1.13652768e-23, 3.09000324e-41, 0., 0.,
          4.20389539e-45, 0., 0., 0., 0., 0., 0., 0., 0., 0.,
          9.20653091e-43, 0., 1.13700857e-23, 3.09000324e-41,
          3.69954529e+01, 4.55674235e-41, 1.23919106e+01, 7.74156445e-39,
          0., 0., 6.72623263e-44, 0., 8.96831017e-44, 0., 1.13655040e-23,
          3.09000324e-41, 0., 0., 4.20389539e-45, 0., 0., 0., 0., 0.,
          1.40129846e-45, 0. ]
      - [ 0., 0., 7.63707663e-43, 0., 1.13700857e-23, 3.09000324e-41,
          3.69954529e+01, 4.55674235e-41, 1.26883154e+04, 9.66895940e-44,
          0., 0., 6.72623263e-44, 0., 8.96831017e-44, 0., 1.13655924e-23,
          3.09000324e-41, 0., 0., 4.20389539e-45, 0., 0., 0., 0., 0.,
          2.80259693e-45, 0., 0., 0., 6.06762235e-43, 0., 1.13648603e-23,
          3.09000324e-41, 1.13655545e-23, 3.09000324e-41, 823480512.,
          1.09301280e-43, 0., 0., 0., 0., 5.39499909e-43, 0.,
          1.13661477e-23, 3.09000324e-41, 1.13647467e-23, 3.09000324e-41,
          1.40129846e-45, 0., 0., 0., 5.60519386e-45, 5.60519386e-45, 0.,
          0., 0., 0., 0., 0., 0., 0., 0., 0., 0., 0., 0., 0., 0., 0., 0.,
          0., 0., 0., 0., 0., 0., 0., 0., 0., 0., 0., 0., 0., 0., 0., 0.,
          0., 0., 0., 0., 0., 0., 0., 0., 0., 0., 0., 0., 0. ]
      - [ 0., 0., 6.72623263e-44, 0., 1.13659963e-23, 3.09000324e-41,
          2.66246708e-44, 0., 4.20389539e-44, 0., 0., 0., 4.03573958e-43,
          0., 6.72623263e-44, 0., 1.13649739e-23, 3.09000324e-41,
          2.40246563e+20, 7.00624003e+22, 1.05056411e-38, 0., 0., 0., 0.,
          0., 6.86636248e-44, 0., 1.13668672e-23, 3.09000324e-41,
          1.13664885e-23, 3.09000324e-41, 1.13661982e-23, 3.09000324e-41,
          1.13663118e-23, 3.09000324e-41, 2.15239444e-42, 0.,
          1.34524653e-43, 0., 1.13647846e-23, 3.09000324e-41, 0., 0.,
          2.10194770e-44, 0., 0., 0., 0., 0., 0., 0., 0., 0., 0., 0., 0.,
          0., 1.40129846e-45, 0., 1.40129846e-45, 1.82168800e-44,
          6.43041852e-41, 0., 1.13531221e-23, 3.09000324e-41,
          3.69954529e+01, 4.55674235e-41, 0., 0., 0., 0., 6.72623263e-44,
          0., 1.34524653e-43, 0., 1.13660720e-23, 3.09000324e-41, 0., 0.,
          2.10194770e-44, 0., 0., 0., 0., 0., 0., 0., 0., 0., 0., 0., 0.,
          0., 2.80259693e-45, 0., 1.40129846e-45, 1.82168800e-44,
          6.41023983e-41, 0. ]
      - [ 0., 3.09000324e-41, 3.69954529e+01, 4.55674235e-41, 0., 0., 0.,
          0., 6.72623263e-44, 0., 1.34524653e-43, 0., 1.13661856e-23,
          3.09000324e-41, 0., 0., 2.10194770e-44, 0., 0., 0., 0., 0., 0.,
          0., 0., 0., 0., 0., 0., 0., 4.20389539e-45, 0., 1.40129846e-45,
          1.82168800e-44, 6.39006113e-41, 0., 1.13531221e-23,
          3.09000324e-41, 3.69954529e+01, 4.55674235e-41, 0., 0., 0., 0.,
          6.72623263e-44, 0., 1.34524653e-43, 0., 1.13662992e-23,
          3.09000324e-41, 0., 0., 2.10194770e-44, 0., 0., 0., 0., 0., 0.,
          0., 0., 0., 0., 0., 0., 0., 5.60519386e-45, 0., 1.40129846e-45,
          1.82168800e-44, 6.36988243e-41, 0., 1.13531221e-23,
          3.09000324e-41, 3.69954529e+01, 4.55674235e-41, 0., 0., 0., 0.,
          0., 0., 4.72237582e-43, 0., 1.13668672e-23, 3.09000324e-41,
          1.13660341e-23, 3.09000324e-41, 1.40129846e-45, 0., 0., 0.,
          4.20389539e-45, 5.60519386e-45, 0., 0., 0., 0., 0., 0. ]
      - [ 0., 0., 0., 0., 0., 0., 0., 0., 0., 0., 0., 0., 0., 0., 0., 0.,
          0., 0., 0., 0., 0., 0., 0., 0., 0., 0., 0., 0., 0., 0., 0., 0.,
          0., 0., 0., 0., 0., 0., 0., 0., 3.36311631e-43, 0.,
          6.72623263e-44, 0., 1.13660341e-23, 3.09000324e-41,
          1.68155816e-44, 0., 1.38470492e+10, 4.36077518e+27,
          4.54481789e+30, 0., 0., 0., 6.86636248e-44, 0., 1.13676623e-23,
          3.09000324e-41, 1.13672080e-23, 3.09000324e-41, 1.13669934e-23,
          3.09000324e-41, 1.13671449e-23, 3.09000324e-41, 5.38098610e-43,
          0., 1.34524653e-43, 0., 1.13664128e-23, 3.09000324e-41, 0., 0.,
          1.10702579e-43, 0., 0., 0., 0., 0., 0., 0., 0., 0., 0., 0., 0.,
          0., 1.40129846e-45, 0., 1.40129846e-45, 1.12103877e-44,
          6.30262010e-41, 0., 1.13531221e-23, 3.09000324e-41,
          3.69954529e+01, 4.55674235e-41, 0., 0., 0., 0. ]
   decision_functions:
      -
         sv_count: 26
         rho: -1.1344742607226250e+35
         alpha: [ 1., 1., 1., 1., 1., 1., 6.6678408534367650e-01, 1., 1.,
             6.6660795853787203e-01, 1., 1., 1., -1., -1., -1., -1., -1.,
             -1., -1., -3.3339204388154831e-01, -1., -1., -1., -1., -1. ]
         index: [ 48, 49, 50, 51, 52, 53, 56, 57, 58, 59, 60, 61, 55, 26,
             22, 27, 28, 31, 32, 25, 24, 21, 20, 19, 18, 17 ]
      -
         sv_count: 24
         rho: 1.7217496225304933e+22
         alpha: [ 1., 1., 1., 1., 1., 1., 1., 1., 1.,
             9.9998159574905177e-01, 1., 1.8403836551099212e-05, -1.,
             -1., -1., -1., -1., -1., -1.3386900446962406e-10, -1., -1.,
             -1., -1., -1. ]
         index: [ 48, 49, 50, 51, 52, 53, 54, 56, 57, 58, 60, 61, 1, 16,
             14, 13, 11, 10, 9, 8, 6, 5, 4, 2 ]
      -
         sv_count: 23
         rho: 2.2685489409463738e+35
         alpha: [ 1., 1., 1., 1., 6.6666667578280892e-01, 1., 1., 1., 1.,
             1., 1., -1., -1., -1., -1., -3.3333333788968333e-01, -1.,
             -1., -1., -1., -1., -1., -3.3333333789312564e-01 ]
         index: [ 48, 50, 51, 52, 53, 54, 56, 57, 60, 61, 62, 33, 35, 37,
             38, 39, 34, 41, 42, 43, 44, 45, 47 ]
      -
         sv_count: 23
         rho: 2.2685489740218143e+35
         alpha: [ 1., 1., 1., 6.6666667182732919e-01, 1., 1., 1., 1., 1.,
             1., 1., -1., -1., -1., -1., -1., -1., -1.,
             -3.3333334365416251e-01, -1., -1., -3.3333332817316641e-01,
             -1. ]
         index: [ 27, 28, 29, 30, 32, 25, 21, 20, 19, 18, 17, 1, 15, 13,
             12, 10, 8, 7, 6, 4, 3, 2, 0 ]
      -
         sv_count: 23
         rho: 2.5521175883162414e+35
         alpha: [ 1., 1., 1., 7.5000000342963291e-01, 1., 1.,
             7.5000000361691654e-01, 1., 1., 1., 1., -1., -1., -1.,
             -2.5000001048286735e-01, -2.4999999656368210e-01, -1., -1.,
             -1., -1., -1., -1., -1. ]
         index: [ 26, 27, 29, 31, 25, 23, 21, 20, 19, 18, 17, 35, 37, 38,
             39, 40, 34, 41, 42, 43, 44, 45, 47 ]
      -
         sv_count: 19
         rho: 2.2610688423551753e+32
         alpha: [ 1., 9.9999999999998823e-01, 1., 1., 1., 1., 1.,
             6.6446845854594544e-04, 6.6834939490585676e-04,
             6.6446441030720577e-04, -1., -1., -1., -1., -1., -1.,
             -1.9463530207053164e-03, -1., -5.0929546614817855e-05 ]
         index: [ 14, 13, 11, 10, 8, 7, 4, 3, 2, 0, 33, 35, 36, 37, 40,
             42, 44, 46, 47 ]
