%YAML:1.0
---
opencv_ml_svm:
   format: 3
   svmType: C_SVC
   kernel:
      type: POLY
      degree: 5.
      gamma: 8.
      coef0: 5.9999999999999998e-01
   C: 5.0000000000000003e-02
   term_criteria: { iterations:100000 }
   var_count: 100
   class_count: 4
   class_labels: !!opencv-matrix
      rows: 4
      cols: 1
      dt: i
      data: [ -2, -1, 1, 2 ]
   sv_total: 63
   support_vectors:
      - [ 2., 7.00649232e-45, 1.07665965e-40, 0., 8.14052764e+36,
          3.06674169e-41, -1.18879684e-17, 4.57818221e-41, 0., 0., 0.,
          0., 8.03616450e+36, 3.06674169e-41, 6.86636248e-44, 0.,
          8.09191070e+36, 3.06674169e-41, -1.18879684e-17,
          4.57818221e-41, 6.86636248e-44, 0., 6.86636248e-44, 0.,
          1.34524653e-43, 0., 1.34524653e-43, 0., 8.09172816e+36,
          3.06674169e-41, 0., 0., 4.34402524e-44, 0., 0., 0., 0., 0., 0.,
          0., 0., 0., 0., 0., 0., 0., 4.20389539e-45, 0., 1.40129846e-45,
          1.54142831e-44, 1.07396916e-40, 0., 8.14052764e+36,
          3.06674169e-41, -1.18879684e-17, 4.57818221e-41, 0., 0., 0.,
          0., 6.34432118e-10, 1.12275069e+21, 6.74024561e-43, 0.,
          8.08318926e+36, 3.06674169e-41, -1.18879684e-17,
          4.57818221e-41, 4.20389539e-44, 0., 4.64348272e-41, 0.,
          6.72623263e-44, 0., 6.72623263e-44, 0., 8.09191070e+36,
          3.06674169e-41, 2.71985190e+23, 1.49741503e+25, 4.54420104e+30,
          2.79445261e+20, 7.21330248e+22, 1.00613840e-11, 4.60834516e-39,
          6.41111164e-10, 5.39499909e-43, 0., 8.09230621e+36,
          3.06674169e-41, 8.08318926e+36, 3.06674169e-41, 1.40129846e-45,
          0., 0., 0., 2.80259693e-45, 5.60519386e-45, 0., 0. ]
      - [ 0., 0., 0., 0., 0., 0., 0., 0., 0., 0., 0., 0., 0., 0., 0., 0.,
          0., 0., 0., 0., 0., 0., 0., 0., 0., 0., 0., 0., 0., 0., 0., 0.,
          0., 0., 0., 0., 0., 0., 0., 0., 0., 0., 0., 0., 3.36311631e-43,
          0., 6.72623263e-44, 0., 8.09218451e+36, 3.06674169e-41,
          3.36311631e-44, 0., 4.20389539e-44, 0., 8.01759595e+36,
          3.06674169e-41, 4.03573958e-43, 0., 6.72623263e-44, 0.,
          8.08318926e+36, 3.06674169e-41, 60152228., 1.63377142e+10,
          4.36077518e+27, 4.54481789e+30, 8.08748913e+36, 3.06674169e-41,
          4.20389539e-45, 1.40129846e-44, 6.86636248e-44, 0.,
          8.09491250e+36, 3.06674169e-41, 8.09242790e+36, 3.06674169e-41,
          8.09237720e+36, 3.06674169e-41, 8.08758041e+36, 3.06674169e-41,
          7.39885589e-43, 0., 1.34524653e-43, 0., 8.09184985e+36,
          3.06674169e-41, 0., 0., 1.10702579e-43, 0., 0., 0., 0., 0., 0.,
          0., 0., 0., 0., 0. ]
      - [ 0., 0., 0., 0., 0., 0., 0., 0., 0., 0., 0., 0., 0., 0.,
          5.60519386e-45, 0., 4.20389539e-45, 1.82168800e-44,
          1.04773685e-40, 0., 8.14052764e+36, 3.06674169e-41,
          -1.18879684e-17, 4.57818221e-41, 0., 0., 0., 0.,
          6.72623263e-44, 0., 1.12103877e-43, 0., 8.08035987e+36,
          3.06674169e-41, 0., 0., 1.40129846e-45, 0., 0., 0.,
          4.20389539e-45, 5.60519386e-45, 0., 0., 0., 0., 0., 0.,
          1.79366203e-43, 0., 1.34524653e-43, 0., 8.09303637e+36,
          3.06674169e-41, 0., 0., 2.10194770e-44, 0., 0., 0., 0., 0., 0.,
          0., 0., 0., 0., 0., 0., 0., 8.40779079e-45, 0., 4.20389539e-45,
          1.82168800e-44, 1.04459794e-40, 0., 8.14052764e+36,
          3.06674169e-41, -1.18879684e-17, 4.57818221e-41, 0., 0., 0.,
          0., 0., 0., 0., 0., 0., 0., 0., 0., 0., 0., 2.52233724e-44, 0.,
          4.20389539e-45, 1.82168800e-44, 1.04325269e-40, 0. ]
      - [ 0., 2.52233724e-44, 0., 0., 1.34524653e-43, 0., 1.34524653e-43,
          0., 8.09445614e+36, 3.06674169e-41, 0., 0., 1.10702579e-43, 0.,
          0., 0., 0., 0., 0., 0., 0., 0., 0., 0., 0., 0., 2.24207754e-44,
          0., 1.40129846e-45, 7.00649232e-45, 6.86636248e-44, 0.,
          8.05270480e+36, 3.06674169e-41, 8.09436487e+36, 3.06674169e-41,
          1.84974173e+31, 3.04922546e-41, 8.09431417e+36, 3.06674169e-41,
          3.36311631e-43, 0., 1.34524653e-43, 0., 8.09345216e+36,
          3.06674169e-41, 0., 0., 2.10194770e-44, 0., 0., 0., 0., 0., 0.,
          0., 0., 0., 0., 0., 0., 0., 1.54142831e-44, 0., 1.40129846e-45,
          1.82168800e-44, 1.03383597e-40, 0., 8.14052764e+36,
          3.06674169e-41, -1.18879684e-17, 4.57818221e-41, 0., 0., 0.,
          0., 6.72623263e-44, 0., 1.34524653e-43, 0., 8.09366513e+36,
          3.06674169e-41, 0., 0., 2.10194770e-44, 0., 0., 0., 0., 0., 0.,
          0., 0., 0., 0., 0., 0., 0., 1.68155816e-44, 0. ]
      - [ 0., 1.82168800e-44, 1.03181810e-40, 0., 8.09351301e+36,
          3.06674169e-41, -1.18879684e-17, 4.57818221e-41, 0., 0., 0.,
          0., 6.72623263e-44, 0., 1.34524653e-43, 0., 8.09375640e+36,
          3.06674169e-41, 0., 0., 2.10194770e-44, 0., 0., 0., 0., 0., 0.,
          0., 0., 0., 0., 0., 0., 0., 1.82168800e-44, 0., 1.40129846e-45,
          1.82168800e-44, 1.02980023e-40, 0., 8.09351301e+36,
          3.06674169e-41, -1.18879684e-17, 4.57818221e-41, 0., 0., 0.,
          0., 6.72623263e-44, 0., 1.34524653e-43, 0., 8.09384767e+36,
          3.06674169e-41, 0., 0., 2.10194770e-44, 0., 0., 0., 0., 0., 0.,
          0., 0., 0., 0., 0., 0., 0., 1.96181785e-44, 0., 1.40129846e-45,
          1.82168800e-44, 1.02778236e-40, 0., 8.09351301e+36,
          3.06674169e-41, -1.18879684e-17, 4.57818221e-41, 0., 0., 0.,
          0., 6.72623263e-44, 0., 1.34524653e-43, 0., 8.09393894e+36,
          3.06674169e-41, 0., 0., 1.10702579e-43, 0., 0., 0., 0., 0., 0.,
          0. ]
      - [ 1., 0., 0., 0., 0., 0., 7.00649232e-45, 0., 1.40129846e-45,
          1.82168800e-44, 1.02576449e-40, 0., 8.09351301e+36,
          3.06674169e-41, -1.18879684e-17, 4.57818221e-41, 0., 0., 0.,
          0., 8.09187014e+36, 3.06674169e-41, 6.86636248e-44, 0.,
          8.09421275e+36, 3.06674169e-41, -1.18879684e-17,
          4.57818221e-41, 1.12064315e+21, 1.00717637e-11, 1.00717637e-11,
          1.62054162e-10, 1.34524653e-43, 0., 1.34524653e-43, 0.,
          8.09403021e+36, 3.06674169e-41, 0., 0., 4.34402524e-44, 0., 0.,
          0., 0., 0., 0., 0., 0., 0., 0., 0., 0., 0., 9.80908925e-45, 0.,
          1.40129846e-45, 1.54142831e-44, 1.02307400e-40, 0.,
          8.09351301e+36, 3.06674169e-41, -1.18879684e-17,
          4.57818221e-41, 0., 0., 0., 0., 0., 0., 1.35925951e-43, 0.,
          8.09436487e+36, 3.06674169e-41, -1.18879684e-17,
          4.57818221e-41, 4.20389539e-44, 0., 0., 0., 6.72623263e-44, 0.,
          6.72623263e-44, 0., 8.09421275e+36, 3.06674169e-41,
          2.71985190e+23, 1.49741503e+25, 4.54420104e+30, 2.79445261e+20,
          7.21330248e+22, 1.59748025e-43, 2.01786979e-43, 0.,
          1.34524653e-43, 0., 8.09415191e+36, 3.06674169e-41, 0., 0. ]
      - [ 2., 0., 0., 0., 0., 0., 0., 0., 0., 0., 0., 0., 0., 0.,
          1.12103877e-44, 0., 1.40129846e-45, 1.54142831e-44,
          1.01971088e-40, 0., 8.09351301e+36, 3.06674169e-41,
          -1.18879684e-17, 4.57818221e-41, 0., 0., 0., 0., 0., 0.,
          1.35925951e-43, 0., 8.09451699e+36, 3.06674169e-41,
          -1.18879684e-17, 4.57818221e-41, 4.20389539e-44, 0.,
          8.01183575e+36, 3.06674169e-41, 6.72623263e-44, 0.,
          6.72623263e-44, 0., 8.09436487e+36, 3.06674169e-41,
          2.71985190e+23, 1.49741503e+25, 4.54420104e+30, 2.79445261e+20,
          7.21330248e+22, 1.59748025e-43, 2.01786979e-43, 0.,
          1.34524653e-43, 0., 8.09430402e+36, 3.06674169e-41, 0., 0.,
          1.33123354e-43, 0., 0., 0., 0., 0., 0., 0., 0., 0., 0., 0., 0.,
          0., 2.10194770e-44, 0., 1.40129846e-45, 1.96181785e-44,
          1.01634776e-40, 0., 8.14052764e+36, 3.06674169e-41,
          8.09351301e+36, 3.06674169e-41, 0., 0., 0., 0., 0., 0.,
          6.86636248e-44, 0., 8.09461840e+36, 3.06674169e-41,
          -1.18879684e-17, 4.57818221e-41, 5.74532370e-44, 0., 0., 0. ]
      - [ 1., 0., 8.96831017e-44, 0., 8.09520659e+36, 3.06674169e-41,
          2.71985190e+23, 6.04056645e+28, 1.15797016e+27, 7.22507952e+28,
          4.46280709e+30, 7.27084014e+31, 2.79114966e+03, 1.80587615e+28,
          1.41531145e-43, 0., 0., 0., 5.17079133e-43, 0., 8.09363471e+36,
          3.06674169e-41, 8.09436487e+36, 3.06674169e-41, 1.23919106e+01,
          7.74156445e-39, 2.83173291e+32, 5.91787808e-02, 2.91470081e-43,
          0., 4.49816807e-43, 0., 8.09491250e+36, 3.06674169e-41,
          8.09363471e+36, 3.06674169e-41, 8.09283355e+36, 3.06674169e-41,
          8.09295524e+36, 3.06674169e-41, 8.09304652e+36, 3.06674169e-41,
          8.09318849e+36, 3.06674169e-41, 8.09324934e+36, 3.06674169e-41,
          8.09334061e+36, 3.06674169e-41, 8.09346230e+36, 3.06674169e-41,
          8.09367527e+36, 3.06674169e-41, 8.09376654e+36, 3.06674169e-41,
          8.09385781e+36, 3.06674169e-41, 8.09394908e+36, 3.06674169e-41,
          8.09404035e+36, 3.06674169e-41, 8.09416205e+36, 3.06674169e-41,
          8.09431417e+36, 3.06674169e-41, 8.09446628e+36, 3.06674169e-41,
          8.09358400e+36, 3.06674169e-41, 8.09486179e+36, 3.06674169e-41,
          6.53404949e+28, 1.93488984e-19, 1.79359249e+25, 1.64253719e+05,
          1.80941632e+31, 2.21527466e+03, 1.05321589e+21, 7.18562606e+22,
          7.35626700e+22, 3.74847339e-42, 3.68114034e+12, 6.36547254e-39,
          1.63175145e+19, 7.21433831e+22, 4.15789938e+21, 2.10455052e+11,
          2.11889046e+11, 1.75944469e+22, 1.12275055e+21, 1.81058182e+22,
          8.61914010e+09, 1.34903098e+13, 1.19515832e-07, 2.02212573e+20,
          2.55228105e-09, 2.20225759e+12, 3.81153182e-43, 0.,
          6.72623263e-44, 0. ]
      - [ 0., 3.06674169e-41, 1.40129846e-45, 0., 1.62260225e+32,
          9.45082034e+32, 7.28815430e+02, 1.79921471e-07, 7.39885589e-43,
          0., 1.34524653e-43, 0., 8.09357386e+36, 3.06674169e-41, 0., 0.,
          1.10702579e-43, 0., 0., 0., 0., 0., 0., 0., 0., 0., 0., 0., 0.,
          0., 2.38220739e-44, 0., 1.40129846e-45, 1.12103877e-44,
          1.00760366e-40, 0., 8.14052764e+36, 3.06674169e-41,
          -1.18879684e-17, 4.57818221e-41, 0., 0., 0., 0.,
          2.05089917e+03, 1.41438361e+19, 6.86636248e-44, 0.,
          8.09527758e+36, 3.06674169e-41, -1.18879684e-17,
          4.57818221e-41, 1.87279897e+31, 1.89560761e+28, 6.53404949e+28,
          1.93488984e-19, 1.34524653e-43, 0., 6.72623263e-44, 0.,
          8.09503419e+36, 3.06674169e-41, 8.09313779e+36, 3.06674169e-41,
          0., 0., 0., 0., 2.01786979e-43, 0., 6.72623263e-44, 0.,
          8.09264087e+36, 3.06674169e-41, 8.40779079e-45, 0.,
          1.74864123e+25, 1.19578289e-07, 6.33671650e-39, 1.53427735e+13,
          2.23259079e+02, 9.07333599e+11, 6.86636248e-44, 0.,
          8.09279299e+36, 3.06674169e-41, 8.09524716e+36, 3.06674169e-41,
          8.09514574e+36, 3.06674169e-41, 8.09521673e+36, 3.06674169e-41,
          3.36311631e-43, 0., 8.96831017e-44, 0., 8.03617464e+36,
          3.06674169e-41, 0., 0. ]
      - [ 0., 0., 0., 0., 0., 0., 0., 1.54318878e+25, 2.10452713e-19,
          1.89895872e+28, 8.53390765e-43, 0., 8.09451699e+36,
          3.06674169e-41, -1.18879684e-17, 4.57818221e-41,
          1.23919106e+01, 7.74156445e-39, 1.49230646e-19, 7.58800860e+31,
          6.72623263e-44, 0., 8.96831017e-44, 0., 8.09506461e+36,
          3.06674169e-41, 0., 0., 4.20389539e-45, 0., 0., 0., 0., 0.,
          1.40129846e-45, 0., 0., 0., 6.96445337e-43, 0., 8.09451699e+36,
          3.06674169e-41, -1.18879684e-17, 4.57818221e-41,
          1.26883154e+04, 9.66895940e-44, 0., 0., 6.72623263e-44, 0.,
          8.96831017e-44, 0., 8.09513560e+36, 3.06674169e-41, 0., 0.,
          4.20389539e-45, 0., 0., 0., 0., 0., 2.80259693e-45, 0., 0., 0.,
          5.39499909e-43, 0., 8.09279299e+36, 3.06674169e-41,
          8.09510518e+36, 3.06674169e-41, 823480512., 1.09301280e-43,
          3.91256544e-41, 0., 0., 0., 4.72237582e-43, 0., 8.09555139e+36,
          3.06674169e-41, 8.09363471e+36, 3.06674169e-41, 1.40129846e-45,
          0., 0., 0., 2.80259693e-45, 5.60519386e-45, 0., 0., 0., 0., 0.,
          0., 0., 0., 0., 0. ]
      - [ 0., 0., 0., 0., 0., 0., 0., 0., 0., 0., 0., 0., 0., 0., 0., 0.,
          0., 0., 0., 0., 0., 0., 0., 0., 0., 0., 0., 0., 0., 0., 0., 0.,
          0., 0., 0., 0., 3.36311631e-43, 0., 6.72623263e-44, 0.,
          8.09494292e+36, 3.06674169e-41, 1.82168800e-44, 0.,
          2.96420205e+29, 2.79445261e+20, 7.21330248e+22, 6.33680898e-39,
          234112144., 51712316., 6.86636248e-44, 0., 8.09718413e+36,
          3.06674169e-41, 8.09567309e+36, 3.06674169e-41, 8.09562238e+36,
          3.06674169e-41, 2.06270981e+02, 2.00270462e+02, 1.27798420e-42,
          0., 1.34524653e-43, 0., 8.09485165e+36, 3.06674169e-41, 0., 0.,
          1.10702579e-43, 0., 0., 0., 0., 0., 0., 0., 0., 0., 0., 0., 0.,
          0., 1.40129846e-45, 0., 1.40129846e-45, 7.00649232e-45,
          9.93478572e-41, 0., 8.14052764e+36, 3.06674169e-41,
          -1.18879684e-17, 4.57818221e-41, 0., 0., 0., 0.,
          2.05101123e+03, 1.41438361e+19, 6.86636248e-44, 0. ]
      - [ 0., 3.06674169e-41, -1.18879684e-17, 4.57818221e-41,
          6.33671930e-39, 5.58166847e+01, 2.39998604e+32, 2.05415308e+03,
          1.34524653e-43, 0., 1.34524653e-43, 0., 8.09549055e+36,
          3.06674169e-41, 0., 0., 2.10194770e-44, 0., 0., 0., 0., 0., 0.,
          0., 0., 0., 0., 0., 0., 0., 2.80259693e-45, 0., 4.20389539e-45,
          1.82168800e-44, 9.90788079e-41, 0., 8.14052764e+36,
          3.06674169e-41, -1.18879684e-17, 4.57818221e-41, 0., 0., 0.,
          0., 1.32732620e+01, 4.43163408e+21, 4.72237582e-43, 0.,
          8.09718413e+36, 3.06674169e-41, 8.09546012e+36, 3.06674169e-41,
          1.40129846e-45, 0., 0., 0., 1.40129846e-44, 2.24207754e-44, 0.,
          0., 0., 0., 0., 0., 0., 0., 0., 0., 0., 0., 0., 0., 0., 0.,
          1.40129846e-45, 5.60519386e-45, 0., 0., 0., 0., 0., 0., 0., 0.,
          0., 0., 0., 0., 0., 0., 0., 0., 0., 0., 0., 0., 0., 0., 0., 0. ]
      - [ 1., 0., 0., 0., 3.36311631e-43, 0., 6.72623263e-44, 0.,
          8.09546012e+36, 3.06674169e-41, 1.82168800e-44, 0.,
          2.81750893e+20, 2.79445261e+20, 7.21330248e+22, 1.59748025e-43,
          0., 0., 6.86636248e-44, 0., 8.09651481e+36, 3.06674169e-41,
          8.09628156e+36, 3.06674169e-41, 1.08991178e+27, 1.41531145e-43,
          8.09610916e+36, 3.06674169e-41, 5.38098610e-43, 0.,
          1.34524653e-43, 0., 8.09561224e+36, 3.06674169e-41, 0., 0.,
          2.10194770e-44, 0., 0., 0., 0., 0., 0., 0., 0., 0., 0., 0., 0.,
          0., 1.40129846e-45, 0., 1.40129846e-45, 1.26116862e-44,
          9.84061847e-41, 0., 8.14052764e+36, 3.06674169e-41,
          -1.18879684e-17, 4.57818221e-41, 0., 0., 0., 0.,
          6.72623263e-44, 0., 1.34524653e-43, 0., 8.09591648e+36,
          3.06674169e-41, 0., 0., 2.10194770e-44, 0., 0., 0., 0., 0., 0.,
          0., 0., 0., 0., 0., 0., 0., 5.60519386e-45, 0., 1.40129846e-45,
          1.82168800e-44, 9.82043977e-41, 0., 8.14052764e+36,
          3.06674169e-41, -1.18879684e-17, 4.57818221e-41, 0., 0., 0.,
          0. ]
      - [ 0., 3.06674169e-41, 2.71985190e+23, 2.26181557e+20,
          2.40246563e+20, 7.00624003e+22, 5.51145379e-11, 2.37716271e-41,
          0., 0., 6.86636248e-44, 0., 8.09588605e+36, 3.06674169e-41,
          -1.18879684e-17, 4.57818221e-41, 3.42833105e+03,
          6.08564305e-39, 0., 0., 2.69049305e-43, 0., 1.12103877e-43, 0.,
          8.09312764e+36, 3.06674169e-41, 0., 0., 1.40129846e-45, 0., 0.,
          0., 2.80259693e-45, 5.60519386e-45, 0., 0., 0., 0., 0., 0.,
          3.81153182e-43, 0., 1.34524653e-43, 0., 8.09622071e+36,
          3.06674169e-41, 0., 0., 1.10702579e-43, 0., 0., 0., 0., 0., 0.,
          0., 0., 0., 0., 0., 0., 0., 2.80259693e-45, 0., 1.40129846e-45,
          2.80259693e-45, 9.72178836e-41, 0., 8.14052764e+36,
          3.06674169e-41, -1.18879684e-17, 4.57818221e-41, 0., 0., 0.,
          0., 6.72623263e-44, 0., 1.34524653e-43, 0., 8.09645396e+36,
          3.06674169e-41, 0., 0., 2.10194770e-44, 0., 0., 0., 0., 0., 0.,
          0., 0., 0., 0., 0., 0., 0., 4.20389539e-45, 0. ]
      - [ 0., 1.26116862e-44, 9.70160966e-41, 0., 8.14052764e+36,
          3.06674169e-41, -1.18879684e-17, 4.57818221e-41, 0., 0., 0.,
          0., 6.72623263e-44, 0., 1.34524653e-43, 0., 8.09654523e+36,
          3.06674169e-41, 0., 0., 1.10702579e-43, 0., 0., 0., 0., 0., 0.,
          0., 0., 0., 0., 0., 0., 0., 7.00649232e-45, 0., 1.40129846e-45,
          1.82168800e-44, 9.68143096e-41, 0., 8.14052764e+36,
          3.06674169e-41, -1.18879684e-17, 4.57818221e-41, 0., 0., 0.,
          0., 6.51941112e-10, 4.35752560e+27, 6.86636248e-44, 0.,
          8.09681904e+36, 3.06674169e-41, -1.18879684e-17,
          4.57818221e-41, 49545408., 7.39686921e+31, 2.61645920e+17,
          4.51064688e+04, 1.34524653e-43, 0., 1.34524653e-43, 0.,
          8.09663650e+36, 3.06674169e-41, 0., 0., 1.10702579e-43, 0., 0.,
          0., 0., 0., 0., 0., 0., 0., 0., 0., 0., 0., 8.40779079e-45, 0.,
          1.40129846e-45, 1.12103877e-44, 9.65452603e-41, 0.,
          8.14052764e+36, 3.06674169e-41, -1.18879684e-17,
          4.57818221e-41, 0., 0., 0., 0., 6.77535528e-10, 6.44607090e-10,
          2.70450604e-43, 0. ]
      - [ 0., 0., 0., 0., 3.36311631e-43, 0., 6.72623263e-44, 0.,
          8.09766076e+36, 3.06674169e-41, 4.20389539e-44, 0.,
          4.20389539e-44, 0., 0., 0., 4.03573958e-43, 0., 6.72623263e-44,
          0., 8.09721455e+36, 3.06674169e-41, 2.68016282e+32,
          7.15554247e+22, 7.22495768e+28, 4.46280709e+30, 7.27084014e+31,
          4.10370255e-41, 0., 0., 6.86636248e-44, 0., 8.09836051e+36,
          3.06674169e-41, 8.09799542e+36, 3.06674169e-41, 8.09785345e+36,
          3.06674169e-41, 8.09794472e+36, 3.06674169e-41, 1.18830110e-42,
          0., 1.34524653e-43, 0., 8.09712328e+36, 3.06674169e-41, 0., 0.,
          1.10702579e-43, 0., 0., 0., 0., 0., 0., 0., 0., 0., 0., 0., 0.,
          0., 1.40129846e-45, 0., 1.40129846e-45, 2.80259693e-45,
          9.44152866e-41, 0., 8.14052764e+36, 3.06674169e-41,
          -1.18879684e-17, 4.57818221e-41, 0., 0., 0., 0., 0., 0.,
          6.86636248e-44, 0., 8.09790415e+36, 3.06674169e-41,
          -1.18879684e-17, 4.57818221e-41, 4.70017926e-39, 0., 0., 0.,
          1.34524653e-43, 0., 1.34524653e-43, 0., 8.09772161e+36,
          3.06674169e-41, 0., 0., 2.10194770e-44, 0., 0., 0. ]
      - [ 0., 0., 0., 0., 0., 0., 0., 0., 0., 0., 2.80259693e-45, 0.,
          1.40129846e-45, 7.00649232e-45, 9.41462373e-41, 0.,
          8.14052764e+36, 3.06674169e-41, -1.18879684e-17,
          4.57818221e-41, 0., 0., 0., 0., 6.72623263e-44, 0.,
          1.34524653e-43, 0., 8.09784331e+36, 3.06674169e-41, 0., 0.,
          1.10702579e-43, 0., 0., 0., 0., 0., 0., 0., 0., 0., 0., 0., 0.,
          0., 4.20389539e-45, 0., 1.40129846e-45, 2.80259693e-45,
          9.39444503e-41, 0., 8.14052764e+36, 3.06674169e-41,
          -1.18879684e-17, 4.57818221e-41, 0., 0., 0., 0., 0., 0.,
          6.06762235e-43, 0., 8.09769119e+36, 3.06674169e-41,
          -1.18879684e-17, 4.57818221e-41, 6.86636248e-44, 0., 0., 0.,
          0., 0., 5.39499909e-43, 0., 8.09836051e+36, 3.06674169e-41,
          8.09769119e+36, 3.06674169e-41, 1.40129846e-45, 0., 0., 0.,
          8.40779079e-45, 1.12103877e-44, 0., 0., 0., 0., 0., 0., 0., 0.,
          0., 0., 0., 0., 0., 0. ]
      - [ 0., 0., 0., 0., 0., 0., 0., 0., 0., 0., 0., 0., 0., 0., 0., 0.,
          0., 0., 0., 0., 0., 0., 0., 0., 0., 0., 0., 0., 0., 0., 0., 0.,
          3.36311631e-43, 0., 6.72623263e-44, 0., 8.09823881e+36,
          3.06674169e-41, 2.66246708e-44, 0., 4.20389539e-44, 0., 0., 0.,
          4.03573958e-43, 0., 6.72623263e-44, 0., 8.09769119e+36,
          3.06674169e-41, 2.40332149e+20, 7.00624003e+22, 1.05056411e-38,
          0., 0., 0., 0., 0., 6.86636248e-44, 0., 8.09889799e+36,
          3.06674169e-41, 8.09869517e+36, 3.06674169e-41, 7.00623823e+22,
          3.03036293e+35, 1.74064642e+25, 3.63833133e-41, 6.72623263e-43,
          0., 1.34524653e-43, 0., 8.09793458e+36, 3.06674169e-41, 0., 0.,
          2.10194770e-44, 0., 0., 0., 0., 0., 0., 0., 0., 0., 0., 0., 0.,
          0., 1.40129846e-45, 0., 1.40129846e-45, 1.26116862e-44,
          9.31373024e-41, 0., 8.14052764e+36, 3.06674169e-41,
          -1.18879684e-17, 4.57818221e-41 ]
      - [ 0., 0., 0., 0., 6.72623263e-44, 0., 6.72623263e-44, 0.,
          8.09820839e+36, 3.06674169e-41, 4.23254851e+21, 7.86747736e+34,
          0., 0., 0., 0., 1.34524653e-43, 0., 1.34524653e-43, 0.,
          8.09829966e+36, 3.06674169e-41, 0., 0., 2.10194770e-44, 0., 0.,
          0., 0., 0., 0., 0., 0., 0., 0., 0., 0., 0., 2.80259693e-45, 0.,
          1.40129846e-45, 1.26116862e-44, 9.28682531e-41, 0.,
          8.14052764e+36, 3.06674169e-41, -1.18879684e-17,
          4.57818221e-41, 0., 0., 0., 0., 6.72623263e-44, 0.,
          6.72623263e-44, 0., 8.09836051e+36, 3.06674169e-41,
          1.65319765e+19, 2.70883231e+23, 4.31950252e-41, 0., 0., 0.,
          1.34524653e-43, 0., 1.34524653e-43, 0., 8.09842135e+36,
          3.06674169e-41, 0., 0., 2.10194770e-44, 0., 0., 0., 0., 0., 0.,
          0., 0., 0., 0., 0., 0., 0., 4.20389539e-45, 0., 1.40129846e-45,
          1.26116862e-44, 9.25992038e-41, 0., 8.14052764e+36,
          3.06674169e-41, -1.18879684e-17, 4.57818221e-41, 0., 0., 0.,
          0. ]
      - [ 2., 0., 8.40779079e-45, 0., 1.40129846e-45, 1.82168800e-44,
          9.19490013e-41, 0., 8.14052764e+36, 3.06674169e-41,
          -1.18879684e-17, 4.57818221e-41, 0., 0., 0., 0., 0., 0.,
          5.39499909e-43, 0., 8.09923265e+36, 3.06674169e-41,
          -1.18879684e-17, 4.57818221e-41, 1.40129846e-45, 0., 0., 0.,
          2.80259693e-45, 5.60519386e-45, 0., 0., 0., 0., 0., 0., 0., 0.,
          0., 0., 0., 0., 0., 0., 0., 0., 0., 0., 0., 0., 0., 0., 0., 0.,
          0., 0., 0., 0., 0., 0., 0., 0., 0., 0., 0., 0., 0., 0., 0., 0.,
          0., 0., 0., 0., 0., 0., 3.36311631e-43, 0., 6.72623263e-44, 0.,
          8.09911096e+36, 3.06674169e-41, 2.24207754e-44, 0.,
          4.20389539e-44, 0., 0., 0., 4.03573958e-43, 0., 6.72623263e-44,
          0., 8.09889799e+36, 3.06674169e-41, 4.36077518e+27,
          4.54481789e+30, 0., 0., 0., 0. ]
      - [ 0., 3.06674169e-41, -1.18879684e-17, 4.57818221e-41,
          7.24431922e+22, 0., 0., 0., 0., 0., 5.39499909e-43, 0.,
          8.09971943e+36, 3.06674169e-41, 8.09914138e+36, 3.06674169e-41,
          1.40129846e-45, 0., 0., 0., 8.40779079e-45, 1.12103877e-44, 0.,
          0., 0., 0., 0., 0., 0., 0., 0., 0., 0., 0., 0., 0., 0., 0., 0.,
          0., 0., 0., 0., 0., 0., 0., 0., 0., 0., 0., 0., 0., 0., 0., 0.,
          0., 0., 0., 0., 0., 0., 0., 0., 0., 0., 0., 0., 0.,
          3.36311631e-43, 0., 6.72623263e-44, 0., 8.09959773e+36,
          3.06674169e-41, 2.52233724e-44, 0., 4.20389539e-44, 0., 0., 0.,
          4.03573958e-43, 0., 6.72623263e-44, 0., 8.09914138e+36,
          3.06674169e-41, 4.46280316e+30, 7.27084014e+31, 4.10370255e-41,
          0., 0., 0., 0., 0., 6.86636248e-44, 0., 8.10031776e+36,
          3.06674169e-41, 8.10011493e+36, 3.06674169e-41 ]
      - [ 1., 4.17586942e-41, 8.09997296e+36, 3.06674169e-41,
          6.72623263e-43, 0., 1.34524653e-43, 0., 8.09929350e+36,
          3.06674169e-41, 0., 0., 4.34402524e-44, 0., 0., 0., 0., 0., 0.,
          0., 0., 0., 0., 0., 0., 0., 1.40129846e-45, 0., 4.20389539e-45,
          1.54142831e-44, 9.01329185e-41, 0., 8.14052764e+36,
          3.06674169e-41, -1.18879684e-17, 4.57818221e-41, 0., 0., 0.,
          0., 0., 0., 1.35925951e-43, 0., 8.09987155e+36, 3.06674169e-41,
          -1.18879684e-17, 4.57818221e-41, 4.20389539e-44, 0., 0., 0.,
          6.72623263e-44, 0., 6.72623263e-44, 0., 8.09971943e+36,
          3.06674169e-41, 2.71985190e+23, 1.49741503e+25, 4.54420104e+30,
          2.79445261e+20, 7.21330248e+22, 1.59748025e-43, 2.01786979e-43,
          0., 1.34524653e-43, 0., 8.09965858e+36, 3.06674169e-41, 0., 0.,
          4.34402524e-44, 0., 0., 0., 0., 0., 0., 0., 0., 0., 0., 0., 0.,
          0., 8.40779079e-45, 0., 4.20389539e-45, 1.54142831e-44,
          8.97966069e-41, 0., 8.14052764e+36, 3.06674169e-41,
          -1.18879684e-17, 4.57818221e-41, 0., 0., 0., 0. ]
      - [ 0., 0., 1.35925951e-43, 0., 8.10002366e+36, 3.06674169e-41,
          -1.18879684e-17, 4.57818221e-41, 4.20389539e-44, 0., 0., 0.,
          6.72623263e-44, 0., 6.72623263e-44, 0., 8.09987155e+36,
          3.06674169e-41, 2.71985190e+23, 9.39002804e+26, 3.99294043e+24,
          9.31569907e-39, 0., 0., 2.01786979e-43, 0., 1.34524653e-43, 0.,
          8.09981070e+36, 3.06674169e-41, 0., 0., 2.10194770e-44, 0., 0.,
          0., 0., 0., 0., 0., 0., 0., 0., 0., 0., 0., 2.80259693e-45, 0.,
          4.20389539e-45, 1.82168800e-44, 8.94602953e-41, 0.,
          8.14052764e+36, 3.06674169e-41, -1.18879684e-17,
          4.57818221e-41, 0., 0., 0., 0., 6.72623263e-44, 0.,
          1.34524653e-43, 0., 8.09996282e+36, 3.06674169e-41, 0., 0.,
          2.10194770e-44, 0., 0., 0., 0., 0., 0., 0., 0., 0., 0., 0., 0.,
          0., 4.20389539e-45, 0., 4.20389539e-45, 1.82168800e-44,
          8.92585083e-41, 0., 8.14052764e+36, 3.06674169e-41,
          -1.18879684e-17, 4.57818221e-41, 0., 0., 0., 0.,
          6.72623263e-44, 0., 1.12103877e-43, 0. ]
      - [ 1., 3.06674169e-41, 8.09966872e+36, 3.06674169e-41,
          8.09982084e+36, 3.06674169e-41, 8.09997296e+36, 3.06674169e-41,
          8.10006423e+36, 3.06674169e-41, 8.10020621e+36, 3.06674169e-41,
          8.10026705e+36, 3.06674169e-41, 0., 0., 1.79366203e-43, 0.,
          1.34524653e-43, 0., 8.10005409e+36, 3.06674169e-41, 0., 0.,
          2.10194770e-44, 0., 0., 0., 0., 0., 0., 0., 0., 0., 0., 0., 0.,
          0., 5.60519386e-45, 0., 4.20389539e-45, 1.82168800e-44,
          8.89446174e-41, 0., 8.14052764e+36, 3.06674169e-41,
          -1.18879684e-17, 4.57818221e-41, 0., 0., 0., 0., 0., 0., 0.,
          0., 0., 0., 0., 0., 0., 0., 7.00649232e-45, 0., 4.20389539e-45,
          1.82168800e-44, 8.88100928e-41, 0., 8.14052764e+36,
          3.06674169e-41, -1.18879684e-17, 4.57818221e-41, 0., 0., 0.,
          0., 0., 0., 5.39499909e-43, 0., 8.10110877e+36, 3.06674169e-41,
          -1.18879684e-17, 4.57818221e-41, 1.40129846e-45, 0., 0., 0.,
          4.20389539e-45, 5.60519386e-45, 0., 0., 0., 0., 0., 0., 0., 0.,
          0., 0. ]
      - [ 0., 0., 0., 0., 0., 0., 1.40129846e-45, 5.60519386e-45, 0., 0.,
          0., 0., 0., 0., 0., 0., 0., 0., 0., 0., 0., 0., 0., 0., 0., 0.,
          0., 0., 0., 0., 0., 0., 0., 0., 0., 0., 3.36311631e-43, 0.,
          6.72623263e-44, 0., 8.10053072e+36, 3.06674169e-41,
          2.24207754e-44, 0., 4.20389539e-44, 0., 0., 0., 4.03573958e-43,
          0., 6.72623263e-44, 0., 8.10031776e+36, 3.06674169e-41,
          4.36077518e+27, 4.54481789e+30, 0., 0., 0., 0., 0., 0.,
          6.86636248e-44, 0., 8.10168682e+36, 3.06674169e-41,
          8.10084510e+36, 3.06674169e-41, 8.10079440e+36, 3.06674169e-41,
          8.10088567e+36, 3.06674169e-41, 6.05360937e-43, 0.,
          1.34524653e-43, 0., 8.10025691e+36, 3.06674169e-41, 0., 0.,
          1.33123354e-43, 0., 0., 0., 0., 0., 0., 0., 0., 0., 0., 0., 0.,
          0., 1.40129846e-45, 0., 1.40129846e-45, 1.96181785e-44,
          8.80702072e-41, 0. ]
      - [ 0., 3.06674169e-41, -1.18879684e-17, 4.57818221e-41, 0., 0.,
          0., 0., 0., 0., 6.86636248e-44, 0., 8.10075383e+36,
          3.06674169e-41, -1.18879684e-17, 4.57818221e-41,
          5.60519386e-44, 0., 0., 0., 1.34524653e-43, 0., 8.96831017e-44,
          0., 8.10131160e+36, 3.06674169e-41, 2.71985190e+23,
          9.53509914e+26, 1.84971308e+31, 4.46280437e+30, 7.27084014e+31,
          2.79114966e+03, 1.86971540e+25, 2.56744166e+29, 0., 0., 0., 0.,
          6.86636248e-44, 0., 8.10084510e+36, 3.06674169e-41,
          8.10093637e+36, 3.06674169e-41, 7.10194177e-39, 0., 0., 0.,
          2.91470081e-43, 0., 1.34524653e-43, 0., 8.10059157e+36,
          3.06674169e-41, 0., 0., 2.10194770e-44, 0., 0., 0., 0., 0., 0.,
          0., 0., 0., 0., 0., 0., 0., 2.80259693e-45, 0., 4.20389539e-45,
          2.80259693e-45, 8.76442125e-41, 0., 8.14052764e+36,
          3.06674169e-41, -1.18879684e-17, 4.57818221e-41, 0., 0., 0.,
          0., 6.72623263e-44, 0., 1.34524653e-43, 0., 8.10078425e+36,
          3.06674169e-41, 0., 0., 1.10702579e-43, 0., 0., 0., 0., 0., 0.,
          0. ]
      - [ 0., 0., 0., 0., 0., 0., 4.20389539e-45, 0., 1.40129846e-45,
          1.12103877e-44, 8.74424255e-41, 0., 8.14052764e+36,
          3.06674169e-41, -1.18879684e-17, 4.57818221e-41, 0., 0., 0.,
          0., 6.72623263e-44, 0., 6.72623263e-44, 0., 8.10084510e+36,
          3.06674169e-41, 1.64605005e+19, 1.66350439e+22, 0., 0., 0., 0.,
          0., 0., 6.86636248e-44, 0., 8.10056115e+36, 3.06674169e-41,
          -1.18879684e-17, 4.57818221e-41, 7.24431922e+22, 0., 0., 0.,
          2.01786979e-43, 0., 6.72623263e-44, 0., 8.10113920e+36,
          3.06674169e-41, 8.10106821e+36, 3.06674169e-41, 0., 0., 0., 0.,
          2.69049305e-43, 0., 1.12103877e-43, 0., 8.10014536e+36,
          3.06674169e-41, 0., 0., 1.40129846e-45, 0., 0., 0.,
          4.20389539e-45, 5.60519386e-45, 0., 0., 0., 0., 0., 0., 0., 0.,
          1.14486085e-42, 0., 8.10065242e+36, 3.06674169e-41,
          8.09718413e+36, 3.06674169e-41, 4.95748594e+33, 3.84954598e+09,
          1.56945428e-43, 0., 0., 0., 6.86636248e-44, 0., 8.10093637e+36,
          3.06674169e-41, 8.10135216e+36, 3.06674169e-41, 8.10125075e+36,
          3.06674169e-41, 8.10132174e+36, 3.06674169e-41 ]
      - [ 1., 0., 0., 0., 0., 0., 0., 0., 0., 0., 0., 0., 0., 0.,
          2.80259693e-45, 5.60519386e-45, 0., 0., 0., 0., 0., 0., 0., 0.,
          0., 0., 0., 0., 0., 0., 0., 0., 0., 0., 0., 0., 0., 0., 0., 0.,
          0., 0., 0., 0., 3.36311631e-43, 0., 6.72623263e-44, 0.,
          8.10156513e+36, 3.06674169e-41, 2.24207754e-44, 0.,
          4.20389539e-44, 0., 8.04875987e+36, 3.06674169e-41,
          4.03573958e-43, 0., 6.72623263e-44, 0., 8.12675588e+36,
          3.06674169e-41, 4.36077518e+27, 4.54481789e+30, 8.10436410e+36,
          3.06674169e-41, 8.10469876e+36, 3.06674169e-41, 8.10540864e+36,
          3.06674169e-41, 6.86636248e-44, 0., 8.12897680e+36,
          3.06674169e-41, 8.12877398e+36, 3.06674169e-41, 1.09997883e+27,
          9.31142230e-39, 8.12863200e+36, 3.06674169e-41, 1.52461273e-42,
          0., 1.34524653e-43, 0., 8.12706012e+36, 3.06674169e-41, 0., 0.,
          2.10194770e-44, 0., 0., 0., 0., 0., 0., 0., 0., 0., 0., 0. ]
      - [ 0., 0., 2.80259693e-45, 0., 4.20389539e-45, 1.26116862e-44,
          2.03188277e-43, 0., 8.10183894e+36, 3.06674169e-41,
          8.10084510e+36, 3.06674169e-41, 7.74645719e+31, 3.92573765e-41,
          8.12473778e+36, 3.06674169e-41, 6.72623263e-44, 0.,
          6.72623263e-44, 0., 8.10056115e+36, 3.06674169e-41,
          1.68155816e-44, 0., 1.43141816e+10, 4.36077518e+27,
          4.54481789e+30, 0., 0., 0., 6.86636248e-44, 0., 8.10217360e+36,
          3.06674169e-41, 8.10183894e+36, 3.06674169e-41, 0., 0., 0., 0.,
          1.86092436e-42, 0., 1.34524653e-43, 0., 8.10087553e+36,
          3.06674169e-41, 0., 0., 1.10702579e-43, 0., 0., 0., 0., 0., 0.,
          0., 0., 0., 0., 0., 0., 0., 1.40129846e-45, 0., 1.40129846e-45,
          2.80259693e-45, 8.54469765e-41, 0., 8.14052764e+36,
          3.06674169e-41, -1.18879684e-17, 4.57818221e-41, 0., 0., 0.,
          0., 0., 0., 5.39499909e-43, 0., 8.10174767e+36, 3.06674169e-41,
          -1.18879684e-17, 4.57818221e-41, 6.86636248e-44, 0., 0., 0.,
          0., 0., 4.72237582e-43, 0., 8.10217360e+36, 3.06674169e-41,
          8.10174767e+36, 3.06674169e-41, 1.40129846e-45, 0., 0., 0. ]
      - [ 2., 1.12103877e-44, 0., 0., 0., 0., 0., 0., 0., 0., 0., 0., 0.,
          0., 0., 0., 0., 0., 0., 0., 0., 0., 0., 0., 0., 0., 0., 0., 0.,
          0., 0., 0., 0., 0., 0., 0., 0., 0., 0., 0., 0., 0., 0., 0., 0.,
          0., 0., 0., 3.36311631e-43, 0., 6.72623263e-44, 0.,
          8.10174767e+36, 3.06674169e-41, 1.96181785e-44, 0.,
          6.68294058e+22, 4.46280406e+30, 7.27084014e+31, 4.10370255e-41,
          0., 0., 6.86636248e-44, 0., 8.10268066e+36, 3.06674169e-41,
          8.10247784e+36, 3.06674169e-41, 1.78589510e+31, 1.12865260e+27,
          1.05056299e-38, 3.06674169e-41, 6.05360937e-43, 0.,
          1.34524653e-43, 0., 8.10177809e+36, 3.06674169e-41, 0., 0.,
          2.10194770e-44, 0., 0., 0., 0., 0., 0., 0., 0., 0., 0., 0., 0.,
          0., 1.40129846e-45, 0., 1.40129846e-45, 1.82168800e-44,
          8.47070909e-41, 0. ]
      - [ 0., 3.06674169e-41, -1.18879684e-17, 4.57818221e-41, 0., 0.,
          0., 0., 6.72623263e-44, 0., 1.34524653e-43, 0., 8.10211275e+36,
          3.06674169e-41, 0., 0., 2.10194770e-44, 0., 0., 0., 0., 0., 0.,
          0., 0., 0., 0., 0., 0., 0., 2.80259693e-45, 0., 1.40129846e-45,
          1.82168800e-44, 8.45053039e-41, 0., 8.10093637e+36,
          3.06674169e-41, -1.18879684e-17, 4.57818221e-41, 0., 0., 0.,
          0., 6.72623263e-44, 0., 1.34524653e-43, 0., 8.10220402e+36,
          3.06674169e-41, 0., 0., 1.10702579e-43, 0., 0., 0., 0., 0., 0.,
          0., 0., 0., 0., 0., 0., 0., 4.20389539e-45, 0., 1.40129846e-45,
          1.12103877e-44, 8.43035169e-41, 0., 8.10093637e+36,
          3.06674169e-41, -1.18879684e-17, 4.57818221e-41, 0., 0., 0.,
          0., 0., 0., 6.86636248e-44, 0., 8.10247784e+36, 3.06674169e-41,
          -1.18879684e-17, 4.57818221e-41, 7.24431922e+22, 0., 0., 0.,
          1.34524653e-43, 0., 1.34524653e-43, 0., 8.10229529e+36,
          3.06674169e-41, 0., 0. ]
      - [ 0., 0., 0., 0., 0., 0., 0., 0., 0., 0., 0., 0., 0., 0.,
          5.60519386e-45, 0., 1.40129846e-45, 1.54142831e-44,
          8.40344676e-41, 0., 8.10093637e+36, 3.06674169e-41,
          -1.18879684e-17, 4.57818221e-41, 0., 0., 0., 0., 0., 0.,
          1.35925951e-43, 0., 8.10208233e+36, 3.06674169e-41,
          -1.18879684e-17, 4.57818221e-41, 4.20389539e-44, 0., 0., 0.,
          6.72623263e-44, 0., 6.72623263e-44, 0., 8.10247784e+36,
          3.06674169e-41, 2.71985190e+23, 1.49741503e+25, 4.54420104e+30,
          2.79445261e+20, 7.21330248e+22, 1.59748025e-43, 2.01786979e-43,
          0., 1.12103877e-43, 0., 8.10105807e+36, 3.06674169e-41,
          8.10212289e+36, 3.06674169e-41, 8.10221416e+36, 3.06674169e-41,
          8.10230544e+36, 3.06674169e-41, 8.10242713e+36, 3.06674169e-41,
          8.10262995e+36, 3.06674169e-41, 0., 0., 0., 0., 3.13890856e-43,
          0., 1.34524653e-43, 0., 8.10241699e+36, 3.06674169e-41, 0., 0.,
          4.34402524e-44, 0., 0., 0., 0., 0., 0., 0., 0., 0., 0., 0., 0.,
          0., 7.00649232e-45, 0., 1.40129846e-45, 1.54142831e-44,
          8.35860521e-41, 0. ]
      - [ 1., 3.06674169e-41, -1.18879684e-17, 4.57818221e-41, 0., 0.,
          0., 0., 6.72623263e-44, 0., 6.72623263e-44, 0., 8.10208233e+36,
          3.06674169e-41, 2.71985190e+23, 1.49741503e+25, 4.54420104e+30,
          2.79445261e+20, 7.21330248e+22, 1.59748025e-43, 0., 0.,
          4.72237582e-43, 0., 8.10301532e+36, 3.06674169e-41,
          -1.18879684e-17, 4.57818221e-41, 1.40129846e-45, 0., 0., 0.,
          4.20389539e-45, 5.60519386e-45, 0., 0., 0., 0., 0., 0., 0., 0.,
          0., 0., 0., 0., 0., 0., 0., 0., 0., 0., 0., 0., 0., 0., 0., 0.,
          0., 0., 0., 0., 0., 0., 0., 0., 0., 0., 0., 0., 0., 0., 0., 0.,
          0., 0., 0., 0., 0., 0., 3.36311631e-43, 0., 6.72623263e-44, 0.,
          8.10268066e+36, 3.06674169e-41, 1.68155816e-44, 0.,
          1.61376553e+10, 4.36077518e+27, 4.54481789e+30, 0., 0., 0.,
          6.86636248e-44, 0., 8.10362379e+36, 3.06674169e-41,
          8.10325871e+36, 3.06674169e-41 ]
      - [ 1., 3.06674169e-41, 8.10320800e+36, 3.06674169e-41,
          6.05360937e-43, 0., 1.34524653e-43, 0., 8.10261981e+36,
          3.06674169e-41, 0., 0., 1.10702579e-43, 0., 0., 0., 0., 0., 0.,
          0., 0., 0., 0., 0., 0., 0., 1.40129846e-45, 0., 1.40129846e-45,
          2.80259693e-45, 8.28461665e-41, 0., 8.10093637e+36,
          3.06674169e-41, -1.18879684e-17, 4.57818221e-41, 0., 0., 0.,
          0., 0., 0., 6.86636248e-44, 0., 8.10313701e+36, 3.06674169e-41,
          -1.18879684e-17, 4.57818221e-41, 1.76409464e-41, 0., 0., 0.,
          1.34524653e-43, 0., 1.34524653e-43, 0., 8.10295447e+36,
          3.06674169e-41, 0., 0., 1.10702579e-43, 0., 0., 0., 0., 0., 0.,
          0., 0., 0., 0., 0., 0., 0., 2.80259693e-45, 0., 1.40129846e-45,
          2.80259693e-45, 8.25771172e-41, 0., 8.10093637e+36,
          3.06674169e-41, -1.18879684e-17, 4.57818221e-41, 0., 0., 0.,
          0., 0., 0., 6.86636248e-44, 0., 8.10325871e+36, 3.06674169e-41,
          -1.18879684e-17, 4.57818221e-41, 6.86636248e-44, 0., 0., 0. ]
      - [ 1., 0., 1.34524653e-43, 0., 8.10307617e+36, 3.06674169e-41, 0.,
          0., 1.10702579e-43, 0., 0., 0., 0., 0., 0., 0., 0., 0., 0., 0.,
          0., 0., 4.20389539e-45, 0., 1.40129846e-45, 2.80259693e-45,
          8.23080679e-41, 0., 8.10093637e+36, 3.06674169e-41,
          -1.18879684e-17, 4.57818221e-41, 0., 0., 0., 0., 0., 0.,
          6.06762235e-43, 0., 8.10292405e+36, 3.06674169e-41,
          -1.18879684e-17, 4.57818221e-41, 6.72623263e-44, 0., 0., 0.,
          0., 0., 5.39499909e-43, 0., 8.10362379e+36, 3.06674169e-41,
          8.10292405e+36, 3.06674169e-41, 1.40129846e-45, 0., 0., 0.,
          2.80259693e-45, 5.60519386e-45, 0., 0., 0., 0., 0., 0., 0., 0.,
          0., 0., 0., 0., 0., 0., 0., 0., 0., 0., 0., 0., 0., 0., 0., 0.,
          0., 0., 0., 0., 0., 0., 0., 0., 0., 0., 0., 0., 0., 0. ]
      - [ 0., 0., 0., 0., 0., 0., 0., 0., 3.36311631e-43, 0.,
          6.72623263e-44, 0., 8.10350210e+36, 3.06674169e-41,
          2.24207754e-44, 0., 4.20389539e-44, 0., 0., 0., 4.03573958e-43,
          0., 6.72623263e-44, 0., 8.10292405e+36, 3.06674169e-41,
          4.36077518e+27, 4.54481789e+30, 0., 0., 0., 0., 0., 0.,
          6.86636248e-44, 0., 8.10411057e+36, 3.06674169e-41,
          8.10374549e+36, 3.06674169e-41, 8.10369478e+36, 3.06674169e-41,
          0., 0., 6.72623263e-43, 0., 1.34524653e-43, 0., 8.10319786e+36,
          3.06674169e-41, 0., 0., 1.10702579e-43, 0., 0., 0., 0., 0., 0.,
          0., 0., 0., 0., 0., 0., 0., 1.40129846e-45, 0., 1.40129846e-45,
          7.00649232e-45, 8.15009200e-41, 0., 8.10093637e+36,
          3.06674169e-41, -1.18879684e-17, 4.57818221e-41, 0., 0., 0.,
          0., 0., 0., 6.86636248e-44, 0., 8.10374549e+36, 3.06674169e-41,
          -1.18879684e-17, 4.57818221e-41, 6.86636248e-44, 0., 0., 0.,
          1.34524653e-43, 0., 1.34524653e-43, 0., 8.10356294e+36,
          3.06674169e-41, 0., 0. ]
      - [ 0., 0., 0., 0., 0., 0., 0., 0., 0., 0., 0., 0., 0., 0.,
          2.80259693e-45, 0., 1.40129846e-45, 7.00649232e-45,
          8.12318707e-41, 0., 8.10093637e+36, 3.06674169e-41,
          -1.18879684e-17, 4.57818221e-41, 0., 0., 0., 0., 0., 0.,
          6.06762235e-43, 0., 8.10353252e+36, 3.06674169e-41,
          -1.18879684e-17, 4.57818221e-41, 1.76409464e-41, 0., 0., 0.,
          0., 0., 5.39499909e-43, 0., 8.10411057e+36, 3.06674169e-41,
          8.10353252e+36, 3.06674169e-41, 1.40129846e-45, 0., 0., 0.,
          4.20389539e-45, 5.60519386e-45, 0., 0., 0., 0., 0., 0., 0., 0.,
          0., 0., 0., 0., 0., 0., 0., 0., 0., 0., 0., 0., 0., 0., 0., 0.,
          0., 0., 0., 0., 0., 0., 0., 0., 0., 0., 0., 0., 0., 0., 0., 0.,
          0., 0., 0., 0., 0., 0. ]
      - [ 0., 0., 6.72623263e-44, 0., 8.10398888e+36, 3.06674169e-41,
          2.38220739e-44, 0., 4.20389539e-44, 0., 0., 0., 4.03573958e-43,
          0., 6.72623263e-44, 0., 8.10353252e+36, 3.06674169e-41,
          2.79445261e+20, 7.21330248e+22, 1.59748025e-43, 0., 0., 0., 0.,
          0., 6.86636248e-44, 0., 8.10465819e+36, 3.06674169e-41,
          8.10429311e+36, 3.06674169e-41, 8.10415113e+36, 3.06674169e-41,
          8.10424241e+36, 3.06674169e-41, 6.72623263e-43, 0.,
          1.34524653e-43, 0., 8.10368464e+36, 3.06674169e-41, 0., 0.,
          2.10194770e-44, 0., 0., 0., 0., 0., 0., 0., 0., 0., 0., 0., 0.,
          0., 1.40129846e-45, 0., 1.40129846e-45, 1.26116862e-44,
          8.04247228e-41, 0., 8.10093637e+36, 3.06674169e-41,
          -1.18879684e-17, 4.57818221e-41, 0., 0., 0., 0.,
          6.72623263e-44, 0., 1.34524653e-43, 0., 8.10404972e+36,
          3.06674169e-41, 0., 0., 2.10194770e-44, 0., 0., 0., 0., 0., 0.,
          0., 0., 0., 0., 0., 0., 0., 2.80259693e-45, 0., 1.40129846e-45,
          1.82168800e-44, 8.02229358e-41, 0. ]
      - [ 1., 3.06674169e-41, -1.18879684e-17, 4.57818221e-41, 0., 0.,
          0., 0., 6.72623263e-44, 0., 1.34524653e-43, 0., 8.10414099e+36,
          3.06674169e-41, 0., 0., 1.10702579e-43, 0., 0., 0., 0., 0., 0.,
          0., 0., 0., 0., 0., 0., 0., 4.20389539e-45, 0., 1.40129846e-45,
          1.12103877e-44, 8.00211488e-41, 0., 8.10093637e+36,
          3.06674169e-41, -1.18879684e-17, 4.57818221e-41, 0., 0., 0.,
          0., 0., 0., 6.06762235e-43, 0., 8.10401930e+36, 3.06674169e-41,
          -1.18879684e-17, 4.57818221e-41, 1.87279897e+31,
          1.41531145e-43, 0., 0., 0., 0., 5.39499909e-43, 0.,
          8.10465819e+36, 3.06674169e-41, 8.10401930e+36, 3.06674169e-41,
          1.40129846e-45, 0., 0., 0., 1.40129846e-45, 5.60519386e-45, 0.,
          0., 0., 0., 0., 0., 0., 0., 0., 0., 0., 0., 0., 0., 0., 0., 0.,
          0., 0., 0., 0., 0., 0., 0., 0., 0., 0., 0., 0., 0. ]
      - [ 0., 0., 0., 0., 0., 0., 0., 0., 0., 0., 0., 0., 0., 0., 0., 0.,
          3.36311631e-43, 0., 6.72623263e-44, 0., 8.10453650e+36,
          3.06674169e-41, 2.66246708e-44, 0., 4.20389539e-44, 0., 0., 0.,
          4.03573958e-43, 0., 6.72623263e-44, 0., 8.10401930e+36,
          3.06674169e-41, 2.40332149e+20, 7.00624003e+22, 1.05056411e-38,
          0., 0., 0., 0., 0., 6.86636248e-44, 0., 8.10519568e+36,
          3.06674169e-41, 8.10465819e+36, 3.06674169e-41, 0., 0., 0., 0.,
          6.72623263e-43, 0., 1.34524653e-43, 0., 8.10423226e+36,
          3.06674169e-41, 0., 0., 2.10194770e-44, 0., 0., 0., 0., 0., 0.,
          0., 0., 0., 0., 0., 0., 0., 1.40129846e-45, 0., 1.40129846e-45,
          1.26116862e-44, 7.92140009e-41, 0., 8.10093637e+36,
          3.06674169e-41, -1.18879684e-17, 4.57818221e-41, 0., 0., 0.,
          0., 0., 0., 5.39499909e-43, 0., 8.10519568e+36, 3.06674169e-41,
          8.10456692e+36, 3.06674169e-41, 1.40129846e-45, 0., 0., 0. ]
      - [ 1., 0., 0., 0., 0., 0., 1.40129846e-45, 0., 1.40129846e-45,
          1.96181785e-44, 7.84741153e-41, 0., 8.10093637e+36,
          3.06674169e-41, -1.18879684e-17, 4.57818221e-41, 0., 0., 0.,
          0., 0., 0., 2.03188277e-43, 0., 8.10490158e+36, 3.06674169e-41,
          -1.18879684e-17, 4.57818221e-41, 5.18480432e-44, 0., 0., 0.,
          6.72623263e-44, 0., 6.72623263e-44, 0., 8.10499285e+36,
          3.06674169e-41, 2.71985190e+23, 1.51252660e+25, 60136888.,
          1.63377142e+10, 4.36077518e+27, 4.54481789e+30, 4.73993157e+30,
          1.52741533e-43, 6.86636248e-44, 0., 8.10490158e+36,
          3.06674169e-41, -1.18879684e-17, 4.57818221e-41,
          1.76843866e-41, 0., 0., 0., 2.69049305e-43, 0., 6.72623263e-44,
          0., 8.10522610e+36, 3.06674169e-41, 8.10515511e+36,
          3.06674169e-41, 0., 0., 0., 0., 3.36311631e-43, 0.,
          1.12103877e-43, 0., 8.10256911e+36, 3.06674169e-41, 0., 0.,
          1.40129846e-45, 0., 0., 0., 2.80259693e-45, 5.60519386e-45, 0.,
          0., 0., 0., 0., 0., 0., 0., 9.87915417e-43, 0., 8.11301455e+36,
          3.06674169e-41, 8.10065242e+36, 3.06674169e-41, 4.68937072e+27,
          0., 0., 0. ]
      - [ 0., 0., 6.86636248e-44, 0., 8.10499285e+36, 3.06674169e-41,
          8.10536808e+36, 3.06674169e-41, 8.10533766e+36, 3.06674169e-41,
          0., 0., 1.34524653e-43, 0., 8.96831017e-44, 0., 8.10071327e+36,
          3.06674169e-41, 0., 0., 4.20389539e-45, 0., 0., 0., 0., 0.,
          1.40129846e-45, 0., 0., 0., 7.63707663e-43, 0., 8.11057052e+36,
          3.06674169e-41, -1.18879684e-17, 4.57818221e-41,
          1.76843866e-41, 0., 0., 0., 6.72623263e-44, 0., 8.96831017e-44,
          0., 8.10525653e+36, 3.06674169e-41, 0., 0., 4.20389539e-45, 0.,
          0., 0., 0., 0., 2.80259693e-45, 0., 0., 0., 6.06762235e-43, 0.,
          8.10499285e+36, 3.06674169e-41, 8.10519568e+36, 3.06674169e-41,
          1.80431190e-41, 0., 0., 0., 0., 0., 5.39499909e-43, 0.,
          8.10570274e+36, 3.06674169e-41, 8.10490158e+36, 3.06674169e-41,
          1.40129846e-45, 0., 0., 0., 1.68155816e-44, 2.24207754e-44, 0.,
          0., 0., 0., 0., 0., 0., 0., 0., 0., 0., 0., 0., 0., 0., 0., 0.,
          0. ]
      - [ 0., 0., 0., 0., 0., 0., 0., 0., 0., 0., 0., 0., 0., 0., 0., 0.,
          0., 0., 0., 0., 0., 0., 0., 0., 0., 0., 0., 0., 3.36311631e-43,
          0., 6.72623263e-44, 0., 8.10558104e+36, 3.06674169e-41,
          2.52233724e-44, 0., 4.20389539e-44, 0., 0., 0., 4.03573958e-43,
          0., 6.72623263e-44, 0., 8.10490158e+36, 3.06674169e-41,
          4.46280316e+30, 7.27084014e+31, 4.10370255e-41, 0., 0., 0., 0.,
          0., 6.86636248e-44, 0., 8.10620980e+36, 3.06674169e-41,
          8.10603740e+36, 3.06674169e-41, 1.78267756e+19, 1.10218201e+24,
          2.66789999e+36, 3.06674169e-41, 1.43492963e-42, 0.,
          1.34524653e-43, 0., 8.10493201e+36, 3.06674169e-41, 0., 0.,
          2.10194770e-44, 0., 0., 0., 0., 0., 0., 0., 0., 0., 0., 0., 0.,
          0., 1.40129846e-45, 0., 1.40129846e-45, 1.26116862e-44,
          7.69046610e-41, 0., 8.10093637e+36, 3.06674169e-41,
          -1.18879684e-17, 4.57818221e-41, 0., 0., 0., 0. ]
      - [ 0., 3.06674169e-41, 0., 0., 1.10702579e-43, 0., 0., 0., 0., 0.,
          0., 0., 0., 0., 0., 0., 0., 0., 1.12103877e-44, 0.,
          1.40129846e-45, 1.12103877e-44, 7.61647754e-41, 0.,
          8.10093637e+36, 3.06674169e-41, -1.18879684e-17,
          4.57818221e-41, 0., 0., 0., 0., 0., 0., 6.86636248e-44, 0.,
          8.10561147e+36, 3.06674169e-41, -1.18879684e-17,
          4.57818221e-41, 1.87279897e+31, 1.41531145e-43, 0., 0.,
          1.34524653e-43, 0., 1.12103877e-43, 0., 8.10514497e+36,
          3.06674169e-41, 8.10774112e+36, 3.06674169e-41, 8.10783239e+36,
          3.06674169e-41, 8.10795409e+36, 3.06674169e-41, 8.10810620e+36,
          3.06674169e-41, 8.10825832e+36, 3.06674169e-41, 8.10834959e+36,
          3.06674169e-41, 8.10637206e+36, 3.06674169e-41, 2.46628530e-43,
          0., 1.34524653e-43, 0., 8.10597655e+36, 3.06674169e-41, 0., 0.,
          1.10702579e-43, 0., 0., 0., 0., 0., 0., 0., 0., 0., 0., 0., 0.,
          0., 1.26116862e-44, 0., 1.40129846e-45, 1.82168800e-44,
          7.57836222e-41, 0., 8.10093637e+36, 3.06674169e-41,
          -1.18879684e-17, 4.57818221e-41, 0., 0., 0., 0. ]
      - [ 0., 0., 1.34524653e-43, 0., 8.10614895e+36, 3.06674169e-41, 0.,
          0., 1.10702579e-43, 0., 0., 0., 0., 0., 0., 0., 0., 0., 0., 0.,
          0., 0., 1.40129846e-44, 0., 1.40129846e-45, 1.82168800e-44,
          7.55818353e-41, 0., 8.10093637e+36, 3.06674169e-41,
          -1.18879684e-17, 4.57818221e-41, 0., 0., 0., 0., 0., 0.,
          6.86636248e-44, 0., 8.10642276e+36, 3.06674169e-41,
          -1.18879684e-17, 4.57818221e-41, 6.72623263e-44, 0., 0., 0.,
          1.34524653e-43, 0., 1.34524653e-43, 0., 8.10624022e+36,
          3.06674169e-41, 0., 0., 1.10702579e-43, 0., 0., 0., 0., 0., 0.,
          0., 0., 0., 0., 0., 0., 0., 1.54142831e-44, 0., 1.40129846e-45,
          1.12103877e-44, 7.53127860e-41, 0., 8.10093637e+36,
          3.06674169e-41, -1.18879684e-17, 4.57818221e-41, 0., 0., 0.,
          0., 0., 0., 6.86636248e-44, 0., 8.10654446e+36, 3.06674169e-41,
          -1.18879684e-17, 4.57818221e-41, 7.24431922e+22, 0., 0., 0.,
          1.34524653e-43, 0., 1.34524653e-43, 0. ]
      - [ 1., 3.06674169e-41, 0., 0., 1.10702579e-43, 0., 0., 0., 0., 0.,
          0., 0., 0., 0., 0., 0., 0., 0., 2.80259693e-45, 0.,
          1.40129846e-45, 2.80259693e-45, 7.50437367e-41, 0.,
          8.10093637e+36, 3.06674169e-41, -1.18879684e-17,
          4.57818221e-41, 0., 0., 0., 0., 0., 0., 2.70450604e-43, 0.,
          8.10675742e+36, 3.06674169e-41, -1.18879684e-17,
          4.57818221e-41, 6.86636248e-44, 0., 0., 0., 0., 0.,
          2.03188277e-43, 0., 8.10468862e+36, 3.06674169e-41,
          8.10539850e+36, 3.06674169e-41, 8.10574330e+36, 3.06674169e-41,
          8.10586500e+36, 3.06674169e-41, 8.10598669e+36, 3.06674169e-41,
          8.10615909e+36, 3.06674169e-41, 8.10625036e+36, 3.06674169e-41,
          8.10637206e+36, 3.06674169e-41, 8.10649375e+36, 3.06674169e-41,
          8.10670672e+36, 3.06674169e-41, 8.10679799e+36, 3.06674169e-41,
          8.10691968e+36, 3.06674169e-41, 8.10704138e+36, 3.06674169e-41,
          0., 0., 0., 0., 0., 0., 3.36311631e-43, 0., 1.34524653e-43, 0.,
          8.10648361e+36, 3.06674169e-41, 0., 0., 2.10194770e-44, 0., 0.,
          0., 0., 0., 0., 0., 0., 0., 0., 0. ]
      - [ 0., 0., 4.20389539e-45, 0., 1.40129846e-45, 1.26116862e-44,
          7.45729004e-41, 0., 8.10093637e+36, 3.06674169e-41,
          -1.18879684e-17, 4.57818221e-41, 0., 0., 0., 0.,
          6.72623263e-44, 0., 1.34524653e-43, 0., 8.10669658e+36,
          3.06674169e-41, 0., 0., 1.10702579e-43, 0., 0., 0., 0., 0., 0.,
          0., 0., 0., 0., 0., 0., 0., 7.00649232e-45, 0., 1.40129846e-45,
          1.82168800e-44, 7.43711134e-41, 0., 8.10093637e+36,
          3.06674169e-41, -1.18879684e-17, 4.57818221e-41, 0., 0., 0.,
          0., 0., 0., 6.86636248e-44, 0., 8.10697039e+36, 3.06674169e-41,
          -1.18879684e-17, 4.57818221e-41, 6.72623263e-44, 0., 0., 0.,
          1.34524653e-43, 0., 1.34524653e-43, 0., 8.10678785e+36,
          3.06674169e-41, 0., 0., 1.10702579e-43, 0., 0., 0., 0., 0., 0.,
          0., 0., 0., 0., 0., 0., 0., 8.40779079e-45, 0., 1.40129846e-45,
          1.12103877e-44, 7.41020641e-41, 0., 8.10093637e+36,
          3.06674169e-41, -1.18879684e-17, 4.57818221e-41, 0., 0., 0.,
          0. ]
      - [ 0., 0., 6.86636248e-44, 0., 8.10709208e+36, 3.06674169e-41,
          -1.18879684e-17, 4.57818221e-41, 1.87279897e+31,
          1.41531145e-43, 0., 0., 1.34524653e-43, 0., 1.34524653e-43, 0.,
          8.10690954e+36, 3.06674169e-41, 0., 0., 1.10702579e-43, 0., 0.,
          0., 0., 0., 0., 0., 0., 0., 0., 0., 0., 0., 1.68155816e-44, 0.,
          1.40129846e-45, 1.26116862e-44, 7.38330148e-41, 0.,
          8.10093637e+36, 3.06674169e-41, -1.18879684e-17,
          4.57818221e-41, 0., 0., 0., 0., 0., 0., 6.06762235e-43, 0.,
          8.10745717e+36, 3.06674169e-41, -1.18879684e-17,
          4.57818221e-41, 0., 0., 0., 0., 0., 0., 5.39499909e-43, 0.,
          8.10745717e+36, 3.06674169e-41, -1.18879684e-17,
          4.57818221e-41, 1.40129846e-45, 0., 0., 0., 1.40129846e-45,
          5.60519386e-45, 0., 0., 0., 0., 0., 0., 0., 0., 0., 0., 0., 0.,
          0., 0., 0., 0., 0., 0., 0., 0., 0., 0., 0., 0., 0., 0. ]
      - [ 1., 0., 0., 0., 0., 0., 0., 0., 0., 0., 0., 0., 0., 0., 0., 0.,
          0., 0., 0., 0., 3.36311631e-43, 0., 6.72623263e-44, 0.,
          8.10733547e+36, 3.06674169e-41, 2.94272678e-44, 0.,
          4.20389539e-44, 0., 0., 0., 4.03573958e-43, 0., 6.72623263e-44,
          0., 8.10712251e+36, 3.06674169e-41, 1.92868882e+31,
          2.79445261e+20, 7.21330248e+22, 1.59748025e-43, 0., 0., 0., 0.,
          6.86636248e-44, 0., 8.10779183e+36, 3.06674169e-41,
          8.10745717e+36, 3.06674169e-41, 0., 0., 0., 0., 6.72623263e-43,
          0., 1.34524653e-43, 0., 8.10703124e+36, 3.06674169e-41, 0., 0.,
          2.10194770e-44, 0., 0., 0., 0., 0., 0., 0., 0., 0., 0., 0., 0.,
          0., 1.40129846e-45, 0., 1.40129846e-45, 1.26116862e-44,
          7.30258669e-41, 0., 8.10093637e+36, 3.06674169e-41,
          -1.18879684e-17, 4.57818221e-41, 0., 0., 0., 0., 0., 0.,
          5.39499909e-43, 0., 8.10779183e+36, 3.06674169e-41,
          8.10736590e+36, 3.06674169e-41 ]
      - [ 1., 0., 0., 0., 8.40779079e-45, 1.12103877e-44, 0., 0., 0., 0.,
          0., 0., 0., 0., 0., 0., 0., 0., 0., 0., 0., 0., 0., 0., 0., 0.,
          0., 0., 0., 0., 0., 0., 0., 0., 0., 0., 0., 0., 0., 0., 0., 0.,
          0., 0., 0., 0., 0., 0., 0., 0., 0., 0., 3.36311631e-43, 0.,
          6.72623263e-44, 0., 8.10767013e+36, 3.06674169e-41,
          2.94272678e-44, 0., 4.20389539e-44, 0., 0., 0., 4.03573958e-43,
          0., 6.72623263e-44, 0., 8.10736590e+36, 3.06674169e-41,
          7.20844941e+31, 2.79445261e+20, 7.21330248e+22, 1.59748025e-43,
          0., 0., 0., 0., 6.86636248e-44, 0., 8.10830903e+36,
          3.06674169e-41, 8.10815691e+36, 3.06674169e-41, 1.84974173e+31,
          3.04922546e-41, 8.10795409e+36, 3.06674169e-41, 6.05360937e-43,
          0., 1.34524653e-43, 0., 8.10739632e+36, 3.06674169e-41, 0., 0.,
          2.10194770e-44, 0., 0., 0. ]
      - [ 0., 0., 0., 0., 0., 0., 0., 0., 0., 0., 1.40129846e-45, 0.,
          1.40129846e-45, 1.82168800e-44, 7.22859813e-41, 0.,
          8.10093637e+36, 3.06674169e-41, -1.18879684e-17,
          4.57818221e-41, 0., 0., 0., 0., 6.72623263e-44, 0.,
          1.34524653e-43, 0., 8.10773098e+36, 3.06674169e-41, 0., 0.,
          1.10702579e-43, 0., 0., 0., 0., 0., 0., 0., 0., 0., 0., 0., 0.,
          0., 2.80259693e-45, 0., 1.40129846e-45, 1.12103877e-44,
          7.20841943e-41, 0., 8.10093637e+36, 3.06674169e-41,
          -1.18879684e-17, 4.57818221e-41, 0., 0., 0., 0., 0., 0.,
          6.86636248e-44, 0., 8.10800479e+36, 3.06674169e-41,
          -1.18879684e-17, 4.57818221e-41, 7.24431922e+22, 0., 0., 0.,
          1.34524653e-43, 0., 1.34524653e-43, 0., 8.10782225e+36,
          3.06674169e-41, 0., 0., 4.34402524e-44, 0., 0., 0., 0., 0., 0.,
          0., 0., 0., 0., 0., 0., 0., 4.20389539e-45, 0., 1.40129846e-45,
          1.54142831e-44, 7.18151450e-41, 0. ]
      - [ 0., 0., 0., 0., 0., 0., 0., 0., 0., 0., 0., 0., 0., 0.,
          7.00649232e-45, 0., 1.40129846e-45, 7.00649232e-45,
          7.11425217e-41, 0., 8.10093637e+36, 3.06674169e-41,
          -1.18879684e-17, 4.57818221e-41, 0., 0., 0., 0.,
          6.72623263e-44, 0., 1.34524653e-43, 0., 8.10824818e+36,
          3.06674169e-41, 0., 0., 1.10702579e-43, 0., 0., 0., 0., 0., 0.,
          0., 0., 0., 0., 0., 0., 0., 8.40779079e-45, 0., 1.40129846e-45,
          1.12103877e-44, 7.09407348e-41, 0., 8.10093637e+36,
          3.06674169e-41, -1.18879684e-17, 4.57818221e-41, 0., 0., 0.,
          0., 0., 0., 5.39499909e-43, 0., 8.10873496e+36, 3.06674169e-41,
          -1.18879684e-17, 4.57818221e-41, 1.87279897e+31,
          1.41531145e-43, 0., 0., 0., 0., 4.72237582e-43, 0.,
          8.10873496e+36, 3.06674169e-41, -1.18879684e-17,
          4.57818221e-41, 1.40129846e-45, 0., 0., 0., 1.40129846e-45,
          5.60519386e-45, 0., 0., 0., 0., 0., 0., 0., 0., 0., 0. ]
      - [ 0., 0., 0., 0., 0., 0., 0., 0., 0., 0., 0., 0., 0., 0., 0., 0.,
          0., 0., 0., 0., 0., 0., 0., 0., 0., 0., 0., 0., 0., 0., 0., 0.,
          0., 0., 0., 0., 3.36311631e-43, 0., 6.72623263e-44, 0.,
          8.10843072e+36, 3.06674169e-41, 1.96181785e-44, 0.,
          3.04782250e+32, 4.46280890e+30, 7.27084014e+31, 4.10370255e-41,
          0., 0., 6.86636248e-44, 0., 8.10910004e+36, 3.06674169e-41,
          8.10873496e+36, 3.06674169e-41, 0., 0., 0., 0., 6.05360937e-43,
          0., 1.34524653e-43, 0., 8.10833945e+36, 3.06674169e-41, 0., 0.,
          4.34402524e-44, 0., 0., 0., 0., 0., 0., 0., 0., 0., 0., 0., 0.,
          0., 1.40129846e-45, 0., 4.20389539e-45, 1.54142831e-44,
          7.02008492e-41, 0., 8.10093637e+36, 3.06674169e-41,
          -1.18879684e-17, 4.57818221e-41, 0., 0., 0., 0., 0., 0.,
          6.06762235e-43, 0. ]
      - [ 0., 0., 1.34524653e-43, 0., 8.10916089e+36, 3.06674169e-41, 0.,
          0., 1.10702579e-43, 0., 0., 0., 0., 0., 0., 0., 0., 0., 0., 0.,
          0., 0., 4.20389539e-45, 0., 1.40129846e-45, 2.80259693e-45,
          6.88556026e-41, 0., 8.10093637e+36, 3.06674169e-41,
          -1.18879684e-17, 4.57818221e-41, 0., 0., 0., 0., 0., 0.,
          5.39499909e-43, 0., 8.10900877e+36, 3.06674169e-41,
          -1.18879684e-17, 4.57818221e-41, 6.72623263e-44, 0., 0., 0.,
          0., 0., 4.72237582e-43, 0., 8.11057052e+36, 3.06674169e-41,
          8.10900877e+36, 3.06674169e-41, 1.40129846e-45, 0., 0., 0.,
          8.40779079e-45, 1.12103877e-44, 0., 0., 0., 0., 0., 0., 0., 0.,
          0., 0., 0., 0., 0., 0., 0., 0., 2.80259693e-45, 5.60519386e-45,
          0., 0., 0., 0., 0., 0., 0., 0., 0., 0., 0., 0., 0., 0., 0., 0.,
          0., 0., 0., 0. ]
      - [ 2., 0., 2.80259693e-45, 0., 1.40129846e-45, 2.80259693e-45,
          6.78466677e-41, 0., 8.10093637e+36, 3.06674169e-41,
          -1.18879684e-17, 4.57818221e-41, 0., 0., 0., 0., 0., 0.,
          6.86636248e-44, 0., 8.10992148e+36, 3.06674169e-41,
          -1.18879684e-17, 4.57818221e-41, 6.86636248e-44, 0., 0., 0.,
          1.34524653e-43, 0., 1.34524653e-43, 0., 8.10973894e+36,
          3.06674169e-41, 0., 0., 1.10702579e-43, 0., 0., 0., 0., 0., 0.,
          0., 0., 0., 0., 0., 0., 0., 4.20389539e-45, 0., 1.40129846e-45,
          2.80259693e-45, 6.75776184e-41, 0., 8.10093637e+36,
          3.06674169e-41, -1.18879684e-17, 4.57818221e-41, 0., 0., 0.,
          0., 0., 0., 6.86636248e-44, 0., 8.11004317e+36, 3.06674169e-41,
          -1.18879684e-17, 4.57818221e-41, 6.82400241e-07, 0., 0., 0.,
          1.34524653e-43, 0., 1.34524653e-43, 0., 8.10986063e+36,
          3.06674169e-41, 0., 0., 1.33123354e-43, 0., 0., 0., 0., 0., 0.,
          0., 0., 0., 0., 0., 0., 0., 5.60519386e-45, 0. ]
      - [ 1., 1.96181785e-44, 6.73085691e-41, 0., 8.10093637e+36,
          3.06674169e-41, -1.18879684e-17, 4.57818221e-41, 0., 0., 0.,
          0., 0., 0., 2.03188277e-43, 0., 8.10958682e+36, 3.06674169e-41,
          -1.18879684e-17, 4.57818221e-41, 5.18480432e-44, 0., 0., 0.,
          6.72623263e-44, 0., 6.72623263e-44, 0., 8.11004317e+36,
          3.06674169e-41, 2.71985190e+23, 2.19237925e+11, 4.46279742e+30,
          7.27084014e+31, 731683136., 2.54956782e+11, 7.22350036e+28,
          1.54142831e-43, 6.86636248e-44, 0., 8.10958682e+36,
          3.06674169e-41, -1.18879684e-17, 4.57818221e-41,
          3.52762291e+09, 2.23325485e+02, 865096192., 7.64970653e-39,
          2.69049305e-43, 0., 1.12103877e-43, 0., 8.11077334e+36,
          3.06674169e-41, 8.10962739e+36, 3.06674169e-41, 8.10974908e+36,
          3.06674169e-41, 8.10987077e+36, 3.06674169e-41, 8.10999247e+36,
          3.06674169e-41, 8.11022572e+36, 3.06674169e-41, 8.11031699e+36,
          3.06674169e-41, 0., 0., 3.81153182e-43, 0., 1.34524653e-43, 0.,
          8.10998233e+36, 3.06674169e-41, 0., 0., 1.10702579e-43, 0., 0.,
          0., 0., 0., 0., 0., 0., 0., 0., 0., 0., 0., 7.00649232e-45, 0.,
          1.40129846e-45, 2.80259693e-45, 6.67928913e-41, 0.,
          8.10093637e+36, 3.06674169e-41, -1.18879684e-17,
          4.57818221e-41 ]
      - [ 2., 0., 0., 0., 6.72623263e-44, 0., 1.34524653e-43, 0.,
          8.11021557e+36, 3.06674169e-41, 0., 0., 1.33123354e-43, 0., 0.,
          0., 0., 0., 0., 0., 0., 0., 0., 0., 0., 0., 8.40779079e-45, 0.,
          1.40129846e-45, 1.96181785e-44, 6.65911043e-41, 0.,
          8.10093637e+36, 3.06674169e-41, -1.18879684e-17,
          4.57818221e-41, 0., 0., 0., 0., 0., 0., 2.03188277e-43, 0.,
          8.11109786e+36, 3.06674169e-41, -1.18879684e-17,
          4.57818221e-41, 4.62428493e-44, 0., 0., 0., 6.72623263e-44, 0.,
          6.72623263e-44, 0., 8.11036769e+36, 3.06674169e-41,
          2.71985190e+23, 2.19237925e+11, 4.46279742e+30, 7.27084014e+31,
          2.79114966e+03, 1.80587615e+28, 1.41531145e-43, 0.,
          6.86636248e-44, 0., 8.11109786e+36, 3.06674169e-41,
          -1.18879684e-17, 4.57818221e-41, 1.23919106e+01,
          7.74156445e-39, 0., 0., 2.69049305e-43, 0., 6.72623263e-44, 0.,
          8.11085447e+36, 3.06674169e-41, 8.11052995e+36, 3.06674169e-41,
          8.11078348e+36, 3.06674169e-41, 0., 0., 3.36311631e-43, 0.,
          1.12103877e-43, 0., 8.10609825e+36, 3.06674169e-41, 0., 0.,
          1.40129846e-45, 0., 0., 0. ]
      - [ 0., 5.60519386e-45, 0., 0., 0., 0., 0., 0., 0., 0.,
          1.70538023e-42, 0., 8.11004317e+36, 3.06674169e-41,
          -1.18879684e-17, 4.57818221e-41, 0., 0., 0., 0., 0., 0.,
          6.86636248e-44, 0., 8.11082405e+36, 3.06674169e-41,
          8.11074292e+36, 3.06674169e-41, 8.11071249e+36, 3.06674169e-41,
          0., 0., 1.34524653e-43, 0., 8.96831017e-44, 0., 8.10532751e+36,
          3.06674169e-41, 0., 0., 4.20389539e-45, 0., 0., 0., 0., 0., 0.,
          0., 0., 0., 2.25609053e-43, 0., 8.11082405e+36, 3.06674169e-41,
          -1.18879684e-17, 4.57818221e-41, 3.52762291e+09,
          2.23325485e+02, 865096192., 7.64970653e-39, 6.72623263e-44, 0.,
          8.96831017e-44, 0., 8.11063136e+36, 3.06674169e-41, 0., 0.,
          4.20389539e-45, 0., 0., 0., 0., 0., 1.40129846e-45, 0., 0., 0.,
          6.86636248e-44, 0., 8.11036769e+36, 3.06674169e-41,
          8.11057052e+36, 3.06674169e-41, 2.17381359e+05, 2.23305801e+02,
          865096192., 2.73603525e-41, 4.48415509e-43, 0., 1.12103877e-43,
          0., 8.11051981e+36, 3.06674169e-41, 0., 0., 1.40129846e-45, 0.,
          0., 0. ]
      - [ 0., 5.60519386e-45, 0., 0., 0., 0., 0., 0., 0., 0.,
          1.14486085e-42, 0., 8.11301455e+36, 3.06674169e-41,
          8.10519568e+36, 3.06674169e-41, 1.74864123e+25, 3.63861159e-41,
          0., 0., 0., 0., 6.86636248e-44, 0., 8.11036769e+36,
          3.06674169e-41, 8.11106744e+36, 3.06674169e-41, 8.11096602e+36,
          3.06674169e-41, 8.11103701e+36, 3.06674169e-41, 1.34524653e-43,
          0., 8.96831017e-44, 0., 8.11070235e+36, 3.06674169e-41, 0., 0.,
          4.20389539e-45, 0., 0., 0., 0., 0., 0., 0., 0., 0.,
          9.20653091e-43, 0., 8.11456615e+36, 3.06674169e-41,
          -1.18879684e-17, 4.57818221e-41, 1.23919106e+01,
          7.74156445e-39, 0., 0., 6.72623263e-44, 0., 8.96831017e-44, 0.,
          8.11088489e+36, 3.06674169e-41, 0., 0., 4.20389539e-45, 0., 0.,
          0., 0., 0., 1.40129846e-45, 0., 0., 0., 7.63707663e-43, 0.,
          8.11456615e+36, 3.06674169e-41, -1.18879684e-17,
          4.57818221e-41, 1.26883154e+04, 9.66895940e-44, 0., 0.,
          6.72623263e-44, 0., 8.96831017e-44, 0., 8.11095588e+36,
          3.06674169e-41, 0., 0., 4.20389539e-45, 0., 0., 0. ]
      - [ 0., 0., 2.80259693e-45, 0., 0., 0., 6.06762235e-43, 0.,
          8.11036769e+36, 3.06674169e-41, 8.11092546e+36, 3.06674169e-41,
          823480512., 1.09301280e-43, 0., 0., 0., 0., 5.39499909e-43, 0.,
          8.11140210e+36, 3.06674169e-41, 8.11027642e+36, 3.06674169e-41,
          1.40129846e-45, 0., 0., 0., 5.60519386e-45, 5.60519386e-45, 0.,
          0., 0., 0., 0., 0., 0., 0., 0., 0., 0., 0., 0., 0., 0., 0., 0.,
          0., 0., 0., 0., 0., 0., 0., 0., 0., 0., 0., 0., 0., 0., 0., 0.,
          0., 0., 0., 0., 0., 0., 0., 0., 0., 0., 0., 0., 0.,
          3.36311631e-43, 0., 6.72623263e-44, 0., 8.11128040e+36,
          3.06674169e-41, 2.66246708e-44, 0., 4.20389539e-44, 0., 0., 0.,
          4.03573958e-43, 0., 6.72623263e-44, 0., 8.11045896e+36,
          3.06674169e-41, 2.40246563e+20, 7.00624003e+22, 1.05056411e-38,
          0., 0., 0. ]
      - [ 0., 0., 6.86636248e-44, 0., 8.11198014e+36, 3.06674169e-41,
          8.11167591e+36, 3.06674169e-41, 8.11144266e+36, 3.06674169e-41,
          8.11153393e+36, 3.06674169e-41, 2.15239444e-42, 0.,
          1.34524653e-43, 0., 8.11030685e+36, 3.06674169e-41, 0., 0.,
          2.10194770e-44, 0., 0., 0., 0., 0., 0., 0., 0., 0., 0., 0., 0.,
          0., 1.40129846e-45, 0., 1.40129846e-45, 1.82168800e-44,
          6.43041852e-41, 0., 8.10093637e+36, 3.06674169e-41,
          -1.18879684e-17, 4.57818221e-41, 0., 0., 0., 0.,
          6.72623263e-44, 0., 1.34524653e-43, 0., 8.11134125e+36,
          3.06674169e-41, 0., 0., 2.10194770e-44, 0., 0., 0., 0., 0., 0.,
          0., 0., 0., 0., 0., 0., 0., 2.80259693e-45, 0., 1.40129846e-45,
          1.82168800e-44, 6.41023983e-41, 0., 8.10093637e+36,
          3.06674169e-41, -1.18879684e-17, 4.57818221e-41, 0., 0., 0.,
          0., 6.72623263e-44, 0., 1.34524653e-43, 0., 8.11143252e+36,
          3.06674169e-41, 0., 0., 2.10194770e-44, 0., 0., 0., 0., 0., 0.,
          0. ]
      - [ 0., 0., 0., 0., 0., 0., 4.20389539e-45, 0., 1.40129846e-45,
          1.82168800e-44, 6.39006113e-41, 0., 8.10093637e+36,
          3.06674169e-41, -1.18879684e-17, 4.57818221e-41, 0., 0., 0.,
          0., 6.72623263e-44, 0., 1.34524653e-43, 0., 8.11152379e+36,
          3.06674169e-41, 0., 0., 2.10194770e-44, 0., 0., 0., 0., 0., 0.,
          0., 0., 0., 0., 0., 0., 0., 5.60519386e-45, 0., 1.40129846e-45,
          1.82168800e-44, 6.36988243e-41, 0., 8.10093637e+36,
          3.06674169e-41, -1.18879684e-17, 4.57818221e-41, 0., 0., 0.,
          0., 0., 0., 4.72237582e-43, 0., 8.11198014e+36, 3.06674169e-41,
          8.11131083e+36, 3.06674169e-41, 1.40129846e-45, 0., 0., 0.,
          4.20389539e-45, 5.60519386e-45, 0., 0., 0., 0., 0., 0., 0., 0.,
          0., 0., 0., 0., 0., 0., 0., 0., 0., 0., 0., 0., 0., 0., 0., 0.,
          0., 0., 0., 0., 0., 0. ]
      - [ 1., 0., 0., 0., 0., 0., 0., 0., 0., 0., 0., 0., 0., 0., 0., 0.,
          3.36311631e-43, 0., 6.72623263e-44, 0., 8.11131083e+36,
          3.06674169e-41, 1.68155816e-44, 0., 1.38470492e+10,
          4.36077518e+27, 4.54481789e+30, 0., 0., 0., 6.86636248e-44, 0.,
          8.11261904e+36, 3.06674169e-41, 8.11225396e+36, 3.06674169e-41,
          8.11208156e+36, 3.06674169e-41, 8.11220325e+36, 3.06674169e-41,
          5.38098610e-43, 0., 1.34524653e-43, 0., 8.11161506e+36,
          3.06674169e-41, 0., 0., 1.10702579e-43, 0., 0., 0., 0., 0., 0.,
          0., 0., 0., 0., 0., 0., 0., 1.40129846e-45, 0., 1.40129846e-45,
          1.12103877e-44, 6.30262010e-41, 0., 8.10093637e+36,
          3.06674169e-41, -1.18879684e-17, 4.57818221e-41, 0., 0., 0.,
          0., 6.72623263e-44, 0., 6.72623263e-44, 0., 8.11185845e+36,
          3.06674169e-41, 2.84048309e+20, 1.74404007e+28, 3.63707016e-41,
          0., 0., 0., 0., 0., 6.86636248e-44, 0., 8.11213226e+36,
          3.06674169e-41, -1.18879684e-17, 4.57818221e-41,
          7.24431922e+22, 0., 0., 0. ]
   decision_functions:
      -
         sv_count: 24
         rho: 1.7014117173470118e+34
         alpha: [ 5.0000000000000003e-02, 5.0000000000000003e-02,
             5.0000000000000003e-02, 5.0000000000000003e-02,
             5.0000000000000003e-02, 5.0000000000000003e-02,
             5.0000000000000003e-02, 5.0000000000000003e-02,
             5.0000000000000003e-02, 5.0000000000000003e-02,
             5.0000000000000003e-02, 5.0000000000000003e-02,
             -5.0000000000000003e-02, -5.0000000000000003e-02,
             -5.0000000000000003e-02, -5.0000000000000003e-02,
             -5.0000000000000003e-02, -5.0000000000000003e-02,
             -5.0000000000000003e-02, -5.0000000000000003e-02,
             -5.0000000000000003e-02, -5.0000000000000003e-02,
             -5.0000000000000003e-02, -5.0000000000000003e-02 ]
         index: [ 62, 47, 49, 51, 52, 53, 54, 56, 57, 58, 60, 61, 21, 18,
             23, 24, 25, 26, 27, 28, 20, 19, 17, 16 ]
      -
         sv_count: 22
         rho: -3.4028234346940237e+34
         alpha: [ 5.0000000000000003e-02, 5.0000000000000003e-02,
             5.0000000000000003e-02, 5.0000000000000003e-02,
             5.0000000000000003e-02, 5.0000000000000003e-02,
             5.0000000000000003e-02, 5.0000000000000003e-02,
             5.0000000000000003e-02, 5.0000000000000003e-02,
             5.0000000000000003e-02, -5.0000000000000003e-02,
             -5.0000000000000003e-02, -5.0000000000000003e-02,
             -5.0000000000000003e-02, -5.0000000000000003e-02,
             -5.0000000000000003e-02, -5.0000000000000003e-02,
             -5.0000000000000003e-02, -5.0000000000000003e-02,
             -5.0000000000000003e-02, -5.0000000000000003e-02 ]
         index: [ 62, 47, 48, 49, 50, 51, 52, 53, 54, 60, 61, 1, 14, 13,
             12, 10, 9, 8, 7, 5, 3, 0 ]
      -
         sv_count: 24
         rho: 1.7014117173470118e+34
         alpha: [ 5.0000000000000003e-02, 5.0000000000000003e-02,
             5.0000000000000003e-02, 5.0000000000000003e-02,
             5.0000000000000003e-02, 5.0000000000000003e-02,
             5.0000000000000003e-02, 5.0000000000000003e-02,
             5.0000000000000003e-02, 5.0000000000000003e-02,
             5.0000000000000003e-02, 5.0000000000000003e-02,
             -5.0000000000000003e-02, -5.0000000000000003e-02,
             -5.0000000000000003e-02, -5.0000000000000003e-02,
             -5.0000000000000003e-02, -5.0000000000000003e-02,
             -5.0000000000000003e-02, -5.0000000000000003e-02,
             -5.0000000000000003e-02, -5.0000000000000003e-02,
             -5.0000000000000003e-02, -5.0000000000000003e-02 ]
         index: [ 62, 47, 49, 51, 52, 54, 55, 56, 57, 59, 60, 61, 29, 31,
             32, 33, 34, 35, 36, 38, 39, 30, 42, 46 ]
      -
         sv_count: 18
         rho: -1.7014117173470118e+34
         alpha: [ 5.0000000000000003e-02, 5.0000000000000003e-02,
             5.0000000000000003e-02, 5.0000000000000003e-02,
             5.0000000000000003e-02, 5.0000000000000003e-02,
             5.0000000000000003e-02, 5.0000000000000003e-02,
             5.0000000000000003e-02, -5.0000000000000003e-02,
             -5.0000000000000003e-02, -5.0000000000000003e-02,
             -5.0000000000000003e-02, -5.0000000000000003e-02,
             -5.0000000000000003e-02, -5.0000000000000003e-02,
             -5.0000000000000003e-02, -5.0000000000000003e-02 ]
         index: [ 21, 18, 22, 24, 25, 26, 20, 19, 16, 1, 14, 13, 12, 10,
             9, 8, 7, 2 ]
      -
         sv_count: 18
         rho: -8.5070585867350592e+33
         alpha: [ 5.0000000000000003e-02, 5.0000000000000003e-02,
             5.0000000000000003e-02, 5.0000000000000003e-02,
             5.0000000000000003e-02, 5.0000000000000003e-02,
             5.0000000000000003e-02, 5.0000000000000003e-02,
             5.0000000000000003e-02, -5.0000000000000003e-02,
             -5.0000000000000003e-02, -5.0000000000000003e-02,
             -5.0000000000000003e-02, -5.0000000000000003e-02,
             -5.0000000000000003e-02, -5.0000000000000003e-02,
             -5.0000000000000003e-02, -5.0000000000000003e-02 ]
         index: [ 21, 18, 23, 25, 28, 20, 17, 16, 15, 29, 36, 37, 38, 40,
             41, 43, 44, 45 ]
      -
         sv_count: 26
         rho: 1.7014117173470118e+34
         alpha: [ 5.0000000000000003e-02, 5.0000000000000003e-02,
             5.0000000000000003e-02, 5.0000000000000003e-02,
             5.0000000000000003e-02, 5.0000000000000003e-02,
             5.0000000000000003e-02, 5.0000000000000003e-02,
             5.0000000000000003e-02, 5.0000000000000003e-02,
             5.0000000000000003e-02, 5.0000000000000003e-02,
             5.0000000000000003e-02, -5.0000000000000003e-02,
             -5.0000000000000003e-02, -5.0000000000000003e-02,
             -5.0000000000000003e-02, -5.0000000000000003e-02,
             -5.0000000000000003e-02, -5.0000000000000003e-02,
             -5.0000000000000003e-02, -5.0000000000000003e-02,
             -5.0000000000000003e-02, -5.0000000000000003e-02,
             -5.0000000000000003e-02, -5.0000000000000003e-02 ]
         index: [ 1, 6, 14, 13, 12, 11, 10, 9, 8, 7, 4, 3, 2, 29, 31, 32,
             33, 34, 35, 36, 37, 38, 39, 30, 42, 46 ]
