%YAML:1.0
---
opencv_ml_svm:
   format: 3
   svmType: C_SVC
   kernel:
      type: LINEAR
   C: 1.
   term_criteria: { iterations:100 }
   var_count: 100
   class_count: 4
   class_labels: !!opencv-matrix
      rows: 4
      cols: 1
      dt: i
      data: [ -2, -1, 1, 2 ]
   sv_total: 6
   support_vectors:
      - [ 5.11998230e+02, 1.88935594e+31, 2.17386320e+11, 2.07581772e+02,
          1.27122375e+22, 9.93653781e-09, 1.59728131e-07, 1.41958605e+10,
          1.63772232e-10, 4.30707300e-39, 862766336., 4.54317806e-10,
          1.76895502e+31, 1.38013898e+13, 6.23220364e-10, 6.72623263e-44,
          -1.31454968e-39, 0., -3.83850598e-15, -4.55702261e-41,
          1.37243172e-41, -1.40129846e-45, -4.76441478e-44, 0.,
          -2.35136481e-39, 0., -4.33416710e-38, 4.43553003e-41,
          -1.05500885e-05, -6.86242174e-07, -6.33665764e-39,
          -6.13710939e+13, -3.29346381e+09, -1.54319028e+25,
          -1.79033368e+19, -3.07770719e-11, 6.84864647e+22,
          -6.82153480e+22, -1.59050811e+24, -4.61862516e+24,
          -4.22012707e+24, 6.03591350e+28, -1.41438361e+19,
          4.71240312e+30, 6.79197948e+22, -49614136., -1.99117518e+34,
          1.98882355e+20, -1.65854273e+38, -1.03130304e-08,
          -6.82312998e+22, -1.83149398e+25, -1.44565062e-08,
          -4.28808887e+21, -4.28651965e+21, -6.33678936e-39,
          -6.13710939e+13, -3.29346381e+09, -8.05489380e+02,
          -3.40033080e-06, -5.57700197e-38, -234112144., -51712316.,
          -2.00332962e+02, -6.20121946e+28, -2.23454834e+02,
          -4.84146230e+30, -6.97799210e+22, -1.62868652e+01, -31416112.,
          2.86490370e+32, 1.94255846e+31, -3.39327744e+09,
          -4.22142039e-05, -1.89578718e+31, 1.45847316e+10,
          1.93924710e+31, -1.15782767e+27, 6.71201627e+22, 860444.,
          -8.29208923e+02, -9.14628312e+05, 8.29286133e+02,
          -3.68114034e+12, 8.26987907e+20, -1.63175145e+19,
          -1.86171597e+25, -5.13584167e+02, -3.42858252e+03,
          -1.94109989e+31, -2.23116231e+11, -1.54318958e+25,
          -1.30782923e+22, -2.43107490e-09, -1.74415646e-07,
          -6.82312998e+22, -1.83149398e+25, -4.63494102e+24,
          1.43970323e+25, -1.53513907e+13 ]
      - [ 7.84313772e-03, -5.77365369e+31, -1.85120910e+28,
          -1.15789504e+27, 1.30429233e+22, 9.56770219e-09,
          -6.71941263e-04, 1.45846436e+10, -7.62960625e+05,
          -3.38195410e+03, 835726144., -3.36090701e+09, 5.12784180e+02,
          1.41793700e+13, -2.06910689e-09, -8.53096291e-33,
          -8.04910461e+02, -9.15941556e+11, -1.12275168e+21,
          -7.62960625e+05, -9.16426326e+11, -844615808., -1.34573320e+04,
          -8.47236891e+11, -1.68063634e-04, -6.40969056e-10,
          -7.51647749e-04, -6.13710939e+13, -3.29346381e+09,
          -2.13000684e+11, -8.93207947e+02, -4.83322792e+01,
          -4.81751002e-02, -3.02222248e+32, -6.13172843e+28,
          -2.63363557e+20, -1.85236006e+28, -7.62960625e+05,
          -3.44557261e+09, -1.47192457e+19, -217392224., -3.32030306e+12,
          -8.30040244e+11, -4.02995588e-11, -7.49342894e+28,
          -3.03090583e+24, -2.21415356e+03, -1.41438999e+19,
          -2.17349250e+05, -1.71847620e+25, -6.40968889e-10,
          -6.41111164e-10, -5.12027989e-11, -7.51647225e-04,
          -1.49831772e+10, -1.44352342e+19, -4.86462861e-02,
          -1.32665962e-11, -6.40969056e-10, -1.26957518e+19,
          -3.25060179e-09, -7.62960625e+05, -3.32813210e+09,
          -3.38195752e+03, -2.40003169e+32, -2.14639698e+29,
          8.39683562e+05, -1.26957001e+19, 3.13601172e+03, 202696032.,
          2.86490370e+32, 1.94255846e+31, 6.40957620e-10, 6.40954900e-10,
          3.13601196e+03, 1.45847316e+10, 1.94109832e+31, 6.74036913e+22,
          6.71201627e+22, 861248., 7.55538373e-39, 9.04129680e-39,
          8.29286133e+02, 7.73833586e-39, 8.41131743e+20, 1.63164017e-07,
          2.20252550e+12, 6.36547254e-39, 1.60238836e-10, 1.33316288e+13,
          223667504., 2.56386556e-09, 5.42239621e+13, 7.10193476e-39,
          4.51722573e-39, 0., 0., 0., 0., 0. ]
      - [ -251., 1.94109989e+31, 2.23339905e+11, -6.82312998e+22,
          -1.83018795e+25, -4.33272600e+24, -4.22012707e+24,
          1.45846405e+10, -1.45025144e+19, -7.71475335e+31,
          -1.85120910e+28, -1.15789504e+27, -1.74664855e+19,
          1.41793700e+13, -6.72104710e-04, -1.03945358e-05,
          -7.62960625e+05, -3.38195410e+03, -50668872., -3.36090701e+09,
          -6.88776258e-10, -6.72104768e-04, -2.70939537e-09,
          -8.81985460e-33, -8.04910461e+02, -9.15941556e+11,
          -1.12275168e+21, -7.62960625e+05, -9.16426326e+11, -844615808.,
          -1.34573320e+04, -8.47236891e+11, -1.68063634e-04,
          -6.40969056e-10, -7.51647749e-04, -6.13710939e+13,
          -3.29346381e+09, -2.13000684e+11, -8.93207947e+02,
          -4.83322792e+01, -4.81751002e-02, -3.02222248e+32,
          -6.13172843e+28, -2.63363557e+20, -1.85236006e+28,
          -7.62960625e+05, -3.44557261e+09, -1.47192457e+19, -217392224.,
          -3.32030306e+12, -8.30040244e+11, -4.05269325e-11,
          -7.49342847e+28, -3.03090583e+24, -2.21415356e+03,
          -1.41438999e+19, -2.17349250e+05, -1.71847620e+25,
          -6.40968889e-10, -6.41111164e-10, 4.48311674e+30,
          -7.51647574e-04, -1.49831772e+10, -1.44352342e+19,
          3.39327718e+09, 4.22003723e-05, 8.39683562e+05,
          -1.26957518e+19, 3.13601172e+03, 201933072., 2.86490370e+32,
          1.94255846e+31, -2.40003169e+32, -2.14639698e+29,
          3.13601196e+03, -1.26957001e+19, 1.94109832e+31,
          6.74036913e+22, -4.66796750e+21, 861248., 7.55538373e-39,
          9.04129680e-39, 8.29286133e+02, 7.73833586e-39, 8.41131743e+20,
          1.63164017e-07, 2.20252550e+12, 6.36547254e-39, 1.60238836e-10,
          1.33316288e+13, 223667504., 2.56386556e-09, 5.42239621e+13,
          7.10193476e-39, 4.51722573e-39, 0., 0., 0., 0., 0. ]
      - [ -7.84313772e-03, -7.71475335e+31, -1.85120910e+28,
          -1.15789504e+27, -1.74664855e+19, -6.40969056e-10,
          -6.72105351e-04, -2.53755794e-09, -7.62960625e+05,
          -3.38195410e+03, -50668872., -3.36090701e+09, 1.81740152e+31,
          -6.72104594e-04, -2.70939537e-09, -8.53096291e-33, -158753168.,
          -9.15941556e+11, -1.12275168e+21, -7.62960625e+05,
          -9.16426326e+11, -886661696., -1.34573320e+04, -8.47236891e+11,
          -1.68063649e-04, -6.48593568e-10, -7.51647749e-04,
          -6.15433120e+13, -3.29346381e+09, -7.63405011e+17,
          -8.70992205e+23, -7.23599930e+01, -1.60452271e+02,
          -3.03130373e+32, -6.13172843e+28, -2.63363557e+20,
          -1.85235309e+28, 1.63867541e+19, 1.71824653e+25,
          1.67650076e+22, -217392016., 6.20121946e+28, -8.30081729e+11,
          4.84146230e+30, -7.49342186e+28, -3.02978317e+24,
          1.12064350e+21, 1.30629227e+22, -2.17349250e+05,
          -1.71847620e+25, -6.40965059e-10, -6.41111164e-10,
          -5.12027989e-11, -7.51647225e-04, -1.49831772e+10,
          -1.44352342e+19, -4.86462861e-02, -1.32665962e-11,
          -6.40969056e-10, -1.26957518e+19, -3.25060179e-09,
          -7.62960625e+05, -3.32813210e+09, -3.38195752e+03,
          -2.40003169e+32, -2.14639698e+29, -6.30864139e-10,
          -1.26957001e+19, 7.44768249e-06, 4.36223471e-30,
          -7.17881302e+22, -9.14533621e-40, -5.48888608e-42,
          9.80908925e-45, -5.26607963e-42, 0., 1.48335222e-37, 0.,
          7.67690355e-15, 9.11404521e-41, 4.94363301e-38, 0.,
          1.02021961e-37, 0., 1.48316568e-37, 0., 1.15155722e-14,
          1.36710678e-40, 1.05097385e-43, 1.40129846e-45, 3.61535004e-43,
          0., 1.48323205e-37, 0., 3.83840095e-15, 4.55702261e-41,
          6.82899446e-32, 0., 3.16693453e-43, 0. ]
      - [ -1.01091077e+03, 7.71475335e+31, 1.85120910e+28,
          1.15782679e+27, -1.83149225e+25, -4.33272600e+24,
          -4.22012707e+24, -3.57427417e+03, -1.45025144e+19,
          -7.71475335e+31, -1.85120910e+28, -1.15789504e+27,
          -1.74664855e+19, -202696032., -2.86490370e+32, -1.94255846e+31,
          -7.62156625e+05, 9.15941556e+11, 1.12275168e+21,
          -1.79451126e+10, -1.94109832e+31, -6.74036913e+22,
          -6.71201627e+22, 8.47236039e+11, -8.04910278e+02,
          -9.15941556e+11, -1.12275168e+21, 6.13710939e+13,
          -8.41131743e+20, 2.12156072e+11, -2.20252550e+12,
          6.05238571e+13, 3.29346381e+09, 3.02222267e+32, 6.13172843e+28,
          2.63363505e+20, 1.85236006e+28, 6.82312998e+22, 1.83149398e+25,
          4.63497215e+24, 4.22012707e+24, -3.02222248e+32,
          -6.13172843e+28, -2.63363557e+20, 5.64106888e+28,
          3.03090583e+24, 1.99117518e+34, -5.75409619e+17, -217174880.,
          1.71847620e+25, 6.82312998e+22, 1.83149398e+25,
          -7.49342847e+28, -3.02661783e+24, 4.28651965e+21,
          2.91334297e+17, 6.13710939e+13, -1.71847620e+25,
          8.05489380e+02, 1.26957518e+19, 7.60808139e-10, 234637536.,
          -1.16033331e+10, -1.44352342e+19, 2.40065182e+32,
          2.14639698e+29, 4.84146230e+30, 6.97799210e+22, 4.51934967e+02,
          -1.54319028e+25, 7.17033589e+22, -3.17568652e+03,
          -2.40003169e+32, -2.14639774e+29, 1.89578537e+31,
          -4.33273868e+24, 1.85078149e+28, 1.15789504e+27,
          -7.18022760e+22, -2.10791626e+01, -2.74393530e+03, -48699508.,
          -1.99117518e+34, 3.68114034e+12, 1.41438361e+19,
          1.63175145e+19, 1.85489287e+25, -1.83149398e+25,
          3.42858252e+03, 1.94109989e+31, -4.28651965e+21,
          1.54318958e+25, 1.30782923e+22, -3.29346381e+09,
          -8.05489380e+02, 6.82312998e+22, 1.83149398e+25,
          4.63495745e+24, 4.22012707e+24, 1.53513907e+13 ]
      - [ -1.00463141e+03, -1.12275069e+21, -1.03028013e-08,
          -6.82312998e+22, -1.83149398e+25, -4.33272600e+24,
          -4.22012707e+24, -3.57427417e+03, -1.45025144e+19,
          -7.71475335e+31, -1.85120910e+28, -1.15789504e+27,
          -1.74664855e+19, -202696032., -2.86490370e+32, -1.94255846e+31,
          3.39251430e+09, -3.38195410e+03, -49832324., -1.79456389e+10,
          -1.94109796e+31, -6.74036913e+22, -6.71201627e+22, -861248.,
          -8.04910461e+02, -9.15941556e+11, -1.12275168e+21,
          3.68113956e+12, -8.41131743e+20, 1.63175145e+19,
          1.86171597e+25, -8.47236891e+11, 3.42858228e+03,
          1.94109989e+31, 2.23116231e+11, -6.13710939e+13,
          1.30603894e+22, -2.13000684e+11, -8.93207947e+02,
          1.45846436e+10, 3.24140006e+09, -3.02222248e+32,
          -6.13172843e+28, -2.63363557e+20, -1.85236006e+28,
          1.41802277e+13, -3.44557261e+09, -1.47192457e+19, -217392368.,
          -3.32030306e+12, -8.30040244e+11, 3.51637891e+12,
          -7.49342847e+28, -3.03089027e+24, 1.77839007e+25,
          -1.41438999e+19, -2.14074125e+05, 1.85421790e+31,
          2.13343601e+11, -1.51338203e+05, 1.24758289e+22,
          -6.71744983e+11, -7.66414718e+17, -1.44352342e+19,
          7.03621104e+22, -7.99078366e+23, 1.71824653e+25,
          1.67670309e+22, -3.29346330e+09, -1.54319028e+25,
          -1.79033368e+19, -3.38195752e+03, -2.40003169e+32,
          -2.14639774e+29, -1.83149398e+25, -4.33273868e+24,
          -4.22012707e+24, -2.05427441e+03, 7.71475335e+31,
          -8.25083374e+02, 7.55629461e+31, 1.14333112e+27,
          -1.99117518e+34, -6.49270637e-10, -4.09682982e-11,
          -1.03130304e-08, -6.82312998e+22, -1.83149398e+25,
          -1.44565062e-08, -4.28693595e+21, -4.28651965e+21,
          -6.29121914e-39, -6.13710939e+13, -3.29346381e+09,
          -8.05489380e+02, -3.40033080e-06, 4.15524651e-38, -234112144.,
          -51712316., -2.00270462e+02 ]
   uncompressed_sv_total: 31
   uncompressed_support_vectors:
      - [ 254., 1.12275069e+21, 1.03028013e-08, 6.82312998e+22,
          1.83149398e+25, 4.33272600e+24, 4.22012707e+24, 3.57427417e+03,
          1.45025144e+19, 7.71475335e+31, 1.85120910e+28, 1.15789504e+27,
          1.74664855e+19, 6.40969056e-10, 6.72105351e-04, 1.03945358e-05,
          7.62960625e+05, 3.38195410e+03, 50668872., 3.36090701e+09,
          6.88776258e-10, 6.72104768e-04, 2.70939537e-09, 8.81985460e-33,
          8.04910461e+02, 9.15941556e+11, 1.12275168e+21, 7.62960625e+05,
          9.16426326e+11, 844615808., 1.34573320e+04, 8.47236891e+11,
          1.68063634e-04, 6.40969056e-10, 7.51647749e-04, 6.13710939e+13,
          3.29346381e+09, 2.13000684e+11, 8.93207947e+02, 4.83322792e+01,
          4.81751002e-02, 3.02222248e+32, 6.13172843e+28, 2.63363557e+20,
          1.85236006e+28, 7.62960625e+05, 3.44557261e+09, 1.47192457e+19,
          217392224., 3.32030306e+12, 8.30040244e+11, 4.05269325e-11,
          7.49342847e+28, 3.03090583e+24, 2.21415356e+03, 1.41438999e+19,
          2.17349250e+05, 1.71847620e+25, 6.40968889e-10, 6.41111164e-10,
          5.18849200e-11, 7.51647574e-04, 1.49831772e+10, 1.44352342e+19,
          4.86462861e-02, 1.32665962e-11, 6.40969056e-10, 1.26957518e+19,
          1.33151634e-05, 7.62960625e+05, 3.32813210e+09, 3.38195752e+03,
          2.40003169e+32, 2.14639698e+29, 6.30867969e-10, 1.26957001e+19,
          3.24781624e-09, 8.82907048e-33, 7.17881302e+22, 9.60103847e-40,
          0., 0., 0., 0., 0., 0., 0., 0., 0., 0., 0., 0., 0., 0., 0., 0.,
          0., 0., 0., 0. ]
      - [ 254., 0., 0., 0., 1.15691201e-41, 0., 1.15018578e-41, 0.,
          3.39327718e+09, 4.22003868e-05, 8.39683562e+05, 7.55895985e-39,
          3.13601172e+03, 202696032., 2.86490370e+32, 1.94255846e+31,
          6.40957620e-10, 6.40954900e-10, 3.13601196e+03, 1.45847316e+10,
          1.94109832e+31, 6.74036913e+22, 6.71201627e+22, 861248.,
          7.55538373e-39, 9.04129680e-39, 8.29286133e+02, 7.73833586e-39,
          8.41131743e+20, 1.63164017e-07, 2.20252550e+12, 6.36547254e-39,
          1.60238836e-10, 1.33316288e+13, 223667504., 2.56386556e-09,
          5.42239621e+13, 7.10193476e-39, 4.51722573e-39, 0., 0., 0., 0.,
          0., 0., 0., 0., 0., 0., 0., 0., 0., 0., 0., 0., 0., 0., 0., 0.,
          0., 0., 0., 1.49054716e-40, 0., 0., 0., 0., 0., 0., 0., 0., 0.,
          0., 0., 0., 0., 0., 0., 0., 0., 0., 0., 0., 0., 0., 0., 0., 0.,
          0., 0., 0., 0., 0., 0., 0., 0., 0., 0., 0., 0. ]
      - [ 254., 0., 0., 0., 0., 0., 0., 0., 0., 0., 0., 0., 0., 0., 0.,
          0., 0., 0., 0., 0., 0., 0., 0., 0., 0., 0., 0., 0., 0., 0., 0.,
          0., 0., 0., 0., 0., 0., 0., 0., 0., 0., 0., 0., 0., 0., 0., 0.,
          0., 0., 0., 0., 0., 0., 0., 0., 0., 0., 0., 0., 0., 0., 0., 0.,
          0., 0., 0., 0., 0., 0., 0., 0., 0., 0., 0., 0., 0., 0., 0., 0.,
          0., 0., 0., 0., 0., 0., 0., 0., 0., 0., 0., 0., 0., 0., 0., 0.,
          0., 0., 0., 0., 0. ]
      - [ 255., 0., 0., 0., 0., 0., 0., 0., 0., 0., 0., 0., 0., 0., 0.,
          0., 0., 0., 0., 0., 0., 0., 0., 0., 0., 0., 0., 0., 0., 0., 0.,
          0., 0., 0., 0., 0., 0., 0., 0., 0., 0., 0., 0., 0.,
          1.14121747e-41, 0., 1.15018578e-41, 0., 3.39327718e+09,
          4.22003868e-05, 8.39683562e+05, 7.55895985e-39, 4.51866907e-39,
          898715904., 6.36436271e-39, 2.21424240e-10, 2.05955988e-10,
          1.65699232e-10, 4.60906123e-39, 3.68114034e+12, 6.36547254e-39,
          1.63175145e+19, 1.86171597e+25, 5.13584167e+02, 3.42858252e+03,
          1.94109989e+31, 2.23339905e+11, 2.13266830e+02, 2.68222811e-06,
          8.46330522e-07, 1.01982094e-08, 4.51723834e-39, 3.33358301e+03,
          6.37328412e-10, 3.20470543e+01, 1.41785815e+13, 6.40288544e-10,
          3.13601318e+03, 223667552., 1.02554623e-08, 0., 0., 0., 0., 0.,
          0., 0., 0., 0., 0., 0., 0., 0., 0., 0., 0., 0., 0., 0., 0. ]
      - [ 255., 0., 0., 0., 0., 0., 0., 0., 0., 0., 0., 0., 0., 0., 0.,
          0., 0., 0., 0., 0., 0., 0., 0., 0., 0., 0., 0., 0., 0., 0., 0.,
          0., 0., 0., 0., 0., 0., 0., 0., 0., 0., 0., 1.56767463e-40, 0.,
          0., 0., 0., 0., 0., 0., 0., 0., 0., 0., 0., 0., 0., 0., 0., 0.,
          6.00876782e-42, 0., 1.63671661e-42, 0., 6.63105823e-07,
          4.19551931e-08, 6.33672631e-39, 6.13710939e+13, 3.29346381e+09,
          1.54319028e+25, 1.79033368e+19, 4.09682982e-11, 1.03130304e-08,
          6.82312998e+22, 1.83149398e+25, 4.33272600e+24, 4.22012707e+24,
          2.05427417e+03, 1.41438361e+19, 8.25083374e+02, 3.57314429e+03,
          49614136., 1.99117518e+34, 6.49270637e-10, 4.09682982e-11,
          1.03130304e-08, 6.82312998e+22, 1.83149398e+25, 1.44565062e-08,
          4.28693595e+21, 4.28651965e+21, 6.33678936e-39, 6.13710939e+13,
          3.29346381e+09, 8.05489380e+02, 3.40033080e-06, 6.33678656e-39,
          234112144., 51712316., 2.00270462e+02 ]
      - [ 255., 0., 4.82564143e-38, 0., 1.26116862e-44, 2.52233724e-44,
          4.82927360e-38, 0., 4.82939019e-38, 0., 3.08285662e-44,
          2.66246708e-44, 4.82797319e-38, 0., 4.92995185e-38, 0.,
          3.64337601e-44, 5.32493416e-44, 0., 0., 0., 0., 0., 0., 0., 0.,
          0., 0., 0., 0., 4.82494190e-38, 0., 4.82505849e-38, 0.,
          2.52233724e-44, 1.54142831e-44, 4.82692390e-38, 0.,
          4.82704049e-38, 0., 1.68155816e-44, 8.40779079e-45, 0., 0., 0.,
          0., 0., 0., 4.82785660e-38, 0., 4.92992494e-38, 0.,
          4.48415509e-44, 2.94272678e-44, 4.82857407e-38, 0.,
          4.93008637e-38, 0., 1.12103877e-44, 3.50324616e-44,
          -1.71470391e+38, 2.36935552e-38, 2.34180515e-38,
          9.18354962e-41, 3.57331108e-43, 9.47771131e-38, 9.47770907e-38,
          2.35106017e-38, 2.35095297e-38, 2.36928405e-38, 0., 0., 0., 0.,
          0., 0., 7.69032597e-42, 0., 5.60519386e-43, 0., 0., 0., 0., 0.,
          0., 0., 4.91475953e-38, 0., 0., 0., 0., 0., 3.92363570e-44, 0.,
          0., 0., 0., 0., 0., 0. ]
      - [ 255., 0., 0., 0., 0., 0., 0., 0., 0., 0., 0., 0., 0., 0., 0.,
          0., 0., 0., 0., 0., 0., 0., 0., 0., 0., 0., 0., 0., 0., 0., 0.,
          0., 0., 0., 0., 0., 0., 0., 0., 0., 0., 0., 0., 0., 0., 0., 0.,
          0., 0., 0., 0., 0., 0., 0., 0., 0., 0., 0., 0., 0., 0., 0., 0.,
          0., 0., 0., 0., 0., 0., 0., 0., 0., 0., 0., 0., 0., 0., 0., 0.,
          0., 1.15691201e-41, 0., 1.15018578e-41, 0., 3.39327718e+09,
          4.22003868e-05, 8.39683562e+05, 7.55895985e-39, 5.16079307e-39,
          898715904., 6.36436271e-39, 2.21424240e-10, 2.05955988e-10,
          1.62061253e-10, 4.51722573e-39, 3.68114034e+12, 6.36547254e-39,
          1.63175145e+19, 1.86171597e+25, 5.13584167e+02 ]
      - [ 255., 1.94109989e+31, 2.23339905e+11, 2.13266830e+02,
          1.30603894e+22, 1.02086712e-08, 1.64102616e-07, 1.45846436e+10,
          1.68257477e-10, 4.42503150e-39, 886395008., 4.66760242e-10,
          5.12784180e+02, 1.41793700e+13, 6.40288544e-10, 6.86636248e-44,
          0., 0., 0., 0., 0., 0., 0., 0., 0., 0., 0., 0., 0., 0., 0., 0.,
          0., 0., 0., 0., 0., 0., 0., 0., 0., 0., 0., 0., 0., 0., 0., 0.,
          0., 0., 0., 0., 0., 0., 0., 0., 0., 0., 0., 0., 0., 0., 0., 0.,
          0., 0., 0., 0., 0., 0., 0., 0., 0., 0., 0., 0., 0., 0., 0., 0.,
          0., 0., 0., 0., 0., 0., 0., 0., 0., 0., 0., 0., 0., 0., 0., 0.,
          0., 0., 0., 0. ]
      - [ 254., 0., 0., 0., 0., 0., 1.40400297e-40, 0., 0., 0., 0., 0.,
          0., 0., 0., 0., 0., 0., 0., 0., 0., 0., 0., 0., 0., 0., 0., 0.,
          0., 0., 0., 0., 0., 0., 0., 0., 0., 0., 0., 0., 0., 0., 0., 0.,
          0., 0., 0., 0., 0., 0., 0., 0., 0., 0., 0., 0., 0., 0., 0., 0.,
          0., 0., 0., 0., 0., 0., 0., 0., 0., 0., 0., 0., 0., 0., 0., 0.,
          0., 0., 0., 0., 0., 0., 0., 0., 0., 0., 0., 0., 0., 0., 0., 0.,
          0., 0., 0., 0., 0., 0., 0., 0. ]
      - [ 255., 0., 0., 0., 0., 0., 0., 0., 0., 0., 0., 0., 0., 0., 0.,
          0., 0., 0., 0., 0., 0., 0., 0., 0., 0., 0., 0., 0., 0., 0., 0.,
          0., 0., 0., 0., 0., 0., 0., 0., 0., 0., 0., 0., 0., 0., 0., 0.,
          0., 0., 0., 0., 0., 0., 0., 0., 0., 0., 0., 0., 0., 0., 0., 0.,
          0., 0., 0., 0., 0., 0., 0., 0., 0., 0., 0., 0., 0., 0., 0., 0.,
          0., 0., 0., 0., 0., 0., 0., 0., 0., 0., 0., 0., 0., 0., 0., 0.,
          0., 0., 0., 0., 0. ]
      - [ 2., 0., 0., 0., 0., 0., 0., 0., 0., 0., 0., 0., 0., 0., 0., 0.,
          0., 0., 0., 0., 0., 0., 0., 0., 0., 0., 0., 0., 0., 0., 0., 0.,
          0., 0., 0., 0., 0., 0., 0., 0., 0., 0., 0., 0., 0., 0., 0., 0.,
          0., 0., 0., 0., 0., 0., 0., 0., 0., 0., 0., 0., 1.15691201e-41,
          0., 1.15018578e-41, 0., 3.39327718e+09, 4.22003868e-05,
          8.39683562e+05, 7.55895985e-39, 3.13601172e+03, 202696032.,
          2.86490370e+32, 1.94255846e+31, 6.40957620e-10, 6.40954900e-10,
          3.13601196e+03, 1.45847316e+10, 1.94109832e+31, 6.74036913e+22,
          6.71201627e+22, 861248., 7.55538373e-39, 9.04129680e-39,
          8.29286133e+02, 7.73833586e-39, 8.41131743e+20, 1.63164017e-07,
          2.20252550e+12, 6.36547254e-39, 1.60238836e-10, 1.33316288e+13,
          223667504., 2.56386556e-09, 5.42239621e+13, 7.10193476e-39,
          4.51722573e-39, 0., 0., 0., 0., 0. ]
      - [ 255., 0., 0., 0., 1.40129846e-41, 0., 4.48415509e-44, 0.,
          4.93005947e-38, 0., 3.83848565e-15, 4.55702261e-41,
          1.81740152e+31, 1.58416155e-10, 4.62428493e-44, 0.,
          4.94008604e-38, 0., 4.93681261e-38, 0., 1.41026677e-41, 0.,
          4.48415509e-44, 0., 4.83852889e-38, 0., 6.27113433e-39,
          4.55702261e-41, 1.41475093e-41, 0., 1.12103877e-43, 0.,
          4.96024680e-38, 0., 1.00147009e-11, 1.04703338e-11,
          7.03621104e+22, 1.63867541e+19, 1.71824653e+25, 1.67797265e+22,
          2.00333481e+02, 6.20121946e+28, 2.23454880e+02, 4.84146230e+30,
          6.97799210e+22, 6.41640630e-10, 6.77348844e-10, 2.04329160e+20,
          -1.70396539e+38, 4.20389539e-45, 8.65582061e-42, 0.,
          4.94005913e-38, 0., 4.87059957e-38, 0., 0., 0., 0., 0., 0., 0.,
          0., 0., 3.92363570e-44, 0., 0., 0., 0., 0., 0., 0., 0., 0., 0.,
          0., 0., 0., 0., 0., 4.87306586e-38, 0., 0., 0., 0., 0.,
          1.40129846e-45, 0., 0., 0., 1.40129846e-45, 0., 0., 0., 0., 0.,
          0., 0., 0., 0. ]
      - [ 255., 7.71475335e+31, 1.85120910e+28, 1.15789504e+27,
          1.74664855e+19, 6.40969056e-10, 6.72105351e-04, 2.53755794e-09,
          7.62960625e+05, 3.38195410e+03, 50668872., 3.36090701e+09,
          6.88776258e-10, 6.72104768e-04, 2.70939537e-09, 8.53096291e-33,
          8.04910461e+02, 9.15941556e+11, 1.12275168e+21, 7.62960625e+05,
          9.16426326e+11, 844615808., 1.34573320e+04, 8.47236891e+11,
          1.68063634e-04, 6.40969056e-10, 7.51647749e-04, 6.13710939e+13,
          3.29346381e+09, 2.13000684e+11, 8.93207947e+02, 4.83322792e+01,
          4.81751002e-02, 3.02222248e+32, 6.13172843e+28, 2.63363557e+20,
          1.85236006e+28, 7.62960625e+05, 3.44557261e+09, 1.47192457e+19,
          217392224., 3.32030306e+12, 8.30040244e+11, 4.02995588e-11,
          7.49342894e+28, 3.03090583e+24, 2.21415356e+03, 1.41438999e+19,
          2.17349250e+05, 1.71847620e+25, 6.40968889e-10, 6.41111164e-10,
          5.12027989e-11, 7.51647225e-04, 1.49831772e+10, 1.44352342e+19,
          4.86462861e-02, 1.32665962e-11, 6.40969056e-10, 1.26957518e+19,
          3.25060179e-09, 7.62960625e+05, 3.32813210e+09, 3.38195752e+03,
          2.40003169e+32, 2.14639698e+29, 6.30867969e-10, 1.26957001e+19,
          3.24781624e-09, 8.54017878e-33, 7.17881302e+22, 9.60103847e-40,
          0., 0., 0., 0., 0., 0., 0., 0., 0., 0., 0., 0., 0., 0., 0., 0.,
          0., 0., 0., 0., 0., 0., 0., 0., 0., 0., 0., 0. ]
      - [ 0., 0., 0., 0., 0., 0., 0., 0., 0., 0., 0., 0., 0., 0., 0., 0.,
          0., 0., 0., 0., 0., 0., 0., 0., 0., 0., 0., 0., 0., 0., 0., 0.,
          0., 0., 0., 0., 0., 0., 0., 0., 0., 0., 0., 0., 0., 0., 0., 0.,
          0., 0., 0., 0., 0., 0., 0., 0., 0., 0., 0., 0., 0., 0., 0., 0.,
          0., 0., 0., 0., 0., 0., 0., 0., 0., 0., 0., 0., 0., 0., 0., 0.,
          0., 0., 0., 0., 0., 0., 0., 0., 0., 0., 0., 0., 0., 0., 0., 0.,
          0., 0., 0., 0. ]
      - [ 255., 0., 0., 0., 0., 0., 0., 0., 0., 0., 0., 0., 0., 0., 0.,
          0., 0., 0., 0., 0., 0., 0., 0., 0., 0., 0., 0., 0., 0., 0., 0.,
          0., 0., 0., 0., 0., 0., 0., 0., 0., 0., 0., 0., 0., 0., 0., 0.,
          0., 0., 0., 0., 0., 0., 0., 0., 0., 0., 0., 0., 0., 0., 0., 0.,
          0., 0., 0., 0., 0., 0., 0., 0., 0., 0., 0., 0., 0., 0., 0., 0.,
          0., 0., 0., 0., 0., 0., 0., 0., 0., 0., 0., 0., 0., 0., 0., 0.,
          0., 0., 0., 0., 0. ]
      - [ 0., 0., 0., 0., 0., 0., 0., 0., 0., 0., 0., 0., 1.15691201e-41,
          0., 1.15018578e-41, 0., 3.39327718e+09, 4.22003868e-05,
          8.39683562e+05, 7.55895985e-39, 4.97819968e-39, 898715904.,
          6.36436271e-39, 2.21424240e-10, 2.05955988e-10, 1.62970748e-10,
          4.51722573e-39, 3.68114034e+12, 6.36547254e-39, 1.63175145e+19,
          1.86171597e+25, 5.13584167e+02, 3.42858252e+03, 1.94109989e+31,
          2.23339905e+11, 2.13266830e+02, 1.30603894e+22, 2.55216781e-09,
          1.64102616e-07, 1.45846436e+10, 1.68257477e-10, 4.42503150e-39,
          886395008., 4.66760242e-10, 5.12799805e+02, 1.41793700e+13,
          6.40288544e-10, 6.86636248e-44, 0., 0., 0., 0., 0., 0., 0., 0.,
          0., 0., 0., 0., 0., 0., 0., 0., 0., 0., 0., 0., 0., 0., 0., 0.,
          0., 0., 0., 0., 0., 0., 0., 0., 0., 0., 0., 0., 0., 0., 0., 0.,
          0., 0., 0., 0., 0., 0., 0., 0., 0., 0., 0., 0. ]
      - [ 0., 0., 0., 0., 0., 0., 0., 0., 0., 0., 1.31970085e-40, 0., 0.,
          0., 0., 0., 0., 0., 0., 0., 0., 0., 0., 0., 0., 0., 0., 0., 0.,
          0., 0., 0., 0., 0., 0., 0., 0., 0., 0., 0., 0., 0., 0., 0., 0.,
          0., 0., 0., 0., 0., 0., 0., 0., 0., 0., 0., 0., 0., 0., 0., 0.,
          0., 0., 0., 0., 0., 0., 0., 0., 0., 0., 0., 0., 0., 0., 0., 0.,
          0., 0., 0., 0., 0., 0., 0., 0., 0., 0., 0., 0., 0., 0., 0., 0.,
          0., 0., 0., 0., 0., 0., 0. ]
      - [ 1., 0., 0., 0., 0., 0., 0., 0., 0., 0., 0., 0., 0., 0., 0., 0.,
          0., 0., 0., 0., 0., 0., 0., 0., 0., 0., 0., 0., 0., 0., 0., 0.,
          0., 0., 0., 0., 0., 0., 0., 0., 0., 0., 0., 0., 0., 0., 0., 0.,
          0., 0., 0., 0., 0., 0., 0., 0., 0., 0., 0., 0., 0., 0., 0., 0.,
          0., 0., 0., 0., 0., 0., 0., 0., 5.76213929e-42, 0.,
          5.76213929e-42, 0., 0., 0., 0., 0., 0., 0., 0., 0., 0., 0., 0.,
          0., 0., 0., 0., 0., 0., 0., 0., 0., 0., 0., 0., 0. ]
      - [ 0., 0., 0., 0., 0., 0., 0., 0., 0., 0., 0., 0., 0., 0., 0., 0.,
          0., 0., 0., 0., 0., 0., 0., 0., 0., 0., 0., 0., 0., 0., 0., 0.,
          0., 0., 0., 0., 1.15691201e-41, 0., 1.15018578e-41, 0.,
          3.39327718e+09, 4.22003868e-05, 8.39683562e+05, 7.55895985e-39,
          5.16079307e-39, 898715904., 6.36436271e-39, 2.21424240e-10,
          2.05955988e-10, 1.62061253e-10, 4.51722573e-39, 3.68114034e+12,
          6.36547254e-39, 1.63175145e+19, 1.86171597e+25, 5.13584167e+02,
          3.42858252e+03, 1.94109989e+31, 2.23339905e+11, 2.13266830e+02,
          1.30603894e+22, 1.02086712e-08, 1.64102616e-07, 1.45846436e+10,
          1.68257477e-10, 4.42503150e-39, 886395008., 4.66760242e-10,
          5.12784180e+02, 1.41793700e+13, 6.40288544e-10, 6.86636248e-44,
          0., 0., 0., 0., 0., 0., 0., 0., 0., 0., 0., 0., 0., 0., 0., 0.,
          0., 0., 0., 0., 0., 0., 0., 0., 0., 0., 0., 0. ]
      - [ 1., 0., 0., 0., 0., 0., 0., 0., 0., 0., 0., 0., 0., 0., 0., 0.,
          0., 0., 0., 0., 0., 0., 0., 0., 0., 0., 0., 0., 0., 0., 0., 0.,
          0., 0., 0., 0., 0., 0., 0., 0., 0., 0., 0., 0., 0., 0., 0., 0.,
          7.21948969e-42, 0., 4.48415509e-44, 0., 4.94083041e-38, 0.,
          3.83030416e-15, 4.55702261e-41, 7.26433124e-42, 0.,
          6.72623263e-44, 0., 4.94005913e-38, 0., 1.00147009e-11,
          1.04703338e-11, 7.03621104e+22, 1.63867541e+19, 1.71824653e+25,
          1.67797265e+22, 0., 0., 3.15292154e-43, 0., 4.78892517e-38, 0.,
          4.83887866e-38, 0., 4.48415509e-44, 0., 4.48415509e-44, 0.,
          4.93649871e-38, 0., 3.83866861e-15, 4.55702261e-41,
          8.96831017e-44, 0., 4.48415509e-44, 0., 4.83887866e-38, 0.,
          7.19161086e-39, 4.55702261e-41, 0., 0., 1.80767502e-43, 0.,
          4.78892517e-38, 0., 3.83845177e-15, 4.55702261e-41 ]
      - [ 0., 0., 4.95656082e-38, 0., 0., 0., 0., 0., 0., 0.,
          2.08527224e-41, 0., 4.95998672e-38, 0., 4.97893676e-38, 0., 0.,
          0., 0., 0., 4.22012707e+24, 3.60119692e-41, 2.92871379e-43, 0.,
          4.97718794e-38, 0., 4.94022953e-38, 0., 4.48415509e-44, 0.,
          4.48415509e-44, 0., 4.94086628e-38, 0., 8.05489380e+02,
          4.55590157e-41, 0., 0., 4.62428493e-44, 0., 4.83876207e-38, 0.,
          3.83845177e-15, 4.55702261e-41, 1.34524653e-43, 0.,
          6.72623263e-44, 0., 4.94437289e-38, 0., 3.83846533e-15,
          4.55702261e-41, 1.32665962e-11, 6.40969056e-10, 1.26957518e+19,
          8.12693079e-10, 6.72623263e-44, 0., 9.10844002e-44, 0.,
          4.83816119e-38, 0., 4.86743376e-38, 0., 4.48415509e-44, 0.,
          4.48415509e-44, 0., 4.86743376e-38, 0., 2.06270981e+02,
          4.55590157e-41, 3.58732407e-43, 0., 6.72623263e-44, 0.,
          4.99052381e-38, 0., 7.71475335e+31, 6.49270637e-10,
          7.55629461e+31, 1.14333112e+27, 4.10370255e-41, 0., 0., 0.,
          9.77685939e-42, 0., 4.97718794e-38, 0., 4.94432805e-38, 0., 0.,
          0., 0., 0., 0., 0., 0., 0. ]
      - [ 253., 0., 0., 0., 0., 0., 4.94374511e-38, 0., 0., 0.,
          4.94361058e-38, 0., 3.00671567e-39, 0., 4.94392448e-38, 0.,
          1.40129846e-45, 0., 0., 0., 0., 0., 4.94390654e-38, 0.,
          1.40129846e-45, 0., 2.90719685e-39, 0., 0., 0., 0.,
          3.60133705e-43, 0., 0., 5.76354058e-42, 0., 4.97402212e-38, 0.,
          4.94454329e-38, 0., 0., 0., 0., 0., 2.53772847e-09,
          1.12275069e+21, 1.12064350e+21, 7.56701171e-44, 0., 0., 0., 0.,
          0., 0., 0., 0., 0., 0., 0., 0., 0., 0., 1.13428104e-40, 0., 0.,
          0., 0., 0., 0., 0., 0., 0., 0., 0., 0., 0., 0., 0., 0., 0., 0.,
          0., 0., 0., 0., 0., 0., 0., 0., 0., 0., 0., 0., 0., 0., 0., 0.,
          0., 0., 0. ]
      - [ 0., 0., 0., 0., 0., 0., 0., 0., 0., 0., 0., 0., 0., 0., 0., 0.,
          5.76213929e-42, 0., 5.76213929e-42, 0., 0., 0., 0., 0., 0., 0.,
          0., 0., 0., 0., 0., 0., 0., 0., 0., 0., 0., 0., 0., 0., 0., 0.,
          0., 0., 0., 0., 0., 0., 0., 0., 0., 0., 0., 0., 0., 0., 0., 0.,
          0., 0., 0., 0., 0., 0., 0., 0., 0., 0., 0., 0., 0., 0., 0., 0.,
          0., 0., 0., 0., 0., 0., 0., 0., 0., 0., 0., 0., 0., 0., 0., 0.,
          0., 0., 0., 0., 0., 0., 0., 0., 0., 0. ]
      - [ 255., 0., 0., 0., 0., 0., 0., 0., 0., 0., 0., 0., 0., 0., 0.,
          0., 0., 0., 0., 0., 0., 0., 0., 0., 0., 0., 0., 0., 0., 0., 0.,
          0., 0., 0., 0., 0., 0., 0., 0., 0., 0., 0., 0., 0., 0., 0., 0.,
          0., 0., 0., 0., 0., 0., 0., 0., 0., 0., 0., 0., 0., 0., 0., 0.,
          0., 0., 0., 0., 0., 0., 0., 0., 0., 0., 0., 0., 0., 0., 0., 0.,
          0., 0., 0., 0., 0., 0., 0., 0., 0., 0., 0., 0., 0., 0., 0., 0.,
          0., 0., 0., 0., 0. ]
      - [ 0., 0., 0., 0., 0., 0., 0., 0., 0., 0., 0., 0., 0., 0., 0., 0.,
          0., 0., 0., 0., 0., 0., 0., 0., 0., 0., 0., 0., 0., 0., 0., 0.,
          0., 0., 0., 0., 0., 0., 0., 0., 0., 0., 0., 0., 0., 0., 0., 0.,
          0., 0., 0., 0., 0., 0., 0., 0., 0., 0., 0., 0., 0., 0., 0., 0.,
          0., 0., 0., 0., 1.15691201e-41, 0., 1.15018578e-41, 0.,
          3.39327718e+09, 4.22003868e-05, 8.39683562e+05, 7.55895985e-39,
          4.97819968e-39, 898715904., 6.36436271e-39, 2.21424240e-10,
          2.05955988e-10, 1.62970748e-10, 4.51722573e-39, 3.68114034e+12,
          6.36547254e-39, 1.63175145e+19, 1.86171597e+25, 5.13584167e+02,
          3.42858252e+03, 1.94109989e+31, 2.23339905e+11, 2.13266830e+02,
          1.30603894e+22, 2.55216781e-09, 1.64102616e-07, 1.45846436e+10,
          1.68257477e-10, 4.42503150e-39, 886395008., 4.66760242e-10 ]
      - [ 0., 1.41793700e+13, 6.40288544e-10, 6.86636248e-44, 0., 0., 0.,
          0., 0., 0., 0., 0., 0., 0., 0., 0., 0., 0., 0., 0., 0., 0., 0.,
          0., 4.99983292e-42, 0., 1.63671661e-42, 0., 1.05500885e-05,
          6.86242174e-07, 6.33672070e-39, 6.13710939e+13, 3.29346381e+09,
          1.54319028e+25, 1.79033368e+19, 4.09682982e-11, 1.03130304e-08,
          6.82312998e+22, 1.83149398e+25, 4.63495745e+24, 4.22012707e+24,
          2.05427417e+03, 1.41438361e+19, 8.25083374e+02, 3.57314429e+03,
          49614136., 1.99117518e+34, 6.49270637e-10, 4.09682982e-11,
          1.03130304e-08, 6.82312998e+22, 1.83149398e+25, 1.44565062e-08,
          4.28808887e+21, 4.28651965e+21, 6.33678936e-39, 6.13710939e+13,
          3.29346381e+09, 8.05489380e+02, 3.40033080e-06, 6.33678656e-39,
          234112144., 51712316., 2.00332962e+02, 6.20121946e+28,
          2.23454880e+02, 4.84146230e+30, 6.97799210e+22, 6.33680898e-39,
          234112144., 51712316., 2.06270981e+02, 2.00332962e+02,
          1.44564831e-08, 1.89578718e+31, 1.44565213e-08, 1.85120355e+28,
          1.15789504e+27, 1.05056299e-38, 8.04004211e+02, 8.29208923e+02,
          9.14628312e+05, 6.41154907e-10, 2.05107422e+03, 1.41438361e+19,
          8.77653125e+05, 869422272., 6.55521692e-10, 6.33672210e-39,
          9.58923342e+11, 1.25825853e+01, 1.54318958e+25, 1.79033368e+19,
          4.09682982e-11, 1.03130304e-08, 6.82312998e+22, 1.83149398e+25,
          4.63495745e+24, 4.22012707e+24, 1.53513907e+13 ]
      - [ 0., 7.71475335e+31, 1.85120910e+28, 1.15789504e+27,
          1.74664855e+19, 6.40969056e-10, 6.72105351e-04, 6.34432118e-10,
          525392., 3.38195410e+03, 50668872., 3.36090701e+09,
          6.88776258e-10, 6.72104768e-04, 2.70939537e-09, 4.42474564e-39,
          8.04004211e+02, 9.15941556e+11, 1.12275168e+21, 525392.,
          9.16426326e+11, 844615808., 1.34573320e+04, 8.47236891e+11,
          1.68063634e-04, 6.40969056e-10, 6.33673051e-39, 6.13710939e+13,
          3.29346381e+09, 2.13000684e+11, 8.93207947e+02, 4.83322792e+01,
          4.81751002e-02, 3.02222248e+32, 6.13172843e+28, 2.63363557e+20,
          1.85236006e+28, 525392., 3.44557261e+09, 1.47192457e+19,
          217392224., 3.32030306e+12, 8.30040244e+11, 4.02995588e-11,
          7.49342894e+28, 3.03090583e+24, 2.05415356e+03, 1.41438361e+19,
          2.17349250e+05, 1.71847620e+25, 6.40968889e-10, 6.41111164e-10,
          5.18849200e-11, 6.33671650e-39, 1.49831772e+10, 1.44352342e+19,
          4.86462861e-02, 1.32665962e-11, 6.40969056e-10, 1.26957518e+19,
          8.12693079e-10, 525392., 3.32813210e+09, 3.38195752e+03,
          2.40003169e+32, 2.14639698e+29, 6.30867969e-10, 1.26957001e+19,
          3.24781624e-09, 4.44232352e-39, 7.17212607e+22, 4.17488851e-41,
          0., 0., 0., 0., 0., 0., 0., 0., 0., 0., 0., 0., 0., 0., 0., 0.,
          0., 0., 0., 0., 0., 0., 0., 0., 0., 0., 0., 0. ]
      - [ 0., 0., 0., 0., 0., 0., 0., 0., 0., 0., 0., 0., 0., 0., 0., 0.,
          0., 0., 0., 0., 0., 0., 0., 0., 0., 0., 0., 0., 0., 0., 0., 0.,
          0., 0., 0., 0., 0., 0., 0., 0., 0., 0., 0., 0., 0., 0., 0., 0.,
          0., 0., 0., 0., 0., 0., 0., 0., 0., 0., 0., 0., 6.32265867e-42,
          0., 4.48415509e-44, 0., 4.94395138e-38, 0., 7.16327520e-39,
          1.64102630e-07, 2.79737748e+17, 1.64096377e-07, 4.62428493e-44,
          0., 4.94401416e-38, 0., 4.94454329e-38, 0., 8.36294924e-42, 0.,
          6.72623263e-44, 0., 4.94451638e-38, 0., 3.83030416e-15,
          4.55702261e-41, 0., 0., 0., 0., 6.72623263e-44, 0.,
          1.34664782e-42, 0., 4.94008604e-38, 0., 4.94432805e-38, 0.,
          2.56387600e-09, 0., 2.25609053e-43, 0. ]
      - [ 0., 0., 4.93981699e-38, 0., 0., 0., 4.62428493e-44, 0.,
          4.94454329e-38, 0., 3.83845177e-15, 4.55702261e-41,
          8.96831017e-44, 0., 4.48415509e-44, 0., 4.93985286e-38, 0.,
          3.83850598e-15, 4.55702261e-41, 2.80259693e-45, 1.40129846e-45,
          9.10844002e-44, 0., 4.94418456e-38, 0., 4.94439980e-38, 0.,
          4.94376305e-38, 0., 4.62428493e-44, 0., 4.94418456e-38, 0.,
          3.83845177e-15, 4.55702261e-41, 2.69049305e-43, 0.,
          6.72623263e-44, 0., 4.94013985e-38, 0., 3.83846533e-15,
          4.55702261e-41, 0., 0., 2.36935580e-38, 3.57331108e-43,
          6.72623263e-44, 0., 6.29183010e-43, 0., 4.94401416e-38, 0.,
          4.97402212e-38, 0., 0., 0., 5.84341460e-43, 0., 4.94448051e-38,
          0., 4.94360162e-38, 0., 0., 0., 4.62428493e-44, 0.,
          4.94454329e-38, 0., 3.83845177e-15, 4.55702261e-41,
          8.96831017e-44, 0., 4.48415509e-44, 0., 4.94528766e-38, 0.,
          3.83845177e-15, 4.55702261e-41, 0., 0., 1.35925951e-43, 0.,
          4.94355677e-38, 0., 3.83845177e-15, 4.55702261e-41, 0., 0.,
          9.10844002e-44, 0., 4.94448051e-38, 0., 4.94435495e-38, 0., 0.,
          0., 4.62428493e-44, 0. ]
      - [ 1., 0., 3.83845177e-15, 4.55702261e-41, 2.69049305e-43, 0.,
          4.48415509e-44, 0., 4.94365543e-38, 0., 3.83856019e-15,
          4.55702261e-41, 0., 0., 4.62428493e-44, 0., 4.94454329e-38, 0.,
          3.83845177e-15, 4.55702261e-41, 3.58732407e-43, 0.,
          4.48415509e-44, 0., 4.94391551e-38, 0., 3.83850937e-15,
          4.55702261e-41, 4.03573958e-43, 0., 4.48415509e-44, 0.,
          4.94360162e-38, 0., 3.83845177e-15, 4.55702261e-41,
          8.40779079e-45, 2.80259693e-45, 1.35925951e-43, 0.,
          4.94100977e-38, 0., 4.94448051e-38, 0., 4.94383479e-38, 0.,
          9.10844002e-44, 0., 4.94100977e-38, 0., 3.83845177e-15,
          4.55702261e-41, 4.94364646e-38, 0., 4.62428493e-44, 0.,
          4.94439980e-38, 0., 4.94401416e-38, 0., 9.64093343e-43, 0.,
          6.72623263e-44, 0., 4.94432805e-38, 0., 3.83846533e-15,
          4.55702261e-41, 2.36942727e-38, 3.58732407e-43, 3.57331108e-43,
          0., 6.72623263e-44, 0., 3.15292154e-43, 0., 4.94418456e-38, 0.,
          4.97402212e-38, 0., 4.48415509e-44, 0., 4.48415509e-44, 0.,
          4.94355677e-38, 0., 3.83866861e-15, 4.55702261e-41,
          1.54142831e-44, 1.40129846e-45, 2.25609053e-43, 0.,
          4.94361955e-38, 0., 4.94448051e-38, 0., 4.94014882e-38, 0.,
          1.80767502e-43, 0. ]
      - [ 1., 0., 3.83845177e-15, 4.55702261e-41, 0., 0., 1.35925951e-43,
          0., 4.94885705e-38, 0., 4.94791537e-38, 0., 1.81740152e+31,
          1.58416155e-10, 4.62428493e-44, 0., 4.94793331e-38, 0.,
          3.83845177e-15, 4.55702261e-41, 8.96831017e-44, 0.,
          4.48415509e-44, 0., 4.94826514e-38, 0., 3.83845177e-15,
          4.55702261e-41, 1.02014528e-41, 0., 1.12103877e-43, 0.,
          4.93987080e-38, 0., 1.00147009e-11, 1.04703338e-11,
          7.03621104e+22, 1.63867541e+19, 1.71824653e+25, 1.67797265e+22,
          2.00333481e+02, 6.20121946e+28, 2.23454880e+02, 4.84146230e+30,
          6.97799210e+22, 6.41640630e-10, 6.77348844e-10, 1.30770662e+22,
          1.76423477e-41, 2.52233724e-44, 2.70450604e-43, 0.,
          4.80528337e-38, 0., 4.80278121e-38, 0., 4.94376305e-38, 0.,
          2.25609053e-43, 0., 4.94435495e-38, 0., 3.83845177e-15,
          4.55702261e-41, 4.94396035e-38, 0., 1.80767502e-43, 0.,
          4.94405003e-38, 0., 4.94454329e-38, 0., 1.16307773e-43,
          9.80908925e-45, 1.35925951e-43, 0., 4.94405003e-38, 0.,
          3.83845177e-15, 4.55702261e-41, 4.94362852e-38, 0.,
          4.62428493e-44, 0., 4.94454329e-38, 0., 3.83845177e-15,
          4.55702261e-41, 8.96831017e-44, 0., 4.48415509e-44, 0.,
          4.94422043e-38, 0., 3.83840095e-15, 4.55702261e-41,
          1.05826060e-41, 0., 8.96831017e-44, 0. ]
   decision_functions:
      -
         sv_count: 1
         rho: 5.2437558769757061e+18
         alpha: [ 1. ]
         index: [ 0 ]
      -
         sv_count: 1
         rho: 1.4980392156867310e+00
         alpha: [ 1. ]
         index: [ 1 ]
      -
         sv_count: 1
         rho: -2.0071600297798979e+20
         alpha: [ 1. ]
         index: [ 2 ]
      -
         sv_count: 1
         rho: -4.9972035661636099e-01
         alpha: [ 1. ]
         index: [ 3 ]
      -
         sv_count: 1
         rho: -4.7311362804042539e+13
         alpha: [ 1. ]
         index: [ 4 ]
      -
         sv_count: 1
         rho: -5.1991339194106481e+18
         alpha: [ 1. ]
         index: [ 5 ]
