%YAML:1.0
---
opencv_ml_svm:
   format: 3
   svmType: C_SVC
   kernel:
      type: CHI2
      gamma: 1.0000000000000001e-05
   C: 1.0000000000000001e-01
   term_criteria: { iterations:100000 }
   var_count: 100
   class_count: 4
   class_labels: !!opencv-matrix
      rows: 4
      cols: 1
      dt: i
      data: [ -2, -1, 1, 2 ]
   sv_total: 78
   support_vectors:
      - [ 2., 4.58490845e-41, -2.29667290e-04, 4.58490845e-41,
          3.42579280e+25, 3.09028350e-41, 3.42579280e+25, 3.09028350e-41,
          9.11180313e-41, 0., 0., 0., 0., 0., 0., 0., 0., 0., 0., 0., 0.,
          0., 0., 0., 0., 0., 0., 0., 0., 0., 0., 0., 0., 0., 0., 0., 0.,
          0., 0., 0., 6.01825485e-36, 3.76158192e-37, 0., 0., 0., 0., 0.,
          0., 2.35095269e-38, 1.83670992e-40, 0., 0., 0., 0., 0., 0.,
          2.35098814e-38, 1.40129846e-45, 0., 0., 3.42222520e+25,
          3.09028350e-41, 60152228., 1.63377142e+10, 2.35098856e-38,
          3.58732407e-43, 0., 0., 0., 0., 6.86636248e-44, 0.,
          3.42684058e+25, 3.09028350e-41, 1.06701872e-40, 0.,
          -2.29639350e-04, 4.58490845e-41, -2.29639350e-04,
          4.58490845e-41, 0., 0., 0., 0., 3.42232482e+25, 3.09028350e-41,
          0., 0., 1.10702579e-43, 0., 0., 0., 0., 0., 0., 0., 0., 0., 0.,
          0. ]
      - [ 0., 0., 1.40129846e-45, 0., 1.40129846e-45, 2.80259693e-45,
          1.06522505e-40, 0., 3.44343527e+25, 3.09028350e-41,
          -2.29639350e-04, 4.58490845e-41, 0., 0., 0., 0.,
          1.85120910e+28, 1.15789504e+27, 6.86636248e-44, 0.,
          3.42593669e+25, 3.09028350e-41, -2.29639350e-04,
          4.58490845e-41, 3.36989202e+25, 3.09028350e-41, 2.92871379e-43,
          0., 1.34524653e-43, 0., 1.34524653e-43, 0., 3.42587028e+25,
          3.09028350e-41, 0., 0., 1.10702579e-43, 0., 0., 0., 0., 0., 0.,
          0., 0., 0., 0., 0., 0., 0., 2.80259693e-45, 0., 1.40129846e-45,
          1.12103877e-44, 1.06253456e-40, 0., 3.44343527e+25,
          3.09028350e-41, -2.29639350e-04, 4.58490845e-41, 0., 0., 0.,
          0., 1.00717637e-11, 1.62054162e-10, 6.06762235e-43, 0.,
          3.42585921e+25, 3.09028350e-41, -2.29639350e-04,
          4.58490845e-41, 1.87279897e+31, 2.14445177e+20, 2.83173291e+32,
          5.91787808e-02, 1.00893489e-42, 0., 5.39499909e-43, 0.,
          3.42684058e+25, 3.09028350e-41, 3.42585921e+25, 3.09028350e-41,
          1.40129846e-45, 0., 0., 0., 2.52233724e-44, 4.48415509e-44, 0.,
          0., 0., 0., 0., 0., 0., 0., 0., 0. ]
      - [ 0., 0., 0., 0., 0., 0., 1.40129846e-45, 5.60519386e-45, 0., 0.,
          0., 0., 0., 0., 0., 0., 0., 0., 0., 0., 0., 0., 0., 0., 0., 0.,
          0., 0., 0., 0., 0., 0., 0., 0., 0., 0., 3.36311631e-43, 0.,
          6.72623263e-44, 0., 3.42602523e+25, 3.09028350e-41,
          2.80259693e-44, 0., 4.20389539e-44, 0., 0., 0., 4.03573958e-43,
          0., 6.72623263e-44, 0., 3.42585921e+25, 3.09028350e-41,
          1.60011151e+10, 4.36077518e+27, 4.54481789e+30, 3.08509870e-41,
          3.37910409e+25, 3.09028350e-41, 4.20389539e-45, 1.40129846e-45,
          6.86636248e-44, 0., 3.42625397e+25, 3.09028350e-41,
          3.42618019e+25, 3.09028350e-41, 1.83193728e+25, 3.63721029e-41,
          3.42612853e+25, 3.09028350e-41, 6.72623263e-43, 0.,
          1.34524653e-43, 0., 3.42591455e+25, 3.09028350e-41, 0., 0.,
          2.10194770e-44, 0., 0., 0., 0., 0., 0., 0., 0., 0., 0., 0., 0.,
          0., 1.40129846e-45, 0., 1.40129846e-45, 1.82168800e-44,
          1.05446308e-40, 0. ]
      - [ 0., 3.09028350e-41, -2.29639350e-04, 4.58490845e-41, 0., 0.,
          0., 0., 6.72623263e-44, 0., 1.34524653e-43, 0., 3.42604737e+25,
          3.09028350e-41, 0., 0., 1.10702579e-43, 0., 0., 0., 0., 0., 0.,
          0., 0., 0., 0., 0., 0., 0., 1.05266942e-40, 0.,
          -2.29667290e-04, 4.58490845e-41, -2.29667290e-04,
          4.58490845e-41, 3.42609902e+25, 3.09028350e-41, 3.42609902e+25,
          3.09028350e-41, 0., 0., 0., 0., 2.10194770e-44, 4.90454463e-44,
          6.86636248e-44, 0., 3.42614698e+25, 3.09028350e-41,
          -2.29639350e-04, 4.58490845e-41, 7.24431922e+22, 0., 0., 0.,
          1.34524653e-43, 0., 1.34524653e-43, 0., 3.42608057e+25,
          3.09028350e-41, 0., 0., 2.10194770e-44, 0., 0., 0., 0., 0., 0.,
          0., 0., 0., 0., 0., 0., 0., 4.20389539e-45, 0., 4.20389539e-45,
          1.82168800e-44, 1.04975472e-40, 0., 3.44343527e+25,
          3.09028350e-41, -2.29639350e-04, 4.58490845e-41, 0., 0., 0.,
          0., 6.72623263e-44, 0., 1.34524653e-43, 0., 3.42612484e+25,
          3.09028350e-41, 0., 0. ]
      - [ 0., 0., 0., 0., 0., 0., 0., 0., 0., 0., 0., 0., 0., 0.,
          5.60519386e-45, 0., 4.20389539e-45, 1.82168800e-44,
          1.04773685e-40, 0., 3.44343527e+25, 3.09028350e-41,
          -2.29639350e-04, 4.58490845e-41, 0., 0., 0., 0.,
          6.72623263e-44, 0., 1.12103877e-43, 0., 3.42119587e+25,
          3.09028350e-41, 0., 0., 1.40129846e-45, 0., 0., 0.,
          4.20389539e-45, 5.60519386e-45, 0., 0., 0., 0., 0., 0.,
          1.79366203e-43, 0., 1.34524653e-43, 0., 3.42615805e+25,
          3.09028350e-41, 0., 0., 2.10194770e-44, 0., 0., 0., 0., 0., 0.,
          0., 0., 0., 0., 0., 0., 0., 8.40779079e-45, 0., 4.20389539e-45,
          1.82168800e-44, 1.04459794e-40, 0., 3.44343527e+25,
          3.09028350e-41, -2.29639350e-04, 4.58490845e-41, 0., 0., 0.,
          0., 0., 0., 0., 0., 0., 0., 0., 0., 0., 0., 2.52233724e-44, 0.,
          4.20389539e-45, 1.82168800e-44, 1.04325269e-40, 0. ]
      - [ 0., 3.09028350e-41, -2.29639350e-04, 4.58490845e-41, 0., 0.,
          0., 0., 6.72623263e-44, 0., 1.34524653e-43, 0., 3.42623184e+25,
          3.09028350e-41, 0., 0., 1.10702579e-43, 0., 0., 0., 0., 0., 0.,
          0., 0., 0., 0., 0., 0., 0., 1.26116862e-44, 0., 1.40129846e-45,
          1.82168800e-44, 1.04123482e-40, 0., 3.44343527e+25,
          3.09028350e-41, -2.29639350e-04, 4.58490845e-41, 0., 0., 0.,
          0., 0., 0., 6.86636248e-44, 0., 3.42633145e+25, 3.09028350e-41,
          -2.29639350e-04, 4.58490845e-41, 6.72623263e-44, 0., 0., 0.,
          1.34524653e-43, 0., 1.34524653e-43, 0., 3.42626504e+25,
          3.09028350e-41, 0., 0., 1.10702579e-43, 0., 0., 0., 0., 0., 0.,
          0., 0., 0., 0., 0., 0., 0., 1.40129846e-44, 0., 1.40129846e-45,
          1.82168800e-44, 1.03854433e-40, 0., 3.44343527e+25,
          3.09028350e-41, -2.29639350e-04, 4.58490845e-41, 0., 0., 0.,
          0., 0., 0., 6.86636248e-44, 0., 3.42640892e+25, 3.09028350e-41,
          -2.29639350e-04, 4.58490845e-41 ]
      - [ 1., 0., 0., 3.60133705e-43, 1.34524653e-43, 0., 1.34524653e-43,
          0., 3.42667456e+25, 3.09028350e-41, 0., 0., 1.10702579e-43, 0.,
          0., 0., 0., 0., 0., 0., 0., 0., 0., 0., 0., 0., 2.24207754e-44,
          0., 1.40129846e-45, 7.00649232e-45, 6.86636248e-44, 0.,
          3.40966666e+25, 3.09028350e-41, 3.42664135e+25, 3.09028350e-41,
          1.84974173e+31, 3.08509870e-41, 3.42662291e+25, 3.09028350e-41,
          3.36311631e-43, 0., 1.34524653e-43, 0., 3.42630931e+25,
          3.09028350e-41, 0., 0., 2.10194770e-44, 0., 0., 0., 0., 0., 0.,
          0., 0., 0., 0., 0., 0., 0., 1.54142831e-44, 0., 1.40129846e-45,
          1.82168800e-44, 1.03383597e-40, 0., 3.44343527e+25,
          3.09028350e-41, -2.29639350e-04, 4.58490845e-41, 0., 0., 0.,
          0., 6.72623263e-44, 0., 1.34524653e-43, 0., 3.42638679e+25,
          3.09028350e-41, 0., 0., 2.10194770e-44, 0., 0., 0., 0., 0., 0.,
          0., 0., 0., 0., 0., 0., 0., 1.68155816e-44, 0. ]
      - [ 0., 1.82168800e-44, 1.03181810e-40, 0., 3.42633145e+25,
          3.09028350e-41, -2.29639350e-04, 4.58490845e-41, 0., 0., 0.,
          0., 6.72623263e-44, 0., 1.34524653e-43, 0., 3.42641999e+25,
          3.09028350e-41, 0., 0., 2.10194770e-44, 0., 0., 0., 0., 0., 0.,
          0., 0., 0., 0., 0., 0., 0., 1.82168800e-44, 0., 1.40129846e-45,
          1.82168800e-44, 1.02980023e-40, 0., 3.42633145e+25,
          3.09028350e-41, -2.29639350e-04, 4.58490845e-41, 0., 0., 0.,
          0., 6.72623263e-44, 0., 1.34524653e-43, 0., 3.42645320e+25,
          3.09028350e-41, 0., 0., 2.10194770e-44, 0., 0., 0., 0., 0., 0.,
          0., 0., 0., 0., 0., 0., 0., 1.96181785e-44, 0., 1.40129846e-45,
          1.82168800e-44, 1.02778236e-40, 0., 3.42633145e+25,
          3.09028350e-41, -2.29639350e-04, 4.58490845e-41, 0., 0., 0.,
          0., 6.72623263e-44, 0., 1.34524653e-43, 0., 3.42648640e+25,
          3.09028350e-41, 0., 0., 1.10702579e-43, 0., 0., 0., 0., 0., 0.,
          0. ]
      - [ 0., 0., 0., 0., 0., 0., 7.00649232e-45, 0., 1.40129846e-45,
          1.82168800e-44, 1.02576449e-40, 0., 3.42633145e+25,
          3.09028350e-41, -2.29639350e-04, 4.58490845e-41, 0., 0., 0.,
          0., 3.39721142e+25, 3.09028350e-41, 6.86636248e-44, 0.,
          3.42658601e+25, 3.09028350e-41, -2.29639350e-04,
          4.58490845e-41, 6.86636248e-44, 0., 0., 0., 1.34524653e-43, 0.,
          1.34524653e-43, 0., 3.42651961e+25, 3.09028350e-41, 0., 0.,
          4.34402524e-44, 0., 0., 0., 0., 0., 0., 0., 0., 0., 0., 0., 0.,
          0., 9.80908925e-45, 0., 1.40129846e-45, 1.54142831e-44,
          1.02307400e-40, 0., 3.42633145e+25, 3.09028350e-41,
          -2.29639350e-04, 4.58490845e-41, 0., 0., 0., 0.,
          3.39654365e+25, 3.09028350e-41, 1.35925951e-43, 0.,
          3.42664135e+25, 3.09028350e-41, -2.29639350e-04,
          4.58490845e-41, 4.20389539e-44, 0., 3.39703433e+25,
          3.09028350e-41, 6.72623263e-44, 0., 6.72623263e-44, 0.,
          3.42658601e+25, 3.09028350e-41, 2.71985190e+23, 1.49741503e+25,
          4.54420104e+30, 2.79445261e+20, 7.21330248e+22, 1.59748025e-43,
          2.01786979e-43, 0., 1.34524653e-43, 0., 3.42656388e+25,
          3.09028350e-41, 0., 0. ]
      - [ 1., 0., 0., 0., 0., 0., 0., 0., 0., 0., 0., 0., 0., 0.,
          1.12103877e-44, 0., 1.40129846e-45, 1.54142831e-44,
          1.01971088e-40, 0., 3.42633145e+25, 3.09028350e-41,
          -2.29639350e-04, 4.58490845e-41, 0., 0., 0., 0.,
          3.42550872e+25, 3.09028350e-41, 1.35925951e-43, 0.,
          3.42669669e+25, 3.09028350e-41, -2.29639350e-04,
          4.58490845e-41, 4.20389539e-44, 0., 3.38862999e+25,
          3.09028350e-41, 6.72623263e-44, 0., 6.72623263e-44, 0.,
          3.42664135e+25, 3.09028350e-41, 2.71985190e+23, 1.49741503e+25,
          4.54420104e+30, 2.79445261e+20, 7.21330248e+22, 1.59748025e-43,
          2.01786979e-43, 0., 1.34524653e-43, 0., 3.42661922e+25,
          3.09028350e-41, 0., 0., 1.33123354e-43, 0., 0., 0., 0., 0., 0.,
          0., 0., 0., 0., 0., 0., 0., 2.10194770e-44, 0., 1.40129846e-45,
          1.96181785e-44, 1.01634776e-40, 0., 3.44343527e+25,
          3.09028350e-41, 3.42633145e+25, 3.09028350e-41, 0., 0., 0., 0.,
          1.86267068e-09, 2.54938048e-09, 6.86636248e-44, 0.,
          3.42673359e+25, 3.09028350e-41, -2.29639350e-04,
          4.58490845e-41, 5.74532370e-44, 0., 1.12275069e+21,
          1.16315229e+33 ]
      - [ 0., 0., 0., 0., 0., 0., 0., 6.73756384e-10, 8.27245161e-10,
          4.48977808e+21, 8.53390765e-43, 0., 3.42669669e+25,
          3.09028350e-41, -2.29639350e-04, 4.58490845e-41,
          1.23919106e+01, 7.74156445e-39, 2.13000585e+11, 8.93207947e+02,
          6.72623263e-44, 0., 8.96831017e-44, 0., 3.42689592e+25,
          3.09028350e-41, 0., 0., 4.20389539e-45, 0., 0., 0., 0., 0.,
          1.40129846e-45, 5.13451248e-02, 1.74867156e+25, 4.29539469e+24,
          6.96445337e-43, 0., 3.42669669e+25, 3.09028350e-41,
          -2.29639350e-04, 4.58490845e-41, 1.26883154e+04,
          9.66895940e-44, 3.77804079e-41, 0., 6.72623263e-44, 0.,
          8.96831017e-44, 0., 3.42692174e+25, 3.09028350e-41, 0., 0.,
          4.20389539e-45, 0., 0., 0., 0., 0., 2.80259693e-45,
          7.35626700e+22, 3.74847339e-42, 0., 5.39499909e-43, 0.,
          3.42606950e+25, 3.09028350e-41, 3.42691068e+25, 3.09028350e-41,
          823480512., 1.09301280e-43, 0., 0., 0., 0., 4.72237582e-43, 0.,
          3.42707301e+25, 3.09028350e-41, 3.42637572e+25, 3.09028350e-41,
          1.40129846e-45, 0., 0., 0., 2.80259693e-45, 5.60519386e-45, 0.,
          0., 0., 0., 0., 0., 0., 0., 0., 0. ]
      - [ 0., 0., 0., 0., 0., 0., 0., 0., 0., 0., 0., 0., 0., 0., 0., 0.,
          0., 0., 0., 0., 0., 0., 0., 0., 0., 0., 0., 0., 0., 0., 0., 0.,
          0., 0., 0., 0., 3.36311631e-43, 0., 6.72623263e-44, 0.,
          3.42685165e+25, 3.09028350e-41, 1.82168800e-44, 0.,
          2.96420205e+29, 2.79445261e+20, 7.21330248e+22, 1.59748025e-43,
          0., 0., 6.86636248e-44, 0., 3.42766699e+25, 3.09028350e-41,
          3.42711728e+25, 3.09028350e-41, 3.42709883e+25, 3.09028350e-41,
          0., 0., 1.27798420e-42, 0., 1.34524653e-43, 0., 3.42681844e+25,
          3.09028350e-41, 0., 0., 1.10702579e-43, 0., 0., 0., 0., 0., 0.,
          0., 0., 0., 0., 0., 0., 0., 1.40129846e-45, 0., 1.40129846e-45,
          7.00649232e-45, 9.93478572e-41, 0., 3.44343527e+25,
          3.09028350e-41, -2.29639350e-04, 4.58490845e-41, 0., 0., 0.,
          0., 0., 0., 6.86636248e-44, 0. ]
      - [ 0., 3.09028350e-41, -2.29639350e-04, 4.58490845e-41,
          7.00649232e-44, 0., 0., 0., 1.34524653e-43, 0., 1.34524653e-43,
          0., 3.42705087e+25, 3.09028350e-41, 0., 0., 2.10194770e-44, 0.,
          0., 0., 0., 0., 0., 0., 0., 0., 0., 0., 0., 0., 2.80259693e-45,
          0., 4.20389539e-45, 1.82168800e-44, 9.90788079e-41, 0.,
          3.44343527e+25, 3.09028350e-41, -2.29639350e-04,
          4.58490845e-41, 0., 0., 0., 0., 0., 0., 4.72237582e-43, 0.,
          3.42766699e+25, 3.09028350e-41, 3.42703980e+25, 3.09028350e-41,
          1.40129846e-45, 0., 0., 0., 1.40129846e-44, 2.24207754e-44, 0.,
          0., 0., 0., 0., 0., 0., 0., 0., 0., 0., 0., 0., 0., 0., 0.,
          1.40129846e-45, 5.60519386e-45, 0., 0., 0., 0., 0., 0., 0., 0.,
          0., 0., 0., 0., 0., 0., 0., 0., 0., 0., 0., 0., 0., 0., 0., 0. ]
      - [ 0., 0., 0., 0., 3.36311631e-43, 0., 6.72623263e-44, 0.,
          3.42703980e+25, 3.09028350e-41, 1.82168800e-44, 0.,
          2.81750893e+20, 2.79445261e+20, 7.21330248e+22, 1.59748025e-43,
          0., 0., 6.86636248e-44, 0., 3.42742350e+25, 3.09028350e-41,
          3.42733864e+25, 3.09028350e-41, 1.08991178e+27, 1.41531145e-43,
          3.42727592e+25, 3.09028350e-41, 5.38098610e-43, 0.,
          1.34524653e-43, 0., 3.42709514e+25, 3.09028350e-41, 0., 0.,
          2.10194770e-44, 0., 0., 0., 0., 0., 0., 0., 0., 0., 0., 0., 0.,
          0., 1.40129846e-45, 0., 1.40129846e-45, 1.26116862e-44,
          9.84061847e-41, 0., 3.44343527e+25, 3.09028350e-41,
          -2.29639350e-04, 4.58490845e-41, 0., 0., 0., 0.,
          6.72623263e-44, 0., 1.34524653e-43, 0., 3.42720582e+25,
          3.09028350e-41, 0., 0., 2.10194770e-44, 0., 0., 0., 0., 0., 0.,
          0., 0., 0., 0., 0., 0., 0., 5.60519386e-45, 0., 1.40129846e-45,
          1.82168800e-44, 9.82043977e-41, 0., 3.44343527e+25,
          3.09028350e-41, -2.29639350e-04, 4.58490845e-41, 0., 0., 0.,
          0. ]
      - [ 1., 0., 1.34524653e-43, 0., 3.42723903e+25, 3.09028350e-41, 0.,
          0., 1.10702579e-43, 0., 0., 0., 0., 0., 0., 0., 0., 0., 0., 0.,
          0., 0., 9.80908925e-45, 0., 1.40129846e-45, 1.82168800e-44,
          9.80026107e-41, 0., 3.44343527e+25, 3.09028350e-41,
          -2.29639350e-04, 4.58490845e-41, 0., 0., 0., 0.,
          7.03621104e+22, 1.63867541e+19, 6.86636248e-44, 0.,
          3.42733864e+25, 3.09028350e-41, -2.29639350e-04,
          4.58490845e-41, 6.96551218e+22, 6.41640630e-10, 6.77348844e-10,
          1.30770662e+22, 1.34524653e-43, 0., 1.34524653e-43, 0.,
          3.42727223e+25, 3.09028350e-41, 0., 0., 1.33123354e-43, 0., 0.,
          0., 0., 0., 0., 0., 0., 0., 0., 0., 0., 0., 1.12103877e-44, 0.,
          1.40129846e-45, 1.96181785e-44, 9.77335614e-41, 0.,
          3.44343527e+25, 3.09028350e-41, -2.29639350e-04,
          4.58490845e-41, 0., 0., 0., 0., 1.49230646e-19, 7.58800860e+31,
          2.03188277e-43, 0., 3.42719476e+25, 3.09028350e-41,
          -2.29639350e-04, 4.58490845e-41, 4.20389539e-44, 0.,
          8.04004211e+02, 3.32110837e+12, 6.72623263e-44, 0.,
          6.72623263e-44, 0. ]
      - [ 0., 3.09028350e-41, 2.71985190e+23, 2.26181557e+20,
          2.40246563e+20, 7.00624003e+22, 5.51145379e-11, 4.66602978e-10,
          6.41636966e-10, 1.64430282e+19, 6.86636248e-44, 0.,
          3.42719476e+25, 3.09028350e-41, -2.29639350e-04,
          4.58490845e-41, 3.42833105e+03, 6.08564305e-39, 0., 0.,
          2.69049305e-43, 0., 1.12103877e-43, 0., 3.42619125e+25,
          3.09028350e-41, 0., 0., 1.40129846e-45, 0., 0., 0.,
          2.80259693e-45, 5.60519386e-45, 0., 0., 0., 0., 0., 0.,
          3.81153182e-43, 0., 1.34524653e-43, 0., 3.42731650e+25,
          3.09028350e-41, 0., 0., 1.10702579e-43, 0., 0., 0., 0., 0., 0.,
          0., 0., 0., 0., 0., 0., 0., 2.80259693e-45, 0., 1.40129846e-45,
          2.80259693e-45, 9.72178836e-41, 0., 3.44343527e+25,
          3.09028350e-41, -2.29639350e-04, 4.58490845e-41, 0., 0., 0.,
          0., 6.72623263e-44, 0., 1.34524653e-43, 0., 3.42740136e+25,
          3.09028350e-41, 0., 0., 2.10194770e-44, 0., 0., 0., 0., 0., 0.,
          0., 0., 0., 0., 0., 0., 0., 4.20389539e-45, 0. ]
      - [ 0., 1.26116862e-44, 9.70160966e-41, 0., 3.44343527e+25,
          3.09028350e-41, -2.29639350e-04, 4.58490845e-41, 0., 0., 0.,
          0., 6.72623263e-44, 0., 1.34524653e-43, 0., 3.42743456e+25,
          3.09028350e-41, 0., 0., 1.10702579e-43, 0., 0., 0., 0., 0., 0.,
          0., 0., 0., 0., 0., 0., 0., 7.00649232e-45, 0., 1.40129846e-45,
          1.82168800e-44, 9.68143096e-41, 0., 3.44343527e+25,
          3.09028350e-41, -2.29639350e-04, 4.58490845e-41, 0., 0., 0.,
          0., 0., 0., 6.86636248e-44, 0., 3.42753418e+25, 3.09028350e-41,
          -2.29639350e-04, 4.58490845e-41, 6.72623263e-44, 0., 0., 0.,
          1.34524653e-43, 0., 1.34524653e-43, 0., 3.42746777e+25,
          3.09028350e-41, 0., 0., 1.10702579e-43, 0., 0., 0., 0., 0., 0.,
          0., 0., 0., 0., 0., 0., 0., 8.40779079e-45, 0., 1.40129846e-45,
          1.12103877e-44, 9.65452603e-41, 0., 3.44343527e+25,
          3.09028350e-41, -2.29639350e-04, 4.58490845e-41, 0., 0., 0.,
          0., 0., 0., 2.70450604e-43, 0. ]
      - [ 0., 3.09028350e-41, -2.29639350e-04, 4.58490845e-41,
          1.87279897e+31, 1.41531145e-43, 0., 0., 0., 0., 2.03188277e-43,
          0., 3.42697340e+25, 3.09028350e-41, 3.42712835e+25,
          3.09028350e-41, 3.42724272e+25, 3.09028350e-41, 3.42727592e+25,
          3.09028350e-41, 3.42732019e+25, 3.09028350e-41, 3.42740505e+25,
          3.09028350e-41, 3.42743825e+25, 3.09028350e-41, 3.42747146e+25,
          3.09028350e-41, 3.42751573e+25, 3.09028350e-41, 3.42759321e+25,
          3.09028350e-41, 3.42764855e+25, 3.09028350e-41, 0., 0., 0., 0.,
          3.39016137e-41, 0., 0., 0., 0., 0., 3.36311631e-43, 0.,
          1.34524653e-43, 0., 3.42751204e+25, 3.09028350e-41, 0., 0.,
          1.10702579e-43, 0., 0., 0., 0., 0., 0., 0., 0., 0., 0., 0., 0.,
          0., 1.26116862e-44, 0., 1.40129846e-45, 1.12103877e-44,
          9.60744240e-41, 0., 3.44343527e+25, 3.09028350e-41,
          -2.29639350e-04, 4.58490845e-41, 0., 0., 0., 0.,
          6.72623263e-44, 0., 6.72623263e-44, 0., 3.42754524e+25,
          3.09028350e-41, 6.74221425e+22, 7.03684174e+28, 1.05092172e-38,
          0., 0., 0., 0., 0., 6.86636248e-44, 0., 3.42766699e+25,
          3.09028350e-41, -2.29639350e-04, 4.58490845e-41 ]
      - [ 1., 1.41531145e-43, 0., 0., 2.01786979e-43, 0., 1.34524653e-43,
          0., 3.42758952e+25, 3.09028350e-41, 0., 0., 1.10702579e-43, 0.,
          0., 0., 0., 0., 0., 0., 0., 0., 0., 0., 0., 0., 1.40129846e-44,
          0., 1.40129846e-45, 1.82168800e-44, 9.57381124e-41, 0.,
          3.44343527e+25, 3.09028350e-41, -2.29639350e-04,
          4.58490845e-41, 0., 0., 0., 0., 7.39686921e+31, 9.58654764e-39,
          6.86636248e-44, 0., 3.42777398e+25, 3.09028350e-41,
          -2.29639350e-04, 4.58490845e-41, 8.28003174e+02,
          1.30084545e+13, 2.39722611e+11, 1.73320869e+25, 1.34524653e-43,
          0., 6.72623263e-44, 0., 3.42771126e+25, 3.09028350e-41,
          3.42738660e+25, 3.09028350e-41, 2.05514966e+03, 1.41438361e+19,
          3.14095630e+03, 8.05489014e+02, 2.01786979e-43, 0.,
          6.72623263e-44, 0., 3.42718369e+25, 3.09028350e-41,
          2.80259693e-45, 0., 33622288., 1.13005194e+24, 4.23269263e+21,
          9.16428685e+11, 6.20908849e+22, 1.18345853e+33, 6.86636248e-44,
          0., 3.42722796e+25, 3.09028350e-41, 3.42776292e+25,
          3.09028350e-41, 3.42775185e+25, 3.09028350e-41, 5.15797250e-02,
          6.51883547e-10, 3.36311631e-43, 0., 8.96831017e-44, 0.,
          3.42671883e+25, 3.09028350e-41, 0., 0., 4.20389539e-45, 0., 0.,
          0. ]
      - [ 0., 0., 0., 1.42942587e+10, 2.11893338e+11, 827692992.,
          7.63707663e-43, 0., 3.42909477e+25, 3.09028350e-41,
          -2.29639350e-04, 4.58490845e-41, 3.42833105e+03,
          6.08564305e-39, 0., 0., 6.72623263e-44, 0., 8.96831017e-44, 0.,
          3.42772233e+25, 3.09028350e-41, 0., 0., 4.20389539e-45, 0., 0.,
          0., 0., 0., 1.40129846e-45, 0., 0., 0., 6.06762235e-43, 0.,
          3.42722796e+25, 3.09028350e-41, 3.42766699e+25, 3.09028350e-41,
          4.90754852e+01, 0., 0., 0., 0., 0., 5.39499909e-43, 0.,
          3.42788466e+25, 3.09028350e-41, 3.42761165e+25, 3.09028350e-41,
          1.40129846e-45, 0., 0., 0., 4.20389539e-45, 5.60519386e-45, 0.,
          0., 0., 0., 0., 0., 0., 0., 0., 0., 0., 0., 0., 0., 0., 0., 0.,
          0., 0., 0., 0., 0., 0., 0., 0., 0., 0., 0., 0., 0., 0., 0., 0.,
          0., 0., 0., 0., 0., 0., 0., 0., 0. ]
      - [ 1., 0., 0., 0., 3.36311631e-43, 0., 6.72623263e-44, 0.,
          3.42784039e+25, 3.09028350e-41, 4.20389539e-44, 0.,
          4.20389539e-44, 0., 3.52782720e+09, 1.22732668e+01,
          4.03573958e-43, 0., 6.72623263e-44, 0., 3.42767806e+25,
          3.09028350e-41, 2.68016282e+32, 7.15554247e+22, 7.22495768e+28,
          4.46280709e+30, 7.27084014e+31, 1.08798717e-19, 6.77185154e+22,
          5.20326395e+28, 6.86636248e-44, 0., 3.42809496e+25,
          3.09028350e-41, 3.42796214e+25, 3.09028350e-41, 3.42791049e+25,
          3.09028350e-41, 3.42794369e+25, 3.09028350e-41, 1.18830110e-42,
          0., 1.34524653e-43, 0., 3.42764486e+25, 3.09028350e-41, 0., 0.,
          1.10702579e-43, 0., 0., 0., 0., 0., 0., 0., 0., 0., 0., 0., 0.,
          0., 1.40129846e-45, 0., 1.40129846e-45, 2.80259693e-45,
          9.44152866e-41, 0., 3.44343527e+25, 3.09028350e-41,
          -2.29639350e-04, 4.58490845e-41, 0., 0., 0., 0., 0., 0.,
          6.86636248e-44, 0., 3.42792894e+25, 3.09028350e-41,
          -2.29639350e-04, 4.58490845e-41, 4.70017926e-39, 0., 0., 0.,
          1.34524653e-43, 0., 1.34524653e-43, 0., 3.42786253e+25,
          3.09028350e-41, 0., 0., 2.10194770e-44, 0., 0., 0. ]
      - [ 0., 0., 0., 0., 0., 0., 0., 0., 0., 0., 2.80259693e-45, 0.,
          1.40129846e-45, 7.00649232e-45, 9.41462373e-41, 0.,
          3.44343527e+25, 3.09028350e-41, -2.29639350e-04,
          4.58490845e-41, 0., 0., 0., 0., 6.72623263e-44, 0.,
          1.34524653e-43, 0., 3.42790680e+25, 3.09028350e-41, 0., 0.,
          1.10702579e-43, 0., 0., 0., 0., 0., 0., 0., 0., 0., 0., 0., 0.,
          0., 4.20389539e-45, 0., 1.40129846e-45, 2.80259693e-45,
          9.39444503e-41, 0., 3.44343527e+25, 3.09028350e-41,
          -2.29639350e-04, 4.58490845e-41, 0., 0., 0., 0., 0., 0.,
          6.06762235e-43, 0., 3.42785146e+25, 3.09028350e-41,
          -2.29639350e-04, 4.58490845e-41, 6.86636248e-44, 0., 0., 0.,
          0., 0., 5.39499909e-43, 0., 3.42809496e+25, 3.09028350e-41,
          3.42785146e+25, 3.09028350e-41, 1.40129846e-45, 0., 0., 0.,
          8.40779079e-45, 1.12103877e-44, 0., 0., 0., 0., 0., 0., 0., 0.,
          0., 0., 0., 0., 0., 0. ]
      - [ 0., 0., 0., 0., 0., 0., 0., 0., 0., 0., 0., 0., 0., 0., 0., 0.,
          0., 0., 0., 0., 0., 0., 0., 0., 0., 0., 0., 0., 0., 0., 0., 0.,
          3.36311631e-43, 0., 6.72623263e-44, 0., 3.42805068e+25,
          3.09028350e-41, 2.66246708e-44, 0., 4.20389539e-44, 0., 0., 0.,
          4.03573958e-43, 0., 6.72623263e-44, 0., 3.42785146e+25,
          3.09028350e-41, 2.40332149e+20, 7.00624003e+22, 1.05056411e-38,
          0., 0., 0., 0., 0., 6.86636248e-44, 0., 3.42829049e+25,
          3.09028350e-41, 3.42821671e+25, 3.09028350e-41, 7.00623823e+22,
          3.03036293e+35, 1.74064642e+25, 3.63833133e-41, 6.72623263e-43,
          0., 1.34524653e-43, 0., 3.42794000e+25, 3.09028350e-41, 0., 0.,
          2.10194770e-44, 0., 0., 0., 0., 0., 0., 0., 0., 0., 0., 0., 0.,
          0., 1.40129846e-45, 0., 1.40129846e-45, 1.26116862e-44,
          9.31373024e-41, 0., 3.44343527e+25, 3.09028350e-41,
          -2.29639350e-04, 4.58490845e-41 ]
      - [ 0., 0., 0., 0., 6.72623263e-44, 0., 6.72623263e-44, 0.,
          3.42803962e+25, 3.09028350e-41, 4.23254851e+21, 7.86747736e+34,
          0., 0., 0., 0., 1.34524653e-43, 0., 1.34524653e-43, 0.,
          3.42807282e+25, 3.09028350e-41, 0., 0., 2.10194770e-44, 0., 0.,
          0., 0., 0., 0., 0., 0., 0., 0., 0., 0., 0., 2.80259693e-45, 0.,
          1.40129846e-45, 1.26116862e-44, 9.28682531e-41, 0.,
          3.44343527e+25, 3.09028350e-41, -2.29639350e-04,
          4.58490845e-41, 0., 0., 0., 0., 6.72623263e-44, 0.,
          6.72623263e-44, 0., 3.42809496e+25, 3.09028350e-41,
          1.65319765e+19, 2.70883231e+23, 4.31950252e-41, 0., 0., 0.,
          1.34524653e-43, 0., 1.34524653e-43, 0., 3.42811709e+25,
          3.09028350e-41, 0., 0., 2.10194770e-44, 0., 0., 0., 0., 0., 0.,
          0., 0., 0., 0., 0., 0., 0., 4.20389539e-45, 0., 1.40129846e-45,
          1.26116862e-44, 9.25992038e-41, 0., 3.44343527e+25,
          3.09028350e-41, -2.29639350e-04, 4.58490845e-41, 0., 0., 0.,
          0. ]
      - [ 0., 0., 1.34524653e-43, 0., 3.42816137e+25, 3.09028350e-41, 0.,
          0., 2.10194770e-44, 0., 0., 0., 0., 0., 0., 0., 0., 0., 0., 0.,
          0., 0., 5.60519386e-45, 0., 1.40129846e-45, 1.26116862e-44,
          9.23974168e-41, 0., 3.44343527e+25, 3.09028350e-41,
          -2.29639350e-04, 4.58490845e-41, 0., 0., 0., 0.,
          6.72623263e-44, 0., 1.12103877e-43, 0., 3.42738291e+25,
          3.09028350e-41, 3.42807651e+25, 3.09028350e-41, 3.42812078e+25,
          3.09028350e-41, 3.42816505e+25, 3.09028350e-41, 3.42819826e+25,
          3.09028350e-41, 3.42824991e+25, 3.09028350e-41, 3.42827205e+25,
          3.09028350e-41, 0., 0., 1.79366203e-43, 0., 1.34524653e-43, 0.,
          3.42819457e+25, 3.09028350e-41, 0., 0., 2.10194770e-44, 0., 0.,
          0., 0., 0., 0., 0., 0., 0., 0., 0., 0., 0., 7.00649232e-45, 0.,
          1.40129846e-45, 1.26116862e-44, 9.20835260e-41, 0.,
          3.44343527e+25, 3.09028350e-41, -2.29639350e-04,
          4.58490845e-41, 0., 0., 0., 0., 0., 0., 0., 0., 0., 0., 0., 0. ]
      - [ 1., 0., 8.40779079e-45, 0., 1.40129846e-45, 1.82168800e-44,
          9.19490013e-41, 0., 3.44343527e+25, 3.09028350e-41,
          -2.29639350e-04, 4.58490845e-41, 0., 0., 0., 0., 0., 0.,
          5.39499909e-43, 0., 3.42841224e+25, 3.09028350e-41,
          -2.29639350e-04, 4.58490845e-41, 1.40129846e-45, 0., 0., 0.,
          2.80259693e-45, 5.60519386e-45, 0., 0., 0., 0., 0., 0., 0., 0.,
          0., 0., 0., 0., 0., 0., 0., 0., 0., 0., 0., 0., 0., 0., 0., 0.,
          0., 0., 0., 0., 0., 0., 0., 0., 0., 0., 0., 0., 0., 0., 0., 0.,
          0., 0., 0., 0., 0., 0., 3.36311631e-43, 0., 6.72623263e-44, 0.,
          3.42836797e+25, 3.09028350e-41, 2.24207754e-44, 0.,
          4.20389539e-44, 0., 0., 0., 4.03573958e-43, 0., 6.72623263e-44,
          0., 3.42829049e+25, 3.09028350e-41, 4.36077518e+27,
          4.54481789e+30, 0., 0., 0., 0. ]
      - [ 2., 0., 6.86636248e-44, 0., 3.42858933e+25, 3.09028350e-41,
          3.42845651e+25, 3.09028350e-41, 3.42843807e+25, 3.09028350e-41,
          0., 0., 6.05360937e-43, 0., 1.34524653e-43, 0., 3.42826836e+25,
          3.09028350e-41, 0., 0., 1.10702579e-43, 0., 0., 0., 0., 0., 0.,
          0., 0., 0., 0., 0., 0., 0., 1.40129846e-45, 0., 1.40129846e-45,
          2.80259693e-45, 9.12091157e-41, 0., 3.44343527e+25,
          3.09028350e-41, -2.29639350e-04, 4.58490845e-41, 0., 0., 0.,
          0., 0., 0., 6.86636248e-44, 0., 3.42845651e+25, 3.09028350e-41,
          -2.29639350e-04, 4.58490845e-41, 4.88385025e-39, 0., 0., 0.,
          1.34524653e-43, 0., 1.34524653e-43, 0., 3.42839011e+25,
          3.09028350e-41, 0., 0., 1.10702579e-43, 0., 0., 0., 0., 0., 0.,
          0., 0., 0., 0., 0., 0., 0., 2.80259693e-45, 0., 1.40129846e-45,
          1.12103877e-44, 9.09400664e-41, 0., 3.44343527e+25,
          3.09028350e-41, -2.29639350e-04, 4.58490845e-41, 0., 0., 0.,
          0., 0., 0., 6.06762235e-43, 0. ]
      - [ 0., 3.09028350e-41, -2.29639350e-04, 4.58490845e-41,
          7.24431922e+22, 0., 0., 0., 0., 0., 5.39499909e-43, 0.,
          3.42858933e+25, 3.09028350e-41, 3.42837904e+25, 3.09028350e-41,
          1.40129846e-45, 0., 0., 0., 8.40779079e-45, 1.12103877e-44, 0.,
          0., 0., 0., 0., 0., 0., 0., 0., 0., 0., 0., 0., 0., 0., 0., 0.,
          0., 0., 0., 0., 0., 0., 0., 0., 0., 0., 0., 0., 0., 0., 0., 0.,
          0., 0., 0., 0., 0., 0., 0., 0., 0., 0., 0., 0., 0.,
          3.36311631e-43, 0., 6.72623263e-44, 0., 3.42854506e+25,
          3.09028350e-41, 2.52233724e-44, 0., 4.20389539e-44, 0., 0., 0.,
          4.03573958e-43, 0., 6.72623263e-44, 0., 3.42837904e+25,
          3.09028350e-41, 4.46280316e+30, 7.27084014e+31, 4.10370255e-41,
          0., 0., 0., 0., 0., 6.86636248e-44, 0., 3.42880700e+25,
          3.09028350e-41, 3.42873321e+25, 3.09028350e-41 ]
      - [ 0., 4.17586942e-41, 3.42868156e+25, 3.09028350e-41,
          6.72623263e-43, 0., 1.34524653e-43, 0., 3.42843438e+25,
          3.09028350e-41, 0., 0., 4.34402524e-44, 0., 0., 0., 0., 0., 0.,
          0., 0., 0., 0., 0., 0., 0., 1.40129846e-45, 0., 4.20389539e-45,
          1.54142831e-44, 9.01329185e-41, 0., 3.44343527e+25,
          3.09028350e-41, -2.29639350e-04, 4.58490845e-41, 0., 0., 0.,
          0., 0., 0., 1.35925951e-43, 0., 3.42864467e+25, 3.09028350e-41,
          -2.29639350e-04, 4.58490845e-41, 4.20389539e-44, 0., 0., 0.,
          6.72623263e-44, 0., 6.72623263e-44, 0., 3.42858933e+25,
          3.09028350e-41, 2.71985190e+23, 1.49741503e+25, 4.54420104e+30,
          2.79445261e+20, 7.21330248e+22, 1.59748025e-43, 2.01786979e-43,
          0., 1.34524653e-43, 0., 3.42856719e+25, 3.09028350e-41, 0., 0.,
          4.34402524e-44, 0., 0., 0., 0., 0., 0., 0., 0., 0., 0., 0., 0.,
          0., 8.40779079e-45, 0., 4.20389539e-45, 1.54142831e-44,
          8.97966069e-41, 0., 3.44343527e+25, 3.09028350e-41,
          -2.29639350e-04, 4.58490845e-41, 0., 0., 0., 0. ]
      - [ 1., 0., 1.35925951e-43, 0., 3.42870001e+25, 3.09028350e-41,
          -2.29639350e-04, 4.58490845e-41, 4.20389539e-44, 0., 0., 0.,
          6.72623263e-44, 0., 6.72623263e-44, 0., 3.42864467e+25,
          3.09028350e-41, 2.71985190e+23, 9.39002804e+26, 3.99294043e+24,
          9.31569907e-39, 0., 0., 2.01786979e-43, 0., 1.34524653e-43, 0.,
          3.42862253e+25, 3.09028350e-41, 0., 0., 2.10194770e-44, 0., 0.,
          0., 0., 0., 0., 0., 0., 0., 0., 0., 0., 0., 2.80259693e-45, 0.,
          4.20389539e-45, 1.82168800e-44, 8.94602953e-41, 0.,
          3.44343527e+25, 3.09028350e-41, -2.29639350e-04,
          4.58490845e-41, 0., 0., 0., 0., 6.72623263e-44, 0.,
          1.34524653e-43, 0., 3.42867787e+25, 3.09028350e-41, 0., 0.,
          2.10194770e-44, 0., 0., 0., 0., 0., 0., 0., 0., 0., 0., 0., 0.,
          0., 4.20389539e-45, 0., 4.20389539e-45, 1.82168800e-44,
          8.92585083e-41, 0., 3.44343527e+25, 3.09028350e-41,
          -2.29639350e-04, 4.58490845e-41, 0., 0., 0., 0.,
          6.72623263e-44, 0., 1.12103877e-43, 0. ]
      - [ 0., 3.09028350e-41, 3.42857088e+25, 3.09028350e-41,
          3.42862622e+25, 3.09028350e-41, 3.42868156e+25, 3.09028350e-41,
          3.42871477e+25, 3.09028350e-41, 3.42876642e+25, 3.09028350e-41,
          3.42878855e+25, 3.09028350e-41, 2.67493864e-41, 0.,
          1.79366203e-43, 0., 1.34524653e-43, 0., 3.42871108e+25,
          3.09028350e-41, 0., 0., 2.10194770e-44, 0., 0., 0., 0., 0., 0.,
          0., 0., 0., 0., 0., 0., 0., 5.60519386e-45, 0., 4.20389539e-45,
          1.82168800e-44, 8.89446174e-41, 0., 3.44343527e+25,
          3.09028350e-41, -2.29639350e-04, 4.58490845e-41, 0., 0., 0.,
          0., 0., 0., 0., 0., 0., 0., 0., 0., 0., 0., 7.00649232e-45, 0.,
          4.20389539e-45, 1.82168800e-44, 8.88100928e-41, 0.,
          3.44343527e+25, 3.09028350e-41, -2.29639350e-04,
          4.58490845e-41, 0., 0., 0., 0., 0., 0., 5.39499909e-43, 0.,
          3.42909477e+25, 3.09028350e-41, -2.29639350e-04,
          4.58490845e-41, 1.40129846e-45, 0., 0., 0., 4.20389539e-45,
          5.60519386e-45, 0., 0., 0., 0., 0., 0., 0., 0., 0., 0. ]
      - [ 1., 0., 0., 0., 0., 0., 1.40129846e-45, 5.60519386e-45, 0., 0.,
          0., 0., 0., 0., 0., 0., 0., 0., 0., 0., 0., 0., 0., 0., 0., 0.,
          0., 0., 0., 0., 0., 0., 0., 0., 0., 0., 3.36311631e-43, 0.,
          6.72623263e-44, 0., 3.42888448e+25, 3.09028350e-41,
          2.24207754e-44, 0., 4.20389539e-44, 0., 0., 0., 4.03573958e-43,
          0., 6.72623263e-44, 0., 3.42880700e+25, 3.09028350e-41,
          4.36077518e+27, 4.54481789e+30, 0., 0., 0., 0., 0., 0.,
          6.86636248e-44, 0., 3.42930506e+25, 3.09028350e-41,
          3.42899885e+25, 3.09028350e-41, 3.42898040e+25, 3.09028350e-41,
          3.42901360e+25, 3.09028350e-41, 6.05360937e-43, 0.,
          1.34524653e-43, 0., 3.42878487e+25, 3.09028350e-41, 0., 0.,
          1.33123354e-43, 0., 0., 0., 0., 0., 0., 0., 0., 0., 0., 0., 0.,
          0., 1.40129846e-45, 0., 1.40129846e-45, 1.96181785e-44,
          8.80702072e-41, 0. ]
      - [ 0., 3.09028350e-41, -2.29639350e-04, 4.58490845e-41, 0., 0.,
          0., 0., 0., 0., 6.86636248e-44, 0., 3.42896564e+25,
          3.09028350e-41, -2.29639350e-04, 4.58490845e-41,
          5.60519386e-44, 0., 0., 0., 1.34524653e-43, 0., 8.96831017e-44,
          0., 3.42916856e+25, 3.09028350e-41, 2.71985190e+23,
          9.53509914e+26, 1.84971308e+31, 4.46280437e+30, 7.27084014e+31,
          2.79114966e+03, 1.86971540e+25, 2.56744166e+29, 0., 0., 0., 0.,
          6.86636248e-44, 0., 3.42899885e+25, 3.09028350e-41,
          3.42903205e+25, 3.09028350e-41, 7.10194177e-39, 0., 0., 0.,
          2.91470081e-43, 0., 1.34524653e-43, 0., 3.42890661e+25,
          3.09028350e-41, 0., 0., 2.10194770e-44, 0., 0., 0., 0., 0., 0.,
          0., 0., 0., 0., 0., 0., 0., 2.80259693e-45, 0., 4.20389539e-45,
          2.80259693e-45, 8.76442125e-41, 0., 3.44343527e+25,
          3.09028350e-41, -2.29639350e-04, 4.58490845e-41, 0., 0., 0.,
          0., 6.72623263e-44, 0., 1.34524653e-43, 0., 3.42897671e+25,
          3.09028350e-41, 0., 0., 1.10702579e-43, 0., 0., 0., 0., 0., 0.,
          0. ]
      - [ 0., 0., 0., 0., 0., 0., 4.20389539e-45, 0., 1.40129846e-45,
          1.12103877e-44, 8.74424255e-41, 0., 3.44343527e+25,
          3.09028350e-41, -2.29639350e-04, 4.58490845e-41, 0., 0., 0.,
          0., 6.72623263e-44, 0., 6.72623263e-44, 0., 3.42899885e+25,
          3.09028350e-41, 1.64605005e+19, 1.66350439e+22, 0., 0., 0., 0.,
          0., 0., 6.86636248e-44, 0., 3.42889555e+25, 3.09028350e-41,
          -2.29639350e-04, 4.58490845e-41, 7.24431922e+22, 0., 0., 0.,
          2.01786979e-43, 0., 6.72623263e-44, 0., 3.42910584e+25,
          3.09028350e-41, 3.42908001e+25, 3.09028350e-41, 0., 0., 0., 0.,
          2.69049305e-43, 0., 1.12103877e-43, 0., 3.42874428e+25,
          3.09028350e-41, 0., 0., 1.40129846e-45, 0., 0., 0.,
          4.20389539e-45, 5.60519386e-45, 0., 0., 0., 0., 0., 0., 0., 0.,
          1.14486085e-42, 0., 3.42892875e+25, 3.09028350e-41,
          3.42766699e+25, 3.09028350e-41, 4.95748594e+33, 3.84954598e+09,
          1.56945428e-43, 0., 0., 0., 6.86636248e-44, 0., 3.42903205e+25,
          3.09028350e-41, 3.42918332e+25, 3.09028350e-41, 3.42914642e+25,
          3.09028350e-41, 3.42917225e+25, 3.09028350e-41 ]
      - [ 0., 0., 8.96831017e-44, 0., 3.42774816e+25, 3.09028350e-41, 0.,
          0., 4.20389539e-45, 0., 0., 0., 0., 0., 0., 0., 0., 0.,
          9.20653091e-43, 0., 3.42892875e+25, 3.09028350e-41,
          -2.29639350e-04, 4.58490845e-41, 8.29286133e+02, 0., 0., 0.,
          6.72623263e-44, 0., 8.96831017e-44, 0., 3.42911691e+25,
          3.09028350e-41, 0., 0., 4.20389539e-45, 0., 0., 0., 0., 0.,
          1.40129846e-45, 0., 0., 0., 7.63707663e-43, 0., 3.42892875e+25,
          3.09028350e-41, -2.29639350e-04, 4.58490845e-41,
          7.10194177e-39, 0., 0., 0., 6.72623263e-44, 0., 8.96831017e-44,
          0., 3.42914273e+25, 3.09028350e-41, 0., 0., 4.20389539e-45, 0.,
          0., 0., 0., 0., 2.80259693e-45, 0., 0., 0., 6.06762235e-43, 0.,
          3.42903205e+25, 3.09028350e-41, 3.42913166e+25, 3.09028350e-41,
          8.10494917e-39, 0., 0., 0., 0., 0., 5.39499909e-43, 0.,
          3.44148360e+25, 3.09028350e-41, 3.43849154e+25, 3.09028350e-41,
          1.40129846e-45, 0., 0., 0., 6.02558340e-44, 8.96831017e-44, 0.,
          0. ]
      - [ 0., 0., 0., 0., 0., 0., 0., 0., 0., 0., 0., 0., 0., 0.,
          2.80259693e-45, 5.60519386e-45, 0., 0., 0., 0., 0., 0., 0., 0.,
          0., 0., 0., 0., 0., 0., 0., 0., 0., 0., 0., 0., 0., 0., 0., 0.,
          0., 0., 0., 0., 3.36311631e-43, 0., 6.72623263e-44, 0.,
          3.42926079e+25, 3.09028350e-41, 2.24207754e-44, 0.,
          4.20389539e-44, 0., 3.40967035e+25, 3.09028350e-41,
          4.03573958e-43, 0., 6.72623263e-44, 0., 3.43842513e+25,
          3.09028350e-41, 4.36077518e+27, 4.54481789e+30, 3.43026798e+25,
          3.09028350e-41, 3.43040080e+25, 3.09028350e-41, 3.43065905e+25,
          3.09028350e-41, 6.86636248e-44, 0., 3.43923310e+25,
          3.09028350e-41, 3.43915931e+25, 3.09028350e-41, 1.09997883e+27,
          9.31142230e-39, 3.43910766e+25, 3.09028350e-41, 1.52461273e-42,
          0., 1.34524653e-43, 0., 3.43853581e+25, 3.09028350e-41, 0., 0.,
          2.10194770e-44, 0., 0., 0., 0., 0., 0., 0., 0., 0., 0., 0. ]
      - [ 1., 0., 2.80259693e-45, 0., 4.20389539e-45, 1.26116862e-44,
          2.03188277e-43, 0., 3.42936040e+25, 3.09028350e-41,
          3.42899885e+25, 3.09028350e-41, 7.74645719e+31, 3.92573765e-41,
          3.43769095e+25, 3.09028350e-41, 6.72623263e-44, 0.,
          6.72623263e-44, 0., 3.42889555e+25, 3.09028350e-41,
          1.68155816e-44, 0., 1.43141816e+10, 4.36077518e+27,
          4.54481789e+30, 0., 0., 0., 6.86636248e-44, 0., 3.42948215e+25,
          3.09028350e-41, 3.42936040e+25, 3.09028350e-41, 0., 0., 0., 0.,
          1.86092436e-42, 0., 1.34524653e-43, 0., 3.42900992e+25,
          3.09028350e-41, 0., 0., 1.10702579e-43, 0., 0., 0., 0., 0., 0.,
          0., 0., 0., 0., 0., 0., 0., 1.40129846e-45, 0., 1.40129846e-45,
          2.80259693e-45, 8.54469765e-41, 0., 3.44343527e+25,
          3.09028350e-41, -2.29639350e-04, 4.58490845e-41, 0., 0., 0.,
          0., 0., 0., 5.39499909e-43, 0., 3.42932720e+25, 3.09028350e-41,
          -2.29639350e-04, 4.58490845e-41, 6.86636248e-44, 0., 0., 0.,
          0., 0., 4.72237582e-43, 0., 3.42948215e+25, 3.09028350e-41,
          3.42932720e+25, 3.09028350e-41, 1.40129846e-45, 0., 0., 0. ]
      - [ 0., 1.12103877e-44, 0., 0., 0., 0., 0., 0., 0., 0., 0., 0., 0.,
          0., 0., 0., 0., 0., 0., 0., 0., 0., 0., 0., 0., 0., 0., 0., 0.,
          0., 0., 0., 0., 0., 0., 0., 0., 0., 0., 0., 0., 0., 0., 0., 0.,
          0., 0., 0., 3.36311631e-43, 0., 6.72623263e-44, 0.,
          3.42932720e+25, 3.09028350e-41, 1.96181785e-44, 0.,
          6.68294058e+22, 4.46280406e+30, 7.27084014e+31, 4.10370255e-41,
          0., 0., 6.86636248e-44, 0., 3.42966662e+25, 3.09028350e-41,
          3.42959283e+25, 3.09028350e-41, 1.78589510e+31, 1.12865260e+27,
          1.05056299e-38, 3.09028350e-41, 6.05360937e-43, 0.,
          1.34524653e-43, 0., 3.42933827e+25, 3.09028350e-41, 0., 0.,
          2.10194770e-44, 0., 0., 0., 0., 0., 0., 0., 0., 0., 0., 0., 0.,
          0., 1.40129846e-45, 0., 1.40129846e-45, 1.82168800e-44,
          8.47070909e-41, 0. ]
      - [ 2., 3.09028350e-41, -2.29639350e-04, 4.58490845e-41, 0., 0.,
          0., 0., 6.72623263e-44, 0., 1.34524653e-43, 0., 3.42946002e+25,
          3.09028350e-41, 0., 0., 2.10194770e-44, 0., 0., 0., 0., 0., 0.,
          0., 0., 0., 0., 0., 0., 0., 2.80259693e-45, 0., 1.40129846e-45,
          1.82168800e-44, 8.45053039e-41, 0., 3.42903205e+25,
          3.09028350e-41, -2.29639350e-04, 4.58490845e-41, 0., 0., 0.,
          0., 6.72623263e-44, 0., 1.34524653e-43, 0., 3.42949322e+25,
          3.09028350e-41, 0., 0., 1.10702579e-43, 0., 0., 0., 0., 0., 0.,
          0., 0., 0., 0., 0., 0., 0., 4.20389539e-45, 0., 1.40129846e-45,
          1.12103877e-44, 8.43035169e-41, 0., 3.42903205e+25,
          3.09028350e-41, -2.29639350e-04, 4.58490845e-41, 0., 0., 0.,
          0., 0., 0., 6.86636248e-44, 0., 3.42959283e+25, 3.09028350e-41,
          -2.29639350e-04, 4.58490845e-41, 7.24431922e+22, 0., 0., 0.,
          1.34524653e-43, 0., 1.34524653e-43, 0., 3.42952642e+25,
          3.09028350e-41, 0., 0. ]
      - [ 0., 0., 0., 0., 0., 0., 0., 0., 0., 0., 0., 0., 0., 0.,
          5.60519386e-45, 0., 1.40129846e-45, 1.54142831e-44,
          8.40344676e-41, 0., 3.42903205e+25, 3.09028350e-41,
          -2.29639350e-04, 4.58490845e-41, 0., 0., 0., 0., 0., 0.,
          1.35925951e-43, 0., 3.42944895e+25, 3.09028350e-41,
          -2.29639350e-04, 4.58490845e-41, 4.20389539e-44, 0., 0., 0.,
          6.72623263e-44, 0., 6.72623263e-44, 0., 3.42959283e+25,
          3.09028350e-41, 2.71985190e+23, 1.49741503e+25, 4.54420104e+30,
          2.79445261e+20, 7.21330248e+22, 1.59748025e-43, 2.01786979e-43,
          0., 1.12103877e-43, 0., 3.42907632e+25, 3.09028350e-41,
          3.42946371e+25, 3.09028350e-41, 3.42949691e+25, 3.09028350e-41,
          3.42953011e+25, 3.09028350e-41, 3.42957439e+25, 3.09028350e-41,
          3.42964817e+25, 3.09028350e-41, 0., 0., 0., 0., 3.13890856e-43,
          0., 1.34524653e-43, 0., 3.42957070e+25, 3.09028350e-41, 0., 0.,
          4.34402524e-44, 0., 0., 0., 0., 0., 0., 0., 0., 0., 0., 0., 0.,
          0., 7.00649232e-45, 0., 1.40129846e-45, 1.54142831e-44,
          8.35860521e-41, 0. ]
      - [ 0., 3.09028350e-41, -2.29639350e-04, 4.58490845e-41, 0., 0.,
          0., 0., 6.72623263e-44, 0., 6.72623263e-44, 0., 3.42944895e+25,
          3.09028350e-41, 2.71985190e+23, 1.49741503e+25, 4.54420104e+30,
          2.79445261e+20, 7.21330248e+22, 1.59748025e-43, 0., 0.,
          4.72237582e-43, 0., 3.42978837e+25, 3.09028350e-41,
          -2.29639350e-04, 4.58490845e-41, 1.40129846e-45, 0., 0., 0.,
          4.20389539e-45, 5.60519386e-45, 0., 0., 0., 0., 0., 0., 0., 0.,
          0., 0., 0., 0., 0., 0., 0., 0., 0., 0., 0., 0., 0., 0., 0., 0.,
          0., 0., 0., 0., 0., 0., 0., 0., 0., 0., 0., 0., 0., 0., 0., 0.,
          0., 0., 0., 0., 0., 0., 3.36311631e-43, 0., 6.72623263e-44, 0.,
          3.42966662e+25, 3.09028350e-41, 1.68155816e-44, 0.,
          1.61376553e+10, 4.36077518e+27, 4.54481789e+30, 0., 0., 0.,
          6.86636248e-44, 0., 3.43000973e+25, 3.09028350e-41,
          3.42987691e+25, 3.09028350e-41 ]
      - [ 1., 3.09028350e-41, 3.42985847e+25, 3.09028350e-41,
          6.05360937e-43, 0., 1.34524653e-43, 0., 3.42964448e+25,
          3.09028350e-41, 0., 0., 1.10702579e-43, 0., 0., 0., 0., 0., 0.,
          0., 0., 0., 0., 0., 0., 0., 1.40129846e-45, 0., 1.40129846e-45,
          2.80259693e-45, 8.28461665e-41, 0., 3.42903205e+25,
          3.09028350e-41, -2.29639350e-04, 4.58490845e-41, 0., 0., 0.,
          0., 0., 0., 6.86636248e-44, 0., 3.42983264e+25, 3.09028350e-41,
          -2.29639350e-04, 4.58490845e-41, 1.76409464e-41, 0., 0., 0.,
          1.34524653e-43, 0., 1.34524653e-43, 0., 3.42976623e+25,
          3.09028350e-41, 0., 0., 1.10702579e-43, 0., 0., 0., 0., 0., 0.,
          0., 0., 0., 0., 0., 0., 0., 2.80259693e-45, 0., 1.40129846e-45,
          2.80259693e-45, 8.25771172e-41, 0., 3.42903205e+25,
          3.09028350e-41, -2.29639350e-04, 4.58490845e-41, 0., 0., 0.,
          0., 0., 0., 6.86636248e-44, 0., 3.42987691e+25, 3.09028350e-41,
          -2.29639350e-04, 4.58490845e-41, 6.86636248e-44, 0., 0., 0. ]
      - [ 1., 0., 1.34524653e-43, 0., 3.42981050e+25, 3.09028350e-41, 0.,
          0., 1.10702579e-43, 0., 0., 0., 0., 0., 0., 0., 0., 0., 0., 0.,
          0., 0., 4.20389539e-45, 0., 1.40129846e-45, 2.80259693e-45,
          8.23080679e-41, 0., 3.42903205e+25, 3.09028350e-41,
          -2.29639350e-04, 4.58490845e-41, 0., 0., 0., 0., 0., 0.,
          6.06762235e-43, 0., 3.42975516e+25, 3.09028350e-41,
          -2.29639350e-04, 4.58490845e-41, 6.72623263e-44, 0., 0., 0.,
          0., 0., 5.39499909e-43, 0., 3.43000973e+25, 3.09028350e-41,
          3.42975516e+25, 3.09028350e-41, 1.40129846e-45, 0., 0., 0.,
          2.80259693e-45, 5.60519386e-45, 0., 0., 0., 0., 0., 0., 0., 0.,
          0., 0., 0., 0., 0., 0., 0., 0., 0., 0., 0., 0., 0., 0., 0., 0.,
          0., 0., 0., 0., 0., 0., 0., 0., 0., 0., 0., 0., 0., 0. ]
      - [ 1., 0., 0., 0., 0., 0., 0., 0., 3.36311631e-43, 0.,
          6.72623263e-44, 0., 3.42996546e+25, 3.09028350e-41,
          2.24207754e-44, 0., 4.20389539e-44, 0., 0., 0., 4.03573958e-43,
          0., 6.72623263e-44, 0., 3.42975516e+25, 3.09028350e-41,
          4.36077518e+27, 4.54481789e+30, 0., 0., 0., 0., 0., 0.,
          6.86636248e-44, 0., 3.43018682e+25, 3.09028350e-41,
          3.43005400e+25, 3.09028350e-41, 3.43003555e+25, 3.09028350e-41,
          0., 0., 6.72623263e-43, 0., 1.34524653e-43, 0., 3.42985478e+25,
          3.09028350e-41, 0., 0., 1.10702579e-43, 0., 0., 0., 0., 0., 0.,
          0., 0., 0., 0., 0., 0., 0., 1.40129846e-45, 0., 1.40129846e-45,
          7.00649232e-45, 8.15009200e-41, 0., 3.42903205e+25,
          3.09028350e-41, -2.29639350e-04, 4.58490845e-41, 0., 0., 0.,
          0., 0., 0., 6.86636248e-44, 0., 3.43005400e+25, 3.09028350e-41,
          -2.29639350e-04, 4.58490845e-41, 6.86636248e-44, 0., 0., 0.,
          1.34524653e-43, 0., 1.34524653e-43, 0., 3.42998759e+25,
          3.09028350e-41, 0., 0. ]
      - [ 0., 0., 0., 0., 0., 0., 0., 0., 0., 0., 0., 0., 0., 0.,
          2.80259693e-45, 0., 1.40129846e-45, 7.00649232e-45,
          8.12318707e-41, 0., 3.42903205e+25, 3.09028350e-41,
          -2.29639350e-04, 4.58490845e-41, 0., 0., 0., 0., 0., 0.,
          6.06762235e-43, 0., 3.42997653e+25, 3.09028350e-41,
          -2.29639350e-04, 4.58490845e-41, 1.76409464e-41, 0., 0., 0.,
          0., 0., 5.39499909e-43, 0., 3.43018682e+25, 3.09028350e-41,
          3.42997653e+25, 3.09028350e-41, 1.40129846e-45, 0., 0., 0.,
          4.20389539e-45, 5.60519386e-45, 0., 0., 0., 0., 0., 0., 0., 0.,
          0., 0., 0., 0., 0., 0., 0., 0., 0., 0., 0., 0., 0., 0., 0., 0.,
          0., 0., 0., 0., 0., 0., 0., 0., 0., 0., 0., 0., 0., 0., 0., 0.,
          0., 0., 0., 0., 0., 0. ]
      - [ 0., 0., 6.72623263e-44, 0., 3.43014255e+25, 3.09028350e-41,
          2.38220739e-44, 0., 4.20389539e-44, 0., 0., 0., 4.03573958e-43,
          0., 6.72623263e-44, 0., 3.42997653e+25, 3.09028350e-41,
          2.79445261e+20, 7.21330248e+22, 1.59748025e-43, 0., 0., 0., 0.,
          0., 6.86636248e-44, 0., 3.43038604e+25, 3.09028350e-41,
          3.43025323e+25, 3.09028350e-41, 3.43020158e+25, 3.09028350e-41,
          3.43023478e+25, 3.09028350e-41, 6.72623263e-43, 0.,
          1.34524653e-43, 0., 3.43003187e+25, 3.09028350e-41, 0., 0.,
          2.10194770e-44, 0., 0., 0., 0., 0., 0., 0., 0., 0., 0., 0., 0.,
          0., 1.40129846e-45, 0., 1.40129846e-45, 1.26116862e-44,
          8.04247228e-41, 0., 3.42903205e+25, 3.09028350e-41,
          -2.29639350e-04, 4.58490845e-41, 0., 0., 0., 0.,
          6.72623263e-44, 0., 1.34524653e-43, 0., 3.43016468e+25,
          3.09028350e-41, 0., 0., 2.10194770e-44, 0., 0., 0., 0., 0., 0.,
          0., 0., 0., 0., 0., 0., 0., 2.80259693e-45, 0., 1.40129846e-45,
          1.82168800e-44, 8.02229358e-41, 0. ]
      - [ 0., 3.09028350e-41, -2.29639350e-04, 4.58490845e-41, 0., 0.,
          0., 0., 6.72623263e-44, 0., 1.34524653e-43, 0., 3.43019789e+25,
          3.09028350e-41, 0., 0., 1.10702579e-43, 0., 0., 0., 0., 0., 0.,
          0., 0., 0., 0., 0., 0., 0., 4.20389539e-45, 0., 1.40129846e-45,
          1.12103877e-44, 8.00211488e-41, 0., 3.42903205e+25,
          3.09028350e-41, -2.29639350e-04, 4.58490845e-41, 0., 0., 0.,
          0., 0., 0., 6.06762235e-43, 0., 3.43015361e+25, 3.09028350e-41,
          -2.29639350e-04, 4.58490845e-41, 1.87279897e+31,
          1.41531145e-43, 0., 0., 0., 0., 5.39499909e-43, 0.,
          3.43038604e+25, 3.09028350e-41, 3.43015361e+25, 3.09028350e-41,
          1.40129846e-45, 0., 0., 0., 1.40129846e-45, 5.60519386e-45, 0.,
          0., 0., 0., 0., 0., 0., 0., 0., 0., 0., 0., 0., 0., 0., 0., 0.,
          0., 0., 0., 0., 0., 0., 0., 0., 0., 0., 0., 0., 0. ]
      - [ 1., 0., 0., 0., 0., 0., 0., 0., 0., 0., 0., 0., 0., 0., 0., 0.,
          3.36311631e-43, 0., 6.72623263e-44, 0., 3.43034177e+25,
          3.09028350e-41, 2.66246708e-44, 0., 4.20389539e-44, 0., 0., 0.,
          4.03573958e-43, 0., 6.72623263e-44, 0., 3.43015361e+25,
          3.09028350e-41, 2.40332149e+20, 7.00624003e+22, 1.05056411e-38,
          0., 0., 0., 0., 0., 6.86636248e-44, 0., 3.43058158e+25,
          3.09028350e-41, 3.43038604e+25, 3.09028350e-41, 0., 0., 0., 0.,
          6.72623263e-43, 0., 1.34524653e-43, 0., 3.43023109e+25,
          3.09028350e-41, 0., 0., 2.10194770e-44, 0., 0., 0., 0., 0., 0.,
          0., 0., 0., 0., 0., 0., 0., 1.40129846e-45, 0., 1.40129846e-45,
          1.26116862e-44, 7.92140009e-41, 0., 3.42903205e+25,
          3.09028350e-41, -2.29639350e-04, 4.58490845e-41, 0., 0., 0.,
          0., 0., 0., 5.39499909e-43, 0., 3.43058158e+25, 3.09028350e-41,
          3.43035284e+25, 3.09028350e-41, 1.40129846e-45, 0., 0., 0. ]
      - [ 0., 5.60519386e-45, 0., 0., 0., 0., 0., 0., 0., 0., 0., 0., 0.,
          0., 0., 0., 0., 0., 1.40129846e-45, 5.60519386e-45, 0., 0., 0.,
          0., 0., 0., 0., 0., 0., 0., 0., 0., 0., 0., 0., 0., 0., 0., 0.,
          0., 0., 0., 0., 0., 0., 0., 0., 0., 3.36311631e-43, 0.,
          6.72623263e-44, 0., 3.43046352e+25, 3.09028350e-41,
          2.52233724e-44, 0., 4.20389539e-44, 0., 0., 0., 4.03573958e-43,
          0., 6.72623263e-44, 0., 3.43035284e+25, 3.09028350e-41,
          4.46280860e+30, 7.27084014e+31, 4.10370255e-41, 0., 0., 0., 0.,
          0., 6.86636248e-44, 0., 3.43076605e+25, 3.09028350e-41,
          3.43050779e+25, 3.09028350e-41, 0., 0., 0., 0., 6.05360937e-43,
          0., 1.34524653e-43, 0., 3.43036391e+25, 3.09028350e-41, 0., 0.,
          1.33123354e-43, 0., 0., 0., 0., 0., 0., 0. ]
      - [ 0., 0., 0., 0., 0., 0., 1.40129846e-45, 0., 1.40129846e-45,
          1.96181785e-44, 7.84741153e-41, 0., 3.42903205e+25,
          3.09028350e-41, -2.29639350e-04, 4.58490845e-41, 0., 0., 0.,
          0., 0., 0., 2.03188277e-43, 0., 3.43047459e+25, 3.09028350e-41,
          -2.29639350e-04, 4.58490845e-41, 5.18480432e-44, 0., 0., 0.,
          6.72623263e-44, 0., 6.72623263e-44, 0., 3.43050779e+25,
          3.09028350e-41, 2.71985190e+23, 1.51252660e+25, 60136888.,
          1.63377142e+10, 4.36077518e+27, 4.54481789e+30, 4.73993157e+30,
          1.52741533e-43, 6.86636248e-44, 0., 3.43047459e+25,
          3.09028350e-41, -2.29639350e-04, 4.58490845e-41,
          1.76843866e-41, 0., 0., 0., 2.69049305e-43, 0., 6.72623263e-44,
          0., 3.43059265e+25, 3.09028350e-41, 3.43056682e+25,
          3.09028350e-41, 0., 0., 0., 0., 3.36311631e-43, 0.,
          1.12103877e-43, 0., 3.42962604e+25, 3.09028350e-41, 0., 0.,
          1.40129846e-45, 0., 0., 0., 2.80259693e-45, 5.60519386e-45, 0.,
          0., 0., 0., 0., 0., 0., 0., 9.87915417e-43, 0., 3.43342607e+25,
          3.09028350e-41, 3.42892875e+25, 3.09028350e-41, 4.68937072e+27,
          0., 0., 0. ]
      - [ 1., 0., 6.86636248e-44, 0., 3.43050779e+25, 3.09028350e-41,
          3.43064430e+25, 3.09028350e-41, 3.43063323e+25, 3.09028350e-41,
          0., 0., 1.34524653e-43, 0., 8.96831017e-44, 0., 3.42895089e+25,
          3.09028350e-41, 0., 0., 4.20389539e-45, 0., 0., 0., 0., 0.,
          1.40129846e-45, 0., 0., 0., 7.63707663e-43, 0., 3.43253693e+25,
          3.09028350e-41, -2.29639350e-04, 4.58490845e-41,
          1.76843866e-41, 0., 0., 0., 6.72623263e-44, 0., 8.96831017e-44,
          0., 3.43060371e+25, 3.09028350e-41, 0., 0., 4.20389539e-45, 0.,
          0., 0., 0., 0., 2.80259693e-45, 0., 0., 0., 6.06762235e-43, 0.,
          3.43050779e+25, 3.09028350e-41, 3.43058158e+25, 3.09028350e-41,
          1.80431190e-41, 0., 0., 0., 0., 0., 5.39499909e-43, 0.,
          3.43076605e+25, 3.09028350e-41, 3.43047459e+25, 3.09028350e-41,
          1.40129846e-45, 0., 0., 0., 1.68155816e-44, 2.24207754e-44, 0.,
          0., 0., 0., 0., 0., 0., 0., 0., 0., 0., 0., 0., 0., 0., 0., 0.,
          0. ]
      - [ 0., 0., 0., 0., 0., 0., 0., 0., 0., 0., 0., 0., 0., 0., 0., 0.,
          0., 0., 0., 0., 0., 0., 0., 0., 0., 0., 0., 0., 3.36311631e-43,
          0., 6.72623263e-44, 0., 3.43072177e+25, 3.09028350e-41,
          2.52233724e-44, 0., 4.20389539e-44, 0., 0., 0., 4.03573958e-43,
          0., 6.72623263e-44, 0., 3.43047459e+25, 3.09028350e-41,
          4.46280316e+30, 7.27084014e+31, 4.10370255e-41, 0., 0., 0., 0.,
          0., 6.86636248e-44, 0., 3.43095051e+25, 3.09028350e-41,
          3.43088779e+25, 3.09028350e-41, 1.78267756e+19, 1.10218201e+24,
          9.70576362e+24, 3.09028350e-41, 1.43492963e-42, 0.,
          1.34524653e-43, 0., 3.43048566e+25, 3.09028350e-41, 0., 0.,
          2.10194770e-44, 0., 0., 0., 0., 0., 0., 0., 0., 0., 0., 0., 0.,
          0., 1.40129846e-45, 0., 1.40129846e-45, 1.26116862e-44,
          7.69046610e-41, 0., 3.42903205e+25, 3.09028350e-41,
          -2.29639350e-04, 4.58490845e-41, 0., 0., 0., 0. ]
      - [ 0., 0., 1.34524653e-43, 0., 3.43074391e+25, 3.09028350e-41, 0.,
          0., 1.10702579e-43, 0., 0., 0., 0., 0., 0., 0., 0., 0., 0., 0.,
          0., 0., 5.60519386e-45, 0., 1.40129846e-45, 1.82168800e-44,
          7.67028740e-41, 0., 3.42903205e+25, 3.09028350e-41,
          -2.29639350e-04, 4.58490845e-41, 0., 0., 0., 0., 0., 0.,
          6.86636248e-44, 0., 3.43084352e+25, 3.09028350e-41,
          -2.29639350e-04, 4.58490845e-41, 6.86636248e-44, 0., 0., 0.,
          1.34524653e-43, 0., 1.34524653e-43, 0., 3.43077711e+25,
          3.09028350e-41, 0., 0., 1.10702579e-43, 0., 0., 0., 0., 0., 0.,
          0., 0., 0., 0., 0., 0., 0., 9.80908925e-45, 0., 1.40129846e-45,
          1.82168800e-44, 7.64338247e-41, 0., 3.42903205e+25,
          3.09028350e-41, -2.29639350e-04, 4.58490845e-41, 0., 0., 0.,
          0., 0., 0., 6.86636248e-44, 0., 3.43088779e+25, 3.09028350e-41,
          -2.29639350e-04, 4.58490845e-41, 6.72623263e-44, 0., 0., 0.,
          1.34524653e-43, 0., 1.34524653e-43, 0. ]
      - [ 1., 3.09028350e-41, 0., 0., 1.10702579e-43, 0., 0., 0., 0., 0.,
          0., 0., 0., 0., 0., 0., 0., 0., 1.12103877e-44, 0.,
          1.40129846e-45, 1.12103877e-44, 7.61647754e-41, 0.,
          3.42903205e+25, 3.09028350e-41, -2.29639350e-04,
          4.58490845e-41, 0., 0., 0., 0., 0., 0., 6.86636248e-44, 0.,
          3.43073284e+25, 3.09028350e-41, -2.29639350e-04,
          4.58490845e-41, 1.87279897e+31, 1.41531145e-43, 0., 0.,
          1.34524653e-43, 0., 1.12103877e-43, 0., 3.43056313e+25,
          3.09028350e-41, 3.43150760e+25, 3.09028350e-41, 3.43154081e+25,
          3.09028350e-41, 3.43158508e+25, 3.09028350e-41, 3.43164042e+25,
          3.09028350e-41, 3.43169576e+25, 3.09028350e-41, 3.43172897e+25,
          3.09028350e-41, 3.43100954e+25, 3.09028350e-41, 2.46628530e-43,
          0., 1.34524653e-43, 0., 3.43086566e+25, 3.09028350e-41, 0., 0.,
          1.10702579e-43, 0., 0., 0., 0., 0., 0., 0., 0., 0., 0., 0., 0.,
          0., 1.26116862e-44, 0., 1.40129846e-45, 1.82168800e-44,
          7.57836222e-41, 0., 3.42903205e+25, 3.09028350e-41,
          -2.29639350e-04, 4.58490845e-41, 0., 0., 0., 0. ]
      - [ 0., 0., 1.34524653e-43, 0., 3.43092838e+25, 3.09028350e-41, 0.,
          0., 1.10702579e-43, 0., 0., 0., 0., 0., 0., 0., 0., 0., 0., 0.,
          0., 0., 1.40129846e-44, 0., 1.40129846e-45, 1.82168800e-44,
          7.55818353e-41, 0., 3.42903205e+25, 3.09028350e-41,
          -2.29639350e-04, 4.58490845e-41, 0., 0., 0., 0., 0., 0.,
          6.86636248e-44, 0., 3.43102799e+25, 3.09028350e-41,
          -2.29639350e-04, 4.58490845e-41, 6.72623263e-44, 0., 0., 0.,
          1.34524653e-43, 0., 1.34524653e-43, 0., 3.43096158e+25,
          3.09028350e-41, 0., 0., 1.10702579e-43, 0., 0., 0., 0., 0., 0.,
          0., 0., 0., 0., 0., 0., 0., 1.54142831e-44, 0., 1.40129846e-45,
          1.12103877e-44, 7.53127860e-41, 0., 3.42903205e+25,
          3.09028350e-41, -2.29639350e-04, 4.58490845e-41, 0., 0., 0.,
          0., 0., 0., 6.86636248e-44, 0., 3.43107226e+25, 3.09028350e-41,
          -2.29639350e-04, 4.58490845e-41, 7.24431922e+22, 0., 0., 0.,
          1.34524653e-43, 0., 1.34524653e-43, 0. ]
      - [ 0., 3.09028350e-41, 0., 0., 1.10702579e-43, 0., 0., 0., 0., 0.,
          0., 0., 0., 0., 0., 0., 0., 0., 2.80259693e-45, 0.,
          1.40129846e-45, 2.80259693e-45, 7.50437367e-41, 0.,
          3.42903205e+25, 3.09028350e-41, -2.29639350e-04,
          4.58490845e-41, 0., 0., 0., 0., 0., 0., 2.70450604e-43, 0.,
          3.43114974e+25, 3.09028350e-41, -2.29639350e-04,
          4.58490845e-41, 6.86636248e-44, 0., 0., 0., 0., 0.,
          2.03188277e-43, 0., 3.43039711e+25, 3.09028350e-41,
          3.43065537e+25, 3.09028350e-41, 3.43078080e+25, 3.09028350e-41,
          3.43082508e+25, 3.09028350e-41, 3.43086935e+25, 3.09028350e-41,
          3.43093207e+25, 3.09028350e-41, 3.43096527e+25, 3.09028350e-41,
          3.43100954e+25, 3.09028350e-41, 3.43105381e+25, 3.09028350e-41,
          3.43113129e+25, 3.09028350e-41, 3.43116450e+25, 3.09028350e-41,
          3.43120877e+25, 3.09028350e-41, 3.43125304e+25, 3.09028350e-41,
          0., 0., 0., 0., 0., 0., 3.36311631e-43, 0., 1.34524653e-43, 0.,
          3.43105013e+25, 3.09028350e-41, 0., 0., 2.10194770e-44, 0., 0.,
          0., 0., 0., 0., 0., 0., 0., 0., 0. ]
      - [ 1., 0., 4.20389539e-45, 0., 1.40129846e-45, 1.26116862e-44,
          7.45729004e-41, 0., 3.42903205e+25, 3.09028350e-41,
          -2.29639350e-04, 4.58490845e-41, 0., 0., 0., 0.,
          6.72623263e-44, 0., 1.34524653e-43, 0., 3.43112760e+25,
          3.09028350e-41, 0., 0., 1.10702579e-43, 0., 0., 0., 0., 0., 0.,
          0., 0., 0., 0., 0., 0., 0., 7.00649232e-45, 0., 1.40129846e-45,
          1.82168800e-44, 7.43711134e-41, 0., 3.42903205e+25,
          3.09028350e-41, -2.29639350e-04, 4.58490845e-41, 0., 0., 0.,
          0., 0., 0., 6.86636248e-44, 0., 3.43122721e+25, 3.09028350e-41,
          -2.29639350e-04, 4.58490845e-41, 6.72623263e-44, 0., 0., 0.,
          1.34524653e-43, 0., 1.34524653e-43, 0., 3.43116081e+25,
          3.09028350e-41, 0., 0., 1.10702579e-43, 0., 0., 0., 0., 0., 0.,
          0., 0., 0., 0., 0., 0., 0., 8.40779079e-45, 0., 1.40129846e-45,
          1.12103877e-44, 7.41020641e-41, 0., 3.42903205e+25,
          3.09028350e-41, -2.29639350e-04, 4.58490845e-41, 0., 0., 0.,
          0. ]
      - [ 0., 0., 6.86636248e-44, 0., 3.43127149e+25, 3.09028350e-41,
          -2.29639350e-04, 4.58490845e-41, 1.87279897e+31,
          1.41531145e-43, 0., 0., 1.34524653e-43, 0., 1.34524653e-43, 0.,
          3.43120508e+25, 3.09028350e-41, 0., 0., 1.10702579e-43, 0., 0.,
          0., 0., 0., 0., 0., 0., 0., 0., 0., 0., 0., 1.68155816e-44, 0.,
          1.40129846e-45, 1.26116862e-44, 7.38330148e-41, 0.,
          3.42903205e+25, 3.09028350e-41, -2.29639350e-04,
          4.58490845e-41, 0., 0., 0., 0., 0., 0., 6.06762235e-43, 0.,
          3.43140430e+25, 3.09028350e-41, -2.29639350e-04,
          4.58490845e-41, 0., 0., 0., 0., 0., 0., 5.39499909e-43, 0.,
          3.43140430e+25, 3.09028350e-41, -2.29639350e-04,
          4.58490845e-41, 1.40129846e-45, 0., 0., 0., 1.40129846e-45,
          5.60519386e-45, 0., 0., 0., 0., 0., 0., 0., 0., 0., 0., 0., 0.,
          0., 0., 0., 0., 0., 0., 0., 0., 0., 0., 0., 0., 0., 0. ]
      - [ 0., 0., 0., 0., 0., 0., 0., 0., 0., 0., 0., 0., 0., 0., 0., 0.,
          0., 0., 0., 0., 3.36311631e-43, 0., 6.72623263e-44, 0.,
          3.43136003e+25, 3.09028350e-41, 2.94272678e-44, 0.,
          4.20389539e-44, 0., 0., 0., 4.03573958e-43, 0., 6.72623263e-44,
          0., 3.43128255e+25, 3.09028350e-41, 1.92868882e+31,
          2.79445261e+20, 7.21330248e+22, 1.59748025e-43, 0., 0., 0., 0.,
          6.86636248e-44, 0., 3.43152605e+25, 3.09028350e-41,
          3.43140430e+25, 3.09028350e-41, 0., 0., 0., 0., 6.72623263e-43,
          0., 1.34524653e-43, 0., 3.43124935e+25, 3.09028350e-41, 0., 0.,
          2.10194770e-44, 0., 0., 0., 0., 0., 0., 0., 0., 0., 0., 0., 0.,
          0., 1.40129846e-45, 0., 1.40129846e-45, 1.26116862e-44,
          7.30258669e-41, 0., 3.42903205e+25, 3.09028350e-41,
          -2.29639350e-04, 4.58490845e-41, 0., 0., 0., 0., 0., 0.,
          5.39499909e-43, 0., 3.43152605e+25, 3.09028350e-41,
          3.43137110e+25, 3.09028350e-41 ]
      - [ 1., 0., 0., 0., 8.40779079e-45, 1.12103877e-44, 0., 0., 0., 0.,
          0., 0., 0., 0., 0., 0., 0., 0., 0., 0., 0., 0., 0., 0., 0., 0.,
          0., 0., 0., 0., 0., 0., 0., 0., 0., 0., 0., 0., 0., 0., 0., 0.,
          0., 0., 0., 0., 0., 0., 0., 0., 0., 0., 3.36311631e-43, 0.,
          6.72623263e-44, 0., 3.43148178e+25, 3.09028350e-41,
          2.94272678e-44, 0., 4.20389539e-44, 0., 0., 0., 4.03573958e-43,
          0., 6.72623263e-44, 0., 3.43137110e+25, 3.09028350e-41,
          7.20844941e+31, 2.79445261e+20, 7.21330248e+22, 1.59748025e-43,
          0., 0., 0., 0., 6.86636248e-44, 0., 3.43171421e+25,
          3.09028350e-41, 3.43165887e+25, 3.09028350e-41, 1.84974173e+31,
          3.08509870e-41, 3.43158508e+25, 3.09028350e-41, 6.05360937e-43,
          0., 1.34524653e-43, 0., 3.43138217e+25, 3.09028350e-41, 0., 0.,
          2.10194770e-44, 0., 0., 0. ]
      - [ 1., 0., 0., 0., 0., 0., 0., 0., 0., 0., 1.40129846e-45, 0.,
          1.40129846e-45, 1.82168800e-44, 7.22859813e-41, 0.,
          3.42903205e+25, 3.09028350e-41, -2.29639350e-04,
          4.58490845e-41, 0., 0., 0., 0., 6.72623263e-44, 0.,
          1.34524653e-43, 0., 3.43150392e+25, 3.09028350e-41, 0., 0.,
          1.10702579e-43, 0., 0., 0., 0., 0., 0., 0., 0., 0., 0., 0., 0.,
          0., 2.80259693e-45, 0., 1.40129846e-45, 1.12103877e-44,
          7.20841943e-41, 0., 3.42903205e+25, 3.09028350e-41,
          -2.29639350e-04, 4.58490845e-41, 0., 0., 0., 0., 0., 0.,
          6.86636248e-44, 0., 3.43160353e+25, 3.09028350e-41,
          -2.29639350e-04, 4.58490845e-41, 7.24431922e+22, 0., 0., 0.,
          1.34524653e-43, 0., 1.34524653e-43, 0., 3.43153712e+25,
          3.09028350e-41, 0., 0., 4.34402524e-44, 0., 0., 0., 0., 0., 0.,
          0., 0., 0., 0., 0., 0., 0., 4.20389539e-45, 0., 1.40129846e-45,
          1.54142831e-44, 7.18151450e-41, 0. ]
      - [ 0., 3.09028350e-41, -2.29639350e-04, 4.58490845e-41, 0., 0.,
          0., 0., 0., 0., 1.35925951e-43, 0., 3.43165887e+25,
          3.09028350e-41, -2.29639350e-04, 4.58490845e-41,
          4.20389539e-44, 0., 0., 0., 6.72623263e-44, 0., 6.72623263e-44,
          0., 3.43160353e+25, 3.09028350e-41, 2.71985190e+23,
          1.49741503e+25, 4.54420104e+30, 2.79445261e+20, 7.21330248e+22,
          1.59748025e-43, 2.01786979e-43, 0., 1.34524653e-43, 0.,
          3.43158139e+25, 3.09028350e-41, 0., 0., 4.34402524e-44, 0., 0.,
          0., 0., 0., 0., 0., 0., 0., 0., 0., 0., 0., 5.60519386e-45, 0.,
          1.40129846e-45, 1.54142831e-44, 7.14788334e-41, 0.,
          3.42903205e+25, 3.09028350e-41, -2.29639350e-04,
          4.58490845e-41, 0., 0., 0., 0., 0., 0., 1.35925951e-43, 0.,
          3.43149285e+25, 3.09028350e-41, -2.29639350e-04,
          4.58490845e-41, 4.20389539e-44, 0., 0., 0., 6.72623263e-44, 0.,
          6.72623263e-44, 0., 3.43165887e+25, 3.09028350e-41,
          2.71985190e+23, 1.49741503e+25, 4.54420104e+30, 2.79445261e+20,
          7.21330248e+22, 1.59748025e-43, 2.01786979e-43, 0.,
          1.34524653e-43, 0., 3.43163673e+25, 3.09028350e-41, 0., 0. ]
      - [ 0., 0., 0., 0., 0., 0., 0., 0., 0., 0., 0., 0., 0., 0.,
          7.00649232e-45, 0., 1.40129846e-45, 7.00649232e-45,
          7.11425217e-41, 0., 3.42903205e+25, 3.09028350e-41,
          -2.29639350e-04, 4.58490845e-41, 0., 0., 0., 0.,
          6.72623263e-44, 0., 1.34524653e-43, 0., 3.43169207e+25,
          3.09028350e-41, 0., 0., 1.10702579e-43, 0., 0., 0., 0., 0., 0.,
          0., 0., 0., 0., 0., 0., 0., 8.40779079e-45, 0., 1.40129846e-45,
          1.12103877e-44, 7.09407348e-41, 0., 3.42903205e+25,
          3.09028350e-41, -2.29639350e-04, 4.58490845e-41, 0., 0., 0.,
          0., 0., 0., 5.39499909e-43, 0., 3.43186916e+25, 3.09028350e-41,
          -2.29639350e-04, 4.58490845e-41, 1.87279897e+31,
          1.41531145e-43, 0., 0., 0., 0., 4.72237582e-43, 0.,
          3.43186916e+25, 3.09028350e-41, -2.29639350e-04,
          4.58490845e-41, 1.40129846e-45, 0., 0., 0., 1.40129846e-45,
          5.60519386e-45, 0., 0., 0., 0., 0., 0., 0., 0., 0., 0. ]
      - [ 0., 0., 0., 0., 0., 0., 0., 0., 0., 0., 0., 0., 0., 0., 0., 0.,
          0., 0., 0., 0., 0., 0., 0., 0., 0., 0., 0., 0., 0., 0., 0., 0.,
          0., 0., 0., 0., 3.36311631e-43, 0., 6.72623263e-44, 0.,
          3.43175848e+25, 3.09028350e-41, 1.96181785e-44, 0.,
          3.04782250e+32, 4.46280890e+30, 7.27084014e+31, 4.10370255e-41,
          0., 0., 6.86636248e-44, 0., 3.43200198e+25, 3.09028350e-41,
          3.43186916e+25, 3.09028350e-41, 0., 0., 0., 0., 6.05360937e-43,
          0., 1.34524653e-43, 0., 3.43172528e+25, 3.09028350e-41, 0., 0.,
          4.34402524e-44, 0., 0., 0., 0., 0., 0., 0., 0., 0., 0., 0., 0.,
          0., 1.40129846e-45, 0., 4.20389539e-45, 1.54142831e-44,
          7.02008492e-41, 0., 3.42903205e+25, 3.09028350e-41,
          -2.29639350e-04, 4.58490845e-41, 0., 0., 0., 0., 0., 0.,
          6.06762235e-43, 0. ]
      - [ 0., 3.09028350e-41, -2.29639350e-04, 4.58490845e-41,
          4.20389539e-44, 0., 0., 0., 6.72623263e-44, 0., 6.72623263e-44,
          0., 3.43186916e+25, 3.09028350e-41, 2.71985190e+23,
          9.39002804e+26, 3.99294043e+24, 9.31569907e-39, 0., 0., 0., 0.,
          4.72237582e-43, 0., 3.43200198e+25, 3.09028350e-41,
          3.43183596e+25, 3.09028350e-41, 1.40129846e-45, 0., 0., 0.,
          4.20389539e-45, 5.60519386e-45, 0., 0., 0., 0., 0., 0., 0., 0.,
          0., 0., 0., 0., 0., 0., 0., 0., 0., 0., 0., 0., 0., 0., 0., 0.,
          0., 0., 0., 0., 0., 0., 0., 0., 0., 0., 0., 0., 0., 0., 0., 0.,
          0., 0., 0., 0., 0., 0., 3.36311631e-43, 0., 6.72623263e-44, 0.,
          3.43183596e+25, 3.09028350e-41, 1.68155816e-44, 0.,
          1.55313234e+10, 4.36077518e+27, 4.54481789e+30, 0., 0., 0.,
          6.86636248e-44, 0., 3.43253693e+25, 3.09028350e-41,
          3.43209052e+25, 3.09028350e-41 ]
      - [ 0., 3.09028350e-41, 3.43207208e+25, 3.09028350e-41,
          6.72623263e-43, 0., 1.34524653e-43, 0., 3.43184702e+25,
          3.09028350e-41, 0., 0., 1.10702579e-43, 0., 0., 0., 0., 0., 0.,
          0., 0., 0., 0., 0., 0., 0., 1.40129846e-45, 0., 1.40129846e-45,
          2.80259693e-45, 6.93937013e-41, 0., 3.42903205e+25,
          3.09028350e-41, -2.29639350e-04, 4.58490845e-41, 0., 0., 0.,
          0., 0., 0., 6.86636248e-44, 0., 3.43204625e+25, 3.09028350e-41,
          -2.29639350e-04, 4.58490845e-41, 1.76409464e-41, 0., 0., 0.,
          1.34524653e-43, 0., 1.34524653e-43, 0., 3.43197984e+25,
          3.09028350e-41, 0., 0., 1.10702579e-43, 0., 0., 0., 0., 0., 0.,
          0., 0., 0., 0., 0., 0., 0., 2.80259693e-45, 0., 1.40129846e-45,
          2.80259693e-45, 6.91246519e-41, 0., 3.42903205e+25,
          3.09028350e-41, -2.29639350e-04, 4.58490845e-41, 0., 0., 0.,
          0., 0., 0., 6.86636248e-44, 0., 3.43209052e+25, 3.09028350e-41,
          -2.29639350e-04, 4.58490845e-41, 6.86636248e-44, 0., 0., 0. ]
      - [ 0., 0., 1.34524653e-43, 0., 3.43202411e+25, 3.09028350e-41, 0.,
          0., 1.10702579e-43, 0., 0., 0., 0., 0., 0., 0., 0., 0., 0., 0.,
          0., 0., 4.20389539e-45, 0., 1.40129846e-45, 2.80259693e-45,
          6.88556026e-41, 0., 3.42903205e+25, 3.09028350e-41,
          -2.29639350e-04, 4.58490845e-41, 0., 0., 0., 0., 0., 0.,
          5.39499909e-43, 0., 3.43196877e+25, 3.09028350e-41,
          -2.29639350e-04, 4.58490845e-41, 6.72623263e-44, 0., 0., 0.,
          0., 0., 4.72237582e-43, 0., 3.43253693e+25, 3.09028350e-41,
          3.43196877e+25, 3.09028350e-41, 1.40129846e-45, 0., 0., 0.,
          8.40779079e-45, 1.12103877e-44, 0., 0., 0., 0., 0., 0., 0., 0.,
          0., 0., 0., 0., 0., 0., 0., 0., 2.80259693e-45, 5.60519386e-45,
          0., 0., 0., 0., 0., 0., 0., 0., 0., 0., 0., 0., 0., 0., 0., 0.,
          0., 0., 0., 0. ]
      - [ 0., 0., 0., 0., 0., 0., 0., 0., 3.36311631e-43, 0.,
          6.72623263e-44, 0., 3.43196877e+25, 3.09028350e-41,
          1.68155816e-44, 0., 1.38459996e+10, 4.36077518e+27,
          4.54481789e+30, 0., 0., 0., 6.86636248e-44, 0., 3.43242994e+25,
          3.09028350e-41, 3.43234509e+25, 3.09028350e-41, 3.43035169e+25,
          3.09028350e-41, 3.43228237e+25, 3.09028350e-41, 6.05360937e-43,
          0., 1.34524653e-43, 0., 3.43206839e+25, 3.09028350e-41, 0., 0.,
          1.10702579e-43, 0., 0., 0., 0., 0., 0., 0., 0., 0., 0., 0., 0.,
          0., 1.40129846e-45, 0., 1.40129846e-45, 1.82168800e-44,
          6.81157171e-41, 0., 3.42903205e+25, 3.09028350e-41,
          -2.29639350e-04, 4.58490845e-41, 0., 0., 0., 0., 0., 0.,
          6.86636248e-44, 0., 3.43225654e+25, 3.09028350e-41,
          -2.29639350e-04, 4.58490845e-41, 7.42688186e-44, 0., 0., 0.,
          1.34524653e-43, 0., 1.34524653e-43, 0., 3.43219013e+25,
          3.09028350e-41, 0., 0., 1.10702579e-43, 0., 0., 0., 0., 0., 0.,
          0., 0., 0., 0., 0. ]
      - [ 0., 0., 2.80259693e-45, 0., 1.40129846e-45, 2.80259693e-45,
          6.78466677e-41, 0., 3.42903205e+25, 3.09028350e-41,
          -2.29639350e-04, 4.58490845e-41, 0., 0., 0., 0., 0., 0.,
          6.86636248e-44, 0., 3.43230081e+25, 3.09028350e-41,
          -2.29639350e-04, 4.58490845e-41, 6.86636248e-44, 0., 0., 0.,
          1.34524653e-43, 0., 1.34524653e-43, 0., 3.43223441e+25,
          3.09028350e-41, 0., 0., 1.10702579e-43, 0., 0., 0., 0., 0., 0.,
          0., 0., 0., 0., 0., 0., 0., 4.20389539e-45, 0., 1.40129846e-45,
          2.80259693e-45, 6.75776184e-41, 0., 3.42903205e+25,
          3.09028350e-41, -2.29639350e-04, 4.58490845e-41, 0., 0., 0.,
          0., 0., 0., 6.86636248e-44, 0., 3.43234509e+25, 3.09028350e-41,
          -2.29639350e-04, 4.58490845e-41, 6.82400241e-07, 0., 0., 0.,
          1.34524653e-43, 0., 1.34524653e-43, 0., 3.43227868e+25,
          3.09028350e-41, 0., 0., 1.33123354e-43, 0., 0., 0., 0., 0., 0.,
          0., 0., 0., 0., 0., 0., 0., 5.60519386e-45, 0. ]
      - [ 2., 1.96181785e-44, 6.73085691e-41, 0., 3.42903205e+25,
          3.09028350e-41, -2.29639350e-04, 4.58490845e-41, 0., 0., 0.,
          0., 0., 0., 2.03188277e-43, 0., 3.43217907e+25, 3.09028350e-41,
          -2.29639350e-04, 4.58490845e-41, 5.18480432e-44, 0., 0., 0.,
          6.72623263e-44, 0., 6.72623263e-44, 0., 3.43234509e+25,
          3.09028350e-41, 2.71985190e+23, 2.19237925e+11, 4.46279742e+30,
          7.27084014e+31, 731683136., 2.54956782e+11, 7.22350036e+28,
          1.54142831e-43, 6.86636248e-44, 0., 3.43217907e+25,
          3.09028350e-41, -2.29639350e-04, 4.58490845e-41,
          3.52762291e+09, 2.23325485e+02, 865096192., 7.64970653e-39,
          2.69049305e-43, 0., 1.12103877e-43, 0., 3.43261072e+25,
          3.09028350e-41, 3.43219382e+25, 3.09028350e-41, 3.43223810e+25,
          3.09028350e-41, 3.43228237e+25, 3.09028350e-41, 3.43232664e+25,
          3.09028350e-41, 3.43241150e+25, 3.09028350e-41, 3.43244470e+25,
          3.09028350e-41, 0., 0., 3.81153182e-43, 0., 1.34524653e-43, 0.,
          3.43232295e+25, 3.09028350e-41, 0., 0., 1.10702579e-43, 0., 0.,
          0., 0., 0., 0., 0., 0., 0., 0., 0., 0., 0., 7.00649232e-45, 0.,
          1.40129846e-45, 2.80259693e-45, 6.67928913e-41, 0.,
          3.42903205e+25, 3.09028350e-41, -2.29639350e-04,
          4.58490845e-41 ]
      - [ 1., 0., 0., 0., 6.72623263e-44, 0., 1.34524653e-43, 0.,
          3.43240781e+25, 3.09028350e-41, 0., 0., 1.33123354e-43, 0., 0.,
          0., 0., 0., 0., 0., 0., 0., 0., 0., 0., 0., 8.40779079e-45, 0.,
          1.40129846e-45, 1.96181785e-44, 6.65911043e-41, 0.,
          3.42903205e+25, 3.09028350e-41, -2.29639350e-04,
          4.58490845e-41, 0., 0., 0., 0., 0., 0., 2.03188277e-43, 0.,
          3.43272878e+25, 3.09028350e-41, -2.29639350e-04,
          4.58490845e-41, 4.62428493e-44, 0., 0., 0., 6.72623263e-44, 0.,
          6.72623263e-44, 0., 3.43246315e+25, 3.09028350e-41,
          2.71985190e+23, 2.19237925e+11, 4.46279742e+30, 7.27084014e+31,
          2.79114966e+03, 1.80587615e+28, 1.41531145e-43, 0.,
          6.86636248e-44, 0., 3.43272878e+25, 3.09028350e-41,
          -2.29639350e-04, 4.58490845e-41, 1.23919106e+01,
          7.74156445e-39, 0., 0., 2.69049305e-43, 0., 6.72623263e-44, 0.,
          3.43264023e+25, 3.09028350e-41, 3.43252218e+25, 3.09028350e-41,
          3.43261441e+25, 3.09028350e-41, 0., 0., 3.36311631e-43, 0.,
          1.12103877e-43, 0., 3.43090993e+25, 3.09028350e-41, 0., 0.,
          1.40129846e-45, 0., 0., 0. ]
      - [ 2., 5.60519386e-45, 0., 0., 0., 0., 0., 0., 0., 0.,
          1.70538023e-42, 0., 3.43234509e+25, 3.09028350e-41,
          -2.29639350e-04, 4.58490845e-41, 0., 0., 0., 0., 0., 0.,
          6.86636248e-44, 0., 3.43262917e+25, 3.09028350e-41,
          3.43259965e+25, 3.09028350e-41, 3.43258858e+25, 3.09028350e-41,
          0., 0., 1.34524653e-43, 0., 8.96831017e-44, 0., 3.43062954e+25,
          3.09028350e-41, 0., 0., 4.20389539e-45, 0., 0., 0., 0., 0., 0.,
          0., 0., 0., 2.25609053e-43, 0., 3.43262917e+25, 3.09028350e-41,
          -2.29639350e-04, 4.58490845e-41, 3.52762291e+09,
          2.23325485e+02, 865096192., 7.64970653e-39, 6.72623263e-44, 0.,
          8.96831017e-44, 0., 3.43255907e+25, 3.09028350e-41, 0., 0.,
          4.20389539e-45, 0., 0., 0., 0., 0., 1.40129846e-45, 0., 0., 0.,
          6.86636248e-44, 0., 3.43246315e+25, 3.09028350e-41,
          3.43253693e+25, 3.09028350e-41, 2.17381359e+05, 2.23305801e+02,
          865096192., 2.73603525e-41, 4.48415509e-43, 0., 1.12103877e-43,
          0., 3.43251849e+25, 3.09028350e-41, 0., 0., 1.40129846e-45, 0.,
          0., 0. ]
      - [ 0., 5.60519386e-45, 0., 0., 0., 0., 0., 0., 0., 0.,
          1.14486085e-42, 0., 3.43342607e+25, 3.09028350e-41,
          3.43058158e+25, 3.09028350e-41, 1.74864123e+25, 3.63861159e-41,
          0., 0., 0., 0., 6.86636248e-44, 0., 3.43246315e+25,
          3.09028350e-41, 3.43271771e+25, 3.09028350e-41, 3.43268082e+25,
          3.09028350e-41, 3.43270664e+25, 3.09028350e-41, 1.34524653e-43,
          0., 8.96831017e-44, 0., 3.43258489e+25, 3.09028350e-41, 0., 0.,
          4.20389539e-45, 0., 0., 0., 0., 0., 0., 0., 0., 0.,
          9.20653091e-43, 0., 3.43399054e+25, 3.09028350e-41,
          -2.29639350e-04, 4.58490845e-41, 1.23919106e+01,
          7.74156445e-39, 0., 0., 6.72623263e-44, 0., 8.96831017e-44, 0.,
          3.43265130e+25, 3.09028350e-41, 0., 0., 4.20389539e-45, 0., 0.,
          0., 0., 0., 1.40129846e-45, 0., 0., 0., 7.63707663e-43, 0.,
          3.43399054e+25, 3.09028350e-41, -2.29639350e-04,
          4.58490845e-41, 1.26883154e+04, 9.66895940e-44, 0., 0.,
          6.72623263e-44, 0., 8.96831017e-44, 0., 3.43267713e+25,
          3.09028350e-41, 0., 0., 4.20389539e-45, 0., 0., 0. ]
      - [ 0., 0., 2.80259693e-45, 0., 0., 0., 6.06762235e-43, 0.,
          3.43246315e+25, 3.09028350e-41, 3.43266606e+25, 3.09028350e-41,
          823480512., 1.09301280e-43, 0., 0., 0., 0., 5.39499909e-43, 0.,
          3.43283946e+25, 3.09028350e-41, 3.43242994e+25, 3.09028350e-41,
          1.40129846e-45, 0., 0., 0., 5.60519386e-45, 5.60519386e-45, 0.,
          0., 0., 0., 0., 0., 0., 0., 0., 0., 0., 0., 0., 0., 0., 0., 0.,
          0., 0., 0., 0., 0., 0., 0., 0., 0., 0., 0., 0., 0., 0., 0., 0.,
          0., 0., 0., 0., 0., 0., 0., 0., 0., 0., 0., 0., 0.,
          3.36311631e-43, 0., 6.72623263e-44, 0., 3.43279519e+25,
          3.09028350e-41, 2.66246708e-44, 0., 4.20389539e-44, 0., 0., 0.,
          4.03573958e-43, 0., 6.72623263e-44, 0., 3.43249635e+25,
          3.09028350e-41, 2.40246563e+20, 7.00624003e+22, 1.05056411e-38,
          0., 0., 0. ]
      - [ 0., 0., 6.86636248e-44, 0., 3.43304975e+25, 3.09028350e-41,
          3.43293907e+25, 3.09028350e-41, 3.43285422e+25, 3.09028350e-41,
          3.43288742e+25, 3.09028350e-41, 2.15239444e-42, 0.,
          1.34524653e-43, 0., 3.43244101e+25, 3.09028350e-41, 0., 0.,
          2.10194770e-44, 0., 0., 0., 0., 0., 0., 0., 0., 0., 0., 0., 0.,
          0., 1.40129846e-45, 0., 1.40129846e-45, 1.82168800e-44,
          6.43041852e-41, 0., 3.42903205e+25, 3.09028350e-41,
          -2.29639350e-04, 4.58490845e-41, 0., 0., 0., 0.,
          6.72623263e-44, 0., 1.34524653e-43, 0., 3.43281732e+25,
          3.09028350e-41, 0., 0., 2.10194770e-44, 0., 0., 0., 0., 0., 0.,
          0., 0., 0., 0., 0., 0., 0., 2.80259693e-45, 0., 1.40129846e-45,
          1.82168800e-44, 6.41023983e-41, 0., 3.42903205e+25,
          3.09028350e-41, -2.29639350e-04, 4.58490845e-41, 0., 0., 0.,
          0., 6.72623263e-44, 0., 1.34524653e-43, 0., 3.43285053e+25,
          3.09028350e-41, 0., 0., 2.10194770e-44, 0., 0., 0., 0., 0., 0.,
          0. ]
      - [ 0., 0., 0., 0., 0., 0., 4.20389539e-45, 0., 1.40129846e-45,
          1.82168800e-44, 6.39006113e-41, 0., 3.42903205e+25,
          3.09028350e-41, -2.29639350e-04, 4.58490845e-41, 0., 0., 0.,
          0., 6.72623263e-44, 0., 1.34524653e-43, 0., 3.43288373e+25,
          3.09028350e-41, 0., 0., 2.10194770e-44, 0., 0., 0., 0., 0., 0.,
          0., 0., 0., 0., 0., 0., 0., 5.60519386e-45, 0., 1.40129846e-45,
          1.82168800e-44, 6.36988243e-41, 0., 3.42903205e+25,
          3.09028350e-41, -2.29639350e-04, 4.58490845e-41, 0., 0., 0.,
          0., 0., 0., 4.72237582e-43, 0., 3.43304975e+25, 3.09028350e-41,
          3.43280626e+25, 3.09028350e-41, 1.40129846e-45, 0., 0., 0.,
          4.20389539e-45, 5.60519386e-45, 0., 0., 0., 0., 0., 0., 0., 0.,
          0., 0., 0., 0., 0., 0., 0., 0., 0., 0., 0., 0., 0., 0., 0., 0.,
          0., 0., 0., 0., 0., 0. ]
      - [ 0., 0., 0., 0., 0., 0., 0., 0., 0., 0., 0., 0., 0., 0., 0., 0.,
          3.36311631e-43, 0., 6.72623263e-44, 0., 3.43280626e+25,
          3.09028350e-41, 1.68155816e-44, 0., 1.38470492e+10,
          4.36077518e+27, 4.54481789e+30, 0., 0., 0., 6.86636248e-44, 0.,
          3.43328218e+25, 3.09028350e-41, 3.43314936e+25, 3.09028350e-41,
          3.43308665e+25, 3.09028350e-41, 3.43313092e+25, 3.09028350e-41,
          5.38098610e-43, 0., 1.34524653e-43, 0., 3.43291694e+25,
          3.09028350e-41, 0., 0., 1.10702579e-43, 0., 0., 0., 0., 0., 0.,
          0., 0., 0., 0., 0., 0., 0., 1.40129846e-45, 0., 1.40129846e-45,
          1.12103877e-44, 6.30262010e-41, 0., 3.42903205e+25,
          3.09028350e-41, -2.29639350e-04, 4.58490845e-41, 0., 0., 0.,
          0., 6.72623263e-44, 0., 6.72623263e-44, 0., 3.43300548e+25,
          3.09028350e-41, 2.84048309e+20, 1.74404007e+28, 3.63707016e-41,
          0., 0., 0., 0., 0., 6.86636248e-44, 0., 3.43310509e+25,
          3.09028350e-41, -2.29639350e-04, 4.58490845e-41,
          7.24431922e+22, 0., 0., 0. ]
      - [ 1., 0., 1.34524653e-43, 0., 3.43302762e+25, 3.09028350e-41, 0.,
          0., 1.10702579e-43, 0., 0., 0., 0., 0., 0., 0., 0., 0., 0., 0.,
          0., 0., 2.80259693e-45, 0., 1.40129846e-45, 1.12103877e-44,
          6.26898894e-41, 0., 3.42903205e+25, 3.09028350e-41,
          -2.29639350e-04, 4.58490845e-41, 0., 0., 0., 0., 0., 0.,
          6.86636248e-44, 0., 3.43314936e+25, 3.09028350e-41,
          -2.29639350e-04, 4.58490845e-41, 1.87279897e+31,
          1.41531145e-43, 0., 0., 1.34524653e-43, 0., 1.34524653e-43, 0.,
          3.43308296e+25, 3.09028350e-41, 0., 0., 1.10702579e-43, 0., 0.,
          0., 0., 0., 0., 0., 0., 0., 0., 0., 0., 0., 4.20389539e-45, 0.,
          1.40129846e-45, 2.80259693e-45, 6.24208401e-41, 0.,
          3.42903205e+25, 3.09028350e-41, -2.29639350e-04,
          4.58490845e-41, 0., 0., 0., 0., 0., 0., 6.06762235e-43, 0.,
          3.43301655e+25, 3.09028350e-41, -2.29639350e-04,
          4.58490845e-41, 6.30808350e-10, 7.98740125e-44, 0., 0., 0., 0.,
          5.39499909e-43, 0. ]
   decision_functions:
      -
         sv_count: 40
         rho: 0.
         alpha: [ 1.0000000000000001e-01, 1.0000000000000001e-01,
             1.0000000000000001e-01, 1.0000000000000001e-01,
             1.0000000000000001e-01, 1.0000000000000001e-01,
             1.0000000000000001e-01, 1.0000000000000001e-01,
             1.0000000000000001e-01, 1.0000000000000001e-01,
             1.0000000000000001e-01, 1.0000000000000001e-01,
             1.0000000000000001e-01, 1.0000000000000001e-01,
             1.0000000000000001e-01, 1.0000000000000001e-01,
             1.0000000000000001e-01, 1.0000000000000001e-01,
             1.0000000000000001e-01, 1.0000000000000001e-01,
             -1.0000000000000001e-01, -1.0000000000000001e-01,
             -1.0000000000000001e-01, -1.0000000000000001e-01,
             -1.0000000000000001e-01, -1.0000000000000001e-01,
             -1.0000000000000001e-01, -1.0000000000000001e-01,
             -1.0000000000000001e-01, -1.0000000000000001e-01,
             -1.0000000000000001e-01, -1.0000000000000001e-01,
             -1.0000000000000001e-01, -1.0000000000000001e-01,
             -1.0000000000000001e-01, -1.0000000000000001e-01,
             -1.0000000000000001e-01, -1.0000000000000001e-01,
             -1.0000000000000001e-01, -1.0000000000000001e-01 ]
         index: [ 77, 58, 59, 60, 61, 62, 63, 64, 65, 66, 67, 69, 70, 71,
             72, 73, 74, 75, 76, 68, 29, 24, 30, 31, 32, 33, 34, 35, 36,
             37, 28, 27, 26, 25, 23, 22, 21, 20, 19, 18 ]
      -
         sv_count: 38
         rho: -9.0999999999999892e-01
         alpha: [ 8.9999999999999664e-02, 8.9999999999999664e-02,
             8.9999999999999719e-02, 8.9999999999999719e-02,
             8.9999999999999886e-02, 8.9999999999999886e-02,
             8.9999999999999830e-02, 8.9999999999999830e-02,
             8.9999999999999830e-02, 8.9999999999999830e-02,
             8.9999999999999830e-02, 8.9999999999999830e-02,
             9.0000000000000330e-02, 9.0000000000000330e-02,
             9.0000000000000330e-02, 9.0000000000000330e-02,
             9.0000000000000330e-02, 9.0000000000000330e-02,
             9.0000000000000302e-02, 9.0000000000000302e-02,
             -1.0000000000000001e-01, -1.0000000000000001e-01,
             -1.0000000000000001e-01, -1.0000000000000001e-01,
             -1.0000000000000001e-01, -1.0000000000000001e-01,
             -1.0000000000000001e-01, -1.0000000000000001e-01,
             -1.0000000000000001e-01, -1.0000000000000001e-01,
             -1.0000000000000001e-01, -1.0000000000000001e-01,
             -1.0000000000000001e-01, -1.0000000000000001e-01,
             -1.0000000000000001e-01, -1.0000000000000001e-01,
             -1.0000000000000001e-01, -1.0000000000000001e-01 ]
         index: [ 77, 58, 59, 60, 61, 62, 63, 64, 65, 66, 67, 69, 70, 71,
             72, 73, 74, 75, 76, 68, 1, 17, 16, 15, 14, 13, 12, 11, 10,
             9, 8, 7, 6, 5, 4, 3, 2, 0 ]
      -
         sv_count: 40
         rho: 0.
         alpha: [ 1.0000000000000001e-01, 1.0000000000000001e-01,
             1.0000000000000001e-01, 1.0000000000000001e-01,
             1.0000000000000001e-01, 1.0000000000000001e-01,
             1.0000000000000001e-01, 1.0000000000000001e-01,
             1.0000000000000001e-01, 1.0000000000000001e-01,
             1.0000000000000001e-01, 1.0000000000000001e-01,
             1.0000000000000001e-01, 1.0000000000000001e-01,
             1.0000000000000001e-01, 1.0000000000000001e-01,
             1.0000000000000001e-01, 1.0000000000000001e-01,
             1.0000000000000001e-01, 1.0000000000000001e-01,
             -1.0000000000000001e-01, -1.0000000000000001e-01,
             -1.0000000000000001e-01, -1.0000000000000001e-01,
             -1.0000000000000001e-01, -1.0000000000000001e-01,
             -1.0000000000000001e-01, -1.0000000000000001e-01,
             -1.0000000000000001e-01, -1.0000000000000001e-01,
             -1.0000000000000001e-01, -1.0000000000000001e-01,
             -1.0000000000000001e-01, -1.0000000000000001e-01,
             -1.0000000000000001e-01, -1.0000000000000001e-01,
             -1.0000000000000001e-01, -1.0000000000000001e-01,
             -1.0000000000000001e-01, -1.0000000000000001e-01 ]
         index: [ 77, 58, 59, 60, 61, 62, 63, 64, 65, 66, 67, 69, 70, 71,
             72, 73, 74, 75, 76, 68, 38, 49, 40, 41, 42, 43, 44, 45, 46,
             47, 48, 39, 50, 51, 52, 53, 54, 55, 56, 57 ]
      -
         sv_count: 38
         rho: -9.0999999999999892e-01
         alpha: [ 8.9999999999999664e-02, 8.9999999999999664e-02,
             8.9999999999999719e-02, 8.9999999999999719e-02,
             8.9999999999999886e-02, 8.9999999999999886e-02,
             8.9999999999999830e-02, 8.9999999999999830e-02,
             8.9999999999999830e-02, 8.9999999999999830e-02,
             8.9999999999999830e-02, 8.9999999999999830e-02,
             9.0000000000000330e-02, 9.0000000000000330e-02,
             9.0000000000000330e-02, 9.0000000000000330e-02,
             9.0000000000000330e-02, 9.0000000000000330e-02,
             9.0000000000000302e-02, 9.0000000000000302e-02,
             -1.0000000000000001e-01, -1.0000000000000001e-01,
             -1.0000000000000001e-01, -1.0000000000000001e-01,
             -1.0000000000000001e-01, -1.0000000000000001e-01,
             -1.0000000000000001e-01, -1.0000000000000001e-01,
             -1.0000000000000001e-01, -1.0000000000000001e-01,
             -1.0000000000000001e-01, -1.0000000000000001e-01,
             -1.0000000000000001e-01, -1.0000000000000001e-01,
             -1.0000000000000001e-01, -1.0000000000000001e-01,
             -1.0000000000000001e-01, -1.0000000000000001e-01 ]
         index: [ 29, 24, 30, 31, 32, 33, 34, 35, 36, 37, 28, 27, 26, 25,
             23, 22, 21, 20, 19, 18, 1, 17, 16, 15, 14, 13, 12, 11, 10,
             9, 8, 7, 6, 5, 4, 3, 2, 0 ]
      -
         sv_count: 40
         rho: 0.
         alpha: [ 1.0000000000000001e-01, 1.0000000000000001e-01,
             1.0000000000000001e-01, 1.0000000000000001e-01,
             1.0000000000000001e-01, 1.0000000000000001e-01,
             1.0000000000000001e-01, 1.0000000000000001e-01,
             1.0000000000000001e-01, 1.0000000000000001e-01,
             1.0000000000000001e-01, 1.0000000000000001e-01,
             1.0000000000000001e-01, 1.0000000000000001e-01,
             1.0000000000000001e-01, 1.0000000000000001e-01,
             1.0000000000000001e-01, 1.0000000000000001e-01,
             1.0000000000000001e-01, 1.0000000000000001e-01,
             -1.0000000000000001e-01, -1.0000000000000001e-01,
             -1.0000000000000001e-01, -1.0000000000000001e-01,
             -1.0000000000000001e-01, -1.0000000000000001e-01,
             -1.0000000000000001e-01, -1.0000000000000001e-01,
             -1.0000000000000001e-01, -1.0000000000000001e-01,
             -1.0000000000000001e-01, -1.0000000000000001e-01,
             -1.0000000000000001e-01, -1.0000000000000001e-01,
             -1.0000000000000001e-01, -1.0000000000000001e-01,
             -1.0000000000000001e-01, -1.0000000000000001e-01,
             -1.0000000000000001e-01, -1.0000000000000001e-01 ]
         index: [ 29, 24, 30, 31, 32, 33, 34, 35, 36, 37, 28, 27, 26, 25,
             23, 22, 21, 20, 19, 18, 38, 49, 40, 41, 42, 43, 44, 45, 46,
             47, 48, 39, 50, 51, 52, 53, 54, 55, 56, 57 ]
      -
         sv_count: 38
         rho: 9.0999999999999892e-01
         alpha: [ 1.0000000000000001e-01, 1.0000000000000001e-01,
             1.0000000000000001e-01, 1.0000000000000001e-01,
             1.0000000000000001e-01, 1.0000000000000001e-01,
             1.0000000000000001e-01, 1.0000000000000001e-01,
             1.0000000000000001e-01, 1.0000000000000001e-01,
             1.0000000000000001e-01, 1.0000000000000001e-01,
             1.0000000000000001e-01, 1.0000000000000001e-01,
             1.0000000000000001e-01, 1.0000000000000001e-01,
             1.0000000000000001e-01, 1.0000000000000001e-01,
             -8.9999999999999664e-02, -8.9999999999999664e-02,
             -8.9999999999999719e-02, -8.9999999999999719e-02,
             -8.9999999999999886e-02, -8.9999999999999886e-02,
             -8.9999999999999830e-02, -8.9999999999999830e-02,
             -8.9999999999999830e-02, -8.9999999999999830e-02,
             -8.9999999999999830e-02, -8.9999999999999830e-02,
             -9.0000000000000330e-02, -9.0000000000000330e-02,
             -9.0000000000000330e-02, -9.0000000000000330e-02,
             -9.0000000000000330e-02, -9.0000000000000330e-02,
             -9.0000000000000302e-02, -9.0000000000000302e-02 ]
         index: [ 1, 17, 16, 15, 14, 13, 12, 11, 10, 9, 8, 7, 6, 5, 4, 3,
             2, 0, 38, 49, 40, 41, 42, 43, 44, 45, 46, 47, 48, 39, 50,
             51, 52, 53, 54, 55, 56, 57 ]
