%YAML:1.0
---
opencv_ml_svm:
   format: 3
   svmType: C_SVC
   kernel:
      type: POLY
      degree: 4.9000000000000005e-01
      gamma: 1.0000000000000001e-05
      coef0: 1.0000000000000001e-01
   C: 1.0000000000000001e-01
   term_criteria: { epsilon:1.1920928955078125e-07, iterations:1000 }
   var_count: 100
   class_count: 4
   class_labels: !!opencv-matrix
      rows: 4
      cols: 1
      dt: i
      data: [ -2, -1, 1, 2 ]
   sv_total: 72
   support_vectors:
      - [ 2., 0., 6., 0., 0., 2., 1., 0., 0., 0., 0., 1., 0., 0., 6., 0.,
          1., 0., 0., 0., 0., 4., 0., 1., 0., 1., 0., 0., 0., 0., 1., 0.,
          0., 0., 3., 0., 0., 3., 0., 0., 0., 255., 255., 255., 255., 0.,
          2., 0., 0., 0., 2., 0., 255., 254., 253., 3., 2., 0., 0., 0.,
          0., 2., 0., 255., 0., 253., 0., 2., 0., 0., 2., 0., 255., 0.,
          255., 255., 255., 254., 0., 0., 2., 254., 254., 255., 254., 0.,
          255., 255., 255., 1., 250., 255., 255., 2., 1., 1., 255., 253.,
          0., 255. ]
      - [ 0., 2., 0., 1., 1., 0., 0., 0., 0., 0., 2., 2., 2., 0., 0., 1.,
          1., 0., 0., 0., 0., 0., 0., 1., 2., 0., 0., 0., 0., 0., 0., 0.,
          3., 0., 0., 1., 1., 2., 0., 0., 0., 255., 253., 2., 0., 0., 4.,
          0., 0., 0., 255., 254., 255., 254., 3., 0., 0., 1., 0., 0., 1.,
          255., 254., 255., 0., 255., 0., 2., 0., 0., 0., 254., 255., 1.,
          0., 255., 255., 253., 0., 0., 2., 253., 255., 0., 255., 252.,
          255., 255., 255., 1., 252., 254., 255., 254., 255., 3., 253.,
          254., 0., 255. ]
      - [ 0., 0., 0., 2., 0., 0., 3., 0., 0., 0., 1., 0., 0., 1., 0., 0.,
          0., 0., 0., 0., 2., 0., 1., 2., 0., 2., 2., 1., 0., 0., 0., 5.,
          0., 0., 0., 0., 2., 0., 0., 0., 0., 1., 1., 0., 0., 2., 0., 0.,
          0., 0., 255., 0., 253., 255., 0., 0., 0., 0., 0., 0., 254.,
          255., 255., 252., 0., 255., 0., 1., 0., 0., 0., 255., 0., 1.,
          255., 254., 255., 253., 0., 0., 255., 251., 2., 253., 255., 2.,
          0., 255., 255., 1., 255., 255., 255., 0., 0., 0., 253., 255.,
          0., 255. ]
      - [ 0., 2., 0., 0., 0., 1., 0., 2., 0., 0., 0., 0., 2., 2., 0., 0.,
          1., 0., 0., 0., 0., 0., 0., 1., 0., 1., 2., 0., 0., 0., 1., 0.,
          4., 0., 0., 0., 0., 0., 0., 0., 3., 0., 0., 0., 1., 1., 2., 1.,
          0., 0., 252., 0., 255., 0., 0., 0., 0., 0., 0., 0., 1., 255.,
          249., 255., 255., 251., 0., 2., 0., 0., 1., 0., 255., 253., 0.,
          255., 254., 255., 0., 0., 0., 253., 255., 2., 0., 255., 253.,
          255., 0., 0., 255., 254., 255., 0., 0., 1., 255., 254., 1.,
          255. ]
      - [ 0., 1., 0., 0., 0., 1., 0., 1., 0., 0., 0., 0., 1., 0., 0., 2.,
          3., 0., 0., 0., 1., 2., 0., 2., 3., 0., 0., 1., 0., 0., 1., 0.,
          0., 3., 0., 2., 3., 0., 0., 0., 0., 0., 255., 0., 1., 2., 0.,
          0., 0., 0., 254., 255., 250., 254., 255., 0., 0., 1., 0., 0.,
          0., 255., 255., 255., 2., 255., 0., 0., 0., 0., 0., 3., 255.,
          0., 254., 254., 255., 255., 0., 0., 1., 253., 255., 255., 0.,
          2., 0., 255., 0., 0., 255., 255., 254., 0., 2., 0., 1., 255.,
          1., 255. ]
      - [ 0., 0., 0., 1., 0., 0., 1., 0., 0., 0., 0., 0., 0., 2., 0., 2.,
          0., 0., 0., 0., 3., 0., 2., 0., 0., 1., 2., 1., 0., 0., 0., 2.,
          2., 0., 0., 1., 0., 0., 0., 0., 1., 0., 253., 1., 4., 0., 1.,
          1., 0., 0., 253., 0., 1., 0., 0., 0., 0., 2., 0., 0., 255.,
          255., 0., 255., 255., 255., 2., 0., 0., 0., 0., 0., 255., 255.,
          0., 252., 255., 255., 0., 0., 1., 252., 2., 255., 0., 255.,
          255., 255., 0., 0., 255., 255., 255., 0., 1., 0., 252., 255.,
          0., 0. ]
      - [ 1., 0., 0., 0., 1., 1., 0., 2., 0., 0., 0., 2., 0., 0., 0., 3.,
          0., 0., 0., 0., 0., 0., 0., 5., 0., 0., 3., 0., 0., 0., 3., 0.,
          1., 0., 4., 0., 0., 1., 0., 0., 0., 0., 0., 1., 0., 2., 0., 0.,
          0., 0., 255., 1., 3., 0., 0., 0., 2., 1., 0., 0., 253., 254.,
          255., 0., 0., 255., 0., 0., 0., 0., 255., 254., 0., 1., 255.,
          253., 255., 254., 0., 0., 255., 251., 2., 253., 255., 2., 0.,
          255., 0., 0., 255., 255., 255., 0., 0., 0., 253., 255., 0., 0. ]
      - [ 0., 0., 0., 1., 0., 0., 2., 0., 0., 0., 3., 0., 0., 0., 0., 3.,
          0., 0., 0., 0., 0., 0., 1., 3., 0., 0., 1., 1., 0., 0., 0., 2.,
          0., 0., 2., 0., 0., 0., 0., 0., 0., 0., 0., 4., 0., 2., 0., 2.,
          0., 0., 255., 0., 254., 0., 0., 0., 3., 0., 0., 0., 254., 255.,
          1., 0., 1., 255., 0., 0., 0., 0., 255., 0., 0., 0., 255., 255.,
          254., 255., 0., 0., 255., 255., 0., 255., 255., 0., 1., 255.,
          0., 0., 253., 255., 255., 0., 0., 0., 255., 0., 0., 0. ]
      - [ 0., 1., 0., 0., 3., 0., 2., 0., 0., 0., 0., 1., 1., 1., 0., 0.,
          1., 1., 0., 0., 1., 0., 0., 0., 4., 0., 1., 0., 0., 0., 0., 0.,
          2., 0., 0., 1., 1., 1., 0., 0., 0., 3., 0., 2., 0., 1., 0., 0.,
          0., 0., 254., 255., 255., 253., 254., 0., 3., 1., 0., 0., 2.,
          253., 255., 253., 3., 255., 0., 0., 0., 0., 0., 255., 254., 4.,
          252., 253., 255., 254., 0., 0., 255., 255., 1., 252., 255.,
          253., 255., 255., 255., 1., 255., 255., 255., 2., 2., 0., 253.,
          0., 1., 1. ]
      - [ 2., 0., 3., 0., 1., 0., 1., 0., 0., 0., 0., 2., 0., 1., 1., 1.,
          0., 0., 0., 0., 1., 0., 0., 0., 0., 0., 5., 0., 0., 0., 1., 0.,
          1., 0., 1., 0., 0., 0., 0., 0., 0., 0., 2., 2., 1., 0., 0., 1.,
          0., 0., 3., 0., 253., 1., 0., 0., 0., 0., 0., 0., 254., 252.,
          5., 0., 250., 255., 255., 0., 0., 0., 255., 255., 0., 254.,
          255., 255., 252., 255., 0., 0., 255., 255., 0., 254., 1., 0.,
          3., 0., 255., 0., 255., 255., 254., 2., 0., 0., 0., 3., 255.,
          0. ]
      - [ 0., 2., 0., 0., 3., 0., 0., 0., 0., 0., 0., 0., 3., 4., 0., 0.,
          0., 0., 0., 0., 1., 0., 0., 0., 0., 3., 3., 0., 0., 0., 0., 0.,
          2., 0., 1., 0., 0., 1., 0., 0., 0., 1., 0., 0., 2., 1., 0., 0.,
          0., 0., 2., 0., 255., 0., 0., 0., 0., 1., 0., 0., 0., 255.,
          253., 255., 0., 255., 1., 0., 0., 0., 1., 0., 255., 0., 255.,
          255., 252., 0., 0., 0., 1., 254., 0., 252., 255., 252., 255.,
          255., 0., 0., 252., 255., 255., 2., 1., 0., 255., 251., 1.,
          255. ]
      - [ 0., 0., 0., 2., 0., 0., 2., 0., 0., 0., 0., 1., 0., 0., 3., 0.,
          0., 0., 0., 0., 0., 0., 1., 3., 0., 0., 1., 1., 0., 0., 2., 0.,
          0., 0., 1., 4., 0., 0., 0., 0., 1., 1., 2., 2., 0., 0., 0., 0.,
          0., 0., 254., 0., 253., 1., 0., 0., 3., 0., 0., 0., 255., 255.,
          255., 252., 2., 3., 0., 1., 0., 0., 0., 2., 0., 0., 255., 254.,
          255., 255., 0., 0., 2., 0., 1., 255., 253., 255., 254., 255.,
          0., 0., 1., 255., 254., 0., 1., 255., 255., 255., 0., 0. ]
      - [ 0., 0., 0., 1., 0., 0., 2., 0., 0., 0., 0., 4., 1., 0., 2., 1.,
          0., 1., 0., 0., 0., 0., 2., 0., 0., 1., 0., 3., 0., 0., 3., 0.,
          2., 0., 1., 0., 2., 0., 0., 0., 0., 0., 0., 1., 0., 1., 0., 0.,
          0., 0., 255., 2., 255., 0., 1., 0., 0., 0., 0., 0., 255., 0.,
          1., 0., 0., 254., 0., 0., 0., 0., 254., 1., 0., 0., 255., 255.,
          255., 1., 0., 0., 254., 0., 3., 255., 254., 255., 255., 254.,
          0., 0., 255., 255., 254., 251., 3., 1., 253., 255., 0., 0. ]
      - [ 1., 0., 0., 0., 0., 1., 0., 0., 0., 0., 0., 0., 4., 0., 0., 0.,
          2., 0., 0., 0., 0., 0., 0., 0., 3., 0., 1., 2., 0., 0., 1., 0.,
          0., 2., 0., 3., 0., 0., 0., 0., 1., 0., 1., 0., 0., 1., 1., 1.,
          0., 0., 0., 0., 255., 0., 0., 0., 0., 0., 0., 0., 255., 255.,
          252., 255., 0., 255., 0., 0., 0., 0., 0., 254., 255., 0., 255.,
          255., 252., 255., 0., 0., 254., 254., 0., 255., 255., 1., 0.,
          255., 254., 0., 255., 255., 252., 3., 1., 0., 1., 255., 255.,
          255. ]
      - [ 0., 0., 0., 0., 1., 1., 0., 1., 0., 0., 1., 0., 1., 0., 0., 0.,
          3., 0., 0., 0., 0., 0., 0., 0., 2., 2., 0., 0., 0., 0., 2., 0.,
          2., 0., 1., 0., 1., 0., 0., 0., 1., 0., 4., 0., 1., 0., 0., 1.,
          0., 0., 1., 0., 0., 1., 0., 3., 4., 0., 0., 0., 255., 251., 4.,
          0., 1., 255., 252., 0., 0., 0., 254., 1., 0., 0., 255., 251.,
          255., 255., 0., 0., 254., 254., 3., 253., 255., 0., 1., 254.,
          255., 1., 255., 255., 252., 253., 1., 0., 0., 4., 0., 255. ]
      - [ 0., 1., 0., 2., 3., 0., 0., 1., 0., 0., 2., 0., 0., 0., 0., 1.,
          1., 0., 0., 0., 0., 2., 0., 4., 0., 2., 2., 0., 0., 0., 3., 0.,
          1., 0., 2., 0., 0., 0., 0., 0., 0., 0., 3., 0., 2., 0., 0., 2.,
          0., 0., 0., 4., 254., 0., 1., 0., 2., 0., 0., 0., 255., 251.,
          0., 0., 0., 255., 1., 0., 0., 0., 254., 255., 255., 1., 255.,
          254., 255., 255., 0., 0., 255., 253., 255., 255., 255., 255.,
          253., 255., 255., 1., 255., 255., 255., 253., 0., 0., 254.,
          255., 0., 255. ]
      - [ 0., 2., 2., 0., 0., 3., 0., 0., 0., 0., 2., 0., 0., 4., 0., 0.,
          0., 1., 0., 0., 0., 0., 1., 1., 0., 1., 0., 0., 0., 0., 0., 3.,
          0., 0., 0., 1., 0., 0., 0., 0., 0., 0., 0., 0., 2., 0., 3., 0.,
          0., 0., 2., 3., 255., 0., 3., 2., 0., 0., 0., 0., 252., 255.,
          252., 255., 0., 0., 1., 2., 0., 0., 1., 255., 255., 0., 255.,
          255., 255., 253., 0., 0., 1., 253., 0., 1., 255., 253., 2.,
          255., 255., 1., 255., 255., 255., 255., 0., 255., 255., 252.,
          0., 255. ]
      - [ 1., 0., 0., 0., 1., 0., 255., 255., 254., 255., 0., 0., 3., 2.,
          0., 255., 250., 0., 0., 254., 3., 1., 0., 0., 0., 2., 254., 0.,
          255., 255., 0., 0., 2., 3., 255., 0., 3., 255., 255., 253.,
          254., 255., 255., 0., 0., 3., 0., 0., 255., 253., 254., 1., 0.,
          0., 4., 0., 2., 255., 255., 255., 0., 2., 0., 1., 0., 1., 0.,
          0., 0., 254., 0., 0., 1., 0., 3., 0., 0., 0., 254., 255., 0.,
          0., 0., 0., 0., 0., 0., 0., 0., 0., 0., 0., 0., 0., 0., 0., 0.,
          0., 255., 255. ]
      - [ 0., 1., 1., 0., 255., 0., 255., 255., 255., 254., 2., 2., 1.,
          0., 0., 255., 255., 0., 0., 254., 0., 0., 0., 2., 255., 0.,
          253., 0., 255., 254., 0., 2., 0., 0., 254., 0., 0., 3., 253.,
          0., 255., 253., 255., 0., 2., 0., 1., 254., 255., 255., 255.,
          0., 1., 0., 0., 4., 0., 255., 251., 255., 0., 1., 1., 1., 0.,
          1., 2., 252., 255., 0., 2., 0., 0., 0., 2., 0., 0., 2., 254.,
          0., 0., 0., 0., 0., 0., 0., 0., 0., 255., 1., 0., 0., 0., 0.,
          0., 0., 0., 0., 0., 255. ]
      - [ 1., 0., 0., 2., 255., 0., 255., 255., 255., 254., 0., 2., 0.,
          0., 1., 255., 252., 1., 0., 255., 1., 0., 3., 2., 0., 2., 255.,
          0., 254., 254., 0., 2., 0., 0., 255., 1., 2., 255., 255., 255.,
          255., 255., 255., 1., 0., 1., 0., 255., 254., 252., 255., 0.,
          0., 0., 2., 0., 3., 255., 255., 254., 0., 3., 0., 3., 0., 1.,
          2., 0., 0., 255., 0., 0., 1., 2., 0., 0., 0., 1., 0., 255., 0.,
          0., 0., 0., 0., 0., 0., 0., 0., 255., 0., 0., 0., 0., 0., 0.,
          0., 0., 0., 255. ]
      - [ 0., 0., 0., 1., 253., 0., 255., 254., 253., 255., 0., 2., 0.,
          1., 0., 255., 253., 0., 1., 0., 5., 0., 3., 1., 253., 2., 255.,
          0., 254., 255., 0., 2., 0., 0., 255., 0., 0., 255., 255., 0.,
          255., 255., 254., 253., 2., 0., 0., 255., 254., 255., 253., 1.,
          2., 0., 1., 1., 1., 255., 255., 0., 2., 0., 1., 0., 0., 0., 0.,
          253., 253., 0., 1., 0., 0., 1., 2., 0., 0., 0., 255., 0., 0.,
          0., 0., 0., 0., 0., 0., 0., 255., 255., 0., 0., 0., 0., 0., 0.,
          0., 0., 0., 0. ]
      - [ 0., 3., 0., 0., 255., 0., 255., 255., 255., 1., 1., 0., 0., 0.,
          4., 255., 252., 0., 254., 1., 0., 2., 3., 1., 0., 1., 255.,
          254., 2., 0., 3., 0., 0., 0., 255., 1., 0., 1., 251., 2., 255.,
          252., 255., 1., 0., 0., 255., 255., 4., 255., 255., 0., 1., 2.,
          0., 0., 1., 255., 253., 0., 0., 3., 0., 0., 2., 0., 255., 254.,
          254., 3., 2., 0., 0., 3., 0., 2., 0., 0., 255., 0., 0., 3., 0.,
          0., 1., 0., 1., 0., 255., 1., 1., 0., 0., 0., 3., 0., 0., 254.,
          0., 255. ]
      - [ 0., 0., 1., 0., 255., 1., 253., 255., 253., 255., 1., 2., 0.,
          0., 0., 255., 255., 254., 255., 0., 0., 0., 0., 2., 255., 0.,
          255., 0., 254., 252., 1., 0., 5., 0., 255., 0., 255., 255.,
          255., 3., 255., 255., 250., 0., 3., 0., 1., 255., 255., 253.,
          254., 0., 3., 1., 0., 1., 0., 254., 255., 1., 3., 0., 0., 2.,
          2., 0., 0., 255., 253., 2., 0., 3., 0., 1., 0., 0., 3., 0.,
          255., 1., 0., 0., 0., 0., 0., 0., 0., 0., 254., 0., 0., 0., 0.,
          0., 0., 0., 0., 0., 255., 255. ]
      - [ 0., 2., 0., 1., 255., 0., 255., 255., 255., 254., 3., 0., 0.,
          0., 0., 255., 253., 0., 255., 0., 0., 0., 5., 2., 255., 0.,
          253., 2., 0., 0., 0., 3., 0., 0., 254., 0., 3., 252., 255., 0.,
          255., 254., 255., 1., 1., 0., 1., 255., 255., 255., 0., 1., 0.,
          4., 0., 0., 0., 254., 255., 0., 0., 3., 0., 0., 3., 0., 0., 1.,
          254., 255., 1., 0., 0., 1., 0., 0., 0., 0., 1., 254., 0., 0.,
          0., 0., 0., 0., 0., 0., 255., 255., 0., 0., 0., 0., 0., 0., 0.,
          0., 0., 0. ]
      - [ 1., 1., 0., 0., 254., 255., 255., 254., 254., 255., 0., 0., 2.,
          2., 4., 255., 252., 2., 0., 254., 0., 2., 0., 0., 255., 254.,
          255., 0., 255., 255., 0., 1., 6., 0., 255., 0., 3., 0., 255.,
          253., 255., 0., 255., 254., 255., 2., 0., 255., 255., 253.,
          252., 255., 1., 0., 0., 2., 0., 255., 255., 255., 4., 0., 0.,
          1., 2., 0., 2., 0., 0., 254., 0., 1., 0., 1., 0., 0., 0., 2.,
          254., 255., 0., 0., 0., 0., 0., 0., 0., 0., 1., 255., 0., 0.,
          0., 0., 0., 0., 0., 0., 0., 0. ]
      - [ 2., 0., 2., 0., 255., 254., 255., 1., 1., 254., 0., 5., 0., 1.,
          0., 255., 0., 254., 255., 255., 4., 0., 0., 0., 255., 255.,
          255., 255., 253., 255., 0., 0., 2., 1., 255., 255., 252., 255.,
          255., 1., 0., 1., 255., 251., 255., 0., 255., 255., 254., 255.,
          255., 254., 0., 2., 2., 0., 2., 254., 255., 0., 0., 1., 0., 0.,
          1., 3., 0., 255., 255., 0., 2., 0., 1., 3., 0., 0., 4., 0.,
          255., 0., 0., 0., 0., 0., 0., 0., 0., 0., 0., 254., 0., 0., 0.,
          0., 0., 0., 0., 0., 254., 254. ]
      - [ 0., 0., 0., 0., 254., 0., 255., 1., 0., 0., 1., 0., 0., 5., 0.,
          1., 2., 0., 0., 255., 0., 0., 0., 0., 255., 0., 0., 255., 255.,
          255., 1., 0., 4., 3., 255., 255., 0., 254., 255., 255., 255.,
          255., 253., 253., 254., 0., 255., 0., 255., 252., 255., 0., 0.,
          1., 1., 0., 0., 254., 255., 255., 0., 0., 2., 0., 2., 0., 0.,
          2., 0., 255., 1., 0., 3., 0., 0., 3., 0., 0., 0., 255., 0., 0.,
          0., 0., 0., 0., 0., 0., 0., 0., 0., 0., 0., 0., 0., 0., 0., 0.,
          1., 255. ]
      - [ 0., 0., 1., 0., 255., 255., 253., 1., 0., 255., 1., 0., 0., 1.,
          0., 3., 0., 253., 255., 254., 0., 3., 3., 0., 254., 255., 254.,
          255., 255., 254., 1., 0., 0., 2., 255., 1., 255., 0., 255.,
          254., 255., 255., 255., 0., 1., 0., 2., 0., 255., 254., 0., 3.,
          0., 1., 1., 0., 0., 255., 253., 255., 0., 4., 0., 0., 0., 2.,
          0., 2., 0., 251., 1., 0., 2., 1., 0., 0., 1., 0., 0., 255., 0.,
          0., 0., 0., 0., 0., 0., 0., 0., 0., 0., 0., 0., 0., 0., 0., 0.,
          0., 0., 0. ]
      - [ 0., 0., 1., 0., 253., 255., 255., 0., 0., 255., 1., 0., 2., 1.,
          4., 0., 0., 0., 255., 254., 0., 0., 2., 0., 252., 254., 255.,
          255., 255., 254., 2., 0., 0., 1., 255., 255., 0., 1., 255.,
          254., 255., 255., 253., 255., 1., 0., 255., 0., 255., 254.,
          253., 0., 2., 0., 0., 1., 0., 255., 253., 255., 0., 4., 0., 0.,
          3., 0., 0., 0., 0., 251., 1., 0., 0., 3., 0., 0., 2., 0., 0.,
          255., 0., 0., 0., 0., 0., 0., 0., 0., 1., 255., 0., 0., 0., 0.,
          0., 0., 0., 0., 0., 0. ]
      - [ 1., 0., 2., 0., 253., 255., 255., 255., 254., 255., 1., 2., 0.,
          1., 0., 255., 1., 253., 255., 255., 0., 0., 2., 0., 255., 254.,
          255., 0., 255., 254., 0., 0., 1., 0., 255., 0., 252., 0., 254.,
          255., 255., 255., 255., 255., 0., 1., 3., 1., 255., 250., 255.,
          252., 0., 0., 1., 2., 0., 252., 255., 255., 0., 5., 0., 3., 0.,
          0., 2., 2., 0., 255., 0., 0., 0., 0., 2., 0., 2., 0., 0., 255.,
          0., 0., 0., 0., 0., 0., 0., 0., 1., 255., 0., 0., 0., 0., 0.,
          0., 0., 0., 0., 0. ]
      - [ 0., 1., 0., 0., 252., 255., 255., 0., 0., 255., 0., 0., 0., 1.,
          3., 0., 0., 255., 255., 254., 0., 0., 0., 1., 252., 252., 255.,
          255., 255., 254., 0., 1., 0., 1., 255., 255., 255., 0., 255.,
          254., 253., 255., 253., 255., 0., 0., 4., 0., 255., 254., 255.,
          0., 1., 1., 0., 4., 0., 254., 253., 255., 0., 1., 2., 0., 2.,
          0., 0., 3., 0., 251., 2., 0., 0., 2., 0., 0., 1., 0., 0., 255.,
          0., 0., 0., 0., 0., 0., 0., 0., 0., 255., 0., 0., 0., 0., 0.,
          0., 0., 0., 0., 255. ]
      - [ 0., 4., 0., 0., 2., 0., 255., 254., 254., 255., 1., 0., 1., 0.,
          0., 254., 255., 1., 255., 255., 1., 2., 0., 2., 0., 0., 254.,
          0., 255., 254., 0., 1., 0., 0., 255., 2., 0., 2., 254., 255.,
          255., 253., 254., 2., 2., 0., 0., 0., 255., 250., 0., 2., 0.,
          0., 0., 1., 1., 255., 255., 255., 0., 0., 0., 5., 0., 1., 0.,
          0., 0., 255., 0., 2., 0., 0., 0., 0., 1., 0., 0., 255., 0., 0.,
          0., 0., 0., 0., 0., 0., 255., 254., 0., 0., 0., 0., 0., 0., 0.,
          0., 1., 255. ]
      - [ 0., 0., 2., 0., 255., 0., 255., 255., 254., 255., 0., 3., 1.,
          0., 0., 255., 252., 1., 255., 255., 0., 0., 2., 4., 255., 0.,
          255., 254., 255., 254., 4., 0., 0., 0., 255., 0., 0., 1., 254.,
          255., 255., 254., 254., 255., 0., 2., 0., 0., 255., 250., 254.,
          0., 3., 0., 2., 0., 0., 255., 255., 255., 0., 1., 0., 2., 0.,
          0., 3., 0., 0., 255., 0., 0., 0., 0., 0., 0., 0., 0., 0., 255.,
          0., 0., 0., 0., 0., 0., 0., 0., 0., 255., 0., 0., 0., 0., 0.,
          0., 0., 0., 0., 255. ]
      - [ 0., 0., 1., 1., 254., 2., 251., 2., 0., 1., 0., 2., 0., 0., 0.,
          0., 3., 0., 0., 254., 0., 1., 0., 3., 253., 0., 0., 0., 0.,
          255., 1., 0., 1., 0., 254., 255., 1., 2., 255., 252., 255.,
          255., 251., 255., 1., 0., 253., 0., 255., 255., 254., 0., 3.,
          0., 0., 0., 4., 255., 254., 253., 1., 0., 0., 3., 0., 0., 0.,
          0., 0., 255., 0., 4., 0., 0., 0., 2., 1., 0., 0., 255., 0., 0.,
          0., 0., 0., 0., 0., 0., 0., 255., 0., 0., 0., 0., 0., 0., 0.,
          0., 0., 255. ]
      - [ 1., 0., 0., 1., 252., 255., 255., 255., 254., 255., 0., 2., 1.,
          2., 2., 0., 1., 255., 255., 255., 0., 0., 1., 0., 251., 255.,
          255., 0., 255., 254., 1., 2., 0., 1., 255., 0., 255., 3., 254.,
          255., 253., 255., 255., 254., 1., 2., 0., 0., 255., 250., 255.,
          0., 0., 0., 0., 0., 0., 255., 255., 255., 0., 4., 0., 3., 0.,
          0., 0., 0., 0., 255., 2., 0., 1., 0., 1., 0., 0., 0., 0., 255.,
          0., 0., 0., 0., 0., 0., 0., 0., 1., 255., 0., 0., 0., 0., 0.,
          0., 0., 0., 0., 0. ]
      - [ 0., 2., 0., 0., 255., 0., 255., 255., 0., 255., 0., 0., 2., 0.,
          0., 255., 255., 253., 255., 254., 1., 2., 0., 3., 253., 255.,
          255., 1., 255., 254., 0., 0., 0., 0., 255., 0., 255., 0., 255.,
          254., 255., 255., 255., 0., 0., 1., 0., 2., 255., 254., 255.,
          0., 0., 2., 0., 2., 0., 255., 253., 255., 0., 0., 1., 0., 0.,
          0., 2., 0., 0., 251., 2., 0., 1., 0., 1., 0., 1., 0., 0., 255.,
          0., 0., 0., 0., 0., 0., 0., 0., 1., 255., 0., 0., 0., 0., 0.,
          0., 0., 0., 0., 0. ]
      - [ 2., 0., 0., 1., 0., 0., 1., 0., 1., 253., 0., 0., 0., 1., 0.,
          0., 3., 0., 0., 255., 0., 4., 0., 0., 2., 0., 0., 4., 255.,
          253., 0., 0., 3., 0., 0., 0., 2., 0., 255., 255., 3., 2., 0.,
          0., 0., 0., 3., 0., 255., 254., 0., 0., 3., 1., 0., 0., 1.,
          255., 255., 2., 2., 0., 0., 0., 0., 1., 0., 1., 0., 253., 0.,
          0., 1., 0., 255., 0., 255., 255., 0., 255., 1., 0., 0., 255.,
          255., 253., 255., 255., 255., 255., 0., 1., 3., 255., 0., 255.,
          255., 255., 254., 0. ]
      - [ 0., 0., 1., 2., 0., 1., 0., 1., 2., 0., 3., 1., 0., 3., 0., 1.,
          1., 0., 0., 255., 0., 0., 0., 0., 3., 0., 0., 1., 1., 254., 0.,
          3., 0., 2., 0., 0., 3., 0., 253., 255., 0., 0., 3., 0., 0., 2.,
          0., 1., 255., 255., 4., 0., 1., 0., 0., 2., 2., 254., 254.,
          255., 0., 0., 0., 2., 3., 0., 0., 2., 0., 254., 0., 2., 1., 0.,
          0., 2., 254., 255., 255., 255., 0., 0., 0., 255., 255., 254.,
          255., 255., 255., 255., 0., 0., 0., 255., 255., 254., 255.,
          255., 254., 0. ]
      - [ 0., 1., 1., 0., 5., 0., 0., 255., 253., 255., 0., 0., 1., 2.,
          0., 0., 5., 0., 255., 1., 4., 0., 1., 1., 0., 1., 252., 1.,
          255., 255., 0., 2., 0., 0., 1., 1., 3., 253., 255., 254., 1.,
          1., 0., 0., 1., 0., 1., 255., 254., 255., 1., 0., 1., 1., 2.,
          1., 0., 255., 255., 255., 0., 0., 2., 0., 0., 0., 0., 1., 0.,
          255., 1., 2., 0., 0., 1., 0., 255., 0., 255., 0., 0., 1., 3.,
          254., 1., 254., 254., 0., 255., 0., 3., 0., 251., 255., 253.,
          255., 255., 255., 255., 0. ]
      - [ 1., 0., 0., 2., 0., 2., 0., 0., 0., 254., 0., 0., 2., 1., 2.,
          0., 0., 3., 1., 253., 2., 0., 0., 0., 0., 2., 1., 0., 253.,
          255., 0., 0., 6., 0., 0., 0., 0., 0., 254., 255., 0., 2., 0.,
          0., 0., 1., 0., 4., 254., 255., 0., 1., 0., 0., 2., 0., 0., 0.,
          253., 255., 2., 0., 0., 0., 0., 0., 3., 3., 1., 253., 0., 2.,
          1., 1., 0., 1., 254., 0., 0., 254., 0., 2., 0., 0., 255., 253.,
          255., 255., 0., 255., 0., 1., 255., 255., 255., 254., 255.,
          254., 0., 255. ]
      - [ 1., 0., 0., 0., 1., 1., 0., 2., 0., 255., 0., 0., 0., 1., 1.,
          0., 1., 0., 0., 255., 2., 0., 1., 1., 1., 0., 0., 0., 2., 254.,
          0., 1., 0., 0., 0., 1., 2., 0., 255., 249., 0., 3., 0., 2., 1.,
          0., 2., 1., 250., 255., 0., 0., 0., 0., 1., 1., 2., 253., 255.,
          0., 3., 0., 2., 5., 0., 0., 0., 0., 0., 255., 0., 2., 0., 0.,
          1., 0., 2., 0., 0., 0., 1., 4., 0., 1., 0., 254., 254., 0., 0.,
          255., 0., 0., 255., 254., 255., 253., 255., 253., 0., 255. ]
      - [ 1., 0., 1., 0., 0., 0., 0., 1., 255., 251., 0., 0., 0., 1., 0.,
          1., 0., 0., 1., 255., 0., 4., 0., 0., 2., 0., 1., 2., 255.,
          252., 0., 0., 0., 0., 1., 0., 0., 255., 255., 255., 2., 0., 2.,
          2., 0., 0., 1., 2., 255., 253., 0., 3., 0., 0., 1., 4., 0.,
          252., 255., 1., 1., 0., 0., 0., 3., 0., 0., 2., 1., 255., 0.,
          1., 2., 0., 0., 4., 254., 255., 254., 255., 0., 1., 0., 0., 0.,
          255., 255., 255., 254., 0., 0., 0., 254., 255., 255., 255.,
          252., 255., 255., 255. ]
      - [ 0., 0., 1., 2., 0., 1., 0., 1., 254., 255., 3., 1., 0., 3., 0.,
          1., 1., 0., 0., 254., 0., 0., 0., 0., 3., 0., 0., 1., 255.,
          255., 0., 3., 0., 2., 0., 0., 3., 0., 255., 253., 0., 0., 3.,
          0., 0., 2., 0., 1., 255., 253., 4., 0., 1., 0., 0., 2., 2.,
          254., 255., 255., 0., 0., 0., 2., 3., 0., 0., 2., 0., 254., 0.,
          2., 1., 0., 0., 2., 254., 255., 254., 255., 0., 0., 0., 0., 1.,
          255., 252., 1., 255., 1., 1., 0., 0., 253., 255., 255., 255.,
          254., 1., 1. ]
      - [ 0., 0., 0., 0., 0., 0., 0., 0., 0., 0., 0., 0., 0., 0., 0., 0.,
          0., 0., 0., 255., 0., 0., 0., 0., 0., 0., 0., 0., 0., 255., 0.,
          0., 0., 0., 0., 0., 0., 0., 255., 255., 0., 0., 0., 0., 0., 0.,
          0., 0., 253., 253., 0., 0., 0., 0., 0., 0., 0., 0., 255., 0.,
          0., 0., 0., 0., 0., 0., 0., 0., 0., 255., 0., 0., 0., 0., 0.,
          0., 0., 0., 0., 254., 0., 0., 0., 0., 1., 255., 252., 1., 0.,
          255., 1., 0., 0., 253., 255., 255., 255., 254., 0., 255. ]
      - [ 0., 0., 0., 0., 0., 0., 0., 0., 1., 0., 0., 0., 0., 0., 0., 0.,
          0., 0., 0., 1., 0., 0., 0., 0., 0., 0., 0., 0., 0., 255., 0.,
          0., 0., 0., 0., 0., 0., 0., 0., 253., 0., 0., 0., 0., 0., 0.,
          0., 0., 255., 255., 0., 0., 0., 0., 0., 0., 0., 0., 255., 250.,
          0., 0., 0., 0., 0., 0., 0., 0., 1., 254., 0., 0., 0., 0., 0.,
          0., 0., 0., 0., 255., 0., 0., 0., 0., 1., 255., 252., 1., 0.,
          255., 1., 0., 0., 253., 255., 255., 255., 254., 0., 255. ]
      - [ 1., 0., 0., 0., 1., 1., 0., 2., 0., 253., 0., 0., 0., 1., 1.,
          0., 1., 0., 0., 253., 2., 0., 1., 1., 1., 0., 0., 0., 1., 255.,
          0., 1., 0., 0., 0., 1., 2., 0., 254., 254., 0., 3., 0., 2., 1.,
          0., 2., 1., 255., 253., 0., 0., 0., 0., 1., 1., 2., 253., 254.,
          255., 3., 0., 2., 5., 0., 0., 0., 0., 1., 253., 0., 2., 0., 0.,
          1., 0., 2., 0., 0., 255., 0., 0., 0., 0., 1., 255., 252., 1.,
          0., 255., 1., 0., 0., 253., 255., 255., 255., 254., 0., 255. ]
      - [ 0., 0., 1., 2., 0., 1., 0., 1., 0., 254., 3., 1., 0., 3., 0.,
          1., 1., 0., 1., 253., 0., 0., 0., 0., 3., 0., 0., 1., 253.,
          255., 0., 3., 0., 2., 0., 0., 3., 0., 254., 255., 0., 0., 3.,
          0., 0., 2., 0., 1., 254., 255., 4., 0., 1., 0., 0., 2., 2.,
          254., 253., 255., 0., 0., 0., 2., 3., 0., 0., 2., 1., 253., 0.,
          2., 1., 0., 0., 2., 254., 255., 0., 254., 0., 2., 0., 0., 255.,
          253., 255., 255., 255., 255., 0., 1., 255., 255., 255., 254.,
          255., 254., 255., 255. ]
      - [ 0., 1., 1., 1., 0., 0., 0., 1., 0., 254., 4., 0., 0., 1., 0.,
          4., 0., 0., 1., 253., 0., 0., 2., 0., 2., 0., 0., 2., 253.,
          255., 0., 0., 0., 3., 0., 1., 1., 255., 254., 255., 0., 0., 5.,
          0., 0., 2., 2., 0., 254., 255., 1., 0., 0., 3., 1., 0., 1.,
          254., 253., 255., 2., 0., 0., 0., 0., 1., 1., 1., 1., 253., 0.,
          0., 2., 0., 0., 2., 251., 2., 0., 254., 0., 2., 0., 0., 255.,
          255., 253., 0., 0., 255., 4., 0., 254., 255., 255., 252., 255.,
          255., 0., 255. ]
      - [ 1., 0., 0., 2., 0., 2., 0., 0., 0., 255., 0., 0., 2., 1., 2.,
          0., 0., 3., 0., 254., 2., 0., 0., 0., 0., 2., 1., 0., 0., 255.,
          0., 0., 6., 0., 0., 0., 0., 0., 2., 255., 0., 2., 0., 0., 0.,
          1., 0., 4., 254., 253., 0., 1., 0., 0., 2., 0., 0., 0., 255.,
          0., 2., 0., 0., 0., 0., 0., 3., 3., 0., 254., 0., 2., 1., 1.,
          0., 1., 254., 0., 1., 255., 0., 1., 0., 0., 0., 255., 255.,
          255., 0., 255., 0., 0., 254., 255., 255., 255., 252., 255., 0.,
          255. ]
      - [ 0., 0., 3., 0., 1., 0., 0., 1., 0., 254., 0., 1., 0., 3., 0.,
          0., 5., 0., 1., 253., 1., 0., 1., 0., 1., 0., 0., 0., 253.,
          255., 1., 0., 0., 2., 0., 3., 2., 2., 254., 255., 1., 0., 2.,
          0., 0., 1., 0., 0., 254., 255., 0., 1., 0., 1., 0., 0., 1., 2.,
          253., 255., 0., 2., 0., 0., 7., 0., 0., 0., 1., 253., 1., 0.,
          0., 1., 0., 0., 255., 255., 0., 254., 0., 2., 0., 0., 255.,
          253., 255., 255., 255., 255., 0., 1., 255., 255., 255., 254.,
          255., 254., 254., 0. ]
      - [ 0., 0., 3., 0., 1., 0., 0., 1., 0., 252., 0., 1., 0., 3., 0.,
          0., 5., 0., 2., 255., 1., 0., 1., 0., 1., 0., 0., 0., 0., 255.,
          1., 0., 0., 2., 0., 3., 2., 2., 255., 1., 1., 0., 2., 0., 0.,
          1., 0., 0., 255., 253., 0., 1., 0., 1., 0., 0., 1., 2., 254.,
          2., 0., 2., 0., 0., 7., 0., 0., 0., 2., 251., 1., 0., 0., 1.,
          0., 0., 255., 255., 0., 255., 1., 4., 0., 1., 0., 254., 254.,
          0., 0., 254., 0., 0., 255., 254., 255., 253., 255., 253., 254.,
          254. ]
      - [ 1., 0., 0., 2., 0., 2., 0., 0., 0., 2., 0., 0., 2., 1., 2., 0.,
          0., 3., 2., 253., 2., 0., 0., 0., 0., 2., 1., 0., 0., 255., 0.,
          0., 6., 0., 0., 0., 0., 0., 0., 255., 0., 2., 0., 0., 0., 1.,
          0., 4., 253., 255., 0., 1., 0., 0., 2., 0., 0., 0., 255., 255.,
          2., 0., 0., 0., 0., 0., 3., 3., 0., 255., 0., 2., 1., 1., 0.,
          1., 254., 0., 3., 250., 0., 1., 0., 1., 1., 252., 255., 255.,
          0., 255., 0., 0., 2., 255., 255., 255., 255., 255., 0., 255. ]
      - [ 0., 3., 0., 0., 0., 3., 0., 0., 0., 255., 1., 0., 0., 3., 2.,
          0., 2., 0., 1., 255., 0., 1., 1., 0., 0., 0., 2., 0., 1., 252.,
          2., 0., 0., 0., 5., 1., 0., 1., 255., 255., 0., 2., 0., 0., 0.,
          0., 2., 0., 255., 250., 0., 1., 2., 0., 3., 0., 0., 255., 255.,
          255., 2., 0., 1., 0., 0., 0., 0., 0., 254., 0., 1., 0., 0., 0.,
          1., 0., 255., 0., 255., 0., 0., 0., 2., 0., 0., 255., 255.,
          254., 254., 0., 0., 0., 0., 255., 0., 252., 254., 255., 255.,
          255. ]
      - [ 0., 0., 0., 0., 0., 0., 0., 0., 1., 1., 0., 0., 0., 0., 0., 0.,
          0., 0., 0., 0., 0., 0., 0., 0., 0., 0., 0., 0., 0., 255., 0.,
          0., 0., 0., 0., 0., 0., 0., 0., 254., 0., 0., 0., 0., 0., 0.,
          0., 0., 255., 255., 0., 0., 0., 0., 0., 0., 0., 0., 255., 0.,
          0., 0., 0., 0., 0., 0., 0., 0., 0., 255., 0., 0., 0., 0., 0.,
          0., 0., 0., 2., 253., 1., 4., 0., 1., 0., 254., 254., 0., 0.,
          255., 0., 0., 255., 254., 255., 253., 255., 253., 0., 255. ]
      - [ 0., 3., 0., 0., 0., 3., 0., 0., 3., 0., 1., 0., 0., 3., 2., 0.,
          2., 0., 0., 254., 0., 1., 1., 0., 0., 0., 2., 0., 0., 255., 2.,
          0., 0., 0., 5., 1., 0., 1., 255., 252., 0., 2., 0., 0., 0., 0.,
          2., 0., 254., 255., 0., 1., 2., 0., 3., 0., 0., 255., 255.,
          253., 2., 0., 1., 0., 0., 0., 0., 0., 255., 0., 1., 0., 0., 0.,
          1., 0., 255., 0., 255., 0., 0., 2., 0., 0., 255., 253., 255.,
          255., 255., 1., 0., 1., 255., 255., 255., 254., 255., 254., 0.,
          255. ]
      - [ 0., 1., 0., 0., 255., 0., 255., 0., 0., 255., 1., 2., 2., 0.,
          1., 0., 0., 3., 255., 0., 0., 0., 0., 1., 255., 0., 4., 252.,
          0., 4., 1., 0., 2., 0., 255., 253., 0., 1., 0., 0., 0., 2., 0.,
          0., 253., 255., 255., 1., 2., 2., 0., 1., 252., 1., 0., 2., 0.,
          0., 0., 0., 255., 252., 255., 253., 0., 0., 1., 0., 3., 0.,
          255., 254., 0., 0., 0., 0., 0., 2., 0., 1., 255., 255., 0., 0.,
          0., 0., 2., 1., 0., 0., 254., 255., 255., 255., 1., 0., 0., 0.,
          0., 0. ]
      - [ 1., 0., 0., 1., 255., 0., 254., 0., 0., 255., 0., 3., 0., 1.,
          0., 2., 1., 253., 254., 255., 1., 0., 3., 0., 255., 255., 251.,
          255., 255., 0., 0., 4., 0., 0., 255., 253., 254., 2., 0., 0.,
          1., 1., 0., 0., 253., 0., 3., 0., 3., 0., 0., 0., 255., 255.,
          2., 0., 0., 1., 1., 1., 0., 255., 255., 255., 0., 1., 2., 0.,
          0., 0., 0., 255., 255., 0., 0., 1., 0., 0., 0., 0., 0., 255.,
          0., 1., 0., 0., 2., 0., 0., 0., 255., 252., 255., 0., 0., 1.,
          3., 0., 0., 0. ]
      - [ 1., 1., 0., 1., 254., 254., 255., 1., 0., 255., 0., 0., 0., 1.,
          0., 2., 0., 0., 0., 3., 0., 4., 0., 0., 255., 254., 255., 255.,
          254., 0., 0., 0., 0., 4., 253., 2., 255., 255., 1., 0., 1., 1.,
          255., 0., 255., 0., 0., 0., 2., 0., 0., 253., 255., 0., 1., 3.,
          0., 1., 0., 1., 255., 255., 253., 255., 0., 0., 4., 0., 0., 0.,
          255., 255., 0., 0., 0., 0., 1., 0., 0., 0., 255., 255., 0., 0.,
          0., 0., 2., 1., 0., 0., 254., 255., 255., 255., 1., 0., 0., 0.,
          0., 0. ]
      - [ 0., 0., 0., 2., 255., 0., 255., 254., 255., 255., 0., 0., 2.,
          0., 1., 255., 253., 0., 0., 0., 0., 1., 1., 1., 253., 3., 251.,
          3., 253., 2., 3., 0., 0., 2., 255., 0., 2., 0., 1., 2., 253.,
          255., 254., 252., 0., 1., 0., 2., 0., 2., 2., 255., 255., 4.,
          1., 0., 0., 0., 0., 0., 251., 255., 0., 0., 0., 1., 3., 0., 0.,
          0., 255., 0., 3., 0., 2., 0., 2., 0., 2., 0., 254., 255., 0.,
          2., 2., 0., 0., 0., 0., 0., 255., 255., 254., 0., 0., 0., 1.,
          0., 0., 0. ]
      - [ 0., 0., 0., 3., 254., 253., 255., 254., 0., 255., 2., 0., 2.,
          0., 0., 255., 253., 255., 255., 0., 0., 1., 1., 0., 254., 255.,
          255., 255., 252., 4., 2., 3., 0., 3., 254., 2., 0., 1., 0., 1.,
          253., 254., 255., 3., 0., 0., 0., 0., 0., 4., 255., 0., 255.,
          0., 0., 2., 0., 3., 1., 0., 253., 255., 0., 0., 3., 0., 0., 0.,
          0., 3., 255., 255., 0., 1., 2., 0., 4., 0., 1., 0., 255., 255.,
          255., 0., 0., 1., 0., 0., 0., 0., 255., 255., 255., 0., 0., 1.,
          0., 0., 0., 0. ]
      - [ 0., 1., 0., 2., 255., 1., 255., 255., 255., 255., 1., 0., 0.,
          1., 0., 253., 255., 0., 0., 0., 0., 0., 6., 1., 251., 0., 255.,
          1., 253., 2., 2., 0., 0., 0., 255., 0., 0., 0., 1., 2., 253.,
          255., 255., 0., 1., 2., 0., 2., 0., 2., 255., 2., 255., 0., 0.,
          0., 2., 2., 0., 0., 253., 255., 2., 255., 1., 0., 2., 0., 0.,
          0., 2., 254., 0., 0., 0., 1., 0., 2., 2., 0., 254., 255., 0.,
          2., 2., 0., 0., 0., 0., 0., 255., 255., 254., 0., 0., 0., 1.,
          0., 0., 0. ]
      - [ 0., 1., 0., 1., 0., 0., 255., 254., 255., 255., 0., 4., 0., 0.,
          5., 252., 255., 1., 0., 0., 0., 0., 0., 2., 0., 0., 255., 0.,
          0., 0., 3., 0., 2., 0., 255., 0., 0., 0., 0., 0., 255., 255.,
          254., 0., 0., 4., 2., 0., 0., 0., 252., 3., 254., 0., 2., 0.,
          1., 1., 0., 0., 255., 253., 2., 253., 3., 2., 0., 0., 0., 0.,
          255., 254., 1., 0., 0., 0., 1., 0., 0., 0., 255., 255., 255.,
          0., 0., 1., 0., 0., 0., 0., 255., 255., 255., 0., 0., 1., 0.,
          0., 0., 0. ]
      - [ 0., 1., 0., 1., 255., 0., 255., 254., 0., 255., 0., 1., 2., 0.,
          1., 254., 254., 2., 255., 0., 0., 4., 1., 0., 1., 0., 255., 1.,
          0., 4., 2., 0., 0., 5., 252., 2., 0., 0., 0., 0., 255., 250.,
          255., 255., 0., 1., 0., 1., 2., 2., 1., 255., 253., 255., 0.,
          0., 0., 0., 0., 0., 254., 253., 254., 255., 0., 0., 0., 0., 3.,
          0., 255., 255., 255., 0., 1., 1., 0., 1., 0., 1., 0., 255., 0.,
          1., 0., 0., 2., 0., 0., 0., 255., 252., 255., 0., 0., 1., 3.,
          0., 0., 0. ]
      - [ 0., 4., 0., 0., 1., 0., 255., 254., 255., 255., 1., 0., 0., 0.,
          0., 255., 254., 3., 0., 0., 0., 3., 2., 1., 255., 0., 255., 0.,
          253., 2., 1., 0., 0., 2., 254., 0., 2., 0., 1., 2., 255., 2.,
          0., 0., 0., 0., 1., 1., 0., 2., 0., 2., 254., 0., 0., 1., 0.,
          0., 0., 0., 255., 249., 4., 0., 0., 1., 0., 0., 0., 0., 253.,
          3., 0., 0., 1., 0., 2., 0., 2., 0., 255., 0., 0., 1., 0., 2.,
          1., 0., 0., 0., 255., 255., 255., 0., 3., 1., 0., 1., 0., 0. ]
      - [ 0., 1., 0., 0., 255., 0., 255., 255., 255., 255., 0., 0., 1.,
          0., 0., 255., 252., 1., 0., 0., 1., 0., 2., 0., 255., 0., 255.,
          0., 0., 0., 1., 0., 0., 2., 255., 0., 0., 0., 0., 0., 254.,
          255., 254., 0., 0., 0., 3., 0., 0., 0., 253., 1., 255., 0., 2.,
          2., 0., 1., 0., 0., 255., 255., 253., 254., 0., 1., 0., 1., 0.,
          0., 255., 253., 2., 0., 1., 0., 0., 0., 0., 0., 255., 255., 0.,
          1., 0., 0., 0., 0., 0., 0., 255., 255., 0., 1., 0., 0., 0., 0.,
          0., 0. ]
      - [ 2., 0., 0., 0., 254., 255., 255., 0., 0., 255., 0., 0., 0., 0.,
          0., 255., 0., 255., 255., 0., 1., 0., 1., 3., 251., 255., 255.,
          255., 0., 4., 0., 0., 2., 0., 255., 0., 254., 0., 0., 0., 255.,
          1., 250., 255., 255., 0., 255., 5., 2., 2., 254., 255., 255.,
          0., 1., 2., 0., 0., 0., 0., 253., 255., 1., 2., 1., 0., 4., 1.,
          3., 0., 255., 255., 0., 0., 0., 3., 0., 0., 0., 1., 255., 254.,
          0., 0., 0., 1., 0., 1., 0., 0., 254., 4., 255., 0., 0., 1., 0.,
          0., 0., 0. ]
      - [ 1., 0., 0., 1., 254., 255., 255., 254., 0., 255., 0., 0., 4.,
          0., 0., 1., 0., 255., 255., 0., 0., 2., 0., 0., 255., 255.,
          255., 253., 0., 4., 4., 0., 2., 0., 255., 0., 251., 3., 0., 0.,
          0., 0., 255., 253., 255., 0., 1., 2., 2., 2., 0., 255., 255.,
          255., 0., 0., 0., 0., 0., 0., 1., 254., 255., 252., 255., 0.,
          4., 0., 3., 0., 0., 0., 254., 255., 1., 1., 0., 1., 0., 1., 0.,
          254., 255., 254., 1., 1., 2., 0., 0., 0., 3., 3., 253., 255.,
          0., 0., 0., 2., 0., 0. ]
      - [ 2., 0., 1., 0., 255., 1., 252., 2., 0., 255., 0., 2., 2., 0.,
          0., 254., 255., 253., 255., 0., 1., 2., 0., 0., 0., 0., 255.,
          255., 252., 4., 0., 0., 2., 0., 255., 0., 255., 0., 0., 1.,
          255., 255., 254., 255., 0., 0., 0., 2., 0., 4., 255., 2., 255.,
          0., 4., 0., 0., 1., 1., 0., 0., 255., 255., 252., 1., 1., 2.,
          0., 0., 3., 0., 254., 2., 1., 0., 0., 0., 1., 1., 0., 254.,
          255., 0., 2., 2., 0., 0., 0., 0., 0., 255., 255., 254., 0., 0.,
          0., 1., 0., 0., 0. ]
      - [ 0., 0., 1., 0., 255., 0., 255., 255., 254., 255., 4., 0., 0.,
          0., 0., 255., 254., 0., 255., 3., 0., 0., 3., 0., 255., 0.,
          254., 2., 0., 0., 1., 2., 1., 0., 255., 1., 0., 0., 1., 0.,
          254., 253., 255., 2., 0., 3., 0., 2., 1., 1., 255., 255., 254.,
          2., 0., 0., 5., 0., 0., 2., 255., 253., 2., 255., 0., 0., 2.,
          1., 0., 0., 0., 255., 0., 1., 2., 0., 0., 0., 0., 2., 254.,
          255., 0., 2., 2., 0., 0., 0., 0., 0., 255., 255., 254., 0., 0.,
          0., 1., 0., 0., 0. ]
      - [ 0., 1., 2., 0., 253., 255., 254., 0., 0., 255., 2., 0., 0., 3.,
          0., 0., 2., 253., 255., 0., 0., 0., 3., 0., 255., 254., 254.,
          255., 0., 4., 3., 0., 0., 0., 254., 255., 253., 1., 0., 0.,
          255., 0., 0., 255., 255., 0., 0., 2., 2., 2., 0., 255., 255.,
          0., 0., 2., 3., 0., 0., 0., 255., 255., 254., 2., 0., 2., 0.,
          2., 3., 0., 255., 255., 0., 2., 0., 0., 1., 0., 0., 1., 255.,
          0., 0., 1., 0., 2., 1., 0., 0., 0., 255., 255., 255., 0., 3.,
          1., 0., 1., 0., 0. ]
      - [ 0., 3., 0., 0., 255., 1., 254., 255., 254., 255., 2., 0., 2.,
          3., 0., 254., 254., 1., 255., 3., 0., 0., 0., 0., 255., 2.,
          255., 0., 0., 0., 0., 1., 1., 0., 255., 0., 0., 1., 1., 0.,
          254., 255., 253., 255., 0., 1., 1., 2., 1., 1., 254., 2., 254.,
          1., 5., 1., 0., 0., 0., 2., 255., 252., 1., 0., 0., 0., 2., 0.,
          0., 0., 252., 255., 0., 3., 0., 1., 1., 0., 0., 2., 254., 255.,
          0., 2., 2., 0., 0., 0., 0., 0., 255., 255., 254., 0., 0., 0.,
          1., 0., 0., 0. ]
      - [ 1., 0., 0., 2., 254., 0., 255., 255., 255., 255., 0., 0., 0.,
          1., 0., 255., 255., 0., 0., 0., 2., 0., 0., 0., 255., 0., 255.,
          0., 0., 0., 0., 3., 0., 1., 255., 2., 0., 1., 0., 0., 254., 1.,
          254., 0., 251., 1., 1., 1., 0., 0., 1., 253., 255., 3., 1., 0.,
          0., 0., 0., 0., 255., 255., 254., 255., 1., 0., 6., 0., 0., 0.,
          0., 255., 0., 0., 1., 0., 0., 0., 0., 0., 254., 255., 0., 2.,
          2., 0., 0., 0., 0., 0., 255., 255., 254., 0., 0., 0., 1., 0.,
          0., 0. ]
   decision_functions:
      -
         sv_count: 25
         rho: -1.3868798194351678e-01
         alpha: [ 1.0000000000000001e-01, 1.0000000000000001e-01,
             1.0000000000000001e-01, 1.0000000000000001e-01,
             1.0000000000000001e-01, 1.0000000000000001e-01,
             1.0000000000000001e-01, 1.0000000000000001e-01,
             1.0000000000000001e-01, 3.5957589634739523e-02,
             1.0000000000000001e-01, 1.0000000000000001e-01,
             -1.0000000000000001e-01, -2.1086481211741861e-02,
             -1.0000000000000001e-01, -1.0000000000000001e-01,
             -1.0000000000000001e-01, -1.0000000000000001e-01,
             -1.0000000000000001e-01, -1.0000000000000001e-01,
             -7.7694395334962363e-02, -1.0000000000000001e-01,
             -1.0000000000000001e-01, -1.0000000000000001e-01,
             -3.7176713088035308e-02 ]
         index: [ 56, 58, 59, 60, 63, 65, 66, 67, 68, 69, 70, 64, 23, 28,
             29, 32, 34, 35, 27, 25, 24, 22, 21, 20, 18 ]
      -
         sv_count: 24
         rho: 4.2673912581547763e-02
         alpha: [ 6.4582930788449150e-02, 1.0000000000000001e-01,
             1.0000000000000001e-01, 1.0000000000000001e-01,
             1.0000000000000001e-01, 1.0000000000000001e-01,
             1.0000000000000001e-01, 7.0784830727719836e-02,
             1.0000000000000001e-01, 8.4698154676318166e-02,
             2.2967456409958592e-02, 1.0000000000000001e-01,
             -1.0000000000000001e-01, -1.0000000000000001e-01,
             -1.0000000000000001e-01, -7.5344809886405753e-03,
             -1.0000000000000001e-01, -9.4866797462196409e-02,
             -1.0000000000000001e-01, -1.0000000000000001e-01,
             -1.0000000000000001e-01, -1.0000000000000001e-01,
             -6.5835267075628479e-02, -7.4796827075980329e-02 ]
         index: [ 71, 55, 56, 57, 60, 61, 62, 63, 66, 67, 68, 64, 1, 9,
             16, 14, 13, 8, 7, 6, 5, 4, 3, 2 ]
      -
         sv_count: 13
         rho: -9.2745968438003784e-02
         alpha: [ 1.0000000000000001e-01, 1.0000000000000001e-01,
             1.1408031413452502e-02, 3.5949319759442121e-02,
             6.7566158810444935e-02, 1.0000000000000001e-01,
             1.0000000000000001e-01, -1.0000000000000001e-01,
             -7.2058276080535708e-02, -1.0000000000000001e-01,
             -4.2865233902803862e-02, -1.0000000000000001e-01,
             -1.0000000000000001e-01 ]
         index: [ 55, 56, 57, 58, 61, 63, 66, 38, 39, 40, 41, 48, 50 ]
      -
         sv_count: 12
         rho: 3.7644683483843887e-02
         alpha: [ 6.0442410103869491e-02, 1.0000000000000001e-01,
             1.0000000000000001e-01, 1.4459474352651177e-02,
             7.1728033521482007e-02, 1.0000000000000001e-01,
             3.4780389560342649e-02, -1.0000000000000001e-01,
             -1.0000000000000001e-01, -8.1410307538345328e-02,
             -1.0000000000000001e-01, -1.0000000000000001e-01 ]
         index: [ 31, 33, 26, 25, 22, 21, 18, 1, 14, 5, 4, 0 ]
      -
         sv_count: 25
         rho: 1.5564109023527867e-01
         alpha: [ 9.3790065013689583e-02, 8.8427704441694038e-02,
             1.0000000000000001e-01, 1.0000000000000001e-01,
             1.0550112661096758e-02, 1.0000000000000001e-01,
             1.0000000000000001e-01, 1.0000000000000001e-01,
             2.3824324217273207e-02, 1.0000000000000001e-01,
             1.0000000000000001e-01, 8.7094052758587531e-02,
             1.0000000000000001e-01, -1.0000000000000001e-01,
             -1.0000000000000001e-01, -1.0000000000000001e-01,
             -9.7406492889797705e-02, -1.0000000000000001e-01,
             -1.0000000000000001e-01, -1.0000000000000001e-01,
             -1.0000000000000001e-01, -1.0000000000000001e-01,
             -1.0000000000000001e-01, -6.2797662025433423e-03,
             -1.0000000000000001e-01 ]
         index: [ 23, 28, 30, 31, 32, 33, 27, 26, 25, 24, 19, 18, 17, 36,
             47, 38, 39, 40, 41, 42, 43, 44, 45, 46, 52 ]
      -
         sv_count: 22
         rho: -6.4704960953451990e-02
         alpha: [ 1.0000000000000001e-01, 1.0000000000000001e-01,
             1.0000000000000001e-01, 8.9338565736074294e-02,
             1.0000000000000001e-01, 1.0000000000000001e-01,
             1.0000000000000001e-01, 8.4130832009752229e-02,
             5.8436397805362653e-02, 5.6002000343278749e-02,
             -1.0000000000000001e-01, -1.1161526841088629e-02,
             -7.0974058929492420e-02, -7.4090132003746846e-03,
             -1.0000000000000001e-01, -1.0000000000000001e-01,
             -9.4551708111101196e-02, -1.0000000000000001e-01,
             -3.8114888124110282e-03, -1.0000000000000001e-01,
             -1.0000000000000001e-01, -1.0000000000000001e-01 ]
         index: [ 1, 16, 15, 14, 12, 11, 10, 5, 3, 0, 36, 38, 39, 41, 37,
             48, 49, 50, 51, 52, 53, 54 ]
