%YAML:1.0
---
opencv_ml_svm:
   format: 3
   svmType: C_SVC
   kernel:
      type: RBF
      gamma: 2.
   C: 8.
   term_criteria: { iterations:10000 }
   var_count: 100
   class_count: 2
   class_labels: !!opencv-matrix
      rows: 2
      cols: 1
      dt: i
      data: [ -1, 1 ]
   sv_total: 33
   support_vectors:
      - [ 0., 1.73241375e-07, -3.90719367e-23, -2.47737598e+03,
          -4.23087795e-06, -337564896., 7.39595947e+02, -3.02430850e-28,
          -3.86709963e+13, 3.34703101e+03, -3.96536110e-10,
          9.30726385e-10, -3.39313050e+38, 3.62997534e+12,
          9.47063173e+14, 1.67756846e+22, 4.37102201e+24, 7.71415034e+31,
          2.00765612e+34, -3.09104254e-36, -8.15664234e-34,
          -3.69921877e-27, -9.73128163e-25, -4.19044073e-18,
          -1.14937998e-15, -3.01374567e-13, -1.34633433e-06,
          -3.52320902e-04, -1.56608521e+03, -4.09142156e+05,
          -1.81069061e+12, -4.72427746e+14, -5.04635938e+20,
          -1.35112907e+23, -3.51957374e+25, -3.84961682e+31,
          -1.00179184e+34, .Nan, 2.49798659e-38, 5.00000060e-01,
          -2.64158103e+37, 7.21068960e-03, 6.26522999e-27,
          -2.22344326e-35, -2.96459057e+38, -2.04315705e+21,
          2.21228423e-25, 2.25311176e-11, -1.73638989e+16,
          5.04407799e-04, 2.93842331e-02, 8.85157598e-23,
          -1.52205689e-30, -4.17850028e-19, 1.09741093e-04,
          -1.37665606e+00, 2.69898417e-31, 4.73786860e+10,
          -8.98950667e+15, -3.64494916e+13, -2.51268558e+33,
          -1.70081278e+33, -1.94565304e+23, -6.63081590e-10,
          -1.56950883e-10, 9.30726385e-10, -3.39313050e+38,
          4.14244724e-12, .Nan, 2.62279465e+38, -9.75380999e+35,
          -6.82388793e+20, -3.31578696e+29, 2.34521409e-38,
          8.73853390e-32, -1.18751095e-28, 2.30985471e+38,
          2.66679544e-02, 1.73241375e-07, -3.90719367e-23,
          -2.47737598e+03, -4.23087795e-06, -337564896., 7.39595947e+02,
          -3.02430850e-28, -3.86709963e+13, 3.34703101e+03, -457175008.,
          7.39595947e+02, -3.02430850e-28, -3.86709963e+13,
          3.34703101e+03, 2.00199574e-38, 0., 0., 0., 0., 0., 0., 0. ]
      - [ 1., 1.00825135e-34, 2.65846276e-32, 7.00365327e-30,
          1.84362032e-27, 4.84942184e-25, 1.27466897e-22, 3.34818801e-20,
          8.78905209e-18, 2.30572617e-15, 6.04532483e-13, 1.58412561e-10,
          4.14885903e-08, 1.08604327e-05, 2.84154527e-03, 7.43121862e-01,
          1.94254883e+02, 5.07572656e+04, 13257032., 3.46117222e+09,
          9.03307330e+11, 2.35661970e+14, 6.14597794e+16, 1.60230642e+19,
          4.17598077e+21, 1.08801462e+24, 2.83386409e+26, 7.37897153e+28,
          1.92083225e+31, 4.99877836e+33, 1.30053789e+36, 3.38275463e+38,
          -7.67044502e-37, -2.02405525e-34, -5.33626005e-32,
          -1.40568029e-29, -3.69991172e-27, -9.73128163e-25,
          -2.55764205e-22, -6.71763457e-20, -1.76325260e-17,
          -4.62538434e-15, -1.21263156e-12, -3.17738169e-10,
          -8.32109208e-08, -2.17807028e-05, -5.69840893e-03,
          -1.49016523e+00, -3.89513672e+02, -1.01771531e+05, -26579856.,
          -6.93918720e+09, -1.81092640e+12, -4.72427746e+14,
          -1.23202133e+17, -3.21184675e+19, -8.37048034e+21,
          -2.18077005e+24, -5.67986466e+26, -1.47890124e+29,
          -3.84961827e+31, -1.00179184e+34, -2.60628837e+36, .Nan, .Nan,
          .Nan, .Nan, .Nan, .Nan, .Nan, .Nan, .Nan, .Nan, .Nan, .Nan,
          .Nan, .Nan, .Nan, .Nan, .Nan, .Nan, .Nan, .Nan, .Nan, .Nan,
          .Nan, .Nan, .Nan, .Nan, .Nan, .Nan, .Nan, .Nan, .Nan, .Nan,
          .Nan, .Nan, .Nan, .Nan, .Nan ]
      - [ 1., .Nan, .Nan, .Nan, .Nan, .Nan, .Nan, .Nan, .Nan, .Nan, .Nan,
          .Nan, .Nan, .Nan, .Nan, .Nan, .Nan, .Nan, .Nan, .Nan, .Nan,
          .Nan, .Nan, .Nan, .Nan, .Nan, .Nan, .Nan, .Nan, .Nan, .Nan,
          .Nan, .Nan, .Nan, .Nan, .Nan, .Nan, .Nan, .Nan, .Nan, .Nan,
          .Nan, .Nan, .Nan, .Nan, .Nan, .Nan, .Nan, .Nan, .Nan, .Nan,
          .Nan, .Nan, .Nan, .Nan, .Nan, .Nan, .Nan, .Nan, .Nan, 0., 0.,
          0., 0., 0., 0., 0., 0., 0., 0., 0., 0., 0., 0., 0., 0., 0., 0.,
          0., 0., 0., 0., 0., 0., 0., 0., 0., 0., 0., 0., 0., 0., 0., 0.,
          0., 0., 0., 0., 0., 0. ]
      - [ 1., 0., 0., 0., 0., 0., 0., 0., 0., 0., 0., 0., 0., 0., 0., 0.,
          0., 0., 0., 0., 0., 0., 0., 0., 0., 0., 0., 0., 0., 0., 0., 0.,
          0., 0., 0., 0., 0., 0., 0., 0., 0., 0., 0., 0., 0., 0., 0., 0.,
          0., 0., 0., 0., 0., 0., 0., 0., 3.82047143e-37, 1.00825135e-34,
          2.65846276e-32, 7.00365327e-30, 1.84362032e-27, 4.84942184e-25,
          1.27466897e-22, 3.34818801e-20, 8.78905209e-18, 2.30572617e-15,
          6.04532483e-13, 1.58412561e-10, 4.14885903e-08, 1.08604327e-05,
          2.84154527e-03, 7.43121862e-01, 1.94254883e+02, 5.07572656e+04,
          13257032., 3.46117222e+09, 9.03307330e+11, 2.35661970e+14,
          6.14597794e+16, 1.60230642e+19, 4.17598077e+21, 1.08801462e+24,
          2.83386409e+26, 7.37897153e+28, 1.92083225e+31, 4.99877836e+33,
          1.30053789e+36, 3.38275463e+38, -7.53183814e-17,
          4.57537962e-41, -7.53184873e-17, 4.57537962e-41, 0., 0.,
          4.62428493e-44, 0., 1.86724254e-38, 0., -1.46391010e-14,
          4.57537962e-41 ]
      - [ 3., 0., 0., 0., 0., 0., 0., 0., 0., 0., 0., 0., 9.18382988e-41,
          1.83672394e-40, 3.67344787e-40, 5.51019983e-40, 9.18368975e-41,
          1.83672394e-40, 5.51017181e-40, 5.51021385e-40, 9.18368975e-41,
          1.83673795e-40, 5.51018582e-40, 5.51022786e-40, 1.83672394e-40,
          2.75509291e-40, 8.26526472e-40, 5.51024187e-40, 1.83673795e-40,
          5.51018582e-40, 1.01020027e-39, 7.34697982e-40, 3.67344787e-40,
          5.51021385e-40, 9.18366172e-40, 8.26534880e-40, 5.51019983e-40,
          8.26530676e-40, 1.10203997e-39, 9.18371777e-40, 8.26529275e-40,
          9.18368975e-40, 9.18370376e-40, 9.18368975e-40, 0., 0., 0., 0.,
          0., 0., 0., 0., 0., 0., 0., 0., 0., 0., 0., 0., 0., 0., 0., 0.,
          0., 0., 0., 0., 0., 0., 0., 0., 0., 0., 0., 0.,
          -7.53418866e-17, 4.57537962e-41, -7.53487687e-17,
          4.57537962e-41, 0., 0., 7.61325170e-10, -1.28091301e-10,
          9.80908925e-45, 0., .Nan, 0., 0., 0., .Nan, 0., 1.86682551e-38,
          0., 0., 0., 0., 0., 0., 0. ]
      - [ 1., 0., 0., 0., 0., 0., 0., 0., 1.86682551e-38, 0., 0., 0., 0.,
          0., 0., 0., 0., 0., 0., 0., 0., 0., 0., 0., 0., 0., 0., 0.,
          1.86701160e-38, 0., 0., 0., 0., 0., 0., 0., 0., 0., 0., 0., 0.,
          0., 0., 0., 0., 0., 0., 0., 1.40129846e-45, 0., 0., 0., 0., 0.,
          0., 0., 0., 0., 1.40129846e-45, 0., 0., 0., 0., 0.,
          1.03359775e-41, 0., 1.15018578e-41, 0., -7.52347369e-17,
          4.57537962e-41, -7.52354781e-17, 4.57537962e-41,
          -7.52425720e-17, 4.57537962e-41, -7.52452190e-17,
          4.57537962e-41, 0., 0., 0., 0., 1.40129846e-45, 1.63175145e+19,
          1.86892634e-38, 0., 1.86894427e-38, 0., 1.86896221e-38, 0.,
          1.86898015e-38, 0., 1.86899808e-38, 0., 1.86901602e-38, 0.,
          1.86903396e-38, 0., 1.86905189e-38, 0., 1.86906983e-38, 0. ]
      - [ 0., 0., 1.86675825e-38, 0., 0., 0., 0., 0., 0., 0., 0., 0., 0.,
          0., 0., 0., 0., 0., 0., 0., 0., 0., 0., 0., 0., 0., 0., 0., 0.,
          0., 0., 0., 0., 0., 0., 0., 0., 0., 0., 0., 0., 0., 0., 0., 0.,
          0., 0., 0., 0., 0., 0., 0., 0., 0., 0., 0., 0., 0., 0., 0.,
          -7.54071081e-17, 4.57537962e-41, -7.54005436e-17,
          4.57537962e-41, 1.86679636e-38, 0., 0., 0., 0., 0., 0., 0., 0.,
          0., 0., 0., 0., 0., 0., 0., 0., 0., 0., 0., 1.40129846e-45,
          2.80259693e-45, 0., 0., 0., 0., 0., 0., 0., 0., 0., 0.,
          1.86911243e-38, 0., 1.86911691e-38, 0. ]
      - [ 0., 0., 1.86912588e-38, 0., 1.86913036e-38, 0., 1.86913485e-38,
          0., 1.86913933e-38, 0., 1.86914382e-38, 0., 9.18382988e-41,
          1.83672394e-40, 3.67344787e-40, 5.51019983e-40, 9.18368975e-41,
          1.83672394e-40, 5.51017181e-40, 5.51021385e-40, 9.18368975e-41,
          1.83673795e-40, 5.51018582e-40, 5.51022786e-40, 1.83672394e-40,
          2.75509291e-40, 8.26526472e-40, 5.51024187e-40, 1.83673795e-40,
          5.51018582e-40, 1.01020027e-39, 7.34697982e-40, 3.67344787e-40,
          5.51021385e-40, 9.18366172e-40, 8.26534880e-40, 5.51019983e-40,
          8.26530676e-40, 1.10203997e-39, 9.18371777e-40, 8.26529275e-40,
          9.18368975e-40, 9.18370376e-40, 9.18368975e-40, 0., 0., 0., 0.,
          0., 0., .Nan, .Nan, 0., 0., 8.40779079e-45, 0., 1.96181785e-44,
          0., 4.20389539e-44, 0., 8.68805048e-44, 0., 1.76563607e-43, 0.,
          3.55929810e-43, 0., 7.14662217e-43, 0., .Nan, .Nan, .Nan, .Nan,
          .Nan, .Nan, .Nan, .Nan, .Nan, .Nan, .Nan, .Nan, .Nan, .Nan,
          1.46936654e-39, 0., 0., 0., 0., 0., 0., 0., .Nan, .Nan, .Nan,
          .Nan, .Nan, .Nan, .Nan, .Nan, .Nan, .Nan ]
      - [ 0., .Nan, .Nan, .Nan, 0., 0., 0., 0., 0., 0., 0., 0., 0., 0.,
          0., 0., 0., 0., 0., 0., 1.87446427e-38, 0., 7.17464814e-43,
          7.17464814e-43, 7.17464814e-43, 7.17464814e-43, 7.17464814e-43,
          7.17464814e-43, 7.17464814e-43, 7.17464814e-43, 7.17464814e-43,
          7.17464814e-43, 7.17464814e-43, 7.17464814e-43, 7.17464814e-43,
          7.17464814e-43, 7.17464814e-43, 7.17464814e-43, 7.17464814e-43,
          7.17464814e-43, 7.17464814e-43, 7.17464814e-43, 7.17464814e-43,
          7.17464814e-43, 7.17464814e-43, 7.17464814e-43, 7.17464814e-43,
          7.17464814e-43, 7.17464814e-43, 7.17464814e-43, 7.17464814e-43,
          7.17464814e-43, 7.17464814e-43, 7.17464814e-43, 7.17464814e-43,
          7.17464814e-43, 7.17464814e-43, 7.17464814e-43, 7.17464814e-43,
          7.17464814e-43, 7.17464814e-43, 7.17464814e-43, 7.17464814e-43,
          7.17464814e-43, 7.17464814e-43, 7.17464814e-43, 7.17464814e-43,
          7.17464814e-43, 7.17464814e-43, 7.17464814e-43, 7.17464814e-43,
          7.17464814e-43, 7.17464814e-43, 7.17464814e-43, 7.17464814e-43,
          7.17464814e-43, 7.17464814e-43, 7.17464814e-43, 7.17464814e-43,
          7.17464814e-43, 7.17464814e-43, 7.17464814e-43, 7.17464814e-43,
          7.17464814e-43, 7.17464814e-43, 7.17464814e-43, 1.07759852e-42,
          1.07759852e-42, 1.07759852e-42, 1.07759852e-42, 1.07759852e-42,
          1.07759852e-42, 1.07759852e-42, 1.07759852e-42, 1.07759852e-42,
          1.07759852e-42, 1.07759852e-42, 1.07759852e-42, 1.07759852e-42,
          1.07759852e-42 ]
      - [ 0., 1.07759852e-42, 1.07759852e-42, 1.07759852e-42,
          1.07759852e-42, 1.07759852e-42, 1.07759852e-42, 1.07759852e-42,
          1.07759852e-42, 1.07759852e-42, 1.07759852e-42, 1.07759852e-42,
          1.07759852e-42, 1.07759852e-42, 1.07759852e-42, 1.07759852e-42,
          1.07759852e-42, 1.07759852e-42, 1.07899982e-42, 1.07899982e-42,
          1.07899982e-42, 1.07899982e-42, 1.07899982e-42, 1.07899982e-42,
          1.07899982e-42, 1.07899982e-42, 1.07899982e-42, 1.07899982e-42,
          1.07899982e-42, 1.07899982e-42, 1.07899982e-42, 1.07899982e-42,
          1.07899982e-42, 1.07899982e-42, 1.07899982e-42, 1.07899982e-42,
          1.07899982e-42, 1.07899982e-42, 1.07899982e-42, 1.07899982e-42,
          1.07899982e-42, 1.07899982e-42, 1.07899982e-42, 1.07899982e-42,
          1.07899982e-42, 1.07899982e-42, 1.07899982e-42, 1.07899982e-42,
          1.07899982e-42, 1.07899982e-42, 1.08040112e-42, 1.08040112e-42,
          1.08040112e-42, 1.08040112e-42, 1.08040112e-42, 1.08040112e-42,
          1.08040112e-42, 1.08040112e-42, 1.08040112e-42, 1.08040112e-42,
          1.08040112e-42, 1.08040112e-42, 1.08040112e-42, 1.08040112e-42,
          1.08040112e-42, 1.08040112e-42, 1.08040112e-42, 1.08040112e-42,
          1.08040112e-42, 1.08040112e-42, 1.08040112e-42, 1.08040112e-42,
          1.08040112e-42, 1.08040112e-42, 1.08040112e-42, 1.08040112e-42,
          1.08040112e-42, 1.08040112e-42, 1.08040112e-42, 1.08040112e-42,
          1.08040112e-42, 1.08040112e-42, 1.08180241e-42, 1.08180241e-42,
          1.08180241e-42, 1.08180241e-42, 1.08180241e-42, 1.08180241e-42,
          1.08180241e-42, 1.08180241e-42, 1.08180241e-42, 1.08180241e-42,
          1.08180241e-42, 1.08180241e-42, 1.08180241e-42, 1.08180241e-42,
          1.08180241e-42, 1.08180241e-42, 1.08180241e-42, 1.08180241e-42 ]
      - [ 1., 1.08180241e-42, 1.08180241e-42, 1.08180241e-42,
          1.08180241e-42, 1.08180241e-42, 1.08180241e-42, 1.08180241e-42,
          1.08180241e-42, 1.08180241e-42, 1.08180241e-42, 1.08180241e-42,
          1.08180241e-42, 1.08180241e-42, 1.08320371e-42, 1.08320371e-42,
          1.08320371e-42, 1.08320371e-42, 1.08320371e-42, 1.08320371e-42,
          1.08320371e-42, 1.08320371e-42, 1.08320371e-42, 1.08320371e-42,
          1.08320371e-42, 1.08320371e-42, 1.08320371e-42, 1.08320371e-42,
          1.08320371e-42, 1.08320371e-42, 1.08320371e-42, 1.08320371e-42,
          1.08320371e-42, 1.08320371e-42, 1.08320371e-42, 1.08320371e-42,
          1.08320371e-42, 1.08320371e-42, 1.08320371e-42, 1.08320371e-42,
          1.08320371e-42, 1.08320371e-42, 1.08320371e-42, 1.08320371e-42,
          1.08320371e-42, 1.08320371e-42, 1.44333742e-42, 1.44333742e-42,
          1.44333742e-42, 1.44333742e-42, 1.44333742e-42, 1.44333742e-42,
          1.44333742e-42, 1.44333742e-42, 1.44333742e-42, 1.44333742e-42,
          1.44333742e-42, 1.44333742e-42, 1.44333742e-42, 1.44333742e-42,
          1.44333742e-42, 1.44333742e-42, 1.80347112e-42, 1.80347112e-42,
          1.80347112e-42, 1.80347112e-42, 1.80347112e-42, 1.80347112e-42,
          1.80347112e-42, 1.80347112e-42, 2.16360483e-42, 2.16360483e-42,
          2.16360483e-42, 2.16360483e-42, 2.52373853e-42, 2.52373853e-42,
          2.88387224e-42, 3.22859166e-42, 0., 0., 0., 0., .Nan, .Nan,
          1.40129846e-45, 0., 5.60519386e-45, 0., 1.68155816e-44, 0.,
          3.92363570e-44, 0., 8.26766094e-44, 0., 1.72359711e-43, 0.,
          3.50324616e-43, 0., 7.09057023e-43, 0. ]
      - [ 0., 7.18866112e-43, 7.18866112e-43, 7.18866112e-43,
          7.18866112e-43, 7.18866112e-43, 7.18866112e-43, 7.18866112e-43,
          7.18866112e-43, 7.18866112e-43, 7.18866112e-43, 7.18866112e-43,
          7.18866112e-43, 7.18866112e-43, 7.18866112e-43, 7.18866112e-43,
          7.18866112e-43, 7.18866112e-43, 7.20267411e-43, 7.20267411e-43,
          7.20267411e-43, 7.20267411e-43, 7.20267411e-43, 7.20267411e-43,
          7.20267411e-43, 7.20267411e-43, 7.20267411e-43, 7.20267411e-43,
          7.20267411e-43, 7.20267411e-43, 7.20267411e-43, 7.20267411e-43,
          7.20267411e-43, 7.20267411e-43, 7.20267411e-43, 7.20267411e-43,
          7.20267411e-43, 7.20267411e-43, 7.20267411e-43, 7.20267411e-43,
          7.20267411e-43, 7.20267411e-43, 7.20267411e-43, 7.20267411e-43,
          7.20267411e-43, 7.20267411e-43, 7.20267411e-43, 7.20267411e-43,
          7.20267411e-43, 7.20267411e-43, 7.20267411e-43, 7.20267411e-43,
          7.20267411e-43, 7.20267411e-43, 7.20267411e-43, 7.20267411e-43,
          7.20267411e-43, 7.20267411e-43, 7.20267411e-43, 7.20267411e-43,
          7.20267411e-43, 7.20267411e-43, 7.20267411e-43, 7.20267411e-43,
          7.20267411e-43, 7.20267411e-43, 7.20267411e-43, 7.20267411e-43,
          7.20267411e-43, 7.20267411e-43, 7.20267411e-43, 7.20267411e-43,
          7.20267411e-43, 7.20267411e-43, 7.20267411e-43, 7.20267411e-43,
          7.20267411e-43, 7.20267411e-43, 7.20267411e-43, 7.20267411e-43,
          7.20267411e-43, 7.20267411e-43, 1.08040112e-42, 1.08040112e-42,
          1.08040112e-42, 1.08040112e-42, 1.08040112e-42, 1.08040112e-42,
          1.08040112e-42, 1.08040112e-42, 1.08040112e-42, 1.08040112e-42,
          1.08040112e-42, 1.08040112e-42, 1.08040112e-42, 1.08040112e-42,
          1.08040112e-42, 1.08040112e-42, 1.08040112e-42, 1.08040112e-42 ]
      - [ 1., 1.08040112e-42, 1.08040112e-42, 1.08040112e-42,
          1.08040112e-42, 1.08040112e-42, 1.08040112e-42, 1.08040112e-42,
          1.08040112e-42, 1.08040112e-42, 1.08040112e-42, 1.08040112e-42,
          1.08040112e-42, 1.08040112e-42, 1.43492963e-42, 1.43492963e-42,
          1.43492963e-42, 1.43492963e-42, 1.43492963e-42, 1.43492963e-42,
          1.43492963e-42, 1.43492963e-42, 1.43492963e-42, 1.43492963e-42,
          1.43492963e-42, 1.43492963e-42, 1.43492963e-42, 1.43492963e-42,
          1.43492963e-42, 1.43492963e-42, 1.44053482e-42, 1.44053482e-42,
          1.44053482e-42, 1.44053482e-42, 1.44053482e-42, 1.44053482e-42,
          1.44053482e-42, 1.44053482e-42, 1.44053482e-42, 1.44053482e-42,
          1.44053482e-42, 1.44053482e-42, 1.44053482e-42, 1.44053482e-42,
          1.44053482e-42, 1.44053482e-42, 1.45875170e-42, 1.45875170e-42,
          1.45875170e-42, 1.45875170e-42, 1.45875170e-42, 1.45875170e-42,
          1.45875170e-42, 1.45875170e-42, 1.45875170e-42, 1.45875170e-42,
          1.45875170e-42, 1.45875170e-42, 1.45875170e-42, 1.45875170e-42,
          1.45875170e-42, 1.45875170e-42, 1.80066853e-42, 1.80066853e-42,
          1.80066853e-42, 1.80066853e-42, 1.80066853e-42, 1.80066853e-42,
          1.80066853e-42, 1.80066853e-42, 1.81888541e-42, 1.81888541e-42,
          1.81888541e-42, 1.81888541e-42, 1.81888541e-42, 1.81888541e-42,
          1.81888541e-42, 1.81888541e-42, 1.83990488e-42, 1.83990488e-42,
          1.83990488e-42, 1.83990488e-42, 1.83990488e-42, 1.83990488e-42,
          1.83990488e-42, 1.83990488e-42, 2.22105807e-42, 2.22105807e-42,
          2.22105807e-42, 2.22105807e-42, 2.24347884e-42, 2.24347884e-42,
          2.24347884e-42, 2.24347884e-42, 2.51953464e-42, 2.51953464e-42,
          2.53775152e-42, 2.53775152e-42, 2.62463202e-42, 2.62463202e-42 ]
      - [ 1., 0., 0., 0., 0., 0., 0., 0., 0., 0., 0., 0., 0., 0., 0., 0.,
          0., 0., 0., 0., 0., 0., 0., 0., 0., 0., 0., 0., 0., 0., 0., 0.,
          0., 0., 0., 0., 0., 0., 0., 0., 0., 0., 1.12342098e-41, 0.,
          -1.46391010e-14, 4.57537962e-41, -1.46391010e-14,
          4.57537962e-41, 0., 0., 0., 0., 0., 0., 0., 0., 0., 0., 0., 0.,
          0., 0., 0., 0., 0., 0., 0., 0., 0., 0., 0., 0., 0., 0., 0., 0.,
          0., 0., 0., 0., 0., 0., 0., 0., 0., 0., 0., 0., 1.14570162e-41,
          0., 1.15018578e-41, 0., 3.68114034e+12, 6.36547254e-39,
          1.63175145e+19, 7.21433831e+22, 4.15789938e+21, 2.10455052e+11,
          2.11889046e+11, 3.09792019e+32 ]
      - [ 1., 1.34903098e+13, 1.19515832e-07, 2.06637166e-10,
          6.55535626e-10, 2.60775912e-09, 3.72955767e+15, 7.46634043e-09,
          2.54955212e-09, 5.25074938e+05, 2.11880739e+11, 3.12407959e+03,
          1.65957317e-07, 2.54938093e-09, 8.29203125e+02, 1.25811167e+01,
          1.94110002e+31, 2.29317749e-07, 2.41645854e+29, 6.55535626e-10,
          2.60777089e-09, 3.63826294e+03, 4.48977808e+21, 2.82488185e+29,
          4.30163570e+21, 1.84751006e+31, 1.33880231e+25, 1.33880381e+25,
          4.42547711e-39, 0., 0., 0., 0., 0., 0., 0., 0., 0., 0., 0., 0.,
          0., 0., 0., 0., 0., 0., 0., 0., 0., 0., 0., 0., 0., 0., 0., 0.,
          0., 0., 0., 0., 0., 0., 0., 0., 0., 0., 0., 0., 0., 0., 0., 0.,
          0., 0., 0., 0., 0., 0., 0., 0., 0., 0., 0., 0., 0., 0., 0., 0.,
          0., 0., 0., 0., 0., 0., 0., 0., 0., 0., 0. ]
      - [ 1., 0., 0., 0., 0., 0., 0., 0., 0., 0., 0., 0., 0., 0., 0., 0.,
          0., 0., 0., 0., 0., 0., 0., 0., 0., 0., 0., 0., 0., 0., 0., 0.,
          0., 0., 0., 0., 0., 0., 0., 0., 0., 0., 0., 0., 0., 0., 0., 0.,
          0., 0., 0., 0., 0., 0., 0., 0., 0., 0., 0., 0., 0., 0., 0., 0.,
          0., 0., 0., 0., 0., 0., 0., 0., 0., 0., 0., 0., 0., 0., 0., 0.,
          0., 0., 0., 0., 0., 0., 0., 0., 0., 0., 0., 0., 0., 0., 0., 0.,
          0., 0., 0., 0. ]
      - [ 0., 0., 0., 0., 0., 0., 0., 0., 0., 0., 0., 0., 0., 0., 0., 0.,
          0., 0., 0., 0., 0., 0., 0., 0., 0., 0., 0., 0., 0., 0., 0., 0.,
          0., 0., 0., 0., 0., 0., 0., 0., 0., 0., 0., 0., 0., 0., 0., 0.,
          0., 0., 0., 0., 0., 0., 0., 0., 0., 0., 0., 0., 0., 0., 0., 0.,
          0., 0., 0., 0., 0., 0., 0., 0., 0., 0., 0., 0., 0., 0., 0., 0.,
          0., 0., 0., 0., 0., 0., 0., 0., 0., 0., 0., 0., 0., 0., 0., 0.,
          0., 0., 0., 0. ]
      - [ 2., 0., 0., 0., 0., 0., 0., 0., 0., 0., 0., 0., 0., 0., 0., 0.,
          0., 0., 0., 0., 0., 0., 0., 0., 0., 0., 0., 0., 0., 0., 0., 0.,
          0., 0., 0., 0., 0., 0., 0., 0., 0., 0., 0., 0., 0., 0., 0., 0.,
          0., 0., 0., 0., 0., 0., 0., 0., 0., 0., 0., 0., 0., 0., 0., 0.,
          0., 0., 0., 0., 0., 0., 0., 0., 0., 0., 0., 0., 0., 0., 0., 0.,
          0., 0., 0., 0., 0., 0., 0., 0., 0., 0., 0., 0., 0., 0., 0., 0.,
          0., 0., 0., 0. ]
      - [ 0., 0., 0., 0., 0., 0., 0., 0., 0., 0., 0., 0., 0., 0., 0., 0.,
          0., 0., 0., 0., 0., 0., 0., 0., 0., 0., 0., 0., 0., 0., 0., 0.,
          0., 0., 0., 0., 0., 0., 0., 0., 0., 0., 0., 0., 0., 0., 0., 0.,
          0., 0., 0., 0., 0., 0., 0., 0., 0., 0., 0., 0., 0., 0., 0., 0.,
          0., 0., 0., 0., 0., 0., 0., 0., 0., 0., 0., 0., 0., 0., 0., 0.,
          0., 0., 0., 0., 0., 0., 0., 0., 1.13673331e-41, 0.,
          1.15018578e-41, 0., 3.68114034e+12, 6.36547254e-39,
          1.63175145e+19, 7.21433831e+22, 4.15789938e+21, 2.10455052e+11,
          2.11889046e+11, 1.13173657e+21 ]
      - [ 0., 3.35579657e+12, 3.40031693e-06, 1.61148900e-10,
          4.79273782e-39, 3.33358301e+03, 6.37456310e-10, 5.25058938e+05,
          5.76213929e-42, 0., 5.76213929e-42, 0., 50663740.,
          7.64576608e-39, 8.63842026e-04, 2.92350660e-06, 6.41879550e-10,
          8.30158164e-10, 1.32955493e+22, 1.36645371e+22, 6.41697528e-10,
          6.41881437e-10, 1.68217011e-04, 8.27461266e-10, 8.74609718e-10,
          8.67333760e-10, 6.72623263e-44, 0., 0., 0., 0., 0., 0., 0., 0.,
          0., 0., 0., 0., 0., 0., 0., 0., 0., 0., 0., 0., 0., 0., 0., 0.,
          0., 0., 0., 0., 0., 0., 0., 0., 0., 0., 0., 0., 0., 0., 0., 0.,
          0., 0., 0., 0., 0., 0., 0., 0., 0., 0., 0., 0., 0., 0., 0., 0.,
          0., 0., 0., 0., 0., 0., 0., 0., 0., 0., 0., 0., 0., 0., 0., 0.,
          0. ]
      - [ 0., 0., 0., 0., 0., 0., 0., 0., 0., 0., 0., 0., 0., 0., 0., 0.,
          0., 0., 0., 0., 1.03359775e-41, 0., 1.15018578e-41, 0.,
          3.39327718e+09, 4.22003868e-05, 8.39683562e+05, 7.55895985e-39,
          5.16223641e-39, 898715904., 6.36436271e-39, 2.21424240e-10,
          2.05955988e-10, 1.66608727e-10, 4.51722573e-39, 3.68114034e+12,
          6.36547254e-39, 1.63175145e+19, 1.86171597e+25, 5.13584167e+02,
          3.42858252e+03, 1.94109989e+31, 2.23339905e+11, 2.13266830e+02,
          1.30603894e+22, 2.55216781e-09, 1.64102616e-07, 1.45846436e+10,
          1.68257477e-10, 4.42503150e-39, 886395008., 4.66760242e-10,
          5.12862305e+02, 1.41793700e+13, 6.40288544e-10, 6.86636248e-44,
          0., 0., 0., 0., 0., 0., 0., 0., 0., 0., 0., 0., 0., 0., 0., 0.,
          0., 0., 0., 0., 0., 0., 0., 0., 0., 0., 0., 0., 0., 0., 0., 0.,
          0., 0., 0., 0., 0., 0., 0., 0., 0., 0., 0., 0. ]
      - [ 0., 0., 0., 0., 0., 0., 0., 0., 0., 0., 0., 0., 0., 0., 0., 0.,
          0., 0., 0., 0., 0., 0., 0., 0., 0., 0., 0., 0., 0., 0., 0., 0.,
          0., 0., 0., 0., 0., 0., 0., 0., 0., 0., 0., 0., 0., 0., 0., 0.,
          0., 0., 0., 0., 1.03359775e-41, 0., 1.15018578e-41, 0.,
          3.39327718e+09, 4.22003868e-05, 8.39683562e+05, 7.55895985e-39,
          4.42683357e-39, 898715904., 6.36436271e-39, 2.21424240e-10,
          2.05955988e-10, 1.65699232e-10, 4.51722573e-39, 3.68114034e+12,
          5.94150549e-42, 0., 6.72623263e-43, 0., 2.61936095e-09,
          1.70905943e-04, 6.33672771e-39, 1.53427735e+13, 2.23259079e+02,
          9.07333599e+11, 3.52782720e+09, 1.22732668e+01, 1.21409492e+01,
          2.08105443e+14, 1.10953720e+27, 1.06024778e-38, 8.04004211e+02,
          5.28333702e+01, 5.33314171e+01, 8.30208147e+11, 2.13000700e+11,
          8.93207947e+02, 4.83322792e+01, 4.81751002e-02, 1.72559168e+25,
          3.92430347e+30, 7.24419718e+22, 1.11477637e-38, 8.04004211e+02,
          5.28333702e+01, 3.52848256e+09, 3.27675597e+09 ]
      - [ 0., 8.93207947e+02, 4.83322792e+01, 4.81751002e-02,
          7.24360495e+22, 7.58800956e+31, 6.33679497e-39, 6.13710939e+13,
          3.29346381e+09, 2.13000684e+11, 8.93207947e+02, 4.83322792e+01,
          4.81751002e-02, 1.14313883e+27, 4.62800416e+27, 7.21514851e+22,
          6.03888009e+28, 4.26477060e-39, 8.04004211e+02, 8.29208923e+02,
          1.42910674e+04, 1.47941335e+19, 1.32659340e+01, 3.38007861e+03,
          4.62179020e+30, 1.81767957e+31, 2.66919665e-06, 9.38734441e+26,
          7.56369964e+28, 9.59266010e-39, 0., 0., 0., 0., 0., 0., 0., 0.,
          0., 0., 0., 0., 0., 0., 0., 0., 0., 0., 0., 0., 0., 0., 0., 0.,
          0., 0., 0., 0., 0., 0., 0., 0., 0., 0., 0., 0., 0., 0., 0., 0.,
          0., 0., 0., 0., 0., 0., 0., 0., 0., 0., 0., 0., 0., 0., 0., 0.,
          0., 0., 5.76213929e-42, 0., 4.48415509e-44, 0., 1.86804968e-38,
          0., 50668880., 7.89410706e+02, 2.86721768e+32, 1.94255846e+31,
          4.62428493e-44, 0. ]
      - [ 0., 0., -1.46391010e-14, 4.57537962e-41, 5.85182239e-42, 0.,
          6.72623263e-44, 0., 1.86810349e-38, 0., 51186004.,
          1.52275862e+19, 217392224., 3.32030306e+12, 8.30040244e+11,
          1.10738114e+27, 1.06024778e-38, 0., 3.15292154e-43, 0.,
          1.86809901e-38, 0., 1.86811022e-38, 0., 4.48415509e-44, 0.,
          2.70450604e-43, 0., 1.86809901e-38, 0., 1.86742414e-38, 0., 0.,
          0., 4.62428493e-44, 0., 1.86744881e-38, 0., -1.46391010e-14,
          4.57537962e-41, 8.96831017e-44, 0., 4.48415509e-44, 0.,
          1.86742863e-38, 0., -1.46391010e-14, 4.57537962e-41, 0., 0.,
          1.35925951e-43, 0., 1.86809901e-38, 0., -1.46391010e-14,
          4.57537962e-41, 0., 0., 9.10844002e-44, 0., 1.86813488e-38, 0.,
          1.86743311e-38, 0., 0., 0., 4.62428493e-44, 0., 1.86813488e-38,
          0., -1.46391010e-14, 4.57537962e-41, 8.47505311e-42, 0.,
          8.96831017e-44, 0., 1.86888374e-38, 0., 1.84452468e-38, 0.,
          1.84452356e-38, 0., 1.86888598e-38, 0., 0., 0., 0., 0., 0., 0.,
          8.02803890e-42, 0., 1.86635691e-38, 0., -1.46418386e-14,
          4.57537962e-41, 1.86635691e-38, 0., 1.86635691e-38, 0. ]
      - [ 0., 0., -1.46391552e-14, 4.57537962e-41, 217392224.,
          3.32030306e+12, 8.30040244e+11, 9.38131527e+26, 1.12103877e-43,
          0., 6.72623263e-44, 0., 1.86722908e-38, 0., 3.56196813e+09,
          1.47220594e+19, 217392224., 3.32030306e+12, 8.30040244e+11,
          9.66895940e-44, 1.86806089e-38, 0., 2.48029828e-43, 0.,
          1.86744881e-38, 0., -1.46391010e-14, 4.57537962e-41,
          4.48415509e-44, 0., 6.72623263e-44, 0., 1.86809228e-38, 0.,
          2.13000684e+11, 8.93207947e+02, 4.83322792e+01, 6.36651511e-39,
          7.20267411e-43, 0., 6.72623263e-44, 0., 1.35925951e-43, 0.,
          1.83508890e-38, 0., 1.86721115e-38, 0., 1.86811022e-38, 0.,
          9.10844002e-44, 0., 1.86813040e-38, 0., 1.86804071e-38, 0.,
          1.30015510e+22, 6.60121486e-07, 4.62428493e-44, 0.,
          1.86813040e-38, 0., -1.46391010e-14, 4.57537962e-41,
          4.25994733e-43, 0., 6.72623263e-44, 0., 1.86723581e-38, 0.,
          9.07333599e+11, 3.52782720e+09, 1.22732668e+01, 1.21409492e+01,
          2.48688438e-41, 0., 0., 0., 7.53478184e-42, 0., 1.86895100e-38,
          0., 1.86889270e-38, 0., 0., 0., 0., 0., 1.86744881e-38, 0.,
          1.86809901e-38, 0., 2.52233724e-44, 1.96181785e-44, 0., 0., 0.,
          0., 0., 0. ]
      - [ 0., 0., 1.86822008e-38, 0., .Nan, 2.24207754e-44, 0., 0., 0.,
          0., 0., 0., 0., 0., 0., 0., 0., 0., 0., 0., 0., 0., 0., 0., 0.,
          0., 0., 0., 0., 0., 0., 0., 0., 0., 0., 0., 0., 0., 0., 0., 0.,
          0., 1.86812591e-38, 0., 1.86813264e-38, 0., 2.66246708e-44,
          2.52233724e-44, 1.86723132e-38, 0., 1.86721787e-38, 0.,
          1.54142831e-44, .Nan, 1.86742639e-38, 0., 1.86743087e-38, 0.,
          2.38220739e-44, 1.40129846e-44, 1.86805641e-38, 0.,
          1.86806089e-38, 0., 2.10194770e-44, 2.38220739e-44,
          1.86809452e-38, 0., 1.86810125e-38, 0., 2.24207754e-44,
          2.66246708e-44, 1.86743535e-38, 0., 1.86743984e-38, 0., 0.,
          2.10194770e-44, 1.86806538e-38, 0., 1.86806986e-38, 0.,
          1.96181785e-44, 1.68155816e-44, 1.86810573e-38, 0.,
          1.86821111e-38, 0., 2.80259693e-45, 1.82168800e-44,
          1.86804744e-38, 0., 1.86805193e-38, 0., 1.68155816e-44,
          1.54142831e-44, 1.86802726e-38, 0., 1.86803175e-38, 0. ]
      - [ 0., 0., 1.86803623e-38, 0., 1.86808331e-38, 0., 1.82168800e-44,
          1.26116862e-44, -1.71465219e+38, .Nan, 3.57331108e-43, 0.,
          9.21956299e-41, 0., 0., 0., 7.39885589e-43, 0., 4.48415509e-44,
          0., 1.86806762e-38, 0., 7.21514851e+22, 6.03888009e+28,
          8.29568691e-43, 0., 4.48415509e-44, 0., 1.86811919e-38, 0.,
          3.52782720e+09, 1.22732668e+01, 1.21409492e+01, 2.48688438e-41,
          8.30969989e-43, 0., 1.86742414e-38, 0., -1.46391010e-14,
          4.57537962e-41, 7.41076297e+28, 3.74707209e-41, 7.86128438e-43,
          0., 1.86889270e-38, 0., 1.83665387e-38, 0., 0., 0.,
          1.85610389e-38, 0., 0., 0., 0., 0., 1.82168800e-44, 0., 0., 0.,
          0., 0., 0., 0., 0., 0., 0., 0., 0., 0., 0., 0., 0., 0., 0., 0.,
          0., 0., 0., 0., 0., 0., 0., 0., 0., 0., 0., 0., 0., 0., 0., 0.,
          0., 0., 0., 0., 0., 0., 0., 0. ]
      - [ 0., 0., 1.40129846e-45, .Nan, 1.86830976e-38, 0.,
          1.86831032e-38, 0., 0., 0., 0., 0., 0., 0., 1.86828062e-38, 0.,
          0., 0., 0., 0., 0., 0., 1.86889943e-38, 0., 1.40129846e-45, 0.,
          0., 0., 0., 0., 1.86889495e-38, 0., 1.40129846e-45, 0.,
          5.84871150e-39, 0., 0., 0., 0., 3.60133705e-43, 5.60519386e-43,
          0., 4.48415509e-44, 0., 1.83665387e-38, 0., 4.15789938e+21,
          1.41531145e-43, 1.71847458e+25, 6.40969056e-10, 1.80767502e-43,
          0., 1.83007562e-38, 0., 1.86898463e-38, 0., 4.02968214e-11,
          6.72623263e-44, 1.35925951e-43, 0., 1.83007562e-38, 0.,
          -1.46391010e-14, 4.57537962e-41, 0., 0., 9.10844002e-44, 0.,
          1.83007562e-38, 0., -1.46391010e-14, 4.57537962e-41, 0., 0.,
          4.62428493e-44, 0., 1.83007562e-38, 0., -1.46391010e-14,
          4.57537962e-41, 1.70397893e-42, 0., 6.72623263e-44, 0.,
          1.86889719e-38, 0., -1.46388977e-14, 4.57537962e-41,
          1.63172018e-07, 2.70939471e-09, 1.72836153e-41, 0.,
          6.72623263e-44, 0., 5.76354058e-42, 0., 1.86658112e-38, 0.,
          1.86012842e-38, 0. ]
      - [ 1., 0., 1.86012842e-38, 0., 2.53755794e-09, 1.12275069e+21,
          1.02422966e-11, 4.02968214e-11, 6.72623263e-44, 0., 0., 0., 0.,
          0., 0., 0., 0., 0., 0., 0., 0., 0., 0., 0., 0., 0., 0., 0., 0.,
          0., 0., 0., 0., 0., 0., 0., 0., 0., 0., 0., 0., 0., 0., 0., 0.,
          0., 0., 0., 0., 0., 0., 0., 0., 0., 0., 0., 0., 0., 0., 0., 0.,
          0., 0., 0., 0., 0., 0., 0., 0., 0., 0., 0., 0., 0., 0., 0., 0.,
          0., 0., 0., 0., 0., 0., 0., 0., 0., 0., 0., 0., 0., 0., 0., 0.,
          0., 0., 0., 0., 0., 0., 0. ]
      - [ 0., 0., 0., 0., 0., 0., 0., 0., 0., 0., 0., 0., 0., 0., 0., 0.,
          0., 0., 0., 0., 0., 0., 0., 0., 0., 0., 0., 0., 0., 0., 0., 0.,
          0., 0., 0., 0., 1.14570162e-41, 0., 1.15018578e-41, 0.,
          3.68114034e+12, 6.36547254e-39, 1.63175145e+19, 7.21433831e+22,
          4.15789938e+21, 2.10455052e+11, 2.11889046e+11, 3.09792019e+32,
          8.61574246e+09, 1.34903098e+13, 1.19515832e-07, 2.06637166e-10,
          6.55535626e-10, 2.60775912e-09, 3.72955767e+15, 7.46634043e-09,
          2.54955212e-09, 5.25074938e+05, 2.11880739e+11, 3.12407959e+03,
          1.65957317e-07, 2.54938093e-09, 8.29203125e+02, 1.25811167e+01,
          1.94110002e+31, 2.29317749e-07, 2.41645854e+29, 6.55535626e-10,
          2.60777089e-09, 3.63826294e+03, 4.48977808e+21, 2.82488185e+29,
          4.30163570e+21, 1.84751006e+31, 1.33880231e+25, 1.33880381e+25,
          4.51731261e-39, 0., 0., 0., 0., 0., 0., 0., 0., 0., 0., 0., 0.,
          0., 0., 0., 0., 0., 0., 0., 0., 0., 0., 0. ]
      - [ 0., 0., 0., 0., 0., 0., 0., 0., 0., 0., 0., 0., 0., 0., 0., 0.,
          0., 0., 0., 0., 0., 0., 0., 0., 0., 0., 0., 0., 0., 0., 0., 0.,
          0., 0., 0., 0., 0., 0., 0., 0., 0., 0., 0., 0., 0., 0., 0., 0.,
          0., 0., 0., 0., 0., 0., 0., 0., 0., 0., 0., 0., 0., 0., 0., 0.,
          0., 0., 0., 0., 0., 0., 0., 0., 0., 0., 0., 0., 0., 0., 0., 0.,
          0., 0., 0., 0., 0., 0., 0., 0., 0., 0., 0., 0., 0., 0., 0., 0.,
          0., 0., 0., 0. ]
      - [ 0., 0., 0., 0., 0., 0., 0., 0., 0., 0., 0., 0., 0., 0., 0., 0.,
          0., 0., 0., 0., 0., 0., 0., 0., 0., 0., 0., 0., 0., 0., 0., 0.,
          0., 0., 0., 0., 0., 0., 0., 0., 0., 0., 0., 0., 0., 0., 0., 0.,
          0., 0., 0., 0., 0., 0., 0., 0., 0., 0., 0., 0., 0., 0., 0., 0.,
          0., 0., 0., 0., 0., 0., 0., 0., 0., 0., 0., 0., 0., 0., 0., 0.,
          0., 0., 0., 0., 0., 0., 0., 0., 0., 0., 0., 0., 0., 0., 0., 0.,
          0., 0., 0., 0. ]
      - [ 0., 0., 0., 0., 0., 0., 0., 0., 0., 0., 0., 0., 0., 0., 0., 0.,
          0., 0., 0., 0., 0., 0., 0., 0., 0., 0., 0., 0., 0., 0., 0., 0.,
          0., 0., 0., 0., 0., 0., 0., 0., 0., 0., 0., 0., 0., 0., 0., 0.,
          0., 0., 0., 0., 0., 0., 0., 0., 0., 0., 0., 0., 0., 0., 0., 0.,
          0., 0., 0., 0., 0., 0., 0., 0., 0., 0., 0., 0., 0., 0., 0., 0.,
          0., 0., 0., 0., 0., 0., 0., 0., 0., 0., 0., 0., 0., 0., 0., 0.,
          0., 0., 0., 0. ]
   decision_functions:
      -
         sv_count: 33
         rho: 1.
         alpha: [ 1.9999999999999998e+00, 1.9999999999999998e+00, 8.,
             7.9999161342873464e+00, 1.9993292997464527e+00,
             1.9999999999999998e+00, 1.9999999999999998e+00,
             1.9999999999999998e+00, 1.9999999999999998e+00,
             1.9999999999999998e+00, 1.9999999999999998e+00,
             1.9999999999999998e+00, 8., 8., 8., 1.9999999999999998e+00,
             1.9999999999999998e+00, 8., 8., 1.9994131654591059e+00, -8.,
             -8., -8., -3.8857805861880479e-16, -8.,
             -3.3306690738754696e-16, -8., -8., -8., -8.,
             -1.9986585994969919e+00, -8., -8. ]
         index: [ 23, 14, 15, 16, 17, 18, 19, 20, 21, 22, 13, 24, 25, 26,
             27, 28, 29, 30, 31, 32, 9, 1, 2, 3, 4, 5, 6, 7, 8, 0, 10,
             11, 12 ]
