%YAML:1.0
---
opencv_ml_svm:
   format: 3
   svmType: C_SVC
   kernel:
      type: POLY
      degree: 3.
      gamma: 5.0000000000000000e-01
      coef0: 0.
   C: 1.
   term_criteria: { iterations:1000000 }
   var_count: 100
   class_count: 2
   class_labels: !!opencv-matrix
      rows: 2
      cols: 1
      dt: i
      data: [ -1, 1 ]
   sv_total: 5
   support_vectors:
      - [ 1., 0., 0., 0., 0., 0., 0., 0., 0., 0., 0., 0., 0., 0., 0., 0.,
          0., 0., 0., 0., 0., 0., 0., 0., 0., 0., 0., 0., 0., 0., 0., 0.,
          0., 0., 0., 0., 0., 0., 0., 0., 0., 0., 0., 0., 0., 0., 0., 0.,
          0., 0., 0., 0., 3.82047143e-37, 1.00825135e-34, 2.65846276e-32,
          7.00365327e-30, 1.84362032e-27, 4.84942184e-25, 1.27466897e-22,
          3.34818801e-20, 8.78905209e-18, 2.30572617e-15, 6.04532483e-13,
          1.58412561e-10, 4.14885903e-08, 1.08604327e-05, 2.84154527e-03,
          7.43121862e-01, 1.94254883e+02, 5.07572656e+04, 13257032.,
          3.46117222e+09, 9.03307330e+11, 2.35661970e+14, 6.14597794e+16,
          1.60230642e+19, 4.17598077e+21, 1.08801462e+24, 2.83386409e+26,
          7.37897153e+28, 1.92083225e+31, 4.99877836e+33, 1.30053789e+36,
          3.38275463e+38, -5.57645464e-18, 4.58785117e-41,
          -5.57646126e-18, 4.58785117e-41, 1.52461273e-42, 0.,
          1.12103877e-43, 0., 1.53108067e-37, 0., 1.00147009e-11,
          1.04703338e-11, 7.03621104e+22, 1.63867541e+19, 1.71824469e+25,
          1.67797265e+22 ]
      - [ 0., 1.07759852e-42, 1.07759852e-42, 1.07759852e-42,
          1.07759852e-42, 1.07759852e-42, 1.07759852e-42, 1.07759852e-42,
          1.07759852e-42, 1.07759852e-42, 1.07759852e-42, 1.07759852e-42,
          1.07759852e-42, 1.07759852e-42, 1.07899982e-42, 1.07899982e-42,
          1.07899982e-42, 1.07899982e-42, 1.07899982e-42, 1.07899982e-42,
          1.07899982e-42, 1.07899982e-42, 1.07899982e-42, 1.07899982e-42,
          1.07899982e-42, 1.07899982e-42, 1.07899982e-42, 1.07899982e-42,
          1.07899982e-42, 1.07899982e-42, 1.07899982e-42, 1.07899982e-42,
          1.07899982e-42, 1.07899982e-42, 1.07899982e-42, 1.07899982e-42,
          1.07899982e-42, 1.07899982e-42, 1.07899982e-42, 1.07899982e-42,
          1.07899982e-42, 1.07899982e-42, 1.07899982e-42, 1.07899982e-42,
          1.07899982e-42, 1.07899982e-42, 1.08040112e-42, 1.08040112e-42,
          1.08040112e-42, 1.08040112e-42, 1.08040112e-42, 1.08040112e-42,
          1.08040112e-42, 1.08040112e-42, 1.08040112e-42, 1.08040112e-42,
          1.08040112e-42, 1.08040112e-42, 1.08040112e-42, 1.08040112e-42,
          1.08040112e-42, 1.08040112e-42, 1.08040112e-42, 1.08040112e-42,
          1.08040112e-42, 1.08040112e-42, 1.08040112e-42, 1.08040112e-42,
          1.08040112e-42, 1.08040112e-42, 1.08040112e-42, 1.08040112e-42,
          1.08040112e-42, 1.08040112e-42, 1.08040112e-42, 1.08040112e-42,
          1.08040112e-42, 1.08040112e-42, 1.08180241e-42, 1.08180241e-42,
          1.08180241e-42, 1.08180241e-42, 1.08180241e-42, 1.08180241e-42,
          1.08180241e-42, 1.08180241e-42, 1.08180241e-42, 1.08180241e-42,
          1.08180241e-42, 1.08180241e-42, 1.08180241e-42, 1.08180241e-42,
          1.08180241e-42, 1.08180241e-42, 1.08180241e-42, 1.08180241e-42,
          1.08180241e-42, 1.08180241e-42, 1.08180241e-42, 1.08180241e-42 ]
      - [ 1., 0., 0., 0., 0., 0., 0., 0., 0., 0., 0., 0., 0., 0., 0., 0.,
          0., 0., 0., 0., 0., 0., 0., 0., 0., 0., 0., 0., 0., 0., 0., 0.,
          0., 0., 0., 0., 0., 0., 0., 0., 0., 0., 0., 0., 0., 0., 0., 0.,
          0., 0., 0., 0., 0., 0., 0., 0., 0., 0., 0., 0., 0., 0., 0., 0.,
          0., 0., 0., 0., 0., 0., 1.25794563e-41, 0., -1.13760336e-15,
          4.58785117e-41, -1.13760336e-15, 4.58785117e-41,
          1.52572121e-37, 0., 1.52572121e-37, 0., 1.14121747e-41, 0.,
          1.15018578e-41, 0., 3.39327718e+09, 4.22003868e-05,
          8.39683562e+05, 7.55895985e-39, 4.61013882e-39, 898715904.,
          6.36436271e-39, 2.21424240e-10, 2.05955988e-10, 1.62061253e-10,
          4.88456771e-39, 3.68114034e+12, 6.36547254e-39, 1.63175145e+19,
          1.86171597e+25, 5.13584167e+02 ]
      - [ 0., 0., 0., 0., 0., 0., 0., 0., 0., 0., 0., 0., 0., 0., 0., 0.,
          0., 0., 0., 0., 0., 0., 0., 0., 0., 0., 0., 0., 0., 0., 0., 0.,
          0., 0., 0., 0., 0., 0., 0., 0., 0., 0., 0., 0., 0., 0., 0., 0.,
          0., 0., 0., 0., 0., 0., 0., 0., 0., 0., 0., 0., 0., 0., 0., 0.,
          0., 0., 0., 0., 0., 0., 0., 0., 0., 0., 0., 0., 0., 0., 0., 0.,
          0., 0., 0., 0., 0., 0., 0., 0., 0., 0., 0., 0., 0., 0., 0., 0.,
          0., 0., 0., 0. ]
      - [ 0., 869422272., 2.60776223e-09, 6.33672350e-39, 5.76213929e-42,
          0., 1.45735040e-42, 0., 0., 0., 0., 0., 0., 0., 0., 0., 0., 0.,
          0., 0., 1.50328609e-37, 0., 1.50330941e-37, 0., 4.90454463e-44,
          1.26116862e-44, 0., 0., 0., 0., 0., 0., 0., 0., 0., 0., 0., 0.,
          1.50316591e-37, 0., 1.50318923e-37, 0., 4.06376555e-44,
          1.12103877e-44, 1.50292197e-37, 0., 1.50294529e-37, 0.,
          5.04467447e-44, 3.78350585e-44, 1.50254531e-37, 0.,
          1.50256862e-37, 0., 4.20389539e-44, 2.94272678e-44,
          1.50311569e-37, 0., 1.50314259e-37, 0., 7.00649232e-45,
          1.54142831e-44, 1.50321255e-37, 0., 1.50323945e-37, 0.,
          2.80259693e-45, 4.06376555e-44, 0., 0., 0., 0., 0., 0.,
          1.50304215e-37, 0., 1.50306905e-37, 0., 1.12103877e-44,
          4.48415509e-44, 0., 0., 0., 0., 0., 0., 0., 0., 0., 0., 0., 0.,
          0., 0., 0., 0., 0., 0., 0., 0. ]
   decision_functions:
      -
         sv_count: 5
         rho: 7.9999999998807547e-01
         alpha: [ 2.9387360795871515e-36, 5.8774633429137202e-30,
             5.8774574654415611e-30, -5.8774662816498004e-30,
             -5.8774574654415611e-30 ]
         index: [ 4, 2, 3, 1, 0 ]
