%YAML:1.0
---
opencv_ml_svm:
   format: 3
   svmType: C_SVC
   kernel:
      type: POLY
      degree: 4.9000000000000005e-01
      gamma: 5.0625000000000009e-01
      coef0: 1.9600000000000001e+01
   C: 1.0000000000000001e-01
   term_criteria: { iterations:100000 }
   var_count: 100
   class_count: 4
   class_labels: !!opencv-matrix
      rows: 4
      cols: 1
      dt: i
      data: [ -2, -1, 1, 2 ]
   sv_total: 58
   support_vectors:
      - [ 2., 0., 0., 0., 0., 0., 0., 0., 0., 0., 0., 0., 0., 0., 0., 0.,
          0., 0., 0., 0., 0., 0., 0., 0., 0., 0., 0., 0., 0., 0., 0., 0.,
          2.33262132e-38, 2.35106045e-38, 0., 0., 0., 0., 0., 0.,
          6.01825485e-36, 3.76158192e-37, 0., 0., 0., 0., 0., 0.,
          2.35095269e-38, 1.83670992e-40, 0., 0., 0., 0., 0., 0.,
          2.35098814e-38, 1.40129846e-45, 0., 0., 0., 0., 0., 0.,
          2.35098856e-38, 3.58732407e-43, 0., 0., 0., 0., 0., 0., 0., 0.,
          4.91477410e-41, 0., -8.11573152e+23, 4.57776182e-41,
          4.91253203e-41, 0., -8.11573152e+23, 4.57776182e-41,
          -8.11573152e+23, 4.57776182e-41, 0., 0., 0., 0.,
          2.35106017e-38, 9.25529610e-41, 0., 0., 0., 0., 0., 0.,
          2.35098856e-38, 2.35106129e-38, 0., 0. ]
      - [ 0., 0., 0., 0., 9.40380963e-38, 2.35098870e-38, 0., 0., 0., 0.,
          0., 0., 2.35098856e-38, 1.43492963e-42, 0., 0., 0., 0., 0., 0.,
          2.35095255e-38, 9.40395705e-38, 0., 0., 0., 0., 0., 0.,
          9.40381075e-38, 3.68059449e-40, 0., 0., 0., 0., 0., 0.,
          2.35091682e-38, 2.80259693e-45, 0., 0., 0., 0., 0., 0.,
          3.74688779e-37, 2.35113219e-38, 0., 0., 0., 0., 0., 0., 0., 0.,
          4.86993255e-41, 0., -8.11573152e+23, 4.57776182e-41,
          4.86769048e-41, 0., -8.11573152e+23, 4.57776182e-41,
          -8.11573152e+23, 4.57776182e-41, 0., 0., 0., 0.,
          9.47742096e-38, 2.80259693e-45, 0., 0., 0., 0., 0., 0.,
          2.34180501e-38, 9.18354962e-41, 0., 0., 0., 0., 0., 0.,
          1.50463268e-36, 2.75866622e-40, 0., 0., 0., 0., 0., 0.,
          2.33262132e-38, 2.35106045e-38, 0., 0., 0., 0., 0., 0. ]
      - [ 0., 3.76158192e-37, 0., 0., 0., 0., 0., 0., 2.35095269e-38,
          1.83670992e-40, 0., 0., 0., 0., 0., 0., 2.35098814e-38,
          1.40129846e-45, 0., 0., 0., 0., 0., 0., 2.35098856e-38,
          3.58732407e-43, 0., 0., 0., 0., 0., 0., 0., 0., 4.82509100e-41,
          0., -8.11573152e+23, 4.57776182e-41, 4.82284892e-41, 0.,
          -8.11573152e+23, 4.57776182e-41, -8.11573152e+23,
          4.57776182e-41, 0., 0., 0., 0., 9.47742096e-38, 2.80259693e-45,
          0., 0., 0., 0., 0., 0., 2.34180501e-38, 9.18354962e-41, 0., 0.,
          0., 0., 0., 0., 1.50463268e-36, 2.75866622e-40, 0., 0., 0., 0.,
          0., 0., 2.33262132e-38, 2.35106045e-38, 0., 0., 0., 0., 0., 0.,
          6.01825485e-36, 3.76158192e-37, 0., 0., 0., 0., 0., 0.,
          2.35095269e-38, 1.83670992e-40, 0., 0., 0., 0., 0., 0.,
          2.35098814e-38, 1.40129846e-45, 0., 0. ]
      - [ 0., 0., 0., 0., 2.35098856e-38, 3.58732407e-43, 0., 0., 0., 0.,
          0., 0., 0., 0., 4.78024945e-41, 0., -8.11573152e+23,
          4.57776182e-41, 4.77800737e-41, 0., -8.11573152e+23,
          4.57776182e-41, -8.11573152e+23, 4.57776182e-41, 0., 0., 0.,
          0., 9.47742096e-38, 2.80259693e-45, 0., 0., 0., 0., 0., 0.,
          2.34180501e-38, 9.18354962e-41, 0., 0., 5.76213929e-42, 0.,
          5.76213929e-42, 0., 1.50463268e-36, 2.75866622e-40, 0., 0., 0.,
          0., 0., 0., 2.33262132e-38, 2.35106045e-38, 0., 0., 0., 0., 0.,
          0., 6.01825485e-36, 3.76158192e-37, 0., 0., 0., 0., 0., 0.,
          2.35095269e-38, 1.83670992e-40, 0., 0., 0., 0., 0., 0.,
          2.35098814e-38, 1.40129846e-45, 0., 0., 0., 0., 0., 0.,
          2.35098856e-38, 3.58732407e-43, 0., 0., 0., 0., 0., 0., 0., 0.,
          4.73540790e-41, 0., -8.11573152e+23, 4.57776182e-41,
          -8.11573152e+23, 4.57776182e-41 ]
      - [ 0., 0., 0., 0., 0., 0., 0., 0., 0., 0., 0., 0., 0., 0., 0., 0.,
          0., 0., 0., 0., 0., 0., 0., 0., 0., 0., 0., 0., 0., 0., 0., 0.,
          0., 0., 0., 0., 0., 0., 0., 0., 0., 0., 0., 0., 0., 0., 0., 0.,
          0., 0., 0., 0., 0., 0., 0., 0., 0., 0., 0., 0., 0., 0., 0., 0.,
          0., 0., 0., 0., 0., 0., 0., 0., 0., 0., 0., 0., 0., 0., 0., 0.,
          1.15691201e-41, 0., 1.15018578e-41, 0., 3.39327718e+09,
          4.22003868e-05, 8.39683562e+05, 7.55895985e-39, 4.70126246e-39,
          898715904., 6.36436271e-39, 2.21424240e-10, 2.05955988e-10,
          1.64789737e-10, 4.60906123e-39, 3.68114034e+12, 6.36547254e-39,
          1.63175145e+19, 1.86171597e+25, 5.13584167e+02 ]
      - [ 1., 1.94109989e+31, 2.23339905e+11, 2.13266830e+02,
          2.68222811e-06, 8.46330522e-07, 1.01982094e-08, 4.51723834e-39,
          3.33358301e+03, 6.37328412e-10, 3.20470543e+01, 1.41785815e+13,
          6.40288544e-10, 3.13601294e+03, 223667552., 1.02554623e-08, 0.,
          0., 0., 0., 0., 0., 0., 0., 0., 0., 0., 0., 5.76213929e-42, 0.,
          5.60519386e-43, 0., 0., 0., 0., 0., 0., 0., 1.54034875e-38, 0.,
          0., 0., 0., 0., 3.92363570e-44, 0., 0., 0., 0., 0., 0., 0., 0.,
          0., 0., 0., 0., 0., 0., 0., 1.52992645e-38, 0., 0., 0., 0., 0.,
          1.40129846e-45, 0., 0., 0., 1.40129846e-45, 0., 0., 0., 0., 0.,
          0., 0., 0., 0., 0., 0., 0., 0., 0., 0., 0., 0., 0., 0.,
          1.40129846e-45, .Nan, 1.54439906e-38, 0., 1.54439962e-38, 0.,
          0., 0., 0., 0. ]
      - [ 0., 4.57776182e-41, -8.11645786e+23, 4.57776182e-41,
          1.54425109e-38, 0., 1.54425109e-38, 0., 1.51778112e-38, 0.,
          3.50324616e-44, 0., 1.51660403e-38, 0., 1.51663318e-38, 0.,
          5.32493416e-44, 5.18480432e-44, 1.51696724e-38, 0.,
          1.51699639e-38, 0., 3.78350585e-44, 8.40779079e-45,
          1.51733495e-38, 0., 1.51736409e-38, 0., 1.12103877e-44,
          9.80908925e-45, 1.51634171e-38, 0., 1.51637085e-38, 0.,
          1.54142831e-44, 2.10194770e-44, 1.51683720e-38, 0.,
          1.51686635e-38, 0., 4.20389539e-45, 4.20389539e-44,
          1.51727665e-38, 0., 1.54424660e-38, 0., 5.60519386e-45,
          1.96181785e-44, 1.51739324e-38, 0., 1.51742239e-38, 0.,
          1.82168800e-44, 5.60519386e-45, 1.51672062e-38, 0.,
          1.51674976e-38, 0., 4.20389539e-44, 5.32493416e-44,
          1.51718921e-38, 0., 1.51721836e-38, 0., 1.96181785e-44,
          2.52233724e-44, 1.51642915e-38, 0., 1.51645829e-38, 0.,
          1.68155816e-44, 7.00649232e-45, 1.51648744e-38, 0.,
          1.51651659e-38, 0., 5.18480432e-44, 1.54142831e-44,
          1.51730580e-38, 0., 1.54340582e-38, 0., 2.66246708e-44,
          1.12103877e-44, 1.51716006e-38, 0., 1.51724750e-38, 0.,
          9.80908925e-45, 1.40129846e-44, 1.51628341e-38, 0.,
          1.54342376e-38, 0., 7.00649232e-45, .Nan, 1.51786856e-38, 0.,
          1.51790219e-38, 0. ]
      - [ 2., 0., 0., 0., 0., 0., 0., 0., 0., 0., 0., 0., 0., 0., 0., 0.,
          0., 0., 0., 0., 0., 0., 1.51654573e-38, 0., 1.51657488e-38, 0.,
          2.80259693e-45, 1.68155816e-44, 1.51666232e-38, 0.,
          1.51669147e-38, 0., 1.26116862e-44, 2.80259693e-45,
          1.51750983e-38, 0., 1.51760175e-38, 0., 4.06376555e-44,
          3.36311631e-44, 1.54003589e-36, 3.82058757e-37, 2.76586890e-40,
          2.36949957e-38, 2.36928461e-38, .Nan, 2.35098870e-38,
          -1.70146355e+38, .Nan, 9.47770907e-38, 2.21415356e+03,
          1.41438999e+19, 2.17349250e+05, 1.71847620e+25, 6.40968889e-10,
          6.41111164e-10, 1.52461273e-42, 0., 5.76213929e-42, 0.,
          1.97634601e+31, 1.16315229e+33, 1.81740152e+31, 1.71847458e+25,
          6.40969056e-10, 1.60242403e-10, 6.40969056e-10, 6.72105351e-04,
          2.53755794e-09, 1.12275069e+21, 6.29373220e-10, 1.26957001e+19,
          3.24781624e-09, 8.49203053e-33, 7.17881302e+22, 9.60103847e-40,
          8.29568691e-43, 0., 5.76213929e-42, 0., 6.48388510e-10,
          4.22515113e-05, 7.51647574e-04, 6.13710939e+13, 3.29346381e+09,
          1.54319028e+25, 1.79033368e+19, 4.09682982e-11, 1.03130304e-08,
          6.82312998e+22, 1.83149398e+25, 4.63495745e+24, 4.22012707e+24,
          2.21427417e+03, 1.41438999e+19, 8.25083374e+02, 3.57314429e+03,
          49614136., 1.99117518e+34, 6.49270637e-10 ]
      - [ 0., 0., 0., 0., 0., 0., 0., 0., 0., 0., 0., 0., 0., 0., 0., 0.,
          0., 0., 0., 0., 0., 0., 0., 0., 0., 0., 0., 0., 0., 0., 0., 0.,
          0., 0., 0., 0., 0., 0., 0., 0., 0., 0., 0., 0., 0., 0., 0., 0.,
          0., 0., 0., 0., 0., 0., 0., 0., 0., 0., 0., 0., 0., 0., 0., 0.,
          0., 0., 0., 0., 1.15691201e-41, 0., 1.15018578e-41, 0.,
          3.39327718e+09, 4.22003868e-05, 8.39683562e+05, 7.55895985e-39,
          5.16079307e-39, 898715904., 6.36436271e-39, 2.21424240e-10,
          2.05955988e-10, 1.62061253e-10, 4.51722573e-39, 3.68114034e+12,
          6.36547254e-39, 1.63175145e+19, 1.86171597e+25, 5.13584167e+02,
          3.42858252e+03, 1.94109989e+31, 2.23339905e+11, 2.13266830e+02,
          1.30603894e+22, 1.02086712e-08, 1.64102616e-07, 1.45846436e+10,
          1.68257477e-10, 4.42503150e-39, 886395008., 4.66760242e-10 ]
      - [ 0., 1.41793700e+13, 6.40288544e-10, 6.86636248e-44, 0., 0., 0.,
          0., 0., 0., 0., 0., 0., 0., 0., 0., 0., 0., 0., 0., 0., 0., 0.,
          0., 0., 0., 0., 0., 0., 0., 0., 0., 0., 0., 0., 0., 0., 0., 0.,
          0., 0., 0., 0., 0., 0., 0., 0., 0., 0., 0., 0., 0., 0., 0., 0.,
          0., 0., 0., 0., 0., 0., 0., 0., 0., 0., 0., 0., 0., 0., 0., 0.,
          0., 0., 0., 0., 0., 0., 0., 0., 0., 0., 0., 0., 0., 0., 0., 0.,
          0., 0., 0., 0., 0., 0., 0., 0., 0., 0., 0., 0., 0. ]
      - [ 0., 0., 0., 0., 0., 0., 0., 0., 0., 0., 0., 0., 0., 0., 0., 0.,
          0., 0., 0., 0., 0., 0., 0., 0., 0., 0., 0., 0., 0., 0., 0., 0.,
          0., 0., 0., 0., 0., 0., 0., 0., 0., 0., 0., 0., 0., 0., 0., 0.,
          0., 0., 0., 0., 0., 0., 0., 0., 0., 0., 0., 0., 0., 0., 0., 0.,
          0., 0., 0., 0., 1.15691201e-41, 0., 1.15018578e-41, 0.,
          3.39327718e+09, 4.22003868e-05, 8.39683562e+05, 7.55895985e-39,
          3.13601172e+03, 202696032., 2.86490370e+32, 1.94255846e+31,
          6.40957620e-10, 6.40954900e-10, 3.13601196e+03, 1.45847316e+10,
          1.94109832e+31, 6.74036913e+22, 6.71201627e+22, 861248.,
          7.55538373e-39, 9.04129680e-39, 8.29286133e+02, 7.73833586e-39,
          8.41131743e+20, 1.63164017e-07, 2.20252550e+12, 6.36547254e-39,
          1.60238836e-10, 1.33316288e+13, 223667504., 2.56386556e-09 ]
      - [ 1., 7.10193476e-39, 4.51722573e-39, 0., 0., 0., 0., 0., 0., 0.,
          0., 0., 0., 0., 0., 0., 0., 0., 0., 0., 0., 0., 0., 0., 0., 0.,
          0., 0., 0., 0., 0., 0., 0., 0., 0., 0., 0., 0., 0., 0., 0., 0.,
          0., 0., 0., 0., 0., 0., 0., 0., 0., 0., 0., 0., 1.56834725e-40,
          0., 0., 0., 0., 0., 0., 0., 0., 0., 0., 0., 0., 0., 0., 0., 0.,
          0., 0., 0., 0., 0., 0., 0., 0., 0., 0., 0., 0., 0.,
          7.28675201e-42, 0., 5.60519386e-43, 0., 0., 0., 0., 0., 0., 0.,
          1.54035660e-38, 0., 0., 0., 0., 0. ]
      - [ 1., 0., 1.00147009e-11, 1.04703338e-11, 7.03621104e+22,
          1.63867541e+19, 1.71824653e+25, 1.67797265e+22, 2.00333481e+02,
          6.20121946e+28, 2.23454880e+02, 4.84146230e+30, 6.97799210e+22,
          6.41640630e-10, 6.77348844e-10, 1.30770662e+22, 1.72836153e-41,
          0., 1.62340427e-41, 0., 1.54773303e-38, 0., -8.11573152e+23,
          4.57776182e-41, 0., 0., 0., 0., 4.22012707e+24, 3.60119692e-41,
          1.57856272e-41, 0., 1.54423091e-38, 0., 1.54341479e-38, 0., 0.,
          0., 0., 0., 6.72623263e-44, 0., 6.72623263e-44, 0.,
          1.54421297e-38, 0., 7.71475335e+31, 6.49270637e-10,
          7.55629461e+31, 1.14333112e+27, 4.10370255e-41, 0., 0., 0.,
          1.56511025e-41, 0., 1.55300192e-38, 0., 1.55648610e-38, 0., 0.,
          0., 0., 0., 1.51886853e-38, 0., 2.80259693e-44, 0.,
          1.51874745e-38, 0., 1.54421521e-38, 0., 0., 4.20389539e-45,
          1.51868916e-38, 0., 1.51871831e-38, 0., 2.80259693e-45,
          3.64337601e-44, 1.51892682e-38, 0., 1.54506272e-38, 0.,
          5.18480432e-44, 2.80259693e-44, 0., 0., 0., 0., 0., 0., 0., 0.,
          0., 0., 0., 0., 0., 0. ]
      - [ 0., -1.70146376e+38, 9.18340949e-41, 9.47771131e-38,
          1.54003589e-36, 6.25455117e-36, 2.21415356e+03, 1.41438999e+19,
          2.17349250e+05, 1.71847620e+25, 6.40968889e-10, 6.41111164e-10,
          1.45735040e-42, 0., 5.76213929e-42, 0., 1.97634601e+31,
          1.16315229e+33, 1.81740152e+31, 1.71847458e+25, 6.40969056e-10,
          1.60242403e-10, 6.40969056e-10, 6.72105351e-04, 6.34432118e-10,
          1.12275069e+21, 6.29373276e-10, 1.26957001e+19, 3.24781624e-09,
          8.54017878e-33, 7.17881302e+22, 9.60103847e-40, 8.29568691e-43,
          0., 5.76213929e-42, 0., 1.05635927e-05, 6.59173494e-10,
          7.51647458e-04, 6.13710939e+13, 3.29346381e+09, 1.54319028e+25,
          1.79033368e+19, 4.09682982e-11, 1.03130304e-08, 6.82312998e+22,
          1.83149398e+25, 4.63495745e+24, 4.22012707e+24, 2.21427417e+03,
          1.41438999e+19, 8.25083374e+02, 3.57314429e+03, 49614136.,
          1.99117518e+34, 6.49270637e-10, 4.09682982e-11, 1.03130304e-08,
          6.82312998e+22, 1.83149398e+25, 1.44565062e-08, 4.28808887e+21,
          4.28651965e+21, 7.51650194e-04, 6.13710939e+13, 3.29346381e+09,
          8.05489380e+02, 3.40033080e-06, 7.51650077e-04, 234112144.,
          51712316., 2.00332962e+02, 6.20121946e+28, 2.23454880e+02,
          4.84146230e+30, 6.97799210e+22, 7.51651009e-04, 234112144.,
          51712316., 2.06270981e+02, 2.00332962e+02, 1.44564831e-08,
          1.89578718e+31, 1.44565213e-08, 1.85120355e+28, 1.15789504e+27,
          1.16709515e-32, 8.04910461e+02, 8.29208923e+02, 9.14628312e+05,
          6.41154907e-10, 2.21107422e+03, 1.41438999e+19, 8.77653125e+05,
          869422272., 6.55521692e-10, 7.51647400e-04, 9.58923342e+11,
          1.25825853e+01, 1.54318958e+25 ]
      - [ 0., 4.09682982e-11, 1.03130304e-08, 6.82312998e+22,
          1.83149398e+25, 4.63495745e+24, 4.22012707e+24, 1.53513907e+13,
          1.45025144e+19, 7.71475335e+31, 1.85120910e+28, 1.15789504e+27,
          1.74664855e+19, 6.40969056e-10, 6.72105351e-04, 2.53755794e-09,
          7.62960625e+05, 3.38195410e+03, 50668872., 3.36090701e+09,
          6.88776258e-10, 6.72104768e-04, 2.70939537e-09, 8.53096291e-33,
          8.04910461e+02, 9.15941556e+11, 1.12275168e+21, 7.62960625e+05,
          9.16426326e+11, 844615808., 1.34573320e+04, 8.47236891e+11,
          1.68063634e-04, 6.40969056e-10, 7.51647749e-04, 6.13710939e+13,
          3.29346381e+09, 2.13000684e+11, 8.93207947e+02, 4.83322792e+01,
          4.81751002e-02, 3.02222248e+32, 6.13172843e+28, 2.63363557e+20,
          1.85236006e+28, 7.62960625e+05, 3.44557261e+09, 1.47192457e+19,
          217392224., 3.32030306e+12, 8.30040244e+11, 4.02995588e-11,
          7.49342894e+28, 3.03090583e+24, 2.21415356e+03, 1.41438999e+19,
          2.17349250e+05, 1.71847620e+25, 6.40968889e-10, 6.41111164e-10,
          5.12027989e-11, 7.51647225e-04, 1.49831772e+10, 1.44352342e+19,
          4.86462861e-02, 1.32665962e-11, 6.40969056e-10, 1.26957518e+19,
          3.25060179e-09, 7.62960625e+05, 3.32813210e+09, 3.38195752e+03,
          2.40003169e+32, 2.14639698e+29, 6.30867969e-10, 1.26957001e+19,
          3.24781624e-09, 8.54017878e-33, 7.17881302e+22, 9.60103847e-40,
          0., 0., 0., 0., 0., 0., 0., 0., 0., 0., 0., 0., 0., 0., 0., 0.,
          0., 0., 0., 0. ]
      - [ 1., 0., 0., 0., 0., 0., 0., 0., 0., 0., 0., 0., 0., 0., 0., 0.,
          0., 0., 0., 0., 0., 0., 0., 0., 0., 0., 0., 0., 0., 0., 0., 0.,
          0., 0., 0., 0., 0., 0., 0., 0., 0., 0., 0., 0., 0., 0., 0., 0.,
          0., 0., 0., 0., 0., 0., 0., 0., 0., 0., 0., 0., 0., 0., 0., 0.,
          0., 0., 0., 0., 0., 0., 0., 0., 0., 0., 0., 0., 0., 0., 0., 0.,
          0., 0., 0., 0., 0., 0., 0., 0., 0., 0., 0., 0., 0., 0., 0., 0.,
          0., 0., 0., 0. ]
      - [ 0., 0., 0., 0., 0., 0., 0., 0., 0., 0., 0., 0., 0., 0., 0., 0.,
          0., 0., 0., 0., 0., 0., 0., 0., 0., 0., 0., 0., 0., 0., 0., 0.,
          0., 0., 0., 0., 0., 0., 0., 0., 0., 0., 0., 0., 0., 0., 0., 0.,
          0., 0., 0., 0., 0., 0., 0., 0., 0., 0., 0., 0., 0., 0., 0., 0.,
          0., 0., 0., 0., 0., 0., 0., 0., 0., 0., 0., 0., 0., 0., 0., 0.,
          0., 0., 0., 0., 0., 0., 0., 0., 0., 0., 0., 0., 0., 0., 0., 0.,
          0., 0., 1.40019144e-40, 0. ]
      - [ 0., 0., 0., 0., 0., 0., 0., 0., 0., 0., 0., 0., 0., 0., 0., 0.,
          0., 0., 0., 0., 0., 0., 0., 0., 0., 0., 0., 0., 0., 0., 0., 0.,
          0., 0., 0., 0., 0., 0., 0., 0., 0., 0., 0., 0., 0., 0., 0., 0.,
          0., 0., 0., 0., 0., 0., 0., 0., 0., 0., 0., 0., 0., 0., 0., 0.,
          0., 0., 0., 0., 0., 0., 0., 0., 0., 0., 0., 0., 0., 0., 0., 0.,
          0., 0., 0., 0., 0., 0., 0., 0., 0., 0., 0., 0., 0., 0., 0., 0.,
          0., 0., 0., 0. ]
      - [ 1., 0., 0., 0., 0., 0., 0., 0., 0., 0., 0., 0., 0., 0., 0., 0.,
          0., 0., 0., 0., 0., 0., 0., 0., 0., 0., 0., 0., 0., 0., 0., 0.,
          0., 0., 0., 0., 0., 0., 0., 0., 0., 0., 0., 0., 0., 0., 0., 0.,
          0., 0., 0., 0., 0., 0., 0., 0., 0., 0., 0., 0., 0., 0., 0., 0.,
          0., 0., 0., 0., 0., 0., 0., 0., 0., 0., 0., 0., 0., 0., 0., 0.,
          0., 0., 0., 0., 0., 0., 0., 0., 0., 0., 0., 0., 0., 0., 0., 0.,
          0., 0., 0., 0. ]
      - [ 0., 0., 0., 0., 0., 0., 0., 0., 0., 0., 0., 0., 0., 0., 0., 0.,
          0., 0., 0., 0., 0., 0., 0., 0., 0., 0., 0., 0., 0., 0., 0., 0.,
          0., 0., 0., 0., 0., 0., 0., 0., 0., 0., 0., 0., 0., 0., 0., 0.,
          0., 0., 0., 0., 5.76213929e-42, 0., 5.76213929e-42, 0., 0., 0.,
          0., 0., 0., 0., 0., 0., 0., 0., 0., 0., 0., 0., 0., 0., 0., 0.,
          0., 0., 0., 0., 0., 0., 0., 0., 0., 0., 0., 0., 0., 0., 0., 0.,
          0., 0., 0., 0., 0., 0., 0., 0., 0., 0. ]
      - [ 1., 0., 0., 0., 0., 0., 0., 0., 0., 0., 0., 0., 0., 0., 0., 0.,
          0., 0., 0., 0., 0., 0., 0., 0., 0., 0., 0., 0., 0., 0., 0., 0.,
          0., 0., 0., 0., 0., 0., 0., 0., 0., 0., 0., 0., 0., 0., 0., 0.,
          0., 0., 0., 0., 0., 0., 0., 0., 0., 0., 0., 0., 0., 0., 0., 0.,
          0., 0., 0., 0., 0., 0., 0., 0., 0., 0., 0., 0., 0., 0., 0., 0.,
          0., 0., 0., 0., 0., 0., 0., 0., 0., 0., 0., 0., 0., 0., 0., 0.,
          0., 0., 0., 0. ]
      - [ 0., 0., 0., 0., 0., 0., 0., 0., 0., 0., 0., 0., 0., 0., 0., 0.,
          0., 0., 0., 0., 0., 0., 0., 0., 1.15691201e-41, 0.,
          1.15018578e-41, 0., 3.39327718e+09, 4.22003868e-05,
          8.39683562e+05, 7.55895985e-39, 5.16079307e-39, 898715904.,
          6.36436271e-39, 2.21424240e-10, 2.05955988e-10, 1.62061253e-10,
          4.51722573e-39, 3.68114034e+12, 6.36547254e-39, 1.63175145e+19,
          1.86171597e+25, 5.13584167e+02, 3.42858252e+03, 1.94109989e+31,
          2.23339905e+11, 2.13266830e+02, 1.30603894e+22, 1.02086712e-08,
          1.64102616e-07, 1.45846436e+10, 1.68257477e-10, 4.42503150e-39,
          886395008., 4.66760242e-10, 5.12784180e+02, 1.41793700e+13,
          6.40288544e-10, 6.86636248e-44, 0., 0., 0., 0., 0., 0., 0., 0.,
          0., 0., 0., 0., 0., 0., 0., 0., 0., 0., 0., 0., 0., 0., 0., 0.,
          0., 0., 0., 0., 0., 0., 0., 0., 0., 0., 0., 0., 0., 0., 0., 0. ]
      - [ 0., 0., 0., 0., 0., 0., 0., 0., 0., 0., 0., 0., 0., 0., 0., 0.,
          0., 0., 0., 0., 0., 0., 0., 0., 0., 0., 0., 0., 0., 0., 0., 0.,
          0., 0., 0., 0., 0., 0., 0., 0., 7.21948969e-42, 0.,
          5.60519386e-43, 0., 0., 0., 0., 0., 0., 0., 1.54036444e-38, 0.,
          0., 0., 0., 0., 3.92363570e-44, 0., 0., 0., 0., 0., 0., 0., 0.,
          0., 0., 0., 0., 0., 0., 0., 1.52993991e-38, 0., 0., 0., 0., 0.,
          1.40129846e-45, 0., 0., 0., 1.40129846e-45, 0., 0., 0., 0., 0.,
          0., 0., 0., 0., 0., 0., 0., 0., 0., 0., 0., 0. ]
      - [ 2., 6.82312998e+22, 1.83149398e+25, 4.63495745e+24,
          4.22012707e+24, 2.21427417e+03, 1.41438999e+19, 8.25083374e+02,
          3.57314429e+03, 49614136., 1.99117518e+34, 6.49270637e-10,
          4.09682982e-11, 1.03130304e-08, 6.82312998e+22, 1.83149398e+25,
          1.44565062e-08, 4.28808887e+21, 4.28651965e+21, 7.51650194e-04,
          6.13710939e+13, 3.29346381e+09, 8.05489380e+02, 3.40033080e-06,
          7.51650077e-04, 234112144., 51712316., 2.00332962e+02,
          6.20121946e+28, 2.23454880e+02, 4.84146230e+30, 6.97799210e+22,
          7.51651009e-04, 234112144., 51712316., 2.06270981e+02,
          2.00332962e+02, 1.44564831e-08, 1.89578718e+31, 1.44565213e-08,
          1.85120355e+28, 1.15789504e+27, 1.16709515e-32, 8.04910461e+02,
          8.29208923e+02, 9.14628312e+05, 6.41154907e-10, 2.21107422e+03,
          1.41438999e+19, 8.77653125e+05, 869422272., 6.55521692e-10,
          7.51647400e-04, 9.58923342e+11, 1.25825853e+01, 1.54318958e+25,
          1.79033368e+19, 4.09682982e-11, 1.03130304e-08, 6.82312998e+22,
          1.83149398e+25, 4.63495745e+24, 4.22012707e+24, 1.53513907e+13,
          1.45025144e+19, 7.71475335e+31, 1.85120910e+28, 1.15789504e+27,
          1.74664855e+19, 6.40969056e-10, 6.72105351e-04, 6.34432118e-10,
          7.62960625e+05, 3.38195410e+03, 50668872., 3.36090701e+09,
          6.88776258e-10, 6.72104768e-04, 2.70939537e-09, 8.48281686e-33,
          8.04910461e+02, 9.15941556e+11, 1.12275168e+21, 7.62960625e+05,
          9.16426326e+11, 844615808., 1.34573320e+04, 8.47236891e+11,
          1.68063634e-04, 6.40969056e-10, 7.51647749e-04, 6.13710939e+13,
          3.29346381e+09, 2.13000684e+11, 8.93207947e+02, 4.83322792e+01,
          4.81751002e-02, 3.02222248e+32, 6.13172843e+28, 2.63363557e+20 ]
      - [ 0., 0., 0., 0., 0., 0., 0., 0., 0., 0., 0., 0., 0., 0., 0., 0.,
          0., 0., 0., 0., 0., 0., 0., 0., 0., 0., 0., 0., 0., 0., 0., 0.,
          0., 0., 0., 0., 0., 0., 0., 0., 0., 0., 0., 0., 0., 0., 0., 0.,
          0., 0., 0., 0., 0., 0., 0., 0., 0., 0., 0., 0., 0., 0., 0., 0.,
          0., 0., 0., 0., 0., 0., 0., 0., 0., 0., 0., 0., 0., 0., 0., 0.,
          1.15691201e-41, 0., 1.15018578e-41, 0., 3.39327718e+09,
          4.22003868e-05, 8.39683562e+05, 7.55895985e-39, 4.79560628e-39,
          898715904., 6.36436271e-39, 2.21424240e-10, 2.05955988e-10,
          1.63880243e-10, 4.51722573e-39, 3.68114034e+12, 6.36547254e-39,
          1.63175145e+19, 1.86171597e+25, 5.13584167e+02 ]
      - [ 1., 1.94109989e+31, 2.23339905e+11, 2.13266830e+02,
          1.30603894e+22, 2.55216781e-09, 1.64102616e-07, 1.45846436e+10,
          1.68257477e-10, 4.42503150e-39, 886395008., 4.66760242e-10,
          5.12815430e+02, 1.41793700e+13, 6.40288544e-10, 6.86636248e-44,
          0., 0., 0., 0., 0., 0., 0., 0., 0., 0., 0., 0., 0., 0., 0., 0.,
          0., 0., 0., 0., 0., 0., 0., 0., 0., 0., 0., 0., 0., 0., 0., 0.,
          0., 0., 0., 0., 0., 0., 0., 0., 0., 0., 0., 0., 0., 0., 0., 0.,
          0., 0., 0., 0., 0., 0., 0., 0., 0., 0., 0., 0., 0., 0., 0., 0.,
          0., 0., 0., 0., 0., 0., 0., 0., 0., 0., 0., 0., 0., 0., 0., 0.,
          0., 0., 0., 0. ]
      - [ 1., 0., 0., 0., 0., 0., 0., 0., 0., 0., 0., 0., 0., 0., 0., 0.,
          0., 0., 0., 0., 0., 0., 0., 0., 0., 0., 0., 0., 0., 0., 0., 0.,
          0., 0., 0., 0., 0., 0., 0., 0., 0., 0., 0., 0., 0., 0., 0., 0.,
          0., 0., 0., 0., 0., 0., 1.31857982e-40, 0., 0., 0., 0., 0., 0.,
          0., 0., 0., 0., 0., 0., 0., 0., 0., 0., 0., 0., 0., 0., 0., 0.,
          0., 0., 0., 0., 0., 0., 0., 0., 0., 0., 0., 0., 0., 0., 0., 0.,
          0., 0., 0., 0., 0., 0., 0. ]
      - [ 1., 0., 0., 0., 0., 0., 0., 0., 0., 0., 0., 0., 0., 0., 0., 0.,
          0., 0., 0., 0., 0., 0., 0., 0., 0., 0., 0., 0., 0., 0., 0., 0.,
          0., 0., 0., 0., 0., 0., 0., 0., 0., 0., 0., 0., 0., 0., 0., 0.,
          0., 0., 0., 0., 0., 0., 0., 0., 0., 0., 0., 0., 0., 0., 0., 0.,
          0., 0., 0., 0., 0., 0., 0., 0., 0., 0., 0., 0., 0., 0., 0., 0.,
          0., 0., 0., 0., 0., 0., 0., 0., 0., 0., 0., 0., 0., 0., 0., 0.,
          0., 0., 0., 0. ]
      - [ 0., 0., 0., 0., 0., 0., 0., 0., 0., 0., 0., 0., 0., 0., 0., 0.,
          0., 0., 0., 0., 0., 0., 0., 0., 0., 0., 0., 0., 0., 0., 0., 0.,
          0., 0., 0., 0., 0., 0., 0., 0., 0., 0., 0., 0., 0., 0., 0., 0.,
          0., 0., 0., 0., 0., 0., 0., 0., 0., 0., 0., 0., 0., 0., 0., 0.,
          0., 0., 0., 0., 0., 0., 0., 0., 0., 0., 0., 0., 0., 0., 0., 0.,
          0., 0., 0., 0., 0., 0., 0., 0., 0., 0., 0., 0., 0., 0., 0., 0.,
          0., 0., 0., 0. ]
      - [ 0., 0., 0., 0., 0., 0., 0., 0., 5.76213929e-42, 0.,
          5.76213929e-42, 0., 0., 0., 0., 0., 0., 0., 0., 0., 0., 0., 0.,
          0., 0., 0., 0., 0., 0., 0., 0., 0., 0., 0., 0., 0., 0., 0., 0.,
          0., 0., 0., 0., 0., 0., 0., 0., 0., 0., 0., 0., 0., 0., 0., 0.,
          0., 0., 0., 0., 0., 0., 0., 0., 0., 0., 0., 0., 0., 0., 0., 0.,
          0., 0., 0., 0., 0., 0., 0., 0., 0., 0., 0., 0., 0., 0., 0., 0.,
          0., 0., 0., 0., 0., 0., 0., 0., 0., 0., 0., 0., 0. ]
      - [ 0., 0., 0., 0., 0., 0., 0., 0., 0., 0., 0., 0., 0., 0., 0., 0.,
          0., 0., 0., 0., 0., 0., 0., 0., 0., 0., 0., 0., 0., 0., 0., 0.,
          0., 0., 0., 0., 0., 0., 0., 0., 0., 0., 0., 0., 0., 0., 0., 0.,
          0., 0., 0., 0., 0., 0., 0., 0., 0., 0., 0., 0., 0., 0., 0., 0.,
          0., 0., 0., 0., 0., 0., 0., 0., 0., 0., 0., 0., 0., 0., 0., 0.,
          1.15691201e-41, 0., 1.15018578e-41, 0., 3.39327718e+09,
          4.22003868e-05, 8.39683562e+05, 7.55895985e-39, 4.97819968e-39,
          898715904., 6.36436271e-39, 2.21424240e-10, 2.05955988e-10,
          1.62970748e-10, 4.51722573e-39, 3.68114034e+12, 6.36547254e-39,
          1.63175145e+19, 1.86171597e+25, 5.13584167e+02 ]
      - [ 1., 1.94109989e+31, 2.23339905e+11, 2.13266830e+02,
          1.30603894e+22, 2.55216781e-09, 1.64102616e-07, 1.45846436e+10,
          1.68257477e-10, 4.42503150e-39, 886395008., 4.66760242e-10,
          5.12799805e+02, 1.41793700e+13, 6.40288544e-10, 6.86636248e-44,
          0., 0., 0., 0., 0., 0., 0., 0., 0., 0., 0., 0., 0., 0., 0., 0.,
          0., 0., 0., 0., 0., 0., 0., 0., 0., 0., 0., 0., 0., 0., 0., 0.,
          0., 0., 0., 0., 0., 0., 0., 0., 0., 0., 0., 0., 0., 0., 0., 0.,
          0., 0., 0., 0., 0., 0., 0., 0., 0., 0., 0., 0., 0., 0., 0., 0.,
          0., 0., 0., 0., 0., 0., 0., 0., 0., 0., 0., 0., 0., 0., 0., 0.,
          7.21948969e-42, 0., 4.48415509e-44, 0. ]
      - [ 0., 0., -8.11610046e+23, 4.57776182e-41, 0., 0.,
          2.25609053e-43, 0., 1.54675997e-38, 0., 1.54692364e-38, 0., 0.,
          0., 1.80767502e-43, 0., 1.54675997e-38, 0., -8.11573152e+23,
          4.57776182e-41, 1.54674652e-38, 0., 1.35925951e-43, 0.,
          1.54774873e-38, 0., 1.54770613e-38, 0., 1.81740152e+31,
          1.58416155e-10, 9.10844002e-44, 0., 1.54764111e-38, 0.,
          -8.11573152e+23, 4.57776182e-41, 6.40969000e-10,
          6.41111164e-10, 4.62428493e-44, 0., 1.54760748e-38, 0.,
          1.54774873e-38, 0., 1.58514882e-41, 0., 1.12103877e-43, 0.,
          1.54503581e-38, 0., 1.00147009e-11, 1.04703338e-11,
          7.03621104e+22, 1.63867541e+19, 1.71824653e+25, 1.67797265e+22,
          2.00333481e+02, 6.20121946e+28, 2.23454880e+02, 4.84146230e+30,
          6.97799210e+22, 6.41640630e-10, 6.77348844e-10, 1.30770662e+22,
          1.76423477e-41, 1.68155816e-44, 2.70450604e-43, 0.,
          1.52147382e-38, 0., 1.52141553e-38, 0., 1.52833682e-38, 0.,
          4.62428493e-44, 0., 1.52826507e-38, 0., -8.11573152e+23,
          4.57776182e-41, 8.96831017e-44, 0., 4.48415509e-44, 0.,
          1.52141553e-38, 0., 2.11880739e+11, 3.12407959e+03,
          1.16307773e-43, 1.54142831e-44, 1.35925951e-43, 0.,
          1.54671289e-38, 0., -8.11573152e+23, 4.57776182e-41,
          1.50890025e-38, 0., 4.62428493e-44, 0. ]
      - [ 0., 0., -8.11573152e+23, 4.57776182e-41, 8.96831017e-44, 0.,
          4.48415509e-44, 0., 1.54665235e-38, 0., -8.11564506e+23,
          4.57776182e-41, 3.25549659e-41, 0., 8.96831017e-44, 0.,
          1.54976211e-38, 0., 1.52884017e-38, 0., 1.52883905e-38, 0.,
          1.54976436e-38, 0., 0., 0., 0., 0., 0., 0., 1.04494826e-41, 0.,
          -8.11693056e+23, 4.57776182e-41, -8.11693056e+23,
          4.57776182e-41, 1.54667926e-38, 0., 1.54667926e-38, 0.,
          1.54668822e-38, 0., -8.11564506e+23, 4.57776182e-41,
          8.96831017e-44, 0., 4.48415509e-44, 0., 1.52135723e-38, 0.,
          8.53130307e-33, 3.68114034e+12, 4.81723286e-02, 1.63175145e+19,
          1.35925951e-43, 0., 1.52147382e-38, 0., 1.54671289e-38, 0.,
          1.30779714e+22, 2.55216781e-09, 4.62428493e-44, 0.,
          1.52502303e-38, 0., -8.11573152e+23, 4.57776182e-41,
          8.96831017e-44, 0., 4.48415509e-44, 0., 1.54671289e-38, 0.,
          -8.07530577e+23, 4.57776182e-41, 2.69049305e-43, 0.,
          6.72623263e-44, 0., 1.54671737e-38, 0., 1.00147009e-11,
          1.04703338e-11, 7.03621104e+22, 1.63867541e+19, 1.71824653e+25,
          1.67797265e+22, 0., 0., 4.62428493e-44, 0., 1.52147382e-38, 0.,
          1.54664338e-38, 0., 3.81153182e-43, 0., 6.72623263e-44, 0. ]
      - [ 1., 0., 1.62239985e-07, 2.52022003e-09, 8.18006022e+23,
          4.54435367e+30, 1.78800248e+34, 4.63147534e+24, 4.22012707e+24,
          3.60119692e-41, 1.00010671e-41, 0., 1.54586987e-38, 0.,
          -8.11573152e+23, 4.57776182e-41, 0., 0., 0., 0.,
          1.54665684e-38, 0., 1.54506720e-38, 0., 0., 0., 4.62428493e-44,
          0., 1.54665684e-38, 0., -8.11573152e+23, 4.57776182e-41,
          1.34524653e-43, 0., 6.72623263e-44, 0., 1.54108976e-38, 0.,
          -8.11575458e+23, 4.57776182e-41, 1.32665962e-11,
          6.40969056e-10, 1.26957518e+19, 3.25077232e-09, 6.72623263e-44,
          0., 9.10844002e-44, 0., 1.52153211e-38, 0., 1.54506720e-38, 0.,
          4.54420104e+30, 0., 4.62428493e-44, 0., 1.52132809e-38, 0.,
          1.50208658e-38, 0., 2.91470081e-43, 0., 6.72623263e-44, 0.,
          1.54670616e-38, 0., 7.71475335e+31, 6.49270637e-10,
          7.55629461e+31, 1.14333112e+27, 4.10370255e-41, 0., 0., 0.,
          9.64233473e-42, 0., 1.55642781e-38, 0., 1.54778460e-38, 0., 0.,
          0., 0., 0., 0., 0., 0., 0., 1.50890025e-38, 0., 1.52806104e-38,
          0., 4.20389539e-45, 4.90454463e-44, 1.52833682e-38, 0.,
          1.52852740e-38, 0., 5.46506401e-44, 2.80259693e-45 ]
      - [ 0., 0., 1.52141777e-38, 0., 1.26116862e-44, 2.94272678e-44,
          1.54665459e-38, 0., 1.54666805e-38, 0., 4.62428493e-44,
          3.92363570e-44, 0., 0., 0., 0., 0., 0., 1.54671513e-38, 0.,
          1.54671961e-38, 0., 3.78350585e-44, 1.12103877e-44,
          1.54670392e-38, 0., 1.54670840e-38, 0., 9.80908925e-45,
          3.22298647e-44, 1.52147606e-38, 0., 1.52150521e-38, 0.,
          1.82168800e-44, 5.60519386e-45, 1.54585641e-38, 0.,
          1.54663441e-38, 0., 5.18480432e-44, 4.48415509e-44,
          1.54672634e-38, 0., 1.54674652e-38, 0., 2.80259693e-44,
          3.78350585e-44, 1.54691692e-38, 0., 1.54692140e-38, 0.,
          4.06376555e-44, 4.62428493e-44, 1.52153436e-38, 0.,
          1.52541988e-38, 0., 2.52233724e-44, 1.26116862e-44,
          1.54693485e-38, 0., 1.54693934e-38, 0., 4.76441478e-44,
          4.06376555e-44, 0., 0., 0., 0., 0., 0., 1.54669495e-38, 0.,
          1.54669944e-38, 0., 3.22298647e-44, 5.04467447e-44, 0., 0., 0.,
          0., 0., 0., 1.52502527e-38, 0., 1.50208882e-38, 0.,
          4.90454463e-44, 1.82168800e-44, 0., 0., 0., 0., 0., 0.,
          1.54675100e-38, 0., 1.54675549e-38, 0. ]
      - [ 0., 1.54142831e-44, 1.52133033e-38, 0., 1.54587211e-38, 0.,
          5.60519386e-45, .Nan, 1.54586090e-38, 0., 1.54660751e-38, 0.,
          4.48415509e-44, 2.80259693e-44, 1.54584745e-38, 0.,
          1.54585193e-38, 0., 1.12103877e-44, 2.24207754e-44, 0., 0., 0.,
          0., 0., 0., 0., 0., 0., 0., 0., 0., 0., 0., 0., 0., 0., 0.,
          1.54673082e-38, 0., 1.54673531e-38, 0., 1.54142831e-44,
          9.80908925e-45, 1.54665908e-38, 0., 1.54666356e-38, 0.,
          7.00649232e-45, 5.18480432e-44, 1.54692588e-38, 0.,
          1.54693037e-38, 0., 1.96181785e-44, 1.68155816e-44, 0., 0., 0.,
          0., 0., 0., 0., 0., 0., 0., 0., 0., 1.54661199e-38, 0.,
          1.54661648e-38, 0., 1.40129846e-44, 3.08285662e-44,
          1.54690795e-38, 0., 1.54691243e-38, 0., 1.68155816e-44,
          7.00649232e-45, 1.54694382e-38, 0., 1.54694831e-38, 0., .Nan,
          1.96181785e-44, 1.50529723e-38, 0., 1.52832113e-38, 0.,
          2.80259693e-45, 2.52233724e-44, 1.52932333e-38, 0.,
          1.54668150e-38, 0., 2.24207754e-44, 5.46506401e-44,
          1.54664563e-38, 0. ]
      - [ 1., 0., 3.92363570e-44, 1.40129846e-44, 0., 0., 0., 0., 0., 0.,
          1.52826732e-38, 0., 1.52931885e-38, 0., 5.04467447e-44,
          4.20389539e-45, 2.36935552e-38, 2.34187718e-38, 9.21956299e-41,
          -1.71470411e+38, -1.71465219e+38, 2.36935580e-38,
          2.35098856e-38, .Nan, 2.36942755e-38, 2.34184103e-38,
          4.84146230e+30, 6.97799210e+22, 7.51651009e-04, 234112144.,
          51712316., 2.06270981e+02, 1.45735040e-42, 0., 4.48415509e-44,
          0., 1.54661424e-38, 0., 2.13000684e+11, 8.93207947e+02,
          4.83322792e+01, 6.36651511e-39, 4.62428493e-44, 0.,
          1.54694158e-38, 0., -8.11573152e+23, 4.57776182e-41,
          1.54703350e-42, 0., 4.48415509e-44, 0., 1.54674428e-38, 0.,
          3.52782720e+09, 1.22732668e+01, 1.21409492e+01, 2.48688438e-41,
          6.77247548e-42, 0., 1.52153211e-38, 0., -8.11573152e+23,
          4.57776182e-41, 0., 0., 0., 0., 1.54669271e-38, 0.,
          1.52541764e-38, 0., 0., 0., 0., 0., 1.54660975e-38, 0.,
          -8.11573152e+23, 4.57776182e-41, 8.96831017e-44, 0.,
          4.48415509e-44, 0., 1.52541764e-38, 0., 6.54375554e-39,
          4.57776182e-41, 0., 0., 6.59310927e-42, 0., 1.54669271e-38, 0.,
          -8.11573152e+23, 4.57776182e-41, 0., 0., 0., 0. ]
      - [ 0., 0., 1.54675997e-38, 0., 0., 0., 0., 0., 1.50529499e-38, 0.,
          -8.11573152e+23, 4.57776182e-41, 0., 0., 0., 0.,
          1.55565205e-38, 0., 1.52931661e-38, 0., 0., 0., 0., 0.,
          1.55642781e-38, 0., 1.54783841e-38, 0., 0., 0., 0., 0., 0., 0.,
          0., 0., 3.92363570e-44, 0., 0., 0., 0., 0., 0., 0., 0., 0., 0.,
          0., 0., 0., 0., 0., 1.52994663e-38, 0., 0., 0., 0., 0.,
          1.40129846e-45, 0., 0., 0., 1.40129846e-45, 0., 0., 0., 0., 0.,
          0., 0., 0., 0., 0., 0., 0., 0., 0., 0., 0., 0., 0., 0.,
          1.40129846e-45, .Nan, 1.54701333e-38, 0., 1.54701389e-38, 0.,
          0., 0., 0., 0., 0., 0., 1.54763887e-38, 0., 0., 0.,
          1.54760523e-38, 0. ]
      - [ 0., 0., 1.54768371e-38, 0., 1.40129846e-45, 0., 0., 0., 0., 0.,
          1.54767922e-38, 0., 1.40129846e-45, 0., 2.48596513e-39, 0., 0.,
          0., 0., 3.60133705e-43, 0., 0., 5.76354058e-42, 0.,
          1.55495701e-38, 0., 1.54783841e-38, 0., 0., 0., 0., 0.,
          1.01509139e-08, 1.12275069e+21, 1.12064357e+21, 7.70714155e-44,
          1.15691201e-41, 0., 1.15018578e-41, 0., 3.39327718e+09,
          4.22003868e-05, 8.39683562e+05, 7.55895985e-39, 4.60942696e-39,
          898715904., 6.36436271e-39, 2.21424240e-10, 2.05955988e-10,
          1.64789737e-10, 1.13069372e-40, 0., 6.36547254e-39,
          1.63175145e+19, 1.86171597e+25, 5.13584167e+02, 3.42858252e+03,
          1.94109989e+31, 2.23339905e+11, 2.13266830e+02, 1.30603894e+22,
          2.55216781e-09, 1.64102616e-07, 1.45846436e+10, 1.68257477e-10,
          4.42503150e-39, 886395008., 4.66760242e-10, 5.12831055e+02,
          1.41793700e+13, 6.40288544e-10, 6.86636248e-44, 0., 0., 0., 0.,
          0., 0., 0., 0., 0., 0., 0., 0., 0., 0., 0., 0., 0., 0., 0., 0.,
          0., 0., 0., 0., 0., 0., 0., 0. ]
      - [ 1., 0., 0., 0., 0., 0., 0., 0., 0., 0., 0., 0., 0., 0., 0., 0.,
          0., 0., 0., 0., 0., 0., 0., 0., 0., 0., 0., 0., 0., 0., 0., 0.,
          0., 0., 0., 0., 0., 0., 0., 0., 0., 0., 0., 0., 0., 0., 0., 0.,
          0., 0., 0., 0., 0., 0., 0., 0., 0., 0., 0., 0., 0., 0., 0., 0.,
          0., 0., 0., 0., 0., 0., 0., 0., 0., 0., 0., 0., 0., 0., 0., 0.,
          0., 0., 0., 0., 0., 0., 0., 0., 0., 0., 0., 0., 0., 0., 0., 0.,
          0., 0., 0., 0. ]
      - [ 0., 0., 0., 0., 0., 0., 0., 0., 0., 0., 1.23696819e-40, 0., 0.,
          0., 0., 0., 0., 0., 0., 0., 0., 0., 0., 0., 0., 0., 0., 0., 0.,
          0., 0., 0., 0., 0., 0., 0., 0., 0., 0., 0., 0., 0., 0., 0., 0.,
          0., 0., 0., 0., 0., 0., 0., 0., 0., 0., 0., 0., 0., 0., 0., 0.,
          0., 0., 0., 0., 0., 0., 0., 0., 0., 0., 0., 0., 0., 0., 0., 0.,
          0., 0., 0., 0., 0., 0., 0., 0., 0., 0., 0., 0., 0., 0., 0., 0.,
          0., 0., 0., 0., 0., 0., 0. ]
      - [ 0., 0., 0., 0., 0., 0., 0., 0., 0., 0., 0., 0., 0., 0., 0., 0.,
          0., 0., 0., 0., 0., 0., 0., 0., 0., 0., 0., 0., 0., 0., 0., 0.,
          0., 0., 0., 0., 0., 0., 0., 0., 0., 0., 0., 0., 0., 0., 0., 0.,
          0., 0., 0., 0., 0., 0., 0., 0., 0., 0., 0., 0., 0., 0., 0., 0.,
          0., 0., 0., 0., 0., 0., 0., 0., 0., 0., 0., 0., 0., 0., 0., 0.,
          0., 0., 0., 0., 0., 0., 0., 0., 0., 0., 0., 0., 0., 0., 0., 0.,
          0., 0., 0., 0. ]
      - [ 1., 0., 0., 0., 0., 0., 0., 0., 0., 0., 0., 0., 0., 0., 0., 0.,
          0., 0., 0., 0., 0., 0., 0., 0., 0., 0., 0., 0., 0., 0., 0., 0.,
          0., 0., 0., 0., 0., 0., 0., 0., 0., 0., 0., 0., 0., 0., 0., 0.,
          0., 0., 0., 0., 0., 0., 0., 0., 0., 0., 0., 0., 0., 0., 0., 0.,
          5.76213929e-42, 0., 5.76213929e-42, 0., 0., 0., 0., 0., 0., 0.,
          0., 0., 0., 0., 0., 0., 0., 0., 0., 0., 0., 0., 0., 0., 0., 0.,
          0., 0., 0., 0., 0., 0., 0., 0., 0., 0. ]
      - [ 0., 0., 0., 0., 0., 0., 0., 0., 0., 0., 0., 0., 0., 0., 0., 0.,
          0., 0., 0., 0., 0., 0., 0., 0., 0., 0., 0., 0., 0., 0., 0., 0.,
          0., 0., 0., 0., 1.15691201e-41, 0., 1.15018578e-41, 0.,
          3.39327718e+09, 4.22003868e-05, 8.39683562e+05, 7.55895985e-39,
          4.79560628e-39, 898715904., 6.36436271e-39, 2.21424240e-10,
          2.05955988e-10, 1.63880243e-10, 4.51722573e-39, 3.68114034e+12,
          6.36547254e-39, 1.63175145e+19, 1.86171597e+25, 5.13584167e+02,
          3.42858252e+03, 1.94109989e+31, 2.23339905e+11, 2.13266830e+02,
          1.30603894e+22, 2.55216781e-09, 1.64102616e-07, 1.45846436e+10,
          1.68257477e-10, 4.42503150e-39, 886395008., 4.66760242e-10,
          5.12815430e+02, 1.41793700e+13, 6.40288544e-10, 6.86636248e-44,
          0., 0., 0., 0., 0., 0., 0., 0., 0., 0., 0., 0., 0., 0., 0., 0.,
          0., 0., 0., 0., 0., 0., 0., 0., 0., 0., 0., 0. ]
      - [ 0., 6.72104768e-04, 2.70939537e-09, 4.51658113e-39,
          8.04004211e+02, 9.15941556e+11, 1.12275168e+21, 525392.,
          9.16426326e+11, 844615808., 1.34573320e+04, 8.47236891e+11,
          1.68063634e-04, 6.40969056e-10, 6.33673051e-39, 6.13710939e+13,
          3.29346381e+09, 2.13000684e+11, 8.93207947e+02, 4.83322792e+01,
          4.81751002e-02, 3.02222248e+32, 6.13172843e+28, 2.63363557e+20,
          1.85236006e+28, 525392., 3.44557261e+09, 1.47192457e+19,
          217392224., 3.32030306e+12, 8.30040244e+11, 4.02995588e-11,
          7.49342894e+28, 3.03090583e+24, 2.05415356e+03, 1.41438361e+19,
          2.17349250e+05, 1.71847620e+25, 6.40968889e-10, 6.41111164e-10,
          5.18849200e-11, 6.33671790e-39, 1.49831772e+10, 1.44352342e+19,
          4.86462861e-02, 1.32665962e-11, 6.40969056e-10, 1.26957518e+19,
          3.25077232e-09, 525392., 3.32813210e+09, 3.38195752e+03,
          2.40003169e+32, 2.14639698e+29, 6.30867969e-10, 1.26957001e+19,
          3.24781624e-09, 4.53415902e-39, 7.17212607e+22, 4.17488851e-41,
          0., 0., 0., 0., 0., 0., 0., 0., 0., 0., 0., 0., 0., 0., 0., 0.,
          0., 0., 0., 0., 0., 0., 0., 0., 0., 0., 0., 0., 0., 0., 0., 0.,
          0., 0., 0., 0., 0., 0., 0., 0. ]
      - [ 0., 0., 0., 0., 0., 0., 0., 0., 0., 0., 0., 0., 0., 0., 0., 0.,
          0., 0., 0., 0., 0., 0., 0., 0., 0., 0., 0., 0., 0., 0., 0., 0.,
          0., 0., 0., 0., 0., 0., 0., 0., 0., 0., 0., 0., 0., 0., 0., 0.,
          6.32265867e-42, 0., 4.48415509e-44, 0., 1.54800657e-38, 0.,
          7.16327520e-39, 1.64102630e-07, 2.79737748e+17, 1.64096377e-07,
          4.62428493e-44, 0., 1.54770613e-38, 0., -8.11573152e+23,
          4.57776182e-41, 8.36294924e-42, 0., 6.72623263e-44, 0.,
          1.54769940e-38, 0., -8.07530577e+23, 4.57776182e-41, 0., 0.,
          0., 0., 6.72623263e-44, 0., 9.65494642e-43, 0., 1.55642781e-38,
          0., 1.54780254e-38, 0., 2.56387600e-09, 0., 2.25609053e-43, 0.,
          1.54779133e-38, 0., 1.54774873e-38, 0., 0., 0., 4.62428493e-44,
          0., 1.54762093e-38, 0., -8.11573152e+23, 4.57776182e-41 ]
      - [ 0., 0., 4.48415509e-44, 0., 1.54662769e-38, 0.,
          -8.11582376e+23, 4.57776182e-41, 0., 0., 9.10844002e-44, 0.,
          1.54765904e-38, 0., 1.54783841e-38, 0., 1.54760972e-38, 0.,
          4.62428493e-44, 0., 1.54800208e-38, 0., -8.11573152e+23,
          4.57776182e-41, 2.69049305e-43, 0., 6.72623263e-44, 0.,
          1.54783168e-38, 0., -8.11575458e+23, 4.57776182e-41, .Nan,
          4.20389539e-45, 3.57331108e-43, 1.40129846e-45, 6.72623263e-44,
          0., 6.29183010e-43, 0., 1.54770613e-38, 0., 1.55495701e-38, 0.,
          0., 0., 5.84341460e-43, 0., 1.54770613e-38, 0., 1.54760299e-38,
          0., 0., 0., 4.62428493e-44, 0., 1.54783841e-38, 0.,
          -8.11573152e+23, 4.57776182e-41, 8.96831017e-44, 0.,
          4.48415509e-44, 0., 1.54662320e-38, 0., -8.11573152e+23,
          4.57776182e-41, 0., 0., 2.25609053e-43, 0., 1.54774873e-38, 0.,
          -8.11573152e+23, 4.57776182e-41, 0., 0., 1.80767502e-43, 0.,
          1.54695503e-38, 0., 1.54783841e-38, 0., 0., 0., 1.35925951e-43,
          0., 1.54775770e-38, 0., -8.11573152e+23, 4.57776182e-41, 0.,
          0., 9.10844002e-44, 0., 1.55575743e-38, 0., 1.54781599e-38, 0. ]
      - [ 0., 7.00649232e-45, 4.62428493e-44, 0., 1.54770613e-38, 0.,
          -8.11573152e+23, 4.57776182e-41, 3.58732407e-43, 0.,
          4.48415509e-44, 0., 1.54768147e-38, 0., -8.11582952e+23,
          4.57776182e-41, 4.03573958e-43, 0., 4.48415509e-44, 0.,
          1.54760299e-38, 0., -8.11573152e+23, 4.57776182e-41, 0., 0.,
          1.35925951e-43, 0., 1.54779133e-38, 0., 1.54760748e-38, 0.,
          1.54760972e-38, 0., 9.10844002e-44, 0., 1.54779133e-38, 0.,
          -8.11573152e+23, 4.57776182e-41, 1.54764783e-38, 0.,
          4.62428493e-44, 0., 1.54760748e-38, 0., 1.54783841e-38, 0.,
          9.39430490e-42, 0., 6.72623263e-44, 0., 1.54779581e-38, 0.,
          -8.11575458e+23, 4.57776182e-41, -1.70146376e+38,
          3.57331108e-43, 3.58732407e-43, 0., 6.72623263e-44, 0.,
          1.80767502e-43, 0., 1.54774873e-38, 0., 1.55495701e-38, 0.,
          4.48415509e-44, 0., 4.48415509e-44, 0., 1.54759178e-38, 0.,
          -8.11610046e+23, 4.57776182e-41, 8.96831017e-44, 0.,
          4.48415509e-44, 0., 1.54767698e-38, 0., 7.19161086e-39,
          4.57776182e-41, 1.54662993e-38, 0., 4.62428493e-44, 0.,
          1.54661872e-38, 0., -8.11573152e+23, 4.57776182e-41,
          4.30927304e-41, 0., 8.96831017e-44, 0., 1.54777563e-38, 0.,
          1.81740152e+31, 1.71847458e+25 ]
      - [ 0., 1.60242403e-10, 6.40969056e-10, 6.72105351e-04,
          6.34389485e-10, 1.12275069e+21, 1.01854523e-11, 1.01854514e-11,
          4.02968284e-11, 6.40286935e-10, 4.27396032e-43, 0.,
          -8.11573152e+23, 4.57776182e-41, 1.55486284e-38, 0., 0., 0.,
          0., 0., 0., 0., 1.50961547e-38, 0., 1.54774200e-38, 0.,
          1.54774200e-38, 0., 0., 0., 0., 0., 1.40129846e-45, 0., 0., 0.,
          1.50961547e-38, 0., 1.54774985e-38, 0., 1.54774985e-38, 0., 0.,
          0., 0., 0., 1.40129846e-45, 0., 0., 0., 1.50961547e-38, 0.,
          1.54775770e-38, 0., 1.54775770e-38, 0., 0., 0., 0., 0.,
          1.40129846e-45, 0., 0., 0., 0., 0., 1.50961547e-38, 0.,
          1.54776666e-38, 0., 1.54776666e-38, 0., 0., 0., 0., 0.,
          1.40129846e-45, 0., 0., 0., 0., 0., 0., 0., 4.36084082e-41, 0.,
          8.96831017e-44, 0., 1.54875094e-38, 0., 1.52884017e-38, 0.,
          1.52883905e-38, 0., 1.54875318e-38, 0., 0., 0., 0., 0. ]
      - [ 2., 0., 9.66475551e-42, 0., 1.55040559e-38, 0., 1.54934284e-38,
          0., 0., 0., 0., 0., 0., 0., 4.62428493e-44, 0., 1.51471620e-38,
          0., 1.54774873e-38, 0., 1.12103877e-43, 0., 6.72623263e-44, 0.,
          1.54673755e-38, 0., 1.62239985e-07, 2.52022003e-09,
          8.18006022e+23, 4.54435367e+30, 1.78800248e+34, 4.63147534e+24,
          4.22012707e+24, 3.60119692e-41, 9.17149845e-42, 0.,
          1.55642781e-38, 0., 1.54675997e-38, 0., 0., 0., 0., 0.,
          1.54779133e-38, 0., 8.05489380e+02, 4.55590157e-41, 0., 0.,
          2.03188277e-43, 0., 1.54764111e-38, 0., -8.11573152e+23,
          4.57776182e-41, 0., 0., 1.58346726e-43, 0., 1.55575743e-38, 0.,
          1.54780254e-38, 0., 1.32665962e-11, 6.40969056e-10,
          1.26957518e+19, 1.30030893e-08, 6.72623263e-44, 0.,
          4.48415509e-44, 0., 1.54780254e-38, 0., 6.04649727e+28,
          7.50361272e+28, 4.54420104e+30, 0., 4.62428493e-44, 0.,
          1.54766801e-38, 0., -8.11573152e+23, 4.57776182e-41,
          2.91470081e-43, 0., 6.72623263e-44, 0., 1.54778460e-38, 0.,
          7.71475335e+31, 6.49270637e-10, 7.55629461e+31, 1.14333112e+27,
          4.10370255e-41, 0., 3.39327718e+09, 4.22003868e-05,
          8.81276604e-42, 0. ]
      - [ 1., 0., 1.54779133e-38, 0., 0., 0., 0., 0., 1.54772182e-38, 0.,
          4.06376555e-44, 4.20389539e-44, 0., 0., 0., 0., 0., 0.,
          1.54662096e-38, 0., 1.54662545e-38, 0., 8.40779079e-45,
          3.50324616e-44, 1.54765232e-38, 0., 1.54765680e-38, 0.,
          3.50324616e-44, 2.66246708e-44, 1.54775097e-38, 0.,
          1.54775545e-38, 0., 1.12103877e-44, 4.06376555e-44,
          1.54662993e-38, 0., 1.54761869e-38, 0., 3.22298647e-44,
          4.20389539e-45, 1.54673979e-38, 0., 1.54667253e-38, 0.,
          3.08285662e-44, .Nan, 1.54776442e-38, 0., 1.54776891e-38, 0.,
          3.64337601e-44, 7.00649232e-45, 0., 0., 0., 0., 0., 0., 0., 0.,
          0., 0., 0., 0., 0., 0., 0., 0., 0., 0., 0., 0., 0., 0., 0., 0.,
          1.54768819e-38, 0., 1.54769268e-38, 0., 2.94272678e-44,
          5.18480432e-44, 0., 0., 0., 0., 0., 0., 0., 0., 0., 0., 0., 0.,
          0., 0., 0., 0. ]
      - [ 2., 0., 1.54779357e-38, 0., 1.54779805e-38, 0., 2.52233724e-44,
          4.48415509e-44, 1.54780926e-38, 0., 1.54781375e-38, 0.,
          4.90454463e-44, 2.38220739e-44, 1.54764335e-38, 0.,
          1.54764783e-38, 0., 5.60519386e-45, 3.08285662e-44,
          1.54799536e-38, 0., 1.54799984e-38, 0., 3.92363570e-44,
          3.78350585e-44, 1.54769716e-38, 0., 1.54770164e-38, 0.,
          4.48415509e-44, 1.82168800e-44, 1.54760972e-38, 0.,
          1.54761420e-38, 0., 2.66246708e-44, 9.80908925e-45,
          1.54762317e-38, 0., 1.54762766e-38, 0., 5.32493416e-44,
          8.40779079e-45, 1.54801329e-38, 0., 1.54801778e-38, 0.,
          4.34402524e-44, 3.92363570e-44, 1.54766129e-38, 0.,
          1.54766577e-38, 0., 4.20389539e-45, 5.60519386e-45,
          1.54775994e-38, 0., 1.54777339e-38, 0., 3.78350585e-44,
          1.12103877e-44, 1.54798639e-38, 0., 1.54799087e-38, 0.,
          2.80259693e-44, 3.64337601e-44, 1.54800432e-38, 0.,
          1.54800881e-38, 0., 3.36311631e-44, 2.80259693e-44,
          1.54758954e-38, 0., 1.54773976e-38, 0., 7.00649232e-45,
          1.40129846e-45, 1.54759402e-38, 0., 1.54771285e-38, 0.,
          1.40129846e-45, 5.04467447e-44, 1.54802226e-38, 0.,
          1.54802674e-38, 0., .Nan, 3.36311631e-44, 1.54759851e-38, 0.,
          1.54778684e-38, 0., 2.38220739e-44, 2.94272678e-44, 0., 0. ]
      - [ 0., 0., 0., 0., 0., 0., 0., 0., 0., 0., 1.54780478e-38, 0.,
          1.54782496e-38, 0., 5.04467447e-44, 2.52233724e-44,
          1.54782944e-38, 0., 1.54783393e-38, 0., 4.20389539e-44,
          4.90454463e-44, 1.54767025e-38, 0., 1.54767474e-38, 0.,
          1.82168800e-44, 5.32493416e-44, 1.54763214e-38, 0.,
          1.54770837e-38, 0., 5.18480432e-44, 3.22298647e-44, 0., 0., 0.,
          0., 0., 0., 2.34184089e-38, 3.58732407e-43, .Nan, .Nan,
          2.36942727e-38, 9.47742432e-38, 3.62936302e-43, 0.,
          2.35095283e-38, -1.70141204e+38, 869422272., 6.55521692e-10,
          7.51647400e-04, 9.58923342e+11, 1.25825853e+01, 1.54318958e+25,
          1.45735040e-42, 0., 4.48415509e-44, 0., 1.54777115e-38, 0.,
          2.13000684e+11, 8.93207947e+02, 4.83322792e+01, 6.36651511e-39,
          4.62428493e-44, 0., 1.54800208e-38, 0., -8.11573152e+23,
          4.57776182e-41, 1.54703350e-42, 0., 4.48415509e-44, 0.,
          1.54764559e-38, 0., 3.52782720e+09, 1.22732668e+01,
          1.21409492e+01, 2.48688438e-41, 7.22089099e-42, 0.,
          1.54769492e-38, 0., -8.11573152e+23, 4.57776182e-41, 0., 0.,
          0., 0., 1.54765904e-38, 0., 1.54762093e-38, 0., 0., 0., 0., 0. ]
      - [ 0., 0., -8.11573152e+23, 4.57776182e-41, 8.96831017e-44, 0.,
          4.48415509e-44, 0., 1.54762541e-38, 0., 6.54375554e-39,
          4.57776182e-41, 0., 0., 7.04152478e-42, 0., 1.54765904e-38, 0.,
          -8.11573152e+23, 4.57776182e-41, 0., 0., 0., 0.,
          1.54780254e-38, 0., 1.54770613e-38, 0., 0., 0., 0., 0.,
          1.54780254e-38, 0., -8.11573152e+23, 4.57776182e-41, 0., 0.,
          0., 0., 1.55575743e-38, 0., 1.54770613e-38, 0., 0., 0., 0., 0.,
          -8.11687292e+23, 4.57776182e-41, -8.11687292e+23,
          4.57776182e-41, 1.54803347e-38, 0., 1.54803347e-38, 0., 0., 0.,
          0., 0., 1.82168800e-44, 0., 0., 0., 0., 0., 0., 0., 0., 0., 0.,
          0., 0., 0., 0., 0., 0., 0., 0., 0., 0., 0., 0., 0., 0., 0., 0.,
          0., 0., 0., 0., 0., 0., 0., 0., 0., 0., 0., 0., 0. ]
      - [ 0., 0., 0., 0., 0., 0., 1.40129846e-45, .Nan, 1.54809177e-38,
          0., 1.54809233e-38, 0., 0., 0., 0., 0., 0., 0., 1.54772631e-38,
          0., 0., 0., 0., 0., 0., 0., 1.54877784e-38, 0., 1.40129846e-45,
          0., 0., 0., 0., 0., 1.54879129e-38, 0., 1.40129846e-45, 0.,
          5.52218794e-39, 0., 0., 0., 0., 3.60133705e-43, 0., 0.,
          5.76354058e-42, 0., 1.54335874e-38, 0., 1.54879354e-38, 0., 0.,
          0., 0., 0., 6.34389485e-10, 1.12275069e+21, 1.01854523e-11,
          4.02968214e-11, 4.02453071e-11, 6.72623263e-44, 0., 0., 0., 0.,
          0., 0., 0., 0., 0., 0., 0., 0., 1.02284979e-40, 0., 0., 0., 0.,
          0., 0., 0., 0., 0., 0., 0., 0., 0., 0., 0., 0., 0., 0., 0., 0.,
          0., 0., 0., 0., 0. ]
      - [ 0., 898715904., 6.36436271e-39, 2.21424240e-10, 2.05955988e-10,
          1.64789737e-10, 4.51722573e-39, 3.68114034e+12, 6.36547254e-39,
          1.63175145e+19, 1.86171597e+25, 5.13584167e+02, 3.42858252e+03,
          1.94109989e+31, 2.23339905e+11, 2.13266830e+02, 1.30603894e+22,
          2.55216781e-09, 1.64102616e-07, 1.45846436e+10, 1.68257477e-10,
          4.42503150e-39, 886395008., 4.66760242e-10, 5.12831055e+02,
          1.41793700e+13, 6.40288544e-10, 6.86636248e-44, 0., 0., 0., 0.,
          0., 0., 0., 0., 0., 0., 0., 0., 0., 0., 0., 0., 0., 0., 0., 0.,
          0., 0., 0., 0., 0., 0., 0., 0., 0., 0., 0., 0., 0., 0., 0., 0.,
          0., 0., 0., 0., 0., 0., 0., 0., 0., 0., 0., 0., 0., 0., 0., 0.,
          0., 0., 0., 0., 0., 0., 0., 0., 0., 0., 0., 0., 0., 0., 0., 0.,
          0., 0., 0., 0. ]
      - [ 1., 0., 0., 0., 0., 0., 0., 0., 0., 0., 0., 0., 0., 0., 0., 0.,
          5.76213929e-42, 0., 5.76213929e-42, 0., 0., 0., 0., 0., 0., 0.,
          0., 0., 0., 0., 0., 0., 0., 0., 0., 0., 0., 0., 0., 0., 0., 0.,
          0., 0., 0., 0., 0., 0., 0., 0., 0., 0., 0., 0., 0., 0., 0., 0.,
          0., 0., 0., 0., 0., 0., 0., 0., 1.23696819e-40, 0., 0., 0., 0.,
          0., 0., 0., 0., 0., 0., 0., 0., 0., 0., 0., 0., 0., 0., 0., 0.,
          0., 0., 0., 0., 0., 0., 0., 0., 0., 0., 0., 0., 0. ]
   decision_functions:
      -
         sv_count: 24
         rho: 5.3342642794320097e+18
         alpha: [ 9.2495919830969761e-02, 5.2317684155910764e-04,
             1.0000000000000001e-01, 1.0000000000000001e-01,
             1.0000000000000001e-01, 1.0000000000000001e-01,
             1.0000000000000001e-01, 1.0000000000000001e-01,
             1.0000000000000001e-01, 1.0000000000000001e-01,
             1.0000000000000001e-01, 1.0000000000000001e-01,
             -1.0000000000000001e-01, -1.0000000000000001e-01,
             -1.0000000000000001e-01, -1.0000000000000001e-01,
             -2.0465981885274733e-03, -1.0000000000000001e-01,
             -1.0000000000000001e-01, -1.0000000000000001e-01,
             -9.0972498484001393e-02, -1.0000000000000001e-01,
             -1.0000000000000001e-01, -1.0000000000000001e-01 ]
         index: [ 45, 46, 47, 48, 50, 51, 52, 53, 54, 55, 56, 49, 18, 14,
             19, 20, 21, 22, 17, 16, 15, 13, 12, 11 ]
      -
         sv_count: 9
         rho: -3.2005634494908334e+18
         alpha: [ 1.0000000000000001e-01, 1.0000000000000001e-01,
             1.0000000000000001e-01, 6.3199527147758235e-18,
             1.4450511738297779e-18, -2.6328691580825051e-19,
             -1.0000000000000001e-01, -1.0000000000000001e-01,
             -1.0000000000000001e-01 ]
         index: [ 57, 42, 43, 44, 46, 1, 7, 6, 5 ]
      -
         sv_count: 21
         rho: -3.1985305624422385e+18
         alpha: [ 1.0000000000000001e-01, 1.0000000000000001e-01,
             6.8065905893076400e-02, 1.0000000000000001e-01,
             1.0000000000000001e-01, 1.0000000000000001e-01,
             1.0000000000000001e-01, 1.0000000000000001e-01,
             1.0000000000000001e-01, 9.9858330558914854e-02,
             -1.0000000000000001e-01, -1.0000000000000001e-01,
             -1.1882768883041767e-02, -1.0000000000000001e-01,
             -1.0000000000000001e-01, -1.0000000000000001e-01,
             -1.0000000000000001e-01, -1.0000000000000001e-01,
             -1.0000000000000001e-01, -1.0000000000000001e-01,
             -5.6041467568949475e-02 ]
         index: [ 57, 42, 43, 44, 45, 48, 50, 54, 56, 49, 23, 33, 26, 28,
             29, 32, 34, 36, 37, 38, 39 ]
      -
         sv_count: 8
         rho: -3.2005634494908334e+18
         alpha: [ 1.0000000000000001e-01, 1.0000000000000001e-01,
             1.0000000000000001e-01, 1.3019695023468918e-18,
             -2.6328691580825051e-19, -1.0000000000000001e-01,
             -1.0000000000000001e-01, -1.0000000000000001e-01 ]
         index: [ 18, 19, 20, 13, 1, 7, 6, 5 ]
      -
         sv_count: 18
         rho: -3.1985305624422385e+18
         alpha: [ 1.0000000000000001e-01, 1.0000000000000001e-01,
             1.0000000000000001e-01, 1.0000000000000001e-01,
             1.0000000000000001e-01, 3.1232413017389282e-02,
             1.0000000000000001e-01, 1.0000000000000001e-01,
             1.3548659574151119e-15, -1.0000000000000001e-01,
             -3.1232413017387269e-02, -1.0000000000000001e-01,
             -3.3861261692421164e-15, -1.0000000000000001e-01,
             -1.0000000000000001e-01, -1.0000000000000001e-01,
             -1.0000000000000001e-01, -1.0000000000000001e-01 ]
         index: [ 18, 14, 19, 20, 22, 17, 13, 12, 11, 33, 24, 25, 26, 31,
             32, 36, 37, 38 ]
      -
         sv_count: 22
         rho: 3.2005634494908334e+18
         alpha: [ 1.0000000000000001e-01, 1.0000000000000001e-01,
             1.0000000000000001e-01, 1.0000000000000001e-01,
             1.0000000000000001e-01, 1.0000000000000001e-01,
             1.0000000000000001e-01, 7.1157912635964356e-05,
             1.0000000000000001e-01, 1.0000000000000001e-01,
             9.9999644502644688e-02, -1.0000000000000001e-01,
             -1.0000000000000001e-01, -1.0000000000000001e-01,
             -1.0000000000000001e-01, -1.0000000000000001e-01,
             -1.0000000000000001e-01, -1.0000000000000001e-01,
             -1.0000000000000001e-01, -1.0000000000000001e-01,
             -9.9999644482724331e-02, -7.1157932952806084e-05 ]
         index: [ 1, 7, 10, 9, 8, 6, 5, 4, 3, 2, 0, 23, 33, 24, 26, 27,
             28, 29, 30, 35, 40, 41 ]
